{"learner":{"attributes":{"scikit_learn":"{\"_estimator_type\": \"classifier\"}"},"feature_names":["price_vs_sma50","volatility_20","volume_ratio_20","return_3d","return_5d","return_10d","return_20d","sma_50_LogReturn","volume_LogReturn","PCA_Trend","PCA_Oscillators","PCA_MACD","PCA_ShortReturns","atr_14","high_low","market_return","foreign_net","bu","sd","fs","fb","rs","rm"],"feature_types":["float","float","float","float","float","float","float","float","float","float","float","float","float","float","float","float","float","float","float","float","float","float","float"],"gradient_booster":{"model":{"cats":{"enc":[],"feature_segments":[],"sorted_idx":[]},"gbtree_model_param":{"num_parallel_tree":"1","num_trees":"300"},"iteration_indptr":[0,1,2,3,4,5,6,7,8,9,10,11,12,13,14,15,16,17,18,19,20,21,22,23,24,25,26,27,28,29,30,31,32,33,34,35,36,37,38,39,40,41,42,43,44,45,46,47,48,49,50,51,52,53,54,55,56,57,58,59,60,61,62,63,64,65,66,67,68,69,70,71,72,73,74,75,76,77,78,79,80,81,82,83,84,85,86,87,88,89,90,91,92,93,94,95,96,97,98,99,100,101,102,103,104,105,106,107,108,109,110,111,112,113,114,115,116,117,118,119,120,121,122,123,124,125,126,127,128,129,130,131,132,133,134,135,136,137,138,139,140,141,142,143,144,145,146,147,148,149,150,151,152,153,154,155,156,157,158,159,160,161,162,163,164,165,166,167,168,169,170,171,172,173,174,175,176,177,178,179,180,181,182,183,184,185,186,187,188,189,190,191,192,193,194,195,196,197,198,199,200,201,202,203,204,205,206,207,208,209,210,211,212,213,214,215,216,217,218,219,220,221,222,223,224,225,226,227,228,229,230,231,232,233,234,235,236,237,238,239,240,241,242,243,244,245,246,247,248,249,250,251,252,253,254,255,256,257,258,259,260,261,262,263,264,265,266,267,268,269,270,271,272,273,274,275,276,277,278,279,280,281,282,283,284,285,286,287,288,289,290,291,292,293,294,295,296,297,298,299,300],"tree_info":[0,0,0,0,0,0,0,0,0,0,0,0,0,0,0,0,0,0,0,0,0,0,0,0,0,0,0,0,0,0,0,0,0,0,0,0,0,0,0,0,0,0,0,0,0,0,0,0,0,0,0,0,0,0,0,0,0,0,0,0,0,0,0,0,0,0,0,0,0,0,0,0,0,0,0,0,0,0,0,0,0,0,0,0,0,0,0,0,0,0,0,0,0,0,0,0,0,0,0,0,0,0,0,0,0,0,0,0,0,0,0,0,0,0,0,0,0,0,0,0,0,0,0,0,0,0,0,0,0,0,0,0,0,0,0,0,0,0,0,0,0,0,0,0,0,0,0,0,0,0,0,0,0,0,0,0,0,0,0,0,0,0,0,0,0,0,0,0,0,0,0,0,0,0,0,0,0,0,0,0,0,0,0,0,0,0,0,0,0,0,0,0,0,0,0,0,0,0,0,0,0,0,0,0,0,0,0,0,0,0,0,0,0,0,0,0,0,0,0,0,0,0,0,0,0,0,0,0,0,0,0,0,0,0,0,0,0,0,0,0,0,0,0,0,0,0,0,0,0,0,0,0,0,0,0,0,0,0,0,0,0,0,0,0,0,0,0,0,0,0,0,0,0,0,0,0,0,0,0,0,0,0,0,0,0,0,0,0,0,0,0,0,0,0,0,0,0,0,0,0],"trees":[{"base_weights":[2.8573917E-4,-8.831107E-2,8.133383E-2,-3.272767E-1,-5.635078E-2,5.887255E-2,5.57305E-1,-5.9912986E-1,-2.365244E-1,-1.1131608E-1,5.1617898E-2,6.850709E-2,-7.628849E-1,3.2582748E-1,9.6903753E-1,-8.6045635E-1,-4.1486326E-1,5.5075586E-2,-2.4978784E-1,-1.3966598E-1,1.2610017E-1,4.8158485E-1,6.913805E-3,3.7315282E-1,5.1721185E-2,-4.9731854E-1,-9.813217E-1,-1.3090655E-1,5.0304246E-1,1.0228565E0,-4.9082153E-3,-5.623206E-2,-2.9341755E-2,6.5324283E-3,-3.1503316E-2,1.2860253E-2,-1.3923979E-2,1.0258594E-3,-9.7745145E-3,-1.7235998E-2,9.402225E-3,3.0751554E-2,8.793542E-3,5.213246E-3,-8.307276E-3,-1.2305281E-3,3.6977004E-2,-7.144299E-2,3.0707608E-3,-1.0660256E-2,-6.1347734E-2,-5.470558E-2,-1.9698825E-3,-1.4337309E-2,2.6041374E-2,3.7706383E-2,3.0428364E-3,2.5684683E-2,5.6688514E-2],"categories":[],"categories_nodes":[],"categories_segments":[],"categories_sizes":[],"default_left":[0,0,0,0,0,0,0,0,0,0,0,0,0,0,0,0,0,0,0,0,0,0,0,0,0,0,0,0,0,0,0,0,0,0,0,0,0,0,0,0,0,0,0,0,0,0,0,0,0,0,0,0,0,0,0,0,0,0,0],"id":0,"left_children":[1,3,5,7,9,11,13,15,17,19,21,23,25,27,29,31,33,-1,35,37,39,41,43,45,47,49,51,53,55,57,-1,-1,-1,-1,-1,-1,-1,-1,-1,-1,-1,-1,-1,-1,-1,-1,-1,-1,-1,-1,-1,-1,-1,-1,-1,-1,-1,-1,-1],"loss_changes":[1.24793465E2,6.3163704E1,9.669433E1,2.3399979E1,4.3513878E1,6.842818E1,3.759836E1,1.0292534E1,1.3205376E1,3.273902E1,4.7215755E1,4.3601913E1,4.0900116E0,2.1759369E1,8.991913E0,4.836998E0,1.7647957E1,0E0,1.0799702E1,3.892663E1,1.51402235E1,8.832226E0,3.7742035E1,6.538527E1,1.1620206E2,9.174339E0,4.852646E0,7.7839417E0,2.0824017E1,5.842575E0,0E0,0E0,0E0,0E0,0E0,0E0,0E0,0E0,0E0,0E0,0E0,0E0,0E0,0E0,0E0,0E0,0E0,0E0,0E0,0E0,0E0,0E0,0E0,0E0,0E0,0E0,0E0,0E0,0E0],"parents":[2147483647,0,0,1,1,2,2,3,3,4,4,5,5,6,6,7,7,8,8,9,9,10,10,11,11,12,12,13,13,14,14,15,15,16,16,18,18,19,19,20,20,21,21,22,22,23,23,24,24,25,25,26,26,27,27,28,28,29,29],"right_children":[2,4,6,8,10,12,14,16,18,20,22,24,26,28,30,32,34,-1,36,38,40,42,44,46,48,50,52,54,56,58,-1,-1,-1,-1,-1,-1,-1,-1,-1,-1,-1,-1,-1,-1,-1,-1,-1,-1,-1,-1,-1,-1,-1,-1,-1,-1,-1,-1,-1],"split_conditions":[3.32093E-1,5E3,1.9650633E-2,-5.59456E-3,3.986864E-3,1.7655464E-2,6.54136E-1,9.991972E1,-3.80051E0,1.0212721E2,4.5284824E-3,-2.5826303E-2,9.990734E1,2.093E5,7.284854E-1,-3.5389125E-2,-1.200081E-3,5.5075586E-2,1.1095701E-2,-6.435396E-3,-1.2474436E-2,2.1020945E-3,1.2703381E-1,-3.5932325E-2,-2.2994818E-2,7.484114E-3,7.6758E-2,5.555805E-1,1.166278E-3,9.02E4,-4.9082153E-3,-5.623206E-2,-2.9341755E-2,6.5324283E-3,-3.1503316E-2,1.2860253E-2,-1.3923979E-2,1.0258594E-3,-9.7745145E-3,-1.7235998E-2,9.402225E-3,3.0751554E-2,8.793542E-3,5.213246E-3,-8.307276E-3,-1.2305281E-3,3.6977004E-2,-7.144299E-2,3.0707608E-3,-1.0660256E-2,-6.1347734E-2,-5.470558E-2,-1.9698825E-3,-1.4337309E-2,2.6041374E-2,3.7706383E-2,3.0428364E-3,2.5684683E-2,5.6688514E-2],"split_indices":[1,17,15,15,15,15,1,22,10,21,15,15,22,17,12,12,7,0,13,15,15,7,11,15,15,12,4,8,7,17,0,0,0,0,0,0,0,0,0,0,0,0,0,0,0,0,0,0,0,0,0,0,0,0,0,0,0,0,0],"split_type":[0,0,0,0,0,0,0,0,0,0,0,0,0,0,0,0,0,0,0,0,0,0,0,0,0,0,0,0,0,0,0,0,0,0,0,0,0,0,0,0,0,0,0,0,0,0,0,0,0,0,0,0,0,0,0,0,0,0,0],"sum_hessian":[1.7375732E4,8.298248E3,9.077484E3,9.748929E2,7.3233555E3,8.671567E3,4.059171E2,2.3981169E2,7.350812E2,4.8558706E3,2.4674849E3,8.573491E3,9.807655E1,2.6290698E2,1.4301013E2,9.501249E1,1.4479921E2,5.2343736E0,7.298468E2,4.3405E3,5.1537024E2,2.2949136E2,2.2379934E3,4.4395462E2,8.129536E3,4.8253902E1,4.9822655E1,7.285077E1,1.9005621E2,1.3666951E2,6.3406243E0,4.424531E1,5.076718E1,4.052812E1,1.0427109E2,3.730468E1,6.925421E2,1.1197577E3,3.2207427E3,5.7921867E1,4.5744836E2,1.5720935E2,7.228202E1,1.4346459E3,8.0334753E2,2.1310309E2,2.3085152E2,5.0641403E1,8.078895E3,3.7083588E1,1.1170312E1,4.373203E1,6.0906243E0,6.0315617E1,1.2535154E1,1.1960154E2,7.045467E1,2.7267183E1,1.0940232E2],"tree_param":{"num_deleted":"0","num_feature":"23","num_nodes":"59","size_leaf_vector":"1"}},{"base_weights":[2.6394986E-4,-9.638923E-3,7.257735E-1,2.795497E-2,-1.8091018E-1,1.0145624E0,2.3673527E-1,-9.575925E-2,6.453446E-2,9.25564E-2,-2.0663099E-1,1.1889633E0,3.7824613E-1,5.3856015E-1,-1.6379675E-1,-1.4962651E-1,2.0992152E-1,1.4806718E-1,-4.3095616E-3,2.8558573E-1,-1.2248994E-1,-5.351142E-1,-1.7163043E-1,5.6054384E-1,1.2642119E0,-1.0265093E-2,5.648473E-1,2.376898E-1,8.459598E-1,-3.7867567E-1,3.7893847E-2,-2.2899492E-2,-4.2693606E-3,2.4079464E-2,-5.441808E-3,6.4977244E-3,2.4772286E-2,7.996355E-3,-2.2944198E-3,2.5575707E-2,5.5557414E-4,-1.0317299E-2,3.784336E-2,-3.721557E-2,-8.415527E-3,5.0458983E-3,-9.7997505E-3,-9.060698E-3,4.8636567E-2,6.712378E-2,2.604479E-2,4.045783E-2,-8.334674E-3,-6.0909605E-3,4.423101E-2,5.5317726E-2,-0E0,-7.429123E-3,-5.6109946E-2],"categories":[],"categories_nodes":[],"categories_segments":[],"categories_sizes":[],"default_left":[0,0,0,0,0,0,0,0,0,0,0,0,0,0,0,0,0,0,0,0,0,0,0,0,0,0,0,0,0,0,0,0,0,0,0,0,0,0,0,0,0,0,0,0,0,0,0,0,0,0,0,0,0,0,0,0,0,0,0],"id":1,"left_children":[1,3,5,7,9,11,13,15,17,19,21,23,25,27,29,31,33,35,37,39,41,43,45,47,49,-1,51,53,55,57,-1,-1,-1,-1,-1,-1,-1,-1,-1,-1,-1,-1,-1,-1,-1,-1,-1,-1,-1,-1,-1,-1,-1,-1,-1,-1,-1,-1,-1],"loss_changes":[1.255766E2,1.1079035E2,3.2134987E1,6.379606E1,2.1881111E1,1.4600296E1,1.1321181E1,5.296981E1,6.267062E1,1.119252E1,3.2038025E1,3.0429993E0,4.2353487E0,3.9455338E0,8.26116E0,5.384376E1,4.195228E1,3.0522888E1,4.0697266E1,8.532475E0,9.327551E0,2.0050308E1,1.7118881E1,5.778896E0,3.4384918E0,0E0,5.557493E0,7.6488204E0,5.9281673E0,4.8523245E0,0E0,0E0,0E0,0E0,0E0,0E0,0E0,0E0,0E0,0E0,0E0,0E0,0E0,0E0,0E0,0E0,0E0,0E0,0E0,0E0,0E0,0E0,0E0,0E0,0E0,0E0,0E0,0E0,0E0],"parents":[2147483647,0,0,1,1,2,2,3,3,4,4,5,5,6,6,7,7,8,8,9,9,10,10,11,11,12,12,13,13,14,14,15,15,16,16,17,17,18,18,19,19,20,20,21,21,22,22,23,23,24,24,26,26,27,27,28,28,29,29],"right_children":[2,4,6,8,10,12,14,16,18,20,22,24,26,28,30,32,34,36,38,40,42,44,46,48,50,-1,52,54,56,58,-1,-1,-1,-1,-1,-1,-1,-1,-1,-1,-1,-1,-1,-1,-1,-1,-1,-1,-1,-1,-1,-1,-1,-1,-1,-1,-1,-1,-1],"split_conditions":[2.6320238E-2,1.0656486E0,3.4881614E-2,1.626E5,-6.67742E-2,1.0182992E2,1.00198326E2,5.94006E-1,-7.6328987E-1,9.803378E1,9.772959E1,7E3,3.1288E7,2.0433E8,5.042E6,-9.148017E-3,2E2,7.78633E-1,-6.111823E-3,3.056E5,5.438185E-2,2.57981E-1,-4.77995E-2,-1.0028487E0,8.821223E-1,-1.0265093E-2,5.463925E-1,1.19252E0,1.409372E10,3.0538933E0,3.7893847E-2,-2.2899492E-2,-4.2693606E-3,2.4079464E-2,-5.441808E-3,6.4977244E-3,2.4772286E-2,7.996355E-3,-2.2944198E-3,2.5575707E-2,5.5557414E-4,-1.0317299E-2,3.784336E-2,-3.721557E-2,-8.415527E-3,5.0458983E-3,-9.7997505E-3,-9.060698E-3,4.8636567E-2,6.712378E-2,2.604479E-2,4.045783E-2,-8.334674E-3,-6.0909605E-3,4.423101E-2,5.5317726E-2,-0E0,-7.429123E-3,-5.6109946E-2],"split_indices":[15,9,15,17,0,21,21,1,9,21,21,17,20,16,17,15,17,1,15,17,13,1,6,9,9,0,11,2,20,10,0,0,0,0,0,0,0,0,0,0,0,0,0,0,0,0,0,0,0,0,0,0,0,0,0,0,0,0,0],"split_type":[0,0,0,0,0,0,0,0,0,0,0,0,0,0,0,0,0,0,0,0,0,0,0,0,0,0,0,0,0,0,0,0,0,0,0,0,0,0,0,0,0,0,0,0,0,0,0,0,0,0,0,0,0,0,0,0,0,0,0],"sum_hessian":[1.7424723E4,1.7191352E4,2.3336981E2,1.4096038E4,3.095314E3,1.4473103E2,8.863879E1,3.2128997E3,1.0883139E4,2.6398273E2,2.8313313E3,1.116165E2,3.3114532E1,5.0866753E1,3.7772034E1,2.7338037E3,4.7909592E2,4.9192593E3,5.96388E3,1.3999226E2,1.2399045E2,2.6850702E2,2.5628242E3,1.4453644E1,9.716286E1,7.325605E0,2.5788925E1,2.8320646E1,2.2546104E1,3.202622E1,5.7458124E0,4.678715E2,2.2659321E3,2.589486E2,2.2014731E2,4.679455E3,2.3980421E2,1.2012433E3,4.7626367E3,7.484012E1,6.5152145E1,1.1511253E2,8.8779125E0,1.6880937E2,9.9697655E1,2.0810478E2,2.3547195E3,5.1298437E0,9.3238E0,8.584E1,1.13228655E1,1.968583E1,6.1030965E0,1.8750963E1,9.569683E0,1.7194565E1,5.351541E0,2.6803625E1,5.2225947E0],"tree_param":{"num_deleted":"0","num_feature":"23","num_nodes":"59","size_leaf_vector":"1"}},{"base_weights":[-4.0072585E-3,6.8358086E-2,-9.97219E-2,5.665785E-2,8.205697E-1,-4.9364798E-2,-1.9956985E-1,-1.21831685E-1,1.034212E-1,1.4165854E-1,9.860077E-1,4.9034078E-2,-9.297122E-2,-3.8279243E-2,-2.6301527E-1,-1.9545329E-1,2.0416968E-1,4.5412487E-1,9.044609E-2,-2.8844738E-1,7.529489E-1,1.0846667E0,-0E0,1.2117715E-1,-2.1363017E-1,6.305623E-2,-1.3793969E-1,7.2575975E-3,-4.4676006E-1,-3.9074606E-1,-1.5339942E-1,-2.642632E-2,-4.3363785E-3,-8.090845E-3,2.7446384E-2,-0E0,3.8962606E-2,-3.8704254E-2,5.0979755E-3,2.912596E-3,-3.362795E-2,5.3502977E-2,1.4391335E-2,5.8714915E-2,8.752187E-3,-2.5621597E-2,2.6701916E-2,-1.3653084E-3,1.3780097E-2,2.7623057E-2,-1.5647648E-2,-2.216381E-2,6.5357536E-3,-3.0934352E-2,-5.568387E-3,2.1228027E-2,-1.8120408E-3,-3.1233832E-2,1.140858E-2,-2.2437032E-4,-2.251183E-2,-1.46837905E-2,-1.5656753E-4],"categories":[],"categories_nodes":[],"categories_segments":[],"categories_sizes":[],"default_left":[0,0,0,0,0,0,0,0,0,0,0,0,0,0,0,0,0,0,0,0,0,0,0,0,0,0,0,0,0,0,0,0,0,0,0,0,0,0,0,0,0,0,0,0,0,0,0,0,0,0,0,0,0,0,0,0,0,0,0,0,0,0,0],"id":2,"left_children":[1,3,5,7,9,11,13,15,17,19,21,23,25,27,29,31,33,35,37,39,41,43,45,47,49,51,53,55,57,59,61,-1,-1,-1,-1,-1,-1,-1,-1,-1,-1,-1,-1,-1,-1,-1,-1,-1,-1,-1,-1,-1,-1,-1,-1,-1,-1,-1,-1,-1,-1,-1,-1],"loss_changes":[1.2069202E2,8.676204E1,3.7586792E1,8.155921E1,1.6129333E1,2.1460684E1,2.5532875E1,4.872184E1,3.488656E1,9.220943E0,1.1208046E1,2.902493E1,2.436547E1,1.3501242E1,2.4812195E1,5.956094E1,4.7451874E1,4.065248E1,7.41972E1,3.0574815E0,8.395796E-1,7.81456E0,4.2275987E0,2.7750902E1,2.5276037E1,2.6477753E1,3.389602E1,1.1895979E1,9.214813E0,1.8794304E1,2.0384104E1,0E0,0E0,0E0,0E0,0E0,0E0,0E0,0E0,0E0,0E0,0E0,0E0,0E0,0E0,0E0,0E0,0E0,0E0,0E0,0E0,0E0,0E0,0E0,0E0,0E0,0E0,0E0,0E0,0E0,0E0,0E0,0E0],"parents":[2147483647,0,0,1,1,2,2,3,3,4,4,5,5,6,6,7,7,8,8,9,9,10,10,11,11,12,12,13,13,14,14,15,15,16,16,17,17,18,18,19,19,20,20,21,21,22,22,23,23,24,24,25,25,26,26,27,27,28,28,29,29,30,30],"right_children":[2,4,6,8,10,12,14,16,18,20,22,24,26,28,30,32,34,36,38,40,42,44,46,48,50,52,54,56,58,60,62,-1,-1,-1,-1,-1,-1,-1,-1,-1,-1,-1,-1,-1,-1,-1,-1,-1,-1,-1,-1,-1,-1,-1,-1,-1,-1,-1,-1,-1,-1,-1,-1],"split_conditions":[-3.9324805E-1,2.6320238E-2,1.3920335E0,1.35E5,1.83E4,-4.422151E-2,-2.16883E-2,5.94006E-1,-2.5826303E-2,9.9E5,1.3431571E-1,4.539442E-2,-4.8957234E-3,4.472025E-2,2.15996E-1,-5.59456E-3,8.3E6,-3.5932325E-2,-2.1088084E-2,5.1667232E-2,3.4E8,1.0204037E2,8.5486E8,1.1103365E-3,-2.8863251E-2,3.8E6,-3.8471338E-3,-9.01882E-2,8.230617E-1,9.70817E-2,1.0033236E2,-2.642632E-2,-4.3363785E-3,-8.090845E-3,2.7446384E-2,-0E0,3.8962606E-2,-3.8704254E-2,5.0979755E-3,2.912596E-3,-3.362795E-2,5.3502977E-2,1.4391335E-2,5.8714915E-2,8.752187E-3,-2.5621597E-2,2.6701916E-2,-1.3653084E-3,1.3780097E-2,2.7623057E-2,-1.5647648E-2,-2.216381E-2,6.5357536E-3,-3.0934352E-2,-5.568387E-3,2.1228027E-2,-1.8120408E-3,-3.1233832E-2,1.140858E-2,-2.2437032E-4,-2.251183E-2,-1.46837905E-2,-1.5656753E-4],"split_indices":[9,15,9,18,18,12,5,1,15,19,11,14,15,13,1,15,20,15,15,14,19,21,16,15,15,20,15,5,11,1,22,0,0,0,0,0,0,0,0,0,0,0,0,0,0,0,0,0,0,0,0,0,0,0,0,0,0,0,0,0,0,0,0],"split_type":[0,0,0,0,0,0,0,0,0,0,0,0,0,0,0,0,0,0,0,0,0,0,0,0,0,0,0,0,0,0,0,0,0,0,0,0,0,0,0,0,0,0,0,0,0,0,0,0,0,0,0,0,0,0,0,0,0,0,0,0,0,0,0],"sum_hessian":[1.7418637E4,9.916548E3,7.5020884E3,9.767437E3,1.4911171E2,4.9922856E3,2.5098025E3,2.0248702E3,7.7425664E3,3.0535877E1,1.1857583E2,1.5294138E3,3.4628718E3,7.1167456E2,1.7981278E3,1.6537377E3,3.7113254E2,2.7243347E2,7.470133E3,1.8064182E1,1.2471694E1,1.0716532E2,1.1410506E1,1.2021998E3,3.27214E2,7.720747E2,2.6907974E3,6.409615E2,7.071303E1,8.259695E2,9.721584E2,4.0394904E2,1.2497887E3,1.7983505E2,1.9129749E2,1.1428311E2,1.5815036E2,9.5864525E1,7.374268E3,9.702074E0,8.362108E0,5.229884E0,7.2418094E0,9.6522644E1,1.0642678E1,5.404985E0,6.005522E0,6.12079E2,5.901209E2,3.592908E1,2.912849E2,8.882791E1,6.8324677E2,1.3761647E2,2.5531807E3,5.9936207E1,5.8102527E2,5.6665382E1,1.40476465E1,1.1164427E2,7.143252E2,5.0008713E2,4.7207126E2],"tree_param":{"num_deleted":"0","num_feature":"23","num_nodes":"63","size_leaf_vector":"1"}},{"base_weights":[2.8950914E-3,4.010581E-2,-1.6652514E-1,3.0407941E-2,7.178199E-1,-1.8348452E-1,2.1919233E-1,-1.08095646E-1,7.0973076E-2,8.05733E-1,-2.0518173E-2,-6.3973576E-2,-2.4046877E-1,3.1958267E-1,-7.003865E-1,-3.5613918E-1,-5.373594E-2,1.5549806E-1,1.3626273E-3,2.1015628E-1,9.654139E-1,3.1843802E-1,-2.5744466E-2,-1.7696355E-1,4.43956E-2,-4.254731E-1,-1.8877168E-1,5.325722E-1,-2.0720471E-1,-0E0,-5.9241425E-2,5.5473715E-2,-2.0827841E-2,3.78124E-2,-3.8598005E-3,4.8748013E-2,7.5064115E-3,8.919886E-3,-2.0754943E-3,-0E0,4.195475E-2,5.670438E-2,2.9305875E-2,3.3741176E-2,-2.5362927E-3,-2.4759565E-2,-5.01185E-3,3.896278E-3,-3.17446E-2,1.7851497E-3,-2.2678707E-2,-1.8366653E-2,-7.364062E-3,-1.6544528E-2,3.0475402E-2,-2.4739757E-2,3.8285267E-2],"categories":[],"categories_nodes":[],"categories_segments":[],"categories_sizes":[],"default_left":[0,0,0,0,0,0,0,0,0,0,0,0,0,0,0,0,0,0,0,0,0,0,0,0,0,0,0,0,0,0,0,0,0,0,0,0,0,0,0,0,0,0,0,0,0,0,0,0,0,0,0,0,0,0,0,0,0],"id":3,"left_children":[1,3,5,7,9,11,13,15,17,19,21,23,25,27,29,31,33,35,37,39,41,43,-1,45,47,49,51,53,55,-1,-1,-1,-1,-1,-1,-1,-1,-1,-1,-1,-1,-1,-1,-1,-1,-1,-1,-1,-1,-1,-1,-1,-1,-1,-1,-1,-1],"loss_changes":[1.0957028E2,9.33109E1,2.0533028E1,7.9006424E1,1.3431946E1,2.0246643E1,1.239373E1,4.26839E1,6.394276E1,1.6097282E1,4.2241426E0,1.200953E1,1.8925896E1,1.389111E1,4.7779884E0,5.1075768E1,4.9475357E1,2.075399E1,4.5411694E1,5.4778395E0,6.799057E0,2.233179E0,0E0,1.1311816E1,1.1130328E1,5.932663E0,1.1418388E1,6.319803E0,1.0534273E1,0E0,0E0,0E0,0E0,0E0,0E0,0E0,0E0,0E0,0E0,0E0,0E0,0E0,0E0,0E0,0E0,0E0,0E0,0E0,0E0,0E0,0E0,0E0,0E0,0E0,0E0,0E0,0E0],"parents":[2147483647,0,0,1,1,2,2,3,3,4,4,5,5,6,6,7,7,8,8,9,9,10,10,11,11,12,12,13,13,14,14,15,15,16,16,17,17,18,18,19,19,20,20,21,21,23,23,24,24,25,25,26,26,27,27,28,28],"right_children":[2,4,6,8,10,12,14,16,18,20,22,24,26,28,30,32,34,36,38,40,42,44,-1,46,48,50,52,54,56,-1,-1,-1,-1,-1,-1,-1,-1,-1,-1,-1,-1,-1,-1,-1,-1,-1,-1,-1,-1,-1,-1,-1,-1,-1,-1,-1,-1],"split_conditions":[1.0656486E0,2.6320238E-2,1.0196608E2,1.626E5,1.3431571E-1,-1.0649256E0,4.3982368E0,-9.148017E-3,-7.6328987E-1,1.83E4,5.6106426E-2,7.2415217E9,-5.2145884E9,1.63992E-1,9.929063E-2,-4.4986542E-2,-7.720137E-3,1.3392872E-2,-6.435396E-3,7.43383E-1,3.4881614E-2,3.0171803E-1,-2.5744466E-2,-1.30133E9,1.20725E-2,-1.3131961E0,-5.4129404E-1,2.0912044E-2,3.03333E-1,-0E0,-5.9241425E-2,5.5473715E-2,-2.0827841E-2,3.78124E-2,-3.8598005E-3,4.8748013E-2,7.5064115E-3,8.919886E-3,-2.0754943E-3,-0E0,4.195475E-2,5.670438E-2,2.9305875E-2,3.3741176E-2,-2.5362927E-3,-2.4759565E-2,-5.01185E-3,3.896278E-3,-3.17446E-2,1.7851497E-3,-2.2678707E-2,-1.8366653E-2,-7.364062E-3,-1.6544528E-2,3.0475402E-2,-2.4739757E-2,3.8285267E-2],"split_indices":[9,15,22,17,11,10,9,15,9,18,14,19,16,6,12,15,15,13,15,1,15,12,0,16,4,11,11,13,6,0,0,0,0,0,0,0,0,0,0,0,0,0,0,0,0,0,0,0,0,0,0,0,0,0,0,0,0],"split_type":[0,0,0,0,0,0,0,0,0,0,0,0,0,0,0,0,0,0,0,0,0,0,0,0,0,0,0,0,0,0,0,0,0,0,0,0,0,0,0,0,0,0,0,0,0,0,0,0,0,0,0,0,0,0,0,0,0],"sum_hessian":[1.7386297E4,1.4258992E4,3.1273047E3,1.4060617E4,1.9837529E2,2.9978394E3,1.2946538E2,3.1816602E3,1.0878957E4,1.7771017E2,2.0665112E1,9.721031E2,2.0257363E3,1.18389465E2,1.1075906E1,5.682828E2,2.6133774E3,4.9087827E3,5.9701743E3,3.9213905E1,1.3849628E2,1.2081808E1,8.583304E0,4.775444E2,4.9455872E2,4.3716302E2,1.5885732E3,8.496414E1,3.342533E1,5.103181E0,5.9727244E0,2.0796549E1,5.474862E2,7.120386E1,2.5421736E3,2.9000017E1,4.8797827E3,1.1649681E3,4.8052065E3,3.0848497E1,8.365407E0,9.219766E1,4.629861E1,5.993869E0,6.0879393E0,8.938607E1,3.8815833E2,4.7368405E2,2.0874641E1,2.4054932E1,4.131081E2,2.942894E2,1.2942839E3,5.8792887E0,7.908485E1,2.6954428E1,6.4709024E0],"tree_param":{"num_deleted":"0","num_feature":"23","num_nodes":"57","size_leaf_vector":"1"}},{"base_weights":[3.1819358E-3,6.0934965E-2,-8.827169E-2,-8.152096E-2,1.12645E-1,5.6443747E-2,-1.2836257E-1,-1.8116061E-1,5.6964703E-2,1.0129416E-1,9.182627E-1,-3.3671524E-2,2.2506566E-1,-7.563883E-2,-2.1442963E-1,-2.8261513E-1,-6.324779E-2,-1.5458738E-2,4.9191E-1,8.32743E-2,3.842108E-1,1.1438493E0,4.7868407E-1,6.4182127E-1,-6.880182E-2,4.8098546E-1,1.17594935E-1,-9.3177006E-2,1.6980748E-1,3.012124E-1,-2.4233745E-1,-4.9526687E-3,-1.8577568E-2,-7.752429E-3,8.5327355E-3,-1.852429E-2,4.8020384E-3,3.9891507E-2,5.2854576E-4,3.027814E-2,3.7745123E-3,-1.6229281E-2,2.3199944E-2,6.221986E-2,1.096621E-2,5.6967836E-2,8.03646E-3,-0E0,4.1228186E-2,-3.2219034E-2,-1.2028659E-3,4.1926214E-3,4.1747317E-2,1.8513659E-2,-9.594487E-4,-4.9733394E-4,-8.510531E-3,2.4183303E-2,7.413702E-4,2.008242E-2,-2.781244E-2,1.0531904E-2,-1.295902E-2],"categories":[],"categories_nodes":[],"categories_segments":[],"categories_sizes":[],"default_left":[0,0,0,0,0,0,0,0,0,0,0,0,0,0,0,0,0,0,0,0,0,0,0,0,0,0,0,0,0,0,0,0,0,0,0,0,0,0,0,0,0,0,0,0,0,0,0,0,0,0,0,0,0,0,0,0,0,0,0,0,0,0,0],"id":4,"left_children":[1,3,5,7,9,11,13,15,17,19,21,23,25,27,29,31,33,35,37,39,41,43,45,47,49,51,53,55,57,59,61,-1,-1,-1,-1,-1,-1,-1,-1,-1,-1,-1,-1,-1,-1,-1,-1,-1,-1,-1,-1,-1,-1,-1,-1,-1,-1,-1,-1,-1,-1,-1,-1],"loss_changes":[9.200421E1,7.872006E1,3.915518E1,3.9316994E1,7.100039E1,2.230911E1,2.3787834E1,1.960371E1,3.7712578E1,3.9132896E1,8.810577E0,2.2389725E1,1.3641836E1,1.4120125E1,2.8919868E1,1.4177429E1,1.6596325E1,4.0600388E1,2.4728329E1,2.914648E1,2.6437141E1,5.157837E0,7.563447E0,5.8580933E0,2.3001762E1,2.0359459E1,1.2766691E1,1.956472E1,1.0323919E1,9.217417E0,1.4635658E1,0E0,0E0,0E0,0E0,0E0,0E0,0E0,0E0,0E0,0E0,0E0,0E0,0E0,0E0,0E0,0E0,0E0,0E0,0E0,0E0,0E0,0E0,0E0,0E0,0E0,0E0,0E0,0E0,0E0,0E0,0E0,0E0],"parents":[2147483647,0,0,1,1,2,2,3,3,4,4,5,5,6,6,7,7,8,8,9,9,10,10,11,11,12,12,13,13,14,14,15,15,16,16,17,17,18,18,19,19,20,20,21,21,22,22,23,23,24,24,25,25,26,26,27,27,28,28,29,29,30,30],"right_children":[2,4,6,8,10,12,14,16,18,20,22,24,26,28,30,32,34,36,38,40,42,44,46,48,50,52,54,56,58,60,62,-1,-1,-1,-1,-1,-1,-1,-1,-1,-1,-1,-1,-1,-1,-1,-1,-1,-1,-1,-1,-1,-1,-1,-1,-1,-1,-1,-1,-1,-1,-1,-1],"split_conditions":[-2.7915165E-1,3.123E5,-4.66036E-2,9.85E6,2.6320238E-2,9.99291E1,1.420941E0,1.8899004E-3,6.541579E-2,1.02887596E2,3.4881614E-2,-3.190147E-2,6.5168E-1,1.33333E-1,-3.59712E-2,-1.75474E-2,3.05462E-1,-5.77692E-2,-4.8579434E-3,9.042145E1,-1.3539783E0,1.0216969E2,4.701402E-2,2E2,-1.68701E-1,-1.5418136E-3,-2.536198E-3,1.15573E-2,1.4369316E0,3.1751E6,-1.4370667E0,-4.9526687E-3,-1.8577568E-2,-7.752429E-3,8.5327355E-3,-1.852429E-2,4.8020384E-3,3.9891507E-2,5.2854576E-4,3.027814E-2,3.7745123E-3,-1.6229281E-2,2.3199944E-2,6.221986E-2,1.096621E-2,5.6967836E-2,8.03646E-3,-0E0,4.1228186E-2,-3.2219034E-2,-1.2028659E-3,4.1926214E-3,4.1747317E-2,1.8513659E-2,-9.594487E-4,-4.9733394E-4,-8.510531E-3,2.4183303E-2,7.413702E-4,2.008242E-2,-2.781244E-2,1.0531904E-2,-1.295902E-2],"split_indices":[9,18,6,20,15,22,9,15,13,22,15,15,2,5,3,3,8,5,7,21,9,21,14,18,5,7,7,5,11,18,11,0,0,0,0,0,0,0,0,0,0,0,0,0,0,0,0,0,0,0,0,0,0,0,0,0,0,0,0,0,0,0,0],"split_type":[0,0,0,0,0,0,0,0,0,0,0,0,0,0,0,0,0,0,0,0,0,0,0,0,0,0,0,0,0,0,0,0,0,0,0,0,0,0,0,0,0,0,0,0,0,0,0,0,0,0,0,0,0,0,0,0,0,0,0,0,0,0,0],"sum_hessian":[1.7417902E4,1.0679761E4,6.738141E3,2.8413381E3,7.8384224E3,1.4588528E3,5.2792886E3,1.654168E3,1.1871702E3,7.7323486E3,1.06073616E2,9.498613E2,5.0899142E2,3.2797295E3,1.9995588E3,8.85356E2,7.688119E2,1.0183778E3,1.6879237E2,7.2734365E3,4.5891245E2,6.723014E1,3.8843468E1,4.454616E1,9.053152E2,1.4709973E2,3.618917E2,3.064067E3,2.1566266E2,1.00739075E2,1.8988198E3,2.921717E2,5.931843E2,5.541385E2,2.1467339E2,2.4335303E2,7.750248E2,1.017624E2,6.7029976E1,1.0361082E2,7.1698257E3,4.5177338E1,4.137351E2,5.9523773E1,7.70637E0,1.04305935E1,2.8412874E1,9.72918E0,3.481698E1,6.2561893E1,8.427533E2,7.115379E1,7.5945946E1,1.27185616E2,2.3470609E2,1.4770017E3,1.5870652E3,6.8821205E1,1.4684145E2,9.165021E1,9.088868E0,6.618331E1,1.8326365E3],"tree_param":{"num_deleted":"0","num_feature":"23","num_nodes":"63","size_leaf_vector":"1"}},{"base_weights":[4.1200924E-3,-9.5492825E-3,4.2441306E-1,-2.2980885E-3,-7.8236043E-1,9.1664016E-1,3.1917793E-1,-8.40597E-2,5.453541E-2,-9.5181715E-1,-4.0929952E-1,1.2074827E0,5.544803E-1,-2.6142681E-2,4.575578E-1,-1.5343101E-1,8.122214E-3,1.3801694E-1,-1.3015322E-2,-5.0834436E-3,-1.0340301E0,1.3140951E-1,-7.1870327E-1,6.453254E-2,1.2912615E-2,-0E0,6.6853714E-1,-2.668032E-1,3.441309E-1,5.764837E-1,2.6099715E-2,-5.856186E-3,-2.0422814E-2,3.5189246E-3,-5.1020733E-3,-9.335554E-4,9.754431E-3,-3.3115267E-3,6.4616813E-3,-2.4310365E-2,-5.722187E-2,-2.6461694E-2,3.2264024E-2,-4.9658347E-2,-0E0,5.274433E-2,1.5611422E-2,3.4646805E-2,-1.8908966E-2,3.4241956E-2,-3.4077697E-2,4.477743E-2,2.1161402E-2,-1.0665304E-2,3.6924563E-2],"categories":[],"categories_nodes":[],"categories_segments":[],"categories_sizes":[],"default_left":[0,0,0,0,0,0,0,0,0,0,0,0,0,0,0,0,0,0,0,0,0,0,0,0,0,0,0,0,0,0,0,0,0,0,0,0,0,0,0,0,0,0,0,0,0,0,0,0,0,0,0,0,0,0,0],"id":5,"left_children":[1,3,5,7,9,11,13,15,17,19,21,23,25,27,29,31,33,35,37,-1,39,41,43,-1,-1,-1,45,47,49,51,53,-1,-1,-1,-1,-1,-1,-1,-1,-1,-1,-1,-1,-1,-1,-1,-1,-1,-1,-1,-1,-1,-1,-1,-1],"loss_changes":[1.0009979E2,9.39667E1,2.722628E1,7.755644E1,8.394836E0,7.76165E0,2.2033073E1,4.3856674E1,5.5560143E1,6.544052E0,9.369537E0,2.5135574E0,3.2752314E0,1.1848086E1,1.6433937E1,3.5843124E1,2.0153149E1,3.948552E1,4.1149185E1,0E0,3.803856E0,7.678888E0,6.9441566E0,0E0,0E0,0E0,4.0860443E0,9.083029E0,1.903365E1,1.1058144E1,1.3130808E1,0E0,0E0,0E0,0E0,0E0,0E0,0E0,0E0,0E0,0E0,0E0,0E0,0E0,0E0,0E0,0E0,0E0,0E0,0E0,0E0,0E0,0E0,0E0,0E0],"parents":[2147483647,0,0,1,1,2,2,3,3,4,4,5,5,6,6,7,7,8,8,9,9,10,10,11,11,12,12,13,13,14,14,15,15,16,16,17,17,18,18,20,20,21,21,22,22,26,26,27,27,28,28,29,29,30,30],"right_children":[2,4,6,8,10,12,14,16,18,20,22,24,26,28,30,32,34,36,38,-1,40,42,44,-1,-1,-1,46,48,50,52,54,-1,-1,-1,-1,-1,-1,-1,-1,-1,-1,-1,-1,-1,-1,-1,-1,-1,-1,-1,-1,-1,-1,-1,-1],"split_conditions":[1.9650633E-2,1.7655464E-2,-6.4849514E-3,3.00801E-1,1.79992E-2,-1.09416E0,1.957E5,2.0317482E-3,-7.5026107E-1,1E3,-1.20936E-2,2.4302688E0,-1.2157137E-2,1.2236E-2,2.7815907E-3,6.8631506E-4,2.2222223E-2,3.049E5,1.0099338E2,-5.0834436E-3,-3.36366E9,-7.576752E-4,6.77961E-2,6.453254E-2,1.2912615E-2,-0E0,9.50614E-1,2.0697644E-2,3.4881614E-2,8.16853E-1,5.3908072E-2,-5.856186E-3,-2.0422814E-2,3.5189246E-3,-5.1020733E-3,-9.335554E-4,9.754431E-3,-3.3115267E-3,6.4616813E-3,-2.4310365E-2,-5.722187E-2,-2.6461694E-2,3.2264024E-2,-4.9658347E-2,-0E0,5.274433E-2,1.5611422E-2,3.4646805E-2,-1.8908966E-2,3.4241956E-2,-3.4077697E-2,4.477743E-2,2.1161402E-2,-1.0665304E-2,3.6924563E-2],"split_indices":[15,15,7,1,3,9,17,15,9,18,6,10,7,3,7,15,14,18,22,0,16,7,4,0,0,0,2,15,15,2,13,0,0,0,0,0,0,0,0,0,0,0,0,0,0,0,0,0,0,0,0,0,0,0,0],"split_type":[0,0,0,0,0,0,0,0,0,0,0,0,0,0,0,0,0,0,0,0,0,0,0,0,0,0,0,0,0,0,0,0,0,0,0,0,0,0,0,0,0,0,0,0,0,0,0,0,0,0,0,0,0,0,0],"sum_hessian":[1.7383863E4,1.683703E4,5.468333E2,1.6683146E4,1.5388303E2,9.276446E1,4.5406888E2,6.844449E3,9.838698E3,1.0276206E2,5.1120964E1,4.8093113E1,4.4671345E1,1.2933305E2,3.247358E2,3.9077644E3,2.9366848E3,4.4028364E3,5.435862E3,9.991977E0,9.277008E1,1.8436384E1,3.2684578E1,4.3073093E1,5.0200186E0,7.238343E0,3.7433002E1,7.954304E1,4.9790016E1,2.5313206E2,7.1603745E1,3.4250308E3,4.8273364E2,1.8796871E3,1.0569977E3,1.1735328E3,3.2293035E3,3.9592815E3,1.4765801E3,1.8133066E1,7.463702E1,7.614379E0,1.0822006E1,2.3203192E1,9.481386E0,1.5404862E1,2.202814E1,6.7182984E0,7.282474E1,3.8239773E1,1.1550247E1,7.793297E1,1.751991E2,5.411664E1,1.7487106E1],"tree_param":{"num_deleted":"0","num_feature":"23","num_nodes":"55","size_leaf_vector":"1"}},{"base_weights":[3.1497912E-3,3.4585547E-2,-1.3958918E-1,-1.1188981E-1,7.107359E-2,9.803694E-2,-1.7598459E-1,-2.0629753E-1,-1.1145117E-3,1.3930279E-1,1.1008901E-2,-3.953363E-2,3.7837413E-1,1.8831016E-1,-1.9863385E-1,-1.1034438E-1,-3.447844E-1,-7.812827E-2,3.4568024E-1,8.038065E-1,1.3074848E-1,8.281547E-2,-6.524415E-2,-9.755911E-2,4.2381725E-1,1.0135289E-1,5.701513E-1,3.7361798E-1,-4.186745E-1,-5.000206E-1,-1.6189714E-1,-1.960302E-2,-2.3502242E-3,-7.7300877E-3,-2.3111872E-2,-2.323102E-2,9.038662E-4,-2.039909E-3,3.245541E-2,4.818129E-2,-1.5023651E-2,2.255232E-3,9.385822E-3,1.0964774E-2,6.879987E-4,-7.1067363E-3,5.612048E-3,-2.1922827E-2,-3.366579E-5,3.9271448E-2,-1.6703052E-2,1.8819949E-2,-1.8354109E-2,-4.499602E-5,3.374342E-2,4.079269E-2,1.1043042E-2,-3.445749E-2,4.143724E-2,1.8200694E-2,-2.8016418E-2,-1.5470601E-2,-5.9722215E-3],"categories":[],"categories_nodes":[],"categories_segments":[],"categories_sizes":[],"default_left":[0,0,0,0,0,0,0,0,0,0,0,0,0,0,0,0,0,0,0,0,0,0,0,0,0,0,0,0,0,0,0,0,0,0,0,0,0,0,0,0,0,0,0,0,0,0,0,0,0,0,0,0,0,0,0,0,0,0,0,0,0,0,0],"id":6,"left_children":[1,3,5,7,9,11,13,15,17,19,21,23,25,27,29,31,33,35,37,39,41,43,45,47,49,51,53,55,57,59,61,-1,-1,-1,-1,-1,-1,-1,-1,-1,-1,-1,-1,-1,-1,-1,-1,-1,-1,-1,-1,-1,-1,-1,-1,-1,-1,-1,-1,-1,-1,-1,-1],"loss_changes":[7.789811E1,7.6099655E1,2.7165173E1,2.957357E1,4.6655846E1,1.622438E1,2.2514526E1,2.0022507E1,3.4911865E1,2.9648071E1,3.325984E1,7.4302263E0,6.8891697E0,1.8161898E1,2.7874832E1,1.5957425E1,1.3464592E1,4.0207336E1,2.81812E1,1.2677483E1,2.5579857E1,2.9384222E1,4.019561E1,8.0648E0,9.110563E0,8.014317E0,5.1309776E0,7.458458E0,1.3716077E1,1.4884491E1,1.4041214E1,0E0,0E0,0E0,0E0,0E0,0E0,0E0,0E0,0E0,0E0,0E0,0E0,0E0,0E0,0E0,0E0,0E0,0E0,0E0,0E0,0E0,0E0,0E0,0E0,0E0,0E0,0E0,0E0,0E0,0E0,0E0,0E0],"parents":[2147483647,0,0,1,1,2,2,3,3,4,4,5,5,6,6,7,7,8,8,9,9,10,10,11,11,12,12,13,13,14,14,15,15,16,16,17,17,18,18,19,19,20,20,21,21,22,22,23,23,24,24,25,25,26,26,27,27,28,28,29,29,30,30],"right_children":[2,4,6,8,10,12,14,16,18,20,22,24,26,28,30,32,34,36,38,40,42,44,46,48,50,52,54,56,58,60,62,-1,-1,-1,-1,-1,-1,-1,-1,-1,-1,-1,-1,-1,-1,-1,-1,-1,-1,-1,-1,-1,-1,-1,-1,-1,-1,-1,-1,-1,-1,-1,-1],"split_conditions":[1.0656486E0,1.15001E5,-2.7551E-2,8.3E6,-7.5026107E-1,1.00209335E2,-2.5978526E-3,3.0404653E-2,5.9124943E-2,-2.4348E-1,9.75631E-3,5.2183364E-2,1.72803E0,1.0052533E2,9.772959E1,1.25268E-1,-1.56862E-2,-1.7505345E0,9.895195E1,-8.3707637E-1,-3.7754886E-4,7.66E5,8.56649E-2,-4.071238E-1,1.2171E6,1.3572E8,-2.7492755E10,-2.0890596E0,1.061242E10,-1.22278E-1,-5.2145884E9,-1.960302E-2,-2.3502242E-3,-7.7300877E-3,-2.3111872E-2,-2.323102E-2,9.038662E-4,-2.039909E-3,3.245541E-2,4.818129E-2,-1.5023651E-2,2.255232E-3,9.385822E-3,1.0964774E-2,6.879987E-4,-7.1067363E-3,5.612048E-3,-2.1922827E-2,-3.366579E-5,3.9271448E-2,-1.6703052E-2,1.8819949E-2,-1.8354109E-2,-4.499602E-5,3.374342E-2,4.079269E-2,1.1043042E-2,-3.445749E-2,4.143724E-2,1.8200694E-2,-2.8016418E-2,-1.5470601E-2,-5.9722215E-3],"split_indices":[9,18,3,20,9,22,7,14,13,5,5,13,9,21,21,2,3,10,22,9,7,18,5,8,18,16,16,10,16,6,16,0,0,0,0,0,0,0,0,0,0,0,0,0,0,0,0,0,0,0,0,0,0,0,0,0,0,0,0,0,0,0,0],"split_type":[0,0,0,0,0,0,0,0,0,0,0,0,0,0,0,0,0,0,0,0,0,0,0,0,0,0,0,0,0,0,0,0,0,0,0,0,0,0,0,0,0,0,0,0,0,0,0,0,0,0,0,0,0,0,0,0,0,0,0,0,0,0,0],"sum_hessian":[1.736798E4,1.4237449E4,3.1305303E3,2.835791E3,1.1401658E4,4.13521E2,2.7170093E3,1.5276339E3,1.308157E3,5.3329014E3,6.0687573E3,2.773505E2,1.3617052E2,1.5688814E2,2.560121E3,9.066494E2,6.209845E2,1.0728885E3,2.3526843E2,6.467312E1,5.268228E3,3.1287947E3,2.9399624E3,2.4884554E2,2.850496E1,5.8022087E1,7.814843E1,1.2141404E2,3.5474102E1,2.7393494E2,2.2861863E3,1.6307397E2,7.4357544E2,2.4048132E2,3.805032E2,2.133448E2,8.5954376E2,1.0351011E2,1.3175832E2,5.7114605E1,7.5585146E0,2.109393E3,3.1588352E3,1.0473129E3,2.0814817E3,2.0535386E3,8.8642395E2,5.2369423E1,1.964761E2,1.969485E1,8.810108E0,3.747728E1,2.0544806E1,1.1677231E1,6.64712E1,2.8102295E1,9.3311745E1,3.021792E1,5.2561812E0,1.6674528E1,2.572604E2,5.054594E2,1.7807268E3],"tree_param":{"num_deleted":"0","num_feature":"23","num_nodes":"63","size_leaf_vector":"1"}},{"base_weights":[2.3952471E-4,2.9908355E-2,-1.3319711E-1,1.7722268E-2,3.850265E-1,-1.5056863E-1,2.1504444E-1,-1.05528235E-1,5.3394E-2,5.005211E-1,-1.131427E-2,9.6764475E-2,-1.7052925E-1,4.5947546E-1,-1.2540864E-2,-5.8436904E-2,-2.809537E-1,1.6281801E-1,2.6669243E-2,2.1954173E-1,7.017674E-1,-4.13183E-1,4.8995358E-1,1.8573631E-1,-3.808111E-1,-3.846438E-1,-1.3692497E-1,4.1564135E-4,1.0072685E0,-1.2472362E-1,4.151337E-2,-5.66402E-3,7.2052227E-3,1.1017315E-2,-1.9485617E-2,-6.224872E-4,1.1368741E-2,-1.6639205E-2,2.004112E-3,6.7689787E-3,4.154348E-2,3.763205E-2,-2.2087872E-2,3.4107316E-2,-2.9407814E-2,4.021193E-2,-4.6402905E-3,-4.054379E-2,1.1383025E-2,-4.738775E-2,1.33578945E-2,-2.909322E-2,-4.2644697E-3,-1.529333E-2,-5.2970946E-3,-5.0425846E-2,1.6246155E-2,1.3235687E-2,5.842307E-2,-1.6605549E-2,1.5541081E-2],"categories":[],"categories_nodes":[],"categories_segments":[],"categories_sizes":[],"default_left":[0,0,0,0,0,0,0,0,0,0,0,0,0,0,0,0,0,0,0,0,0,0,0,0,0,0,0,0,0,0,0,0,0,0,0,0,0,0,0,0,0,0,0,0,0,0,0,0,0,0,0,0,0,0,0,0,0,0,0,0,0],"id":7,"left_children":[1,3,5,7,9,11,13,15,17,19,21,23,25,27,29,31,33,35,37,39,41,43,45,47,49,51,53,55,57,59,-1,-1,-1,-1,-1,-1,-1,-1,-1,-1,-1,-1,-1,-1,-1,-1,-1,-1,-1,-1,-1,-1,-1,-1,-1,-1,-1,-1,-1,-1,-1],"loss_changes":[6.878612E1,6.135767E1,1.9147797E1,6.048027E1,2.1797462E1,1.49410095E1,8.556508E0,2.5291126E1,3.1115612E1,1.9894615E1,2.1954716E1,9.576672E0,1.9707527E1,1.7912464E1,7.2623873E0,2.7095333E1,3.5712498E1,2.377745E1,4.1277164E1,7.341365E0,1.3094009E1,1.2469232E1,9.305047E0,8.072333E0,1.3706331E1,2.1726635E1,1.2378273E1,1.4177147E1,2.602066E0,6.6673384E0,0E0,0E0,0E0,0E0,0E0,0E0,0E0,0E0,0E0,0E0,0E0,0E0,0E0,0E0,0E0,0E0,0E0,0E0,0E0,0E0,0E0,0E0,0E0,0E0,0E0,0E0,0E0,0E0,0E0,0E0,0E0],"parents":[2147483647,0,0,1,1,2,2,3,3,4,4,5,5,6,6,7,7,8,8,9,9,10,10,11,11,12,12,13,13,14,14,15,15,16,16,17,17,18,18,19,19,20,20,21,21,22,22,23,23,24,24,25,25,26,26,27,27,28,28,29,29],"right_children":[2,4,6,8,10,12,14,16,18,20,22,24,26,28,30,32,34,36,38,40,42,44,46,48,50,52,54,56,58,60,-1,-1,-1,-1,-1,-1,-1,-1,-1,-1,-1,-1,-1,-1,-1,-1,-1,-1,-1,-1,-1,-1,-1,-1,-1,-1,-1,-1,-1,-1,-1],"split_conditions":[1.0656486E0,7.92363E-1,1.0187278E2,1.547E5,1.0643972E2,-2.536198E-3,3.52139E5,4.924373E-2,-1.0777632E0,9.36E7,1.2245E-1,1.0133868E2,9.788746E1,3.171404E-2,1.2713397E11,1.08656E0,-6.4849514E-3,2.90855E-1,-6.191038E-3,2.1330978E-1,9.213744E-3,2E2,-7.432805E-1,-6.797972E-3,3.417367E-2,2.4412325E-2,9.897132E1,1.2E3,1.5261E8,1.5979E6,4.151337E-2,-5.66402E-3,7.2052227E-3,1.1017315E-2,-1.9485617E-2,-6.224872E-4,1.1368741E-2,-1.6639205E-2,2.004112E-3,6.7689787E-3,4.154348E-2,3.763205E-2,-2.2087872E-2,3.4107316E-2,-2.9407814E-2,4.021193E-2,-4.6402905E-3,-4.054379E-2,1.1383025E-2,-4.738775E-2,1.33578945E-2,-2.909322E-2,-4.2644697E-3,-1.529333E-2,-5.2970946E-3,-5.0425846E-2,1.6246155E-2,1.3235687E-2,5.842307E-2,-1.6605549E-2,1.5541081E-2],"split_indices":[9,1,22,17,21,7,17,14,9,20,5,21,21,13,20,2,7,1,7,11,7,17,9,7,13,13,22,17,20,17,0,0,0,0,0,0,0,0,0,0,0,0,0,0,0,0,0,0,0,0,0,0,0,0,0,0,0,0,0,0,0],"split_type":[0,0,0,0,0,0,0,0,0,0,0,0,0,0,0,0,0,0,0,0,0,0,0,0,0,0,0,0,0,0,0,0,0,0,0,0,0,0,0,0,0,0,0,0,0,0,0,0,0,0,0,0,0,0,0,0,0,0,0,0,0],"sum_hessian":[1.738405E4,1.4226232E4,3.157818E3,1.3757639E4,4.6859363E2,3.0102283E3,1.4758981E2,3.0840183E3,1.067362E4,3.634262E2,1.0516743E2,2.2234862E2,2.7878796E3,7.123799E1,7.635183E1,2.4356953E3,6.483232E2,2.0894624E3,8.584158E3,1.5444995E2,2.0897626E2,5.9119762E1,4.6047665E1,1.8934328E2,3.3005337E1,3.73337E2,2.4145427E3,4.0343624E1,3.0894365E1,6.94102E1,6.9416246E0,1.9193342E3,5.16361E2,1.14394844E2,5.3392834E2,5.607984E2,1.5286641E3,3.0574106E2,8.278417E3,1.3862596E2,1.582399E1,2.0114838E2,7.827889E0,6.951126E0,5.2168636E1,2.9978168E1,1.6069494E1,5.6812243E0,1.8366206E2,1.7521309E1,1.548403E1,2.2291707E2,1.5041992E2,3.689399E2,2.0456028E3,8.417168E0,3.1926456E1,7.006117E0,2.3888248E1,4.8120365E1,2.1289837E1],"tree_param":{"num_deleted":"0","num_feature":"23","num_nodes":"61","size_leaf_vector":"1"}},{"base_weights":[-2.26754E-3,-1.46211935E-2,3.7051192E-1,-7.16149E-3,-5.730534E-1,6.372333E-1,1.1316733E-1,1.8487994E-2,-1.6327058E-1,-0E0,-6.5955055E-1,1.487517E-1,7.608651E-1,3.145063E-1,-2.8498608E-1,-1.2897071E-2,1.3675384E-1,1.7911418E-1,-1.8742579E-1,3.7860808E-1,-5.275401E-1,-2.479779E-1,-8.0241793E-1,-3.428218E-1,3.769926E-1,8.636905E-1,3.398155E-1,8.9702827E-1,1.86869E-1,-1.4498974E0,3.2219815E-1,1.5018301E-4,-2.1332309E-2,1.4603724E-2,2.6211985E-3,2.2278992E-2,-3.2346982E-3,-1.00941695E-2,9.018769E-3,-0E0,4.6139207E-2,-6.1547116E-4,-4.1883882E-2,2.1651868E-2,-2.4859324E-2,-5.1370528E-2,-2.9916156E-2,-3.0356115E-2,4.987718E-3,1.0142446E-2,5.111439E-2,5.687653E-2,3.470457E-2,-1.14870425E-2,2.9443363E-2,-5.6652976E-3,6.503738E-2,-2.9047145E-2,1.327124E-2,-7.872028E-2,-2.9030392E-2,-0E0,5.236232E-2],"categories":[],"categories_nodes":[],"categories_segments":[],"categories_sizes":[],"default_left":[0,0,0,0,0,0,0,0,0,0,0,0,0,0,0,0,0,0,0,0,0,0,0,0,0,0,0,0,0,0,0,0,0,0,0,0,0,0,0,0,0,0,0,0,0,0,0,0,0,0,0,0,0,0,0,0,0,0,0,0,0,0,0],"id":8,"left_children":[1,3,5,7,9,11,13,15,17,19,21,23,25,27,29,31,33,35,37,39,41,43,45,47,49,51,53,55,57,59,61,-1,-1,-1,-1,-1,-1,-1,-1,-1,-1,-1,-1,-1,-1,-1,-1,-1,-1,-1,-1,-1,-1,-1,-1,-1,-1,-1,-1,-1,-1,-1,-1],"loss_changes":[8.008072E1,6.9976875E1,3.7762383E1,6.67483E1,1.0714317E1,1.5774818E1,2.3220081E1,5.3142845E1,1.952837E1,6.7806144E0,1.0356003E1,6.820978E0,8.169296E0,1.343948E1,6.988408E1,7.455105E1,3.912404E1,1.0298277E1,1.1781738E1,3.8377485E0,1.8715229E0,9.495684E0,4.4138565E0,2.5798676E0,3.6348095E0,5.4687424E0,7.0712247E0,1.4502871E1,9.872166E0,7.4964905E-1,1.4824131E1,0E0,0E0,0E0,0E0,0E0,0E0,0E0,0E0,0E0,0E0,0E0,0E0,0E0,0E0,0E0,0E0,0E0,0E0,0E0,0E0,0E0,0E0,0E0,0E0,0E0,0E0,0E0,0E0,0E0,0E0,0E0,0E0],"parents":[2147483647,0,0,1,1,2,2,3,3,4,4,5,5,6,6,7,7,8,8,9,9,10,10,11,11,12,12,13,13,14,14,15,15,16,16,17,17,18,18,19,19,20,20,21,21,22,22,23,23,24,24,25,25,26,26,27,27,28,28,29,29,30,30],"right_children":[2,4,6,8,10,12,14,16,18,20,22,24,26,28,30,32,34,36,38,40,42,44,46,48,50,52,54,56,58,60,62,-1,-1,-1,-1,-1,-1,-1,-1,-1,-1,-1,-1,-1,-1,-1,-1,-1,-1,-1,-1,-1,-1,-1,-1,-1,-1,-1,-1,-1,-1,-1,-1],"split_conditions":[1.9650633E-2,1.6904846E-2,-1.1300714E-3,1.420941E0,3.4E3,1.11E4,2.491899E-2,6.722432E-3,-2.6611446E-3,1.8550351E-2,-8.5494E8,6.28428E-1,3.4881614E-2,-5.03288E-2,2.6320238E-2,5.906552E-3,-3.073304E-2,-1.67784E-2,1.0196608E2,1.27714E-3,-5.29197E-2,-1.3334118E-1,4.01456E-1,-5.41706E-2,-5.62801E-2,-5.6953295E-3,-8.17795E-3,1.423E5,-1.97019E-2,4.019078E10,1.3275E6,1.5018301E-4,-2.1332309E-2,1.4603724E-2,2.6211985E-3,2.2278992E-2,-3.2346982E-3,-1.00941695E-2,9.018769E-3,-0E0,4.6139207E-2,-6.1547116E-4,-4.1883882E-2,2.1651868E-2,-2.4859324E-2,-5.1370528E-2,-2.9916156E-2,-3.0356115E-2,4.987718E-3,1.0142446E-2,5.111439E-2,5.687653E-2,3.470457E-2,-1.14870425E-2,2.9443363E-2,-5.6652976E-3,6.503738E-2,-2.9047145E-2,1.327124E-2,-7.872028E-2,-2.9030392E-2,-0E0,5.236232E-2],"split_indices":[15,15,7,9,18,18,15,15,7,15,16,2,15,6,15,15,12,4,22,6,6,12,1,6,0,7,4,18,0,20,18,0,0,0,0,0,0,0,0,0,0,0,0,0,0,0,0,0,0,0,0,0,0,0,0,0,0,0,0,0,0,0,0],"split_type":[0,0,0,0,0,0,0,0,0,0,0,0,0,0,0,0,0,0,0,0,0,0,0,0,0,0,0,0,0,0,0,0,0,0,0,0,0,0,0,0,0,0,0,0,0,0,0,0,0,0,0,0,0,0,0,0,0,0,0,0,0,0,0],"sum_hessian":[1.7423525E4,1.68678E4,5.557244E2,1.6648328E4,2.194723E2,2.7048676E2,2.8523767E2,1.4297706E4,2.3506226E3,2.9650839E1,1.8982147E2,5.6338455E1,2.1414828E2,1.9055397E2,9.468371E1,1.1297231E4,3.000474E3,1.5269788E2,2.1979246E3,1.7149904E1,1.2500935E1,5.122463E1,1.3859683E2,1.685098E1,3.9487476E1,1.6947128E2,4.4677006E1,3.1377483E1,1.5917648E2,3.1773134E1,6.2910576E1,1.0879886E4,4.1734628E2,1.0520074E3,1.9484667E3,7.3147865E1,7.955001E1,2.116972E3,8.095272E1,1.1419384E1,5.73052E0,6.0844393E0,6.416495E0,1.2790427E1,3.8434204E1,6.092061E1,7.767623E1,1.0792194E1,6.058786E0,3.3775997E1,5.7114763E0,5.932338E1,1.101479E2,1.3028833E1,3.1648172E1,9.015586E0,2.2361898E1,1.29960785E1,1.461804E2,2.5870277E1,5.902857E0,4.524967E1,1.7660908E1],"tree_param":{"num_deleted":"0","num_feature":"23","num_nodes":"63","size_leaf_vector":"1"}},{"base_weights":[-2.4994805E-3,-1.9083422E-2,2.6336786E-1,-7.533527E-2,5.3534202E-2,1.95997E-1,8.192282E-1,4.5976747E-4,-1.3661712E-1,4.26724E-1,3.1066189E-2,4.451798E-1,7.7096656E-2,9.0685874E-1,-1.1705477E-2,-2.8294337E-1,7.945975E-2,-6.1293703E-1,-8.984687E-2,9.1056997E-1,3.0981728E-1,1.5546004E-1,-1.8585572E-2,1.3895833E-1,1.108725E0,5.5068755E-1,-1.8462064E-2,1.0115336E0,3.371765E-1,-2.122216E-2,-1.6576851E-3,-2.5254195E-3,8.143809E-3,-3.1913914E-2,3.888476E-2,4.4750467E-2,-6.027189E-3,-6.8815174E-3,5.019889E-2,2.011056E-2,-1.4485172E-2,-2.576206E-3,1.2960593E-2,-1.6042149E-2,1.2346619E-5,1.3540118E-2,-6.380596E-2,6.92485E-2,-0E0,5.1131923E-2,1.5826663E-2,2.8939504E-2,-5.3252405E-3,2.760148E-2,5.6121737E-2,-7.1649314E-3,2.8958783E-2],"categories":[],"categories_nodes":[],"categories_segments":[],"categories_sizes":[],"default_left":[0,0,0,0,0,0,0,0,0,0,0,0,0,0,0,0,0,0,0,0,0,0,0,0,0,0,0,0,0,0,0,0,0,0,0,0,0,0,0,0,0,0,0,0,0,0,0,0,0,0,0,0,0,0,0,0,0],"id":9,"left_children":[1,3,5,7,9,11,13,15,17,19,21,23,25,27,-1,29,31,33,35,37,39,41,43,45,47,49,51,53,55,-1,-1,-1,-1,-1,-1,-1,-1,-1,-1,-1,-1,-1,-1,-1,-1,-1,-1,-1,-1,-1,-1,-1,-1,-1,-1,-1,-1],"loss_changes":[7.6629265E1,6.695706E1,3.7380035E1,4.2980392E1,5.969761E1,2.6733318E1,1.0809433E1,9.2377556E1,1.1342268E2,2.1712425E1,4.174968E1,5.8661125E1,2.8442196E1,4.6871185E0,0E0,3.1520042E1,3.5107323E1,1.6984772E1,1.4065762E2,8.236279E0,1.8554195E1,4.1535004E1,2.7605877E1,3.8151115E1,2.8304314E1,1.033073E1,2.7164806E1,2.1978226E0,2.6481514E0,0E0,0E0,0E0,0E0,0E0,0E0,0E0,0E0,0E0,0E0,0E0,0E0,0E0,0E0,0E0,0E0,0E0,0E0,0E0,0E0,0E0,0E0,0E0,0E0,0E0,0E0,0E0,0E0],"parents":[2147483647,0,0,1,1,2,2,3,3,4,4,5,5,6,6,7,7,8,8,9,9,10,10,11,11,12,12,13,13,15,15,16,16,17,17,18,18,19,19,20,20,21,21,22,22,23,23,24,24,25,25,26,26,27,27,28,28],"right_children":[2,4,6,8,10,12,14,16,18,20,22,24,26,28,-1,30,32,34,36,38,40,42,44,46,48,50,52,54,56,-1,-1,-1,-1,-1,-1,-1,-1,-1,-1,-1,-1,-1,-1,-1,-1,-1,-1,-1,-1,-1,-1,-1,-1,-1,-1,-1,-1],"split_conditions":[7.05986E-1,2.2555732E-3,1.9650633E-2,-4.398874E-3,2.6084792E-3,-4.310229E-3,6.8368125E-1,7.62E4,-3.6932384E-3,-8.269001E-2,-6.527696E-2,-9.148017E-3,5.796627E-2,1.3737845E10,-1.1705477E-2,-9.148017E-3,-1.2474436E-2,7.0205E-2,-3.490967E-3,1.42874E-1,4.701402E-2,-9.9551684E-1,-6.4527947E-1,-1.0842876E-2,1.039431E0,-3.30711E-2,2E2,6.7109585E-2,-6.37427E-1,-2.122216E-2,-1.6576851E-3,-2.5254195E-3,8.143809E-3,-3.1913914E-2,3.888476E-2,4.4750467E-2,-6.027189E-3,-6.8815174E-3,5.019889E-2,2.011056E-2,-1.4485172E-2,-2.576206E-3,1.2960593E-2,-1.6042149E-2,1.2346619E-5,1.3540118E-2,-6.380596E-2,6.92485E-2,-0E0,5.1131923E-2,1.5826663E-2,2.8939504E-2,-5.3252405E-3,2.760148E-2,5.6121737E-2,-7.1649314E-3,2.8958783E-2],"split_indices":[1,15,15,15,15,15,12,18,15,12,12,15,13,20,0,15,15,13,15,1,14,11,11,15,11,6,17,13,12,0,0,0,0,0,0,0,0,0,0,0,0,0,0,0,0,0,0,0,0,0,0,0,0,0,0,0,0],"split_type":[0,0,0,0,0,0,0,0,0,0,0,0,0,0,0,0,0,0,0,0,0,0,0,0,0,0,0,0,0,0,0,0,0,0,0,0,0,0,0,0,0,0,0,0,0,0,0,0,0,0,0,0,0,0,0,0,0],"sum_hessian":[1.7403107E4,1.6384812E4,1.0182944E3,9.236639E3,7.1481743E3,9.1143256E2,1.0686186E2,4.126589E3,5.1100493E3,4.0261252E2,6.745562E3,2.9128497E2,6.201476E2,9.9349464E1,7.5123987E0,8.970468E2,3.229542E3,4.5377646E2,4.656273E3,7.487403E1,3.2773846E2,1.9260317E3,4.81953E3,2.0147708E2,8.980789E1,1.03400314E2,5.1674725E2,8.187639E1,1.7473074E1,5.7048224E2,3.2656454E2,1.2604598E3,1.9690823E3,4.4707117E2,6.705315E0,1.3854967E2,4.517723E3,5.6108346E0,6.926319E1,2.852673E2,4.2471172E1,6.41811E2,1.2842208E3,2.823502E2,4.5371797E3,1.8610785E2,1.5369232E1,7.159264E1,1.821525E1,3.134754E1,7.205277E1,6.422688E1,4.525204E2,1.9119835E1,6.2756557E1,5.4339237E0,1.2039151E1],"tree_param":{"num_deleted":"0","num_feature":"23","num_nodes":"57","size_leaf_vector":"1"}},{"base_weights":[-3.49541E-3,2.3041932E-2,-1.4178297E-1,1.167931E-2,3.6011803E-1,1.7043813E-1,-1.7115049E-1,1.9710856E-2,-4.4953293E-1,5.1809436E-1,4.3738987E-2,2.6552704E-1,-1.6314021E-1,-4.2028698E-1,-1.4147256E-1,5.4712454E-3,3.5498807E-1,-6.722356E-2,-6.337602E-1,4.221598E-2,6.5656877E-1,3.189542E-1,-5.227576E-1,4.6524844E-1,1.15596065E-2,-3.7708277E-1,4.0159058E-2,-5.6994E-1,-1.5440434E-1,-2.5984278E-1,-9.749107E-2,-5.962796E-3,1.4647442E-3,2.9089719E-2,1.2855885E-3,-1.4243702E-2,2.4816563E-2,-5.2808102E-2,-1.8712051E-2,-1.12414155E-2,3.089065E-2,3.6963847E-2,1.3930208E-2,-0E0,3.210603E-2,-7.4801356E-2,1.3747247E-2,3.1199118E-2,7.8633166E-4,1.8397555E-2,-9.229502E-3,-5.8041364E-3,-5.6772184E-2,-1.5601466E-2,-4.8258584E-2,8.133581E-3,-2.5589466E-2,-1.581694E-2,3.188631E-3,-1.4440933E-2,-3.4199567E-3],"categories":[],"categories_nodes":[],"categories_segments":[],"categories_sizes":[],"default_left":[0,0,0,0,0,0,0,0,0,0,0,0,0,0,0,0,0,0,0,0,0,0,0,0,0,0,0,0,0,0,0,0,0,0,0,0,0,0,0,0,0,0,0,0,0,0,0,0,0,0,0,0,0,0,0,0,0,0,0,0,0],"id":10,"left_children":[1,3,5,7,9,11,13,15,17,19,21,23,25,27,29,31,33,35,37,39,41,43,45,47,49,51,-1,53,55,57,59,-1,-1,-1,-1,-1,-1,-1,-1,-1,-1,-1,-1,-1,-1,-1,-1,-1,-1,-1,-1,-1,-1,-1,-1,-1,-1,-1,-1,-1,-1],"loss_changes":[6.3801575E1,5.561025E1,2.5728382E1,5.2027103E1,2.3346046E1,7.7577214E0,1.8538383E1,6.598731E1,1.6490986E1,2.0330147E1,2.5328726E1,9.330642E0,1.1424306E1,1.0198368E1,1.1710915E1,3.947924E1,4.1728165E1,1.0145453E1,1.6149612E1,1.1829573E1,6.6686935E0,1.1089748E1,4.2424114E1,7.122116E0,6.260065E0,8.111149E0,0E0,1.6159847E1,1.1800264E1,1.1447918E1,9.124419E0,0E0,0E0,0E0,0E0,0E0,0E0,0E0,0E0,0E0,0E0,0E0,0E0,0E0,0E0,0E0,0E0,0E0,0E0,0E0,0E0,0E0,0E0,0E0,0E0,0E0,0E0,0E0,0E0,0E0,0E0],"parents":[2147483647,0,0,1,1,2,2,3,3,4,4,5,5,6,6,7,7,8,8,9,9,10,10,11,11,12,12,13,13,14,14,15,15,16,16,17,17,18,18,19,19,20,20,21,21,22,22,23,23,24,24,25,25,27,27,28,28,29,29,30,30],"right_children":[2,4,6,8,10,12,14,16,18,20,22,24,26,28,30,32,34,36,38,40,42,44,46,48,50,52,-1,54,56,58,60,-1,-1,-1,-1,-1,-1,-1,-1,-1,-1,-1,-1,-1,-1,-1,-1,-1,-1,-1,-1,-1,-1,-1,-1,-1,-1,-1,-1,-1,-1],"split_conditions":[1.2531015E0,1.9650633E-2,-2.3580429E-3,1.6771147E-2,2.7831516E-4,1.0049534E2,9.772959E1,1.2943692E-2,-1.2965606E-1,2.62E4,2.491899E-2,-4.31622E8,5.2601643E-2,2.59546E-1,-3.74166E9,3.29E4,1.4624066E-2,2.6634464E-1,9.9904205E1,2.9861832E-1,3.4881614E-2,4.6638E-1,2.6320238E-2,2.9861832E-1,4.32E4,4.218E5,4.0159058E-2,2.291795E0,8.43765E-1,3.6607502E0,1.4E3,-5.962796E-3,1.4647442E-3,2.9089719E-2,1.2855885E-3,-1.4243702E-2,2.4816563E-2,-5.2808102E-2,-1.8712051E-2,-1.12414155E-2,3.089065E-2,3.6963847E-2,1.3930208E-2,-0E0,3.210603E-2,-7.4801356E-2,1.3747247E-2,3.1199118E-2,7.8633166E-4,1.8397555E-2,-9.229502E-3,-5.8041364E-3,-5.6772184E-2,-1.5601466E-2,-4.8258584E-2,8.133581E-3,-2.5589466E-2,-1.581694E-2,3.188631E-3,-1.4440933E-2,-3.4199567E-3],"split_indices":[9,15,7,15,7,21,21,15,12,18,15,16,13,1,16,18,15,8,21,8,15,1,15,8,17,18,0,9,2,9,18,0,0,0,0,0,0,0,0,0,0,0,0,0,0,0,0,0,0,0,0,0,0,0,0,0,0,0,0,0,0],"split_type":[0,0,0,0,0,0,0,0,0,0,0,0,0,0,0,0,0,0,0,0,0,0,0,0,0,0,0,0,0,0,0,0,0,0,0,0,0,0,0,0,0,0,0,0,0,0,0,0,0,0,0,0,0,0,0,0,0,0,0,0,0],"sum_hessian":[1.736569E4,1.4568122E4,2.7975674E3,1.4096491E4,4.7163116E2,2.3822662E2,2.5593408E3,1.3858164E4,2.3832729E2,3.1265753E2,1.5897365E2,1.8686603E2,5.1360596E1,2.6782947E2,2.2915112E3,1.3296951E4,5.612129E2,7.926987E1,1.5905742E2,7.1874725E1,2.407828E2,1.0817611E2,5.079753E1,1.0257101E2,8.429501E1,4.347275E1,7.887846E0,1.6870538E2,9.912409E1,6.150374E2,1.6764739E3,2.12783E3,1.1169121E4,3.3050677E2,2.3070612E2,5.8538105E1,2.0731764E1,5.7462902E1,1.0159451E2,4.933584E1,2.2538887E1,1.948992E2,4.5883606E1,5.6096214E1,5.2079895E1,2.2374533E1,2.8422998E1,7.440782E1,2.8163187E1,3.0207407E1,5.4087612E1,3.454804E1,8.92471E0,1.05018814E2,6.368656E1,5.236017E1,4.6763924E1,5.2497797E2,9.005943E1,2.1664331E2,1.4598306E3],"tree_param":{"num_deleted":"0","num_feature":"23","num_nodes":"61","size_leaf_vector":"1"}},{"base_weights":[-7.6958496E-4,-8.038411E-3,5.404885E-1,-2.3979172E-2,1.5530999E-1,6.8407935E-1,2.805784E-2,-3.2918416E-2,2.9541728E-1,3.6524105E-1,7.809798E-2,1.5737087E-1,8.309305E-1,-4.4657418E-1,2.6350215E-1,-1.3208604E-1,-7.603722E-3,3.795915E-1,-1.4596666E-1,1.9895323E-1,5.5412155E-1,3.9813402E-1,2.7709348E-2,-2.9481662E-2,3.259088E-1,9.1314054E-1,-1.2519738E-1,7.876887E-3,-4.3757014E-2,3.6276307E-2,1.6705057E-2,-1.8547198E-2,-4.0256022E-3,2.6426415E-3,-4.2347773E-3,-2.4442768E-3,2.5226185E-2,-3.4129933E-2,8.058068E-3,1.4694281E-2,-1.8347908E-2,-3.6221966E-2,3.0868609E-2,1.5517273E-3,2.9482683E-2,6.0700285E-3,-7.0097963E-3,4.1604634E-2,2.1018388E-3,2.2188248E-2,5.226031E-2,-3.1040052E-2,1.6553583E-2,1.4784122E-2,-2.0013407E-2],"categories":[],"categories_nodes":[],"categories_segments":[],"categories_sizes":[],"default_left":[0,0,0,0,0,0,0,0,0,0,0,0,0,0,0,0,0,0,0,0,0,0,0,0,0,0,0,0,0,0,0,0,0,0,0,0,0,0,0,0,0,0,0,0,0,0,0,0,0,0,0,0,0,0,0],"id":11,"left_children":[1,3,5,7,9,11,13,15,17,19,21,23,25,27,29,31,33,35,37,39,41,43,45,-1,47,49,51,-1,-1,-1,53,-1,-1,-1,-1,-1,-1,-1,-1,-1,-1,-1,-1,-1,-1,-1,-1,-1,-1,-1,-1,-1,-1,-1,-1],"loss_changes":[6.793207E1,4.4482075E1,1.6440285E1,4.4397106E1,2.433205E1,1.3001976E1,6.058308E0,3.800541E1,1.5947144E1,1.2154427E1,1.7734957E1,5.538787E0,1.1460342E1,5.187888E0,3.862298E0,3.766137E1,5.6370167E1,1.9379158E1,1.1730594E1,1.2021616E1,1.600832E1,1.0204882E1,1.52249775E1,0E0,4.679288E0,6.2428513E0,3.313295E0,0E0,0E0,0E0,3.3358047E0,0E0,0E0,0E0,0E0,0E0,0E0,0E0,0E0,0E0,0E0,0E0,0E0,0E0,0E0,0E0,0E0,0E0,0E0,0E0,0E0,0E0,0E0,0E0,0E0],"parents":[2147483647,0,0,1,1,2,2,3,3,4,4,5,5,6,6,7,7,8,8,9,9,10,10,11,11,12,12,13,13,14,14,15,15,16,16,17,17,18,18,19,19,20,20,21,21,22,22,24,24,25,25,26,26,30,30],"right_children":[2,4,6,8,10,12,14,16,18,20,22,24,26,28,30,32,34,36,38,40,42,44,46,-1,48,50,52,-1,-1,-1,54,-1,-1,-1,-1,-1,-1,-1,-1,-1,-1,-1,-1,-1,-1,-1,-1,-1,-1,-1,-1,-1,-1,-1,-1],"split_conditions":[2.6320238E-2,1.0201655E2,1.0204037E2,1.09785E-1,-4.310229E-3,1.83E4,5.6652E8,7.02E4,1.7002808E0,1.02887596E2,-4.924221E9,3.98323E-1,2.7006779E0,3.77358E-3,-1.3815658E-1,-9.148017E-3,7.5188E-3,2.591E7,6.46279E-2,6.501563E-1,2.2089954E-2,1.0243951E2,5.1812563E-2,-2.9481662E-2,-7.927233E-2,9.820535E1,-4.134995E-2,7.876887E-3,-4.3757014E-2,3.6276307E-2,5.8624554E-2,-1.8547198E-2,-4.0256022E-3,2.6426415E-3,-4.2347773E-3,-2.4442768E-3,2.5226185E-2,-3.4129933E-2,8.058068E-3,1.4694281E-2,-1.8347908E-2,-3.6221966E-2,3.0868609E-2,1.5517273E-3,2.9482683E-2,6.0700285E-3,-7.0097963E-3,4.1604634E-2,2.1018388E-3,2.2188248E-2,5.226031E-2,-3.1040052E-2,1.6553583E-2,1.4784122E-2,-2.0013407E-2],"split_indices":[15,22,21,4,15,18,20,18,11,22,16,2,10,3,8,15,5,20,3,8,14,22,13,0,8,22,8,0,0,0,14,0,0,0,0,0,0,0,0,0,0,0,0,0,0,0,0,0,0,0,0,0,0,0,0],"split_type":[0,0,0,0,0,0,0,0,0,0,0,0,0,0,0,0,0,0,0,0,0,0,0,0,0,0,0,0,0,0,0,0,0,0,0,0,0,0,0,0,0,0,0,0,0,0,0,0,0,0,0,0,0,0,0],"sum_hessian":[1.7330033E4,1.7103238E4,2.2679391E2,1.5586918E4,1.5163208E3,1.7586748E2,5.0926434E1,1.5165817E4,4.2110052E2,4.0398718E2,1.1123336E3,3.998871E1,1.3587877E2,1.5587169E1,3.5339264E1,3.078385E3,1.2087433E4,3.5484293E2,6.62576E1,2.1843436E2,1.8555284E2,1.4808267E2,9.64251E2,5.895332E0,3.409338E1,1.2568495E2,1.019382E1,6.509472E0,9.077697E0,1.0248241E1,2.5091024E1,5.427292E2,2.5356558E3,6.771368E3,5.3160645E3,7.9477165E1,2.7536575E2,2.3820309E1,4.243729E1,1.886354E2,2.9798944E1,7.388487E0,1.7816435E2,5.2461235E1,9.562143E1,6.2116974E2,3.4308124E2,1.0229295E1,2.3864084E1,3.0344315E1,9.534064E1,5.0658674E0,5.127953E0,1.6100088E1,8.990935E0],"tree_param":{"num_deleted":"0","num_feature":"23","num_nodes":"55","size_leaf_vector":"1"}},{"base_weights":[6.353324E-3,-8.554932E-3,2.490161E-1,-5.756109E-2,5.463209E-2,1.9553249E-1,6.8704987E-1,2.0401025E-2,-1.20318465E-1,4.2048508E-1,3.280612E-2,2.9860866E-1,-8.17537E-3,7.6299995E-1,-1.43108815E-2,-2.8362638E-1,7.49724E-2,-5.338727E-1,-8.036655E-2,8.650666E-1,3.075883E-1,6.3458204E-2,-1.4640358E-1,4.8511603E-1,1.0934165E-1,-4.6810263E-1,1.7662501E-1,1.0940058E0,4.5941654E-1,5.262911E-2,-1.6530892E-2,-1.8388581E-3,7.344632E-3,-3.6425944E-2,-1.6933495E-2,4.10998E-2,-5.466425E-3,5.109157E-2,-0E0,-2.8765226E-2,1.8043399E-2,-1.2403498E-2,4.364963E-3,1.8693097E-2,-8.714256E-3,1.4334281E-2,4.0358927E-2,2.821595E-2,-2.4118074E-3,-3.889124E-2,-0E0,2.4586963E-2,-7.460152E-3,5.829465E-2,1.5862025E-2,3.609791E-2,-5.4900995E-3],"categories":[],"categories_nodes":[],"categories_segments":[],"categories_sizes":[],"default_left":[0,0,0,0,0,0,0,0,0,0,0,0,0,0,0,0,0,0,0,0,0,0,0,0,0,0,0,0,0,0,0,0,0,0,0,0,0,0,0,0,0,0,0,0,0,0,0,0,0,0,0,0,0,0,0,0,0],"id":12,"left_children":[1,3,5,7,9,11,13,15,17,19,21,23,25,27,-1,29,31,33,35,37,39,41,43,45,47,49,51,53,55,-1,-1,-1,-1,-1,-1,-1,-1,-1,-1,-1,-1,-1,-1,-1,-1,-1,-1,-1,-1,-1,-1,-1,-1,-1,-1,-1,-1],"loss_changes":[6.300892E1,5.0718216E1,2.2907703E1,4.520765E1,5.6837734E1,1.9094578E1,8.649849E0,6.8192444E1,8.414699E1,1.9011894E1,3.7059982E1,2.0803772E1,2.6103268E1,8.376987E0,0E0,3.9583565E1,2.8121712E1,1.6044464E1,1.2185475E2,1.024881E1,1.5541868E1,4.2806656E1,1.430751E1,1.8205788E1,2.1970821E1,1.2607046E1,2.2613674E1,1.0944481E0,8.978131E0,0E0,0E0,0E0,0E0,0E0,0E0,0E0,0E0,0E0,0E0,0E0,0E0,0E0,0E0,0E0,0E0,0E0,0E0,0E0,0E0,0E0,0E0,0E0,0E0,0E0,0E0,0E0,0E0],"parents":[2147483647,0,0,1,1,2,2,3,3,4,4,5,5,6,6,7,7,8,8,9,9,10,10,11,11,12,12,13,13,15,15,16,16,17,17,18,18,19,19,20,20,21,21,22,22,23,23,24,24,25,25,26,26,27,27,28,28],"right_children":[2,4,6,8,10,12,14,16,18,20,22,24,26,28,-1,30,32,34,36,38,40,42,44,46,48,50,52,54,56,-1,-1,-1,-1,-1,-1,-1,-1,-1,-1,-1,-1,-1,-1,-1,-1,-1,-1,-1,-1,-1,-1,-1,-1,-1,-1,-1,-1],"split_conditions":[7.05986E-1,2.2555732E-3,1.9650633E-2,-4.398874E-3,2.6084792E-3,3.6256998E-3,6.8368125E-1,9.6E3,-3.6932384E-3,-7.239203E-2,1.420941E0,9.9247154E1,6.722432E-3,-1.09416E0,-1.43108815E-2,-4.4986542E-2,-1.2474436E-2,1.16639E-2,-3.490967E-3,1.0015557E0,9.772959E1,-4.26824E-2,-7.79295E-2,7.692043E-2,-1.1143924E0,-7.157951E-1,1.2285797E-2,9.5508075E-1,2.682305E6,5.262911E-2,-1.6530892E-2,-1.8388581E-3,7.344632E-3,-3.6425944E-2,-1.6933495E-2,4.10998E-2,-5.466425E-3,5.109157E-2,-0E0,-2.8765226E-2,1.8043399E-2,-1.2403498E-2,4.364963E-3,1.8693097E-2,-8.714256E-3,1.4334281E-2,4.0358927E-2,2.821595E-2,-2.4118074E-3,-3.889124E-2,-0E0,2.4586963E-2,-7.460152E-3,5.829465E-2,1.5862025E-2,3.609791E-2,-5.4900995E-3],"split_indices":[1,15,15,15,15,15,12,18,15,12,9,21,15,9,0,15,15,0,15,9,21,3,0,14,9,9,15,8,17,0,0,0,0,0,0,0,0,0,0,0,0,0,0,0,0,0,0,0,0,0,0,0,0,0,0,0,0],"split_type":[0,0,0,0,0,0,0,0,0,0,0,0,0,0,0,0,0,0,0,0,0,0,0,0,0,0,0,0,0,0,0,0,0,0,0,0,0,0,0,0,0,0,0,0,0,0,0,0,0,0,0,0,0,0,0,0,0],"sum_hessian":[1.7380533E4,1.6374422E4,1.0061117E3,9.226605E3,7.1478164E3,9.002286E2,1.0588307E2,4.1118843E3,5.114721E3,3.990691E2,6.7487476E3,5.9877246E2,3.0145612E2,9.9095825E1,6.7872424E0,6.2307263E2,3.4888118E3,4.4730383E2,4.6674175E3,7.722145E1,3.2184766E2,5.766522E3,9.8222577E2,2.986797E2,3.0009277E2,8.630404E1,2.1515208E2,4.4127766E1,5.4968063E1,1.9352156E1,6.0372046E2,1.3637869E3,2.125025E3,2.199527E2,2.2735112E2,1.429055E2,4.524512E3,6.459399E1,1.262747E1,1.6667747E1,3.051799E2,4.0710803E2,5.3594136E3,4.7786457E1,9.3443933E2,1.881121E2,1.1056759E2,7.668612E1,2.2340666E2,5.0819218E1,3.5484825E1,1.0963664E2,1.05515434E2,3.8883595E1,5.2441697E0,3.785149E1,1.7116571E1],"tree_param":{"num_deleted":"0","num_feature":"23","num_nodes":"57","size_leaf_vector":"1"}},{"base_weights":[9.595845E-5,-6.390347E-2,5.5193804E-2,-1.1353692E-1,3.363433E-2,1.17189854E-1,-3.507247E-2,-9.634586E-2,-5.2272487E-1,2.58546E-1,-2.2803593E-2,-5.425858E-2,1.7467536E-1,3.4791407E-1,-5.6739643E-2,-5.9491485E-1,-8.5272916E-2,-6.58214E-1,-3.8932577E-2,5.303886E-1,9.995181E-2,-4.0968204E-1,3.3075092E-3,1.2037228E0,-8.737476E-2,-3.531321E-4,2.2621147E-1,6.036079E-1,-1.4349242E-1,-1.3883872E-1,3.8093064E-2,-4.0915105E-2,-1.5310379E-4,-1.2426793E-2,-2.6186022E-3,-4.390031E-2,-9.5519535E-3,2.192106E-2,-1.3559627E-2,7.7276016E-3,3.362041E-2,2.574407E-2,1.7074037E-4,-3.0601332E-2,5.9416112E-3,3.757368E-3,-6.0335845E-3,7.7468924E-2,2.2088936E-2,-8.847609E-3,1.4105173E-2,-3.2253384E-3,2.3389915E-2,-1.3686058E-3,1.3059169E-2,2.273334E-2,5.5568982E-2,-3.597722E-2,1.3047935E-2,3.501835E-4,-1.178272E-2,4.0757754E-3,-8.827635E-3],"categories":[],"categories_nodes":[],"categories_segments":[],"categories_sizes":[],"default_left":[0,0,0,0,0,0,0,0,0,0,0,0,0,0,0,0,0,0,0,0,0,0,0,0,0,0,0,0,0,0,0,0,0,0,0,0,0,0,0,0,0,0,0,0,0,0,0,0,0,0,0,0,0,0,0,0,0,0,0,0,0,0,0],"id":13,"left_children":[1,3,5,7,9,11,13,15,17,19,21,23,25,27,29,31,33,35,37,39,41,43,45,47,49,51,53,55,57,59,61,-1,-1,-1,-1,-1,-1,-1,-1,-1,-1,-1,-1,-1,-1,-1,-1,-1,-1,-1,-1,-1,-1,-1,-1,-1,-1,-1,-1,-1,-1,-1,-1],"loss_changes":[6.1078365E1,3.8823345E1,5.216481E1,3.695807E1,3.4394535E1,5.452906E1,3.1344948E1,2.7722939E1,1.3533089E1,2.3007504E1,2.2005259E1,5.7416775E1,3.7457703E1,2.5782621E1,2.8012344E1,1.4065277E1,2.6649605E1,1.6084846E1,5.635334E0,9.979202E0,1.36299515E1,1.5114019E1,1.8007288E1,6.935997E0,4.483644E1,2.8136002E1,2.8514618E1,8.333672E0,1.6931398E1,2.7333553E1,1.5496142E1,0E0,0E0,0E0,0E0,0E0,0E0,0E0,0E0,0E0,0E0,0E0,0E0,0E0,0E0,0E0,0E0,0E0,0E0,0E0,0E0,0E0,0E0,0E0,0E0,0E0,0E0,0E0,0E0,0E0,0E0,0E0,0E0],"parents":[2147483647,0,0,1,1,2,2,3,3,4,4,5,5,6,6,7,7,8,8,9,9,10,10,11,11,12,12,13,13,14,14,15,15,16,16,17,17,18,18,19,19,20,20,21,21,22,22,23,23,24,24,25,25,26,26,27,27,28,28,29,29,30,30],"right_children":[2,4,6,8,10,12,14,16,18,20,22,24,26,28,30,32,34,36,38,40,42,44,46,48,50,52,54,56,58,60,62,-1,-1,-1,-1,-1,-1,-1,-1,-1,-1,-1,-1,-1,-1,-1,-1,-1,-1,-1,-1,-1,-1,-1,-1,-1,-1,-1,-1,-1,-1,-1,-1],"split_conditions":[3.2542E-1,3.986864E-3,1.8289128E-1,3.4127273E-3,5.406678E-3,-1.25596E-1,-1.8253526E-2,-1.3539783E0,2.67443E-2,7.29235E-1,5.6520808E-3,-4.4986542E-2,1.28E5,4.6939454E-3,1.0058748E2,3.914354E-5,1.55104E-1,1.0628665E-1,6.4971E8,8.22E4,4.1552037E-3,1.1854203E0,4.5684073E-2,-6.0241E-2,7.52411E-1,6.31308E-1,-6.66657E-2,1.0217764E2,-2.8863251E-2,-5.9461147E-1,3.6335734E-1,-4.0915105E-2,-1.5310379E-4,-1.2426793E-2,-2.6186022E-3,-4.390031E-2,-9.5519535E-3,2.192106E-2,-1.3559627E-2,7.7276016E-3,3.362041E-2,2.574407E-2,1.7074037E-4,-3.0601332E-2,5.9416112E-3,3.757368E-3,-6.0335845E-3,7.7468924E-2,2.2088936E-2,-8.847609E-3,1.4105173E-2,-3.2253384E-3,2.3389915E-2,-1.3686058E-3,1.3059169E-2,2.273334E-2,5.5568982E-2,-3.597722E-2,1.3047935E-2,3.501835E-4,-1.178272E-2,4.0757754E-3,-8.827635E-3],"split_indices":[1,15,11,15,15,0,15,9,4,2,15,15,18,7,22,15,1,8,20,18,15,9,12,3,1,1,4,22,15,9,9,0,0,0,0,0,0,0,0,0,0,0,0,0,0,0,0,0,0,0,0,0,0,0,0,0,0,0,0,0,0,0,0],"split_type":[0,0,0,0,0,0,0,0,0,0,0,0,0,0,0,0,0,0,0,0,0,0,0,0,0,0,0,0,0,0,0,0,0,0,0,0,0,0,0,0,0,0,0,0,0,0,0,0,0,0,0,0,0,0,0,0,0,0,0,0,0,0,0],"sum_hessian":[1.7318383E4,8.0076387E3,9.310744E3,5.3102456E3,2.697393E3,5.5226553E3,3.7880889E3,5.0996875E3,2.1055844E2,5.414298E2,2.1559631E3,1.3845875E3,4.138068E3,1.9998503E2,3.5881038E3,1.0752812E2,4.992159E3,1.6312085E2,4.7437603E1,1.9660034E2,3.4482944E2,1.3566309E2,2.0203002E3,3.3313545E1,1.3512739E3,9.395215E2,3.1985461E3,1.319094E2,6.8075645E1,1.9254967E3,1.662607E3,7.689505E1,3.0633076E1,8.325447E2,4.1596143E3,1.0900711E2,5.4113735E1,1.4240892E1,3.319671E1,5.602761E1,1.4057274E2,6.2471554E1,2.8235788E2,9.855917E1,3.7103905E1,1.2821677E3,7.3813245E2,2.1043875E1,1.22696705E1,1.0895223E3,2.6175168E2,8.2874585E2,1.1077563E2,3.859724E2,2.8125737E3,1.0568506E2,2.6224323E1,2.7947985E1,4.0127663E1,7.66914E2,1.1585828E3,1.3858268E3,2.7678033E2],"tree_param":{"num_deleted":"0","num_feature":"23","num_nodes":"63","size_leaf_vector":"1"}},{"base_weights":[-4.79007E-3,6.361981E-2,-5.4819066E-2,-8.2897425E-2,1.1835547E-1,5.6189306E-2,-8.730042E-2,-1.7794904E-1,6.6198185E-2,7.454993E-1,1.0963579E-1,-1.8567382E-1,1.13114394E-1,-1.0889603E-1,9.196421E-2,-4.285319E-1,-1.2120727E-1,-4.182719E-2,3.669829E-1,8.261772E-1,-0E0,1.0053399E-1,5.3747034E-1,-3.4533143E-1,8.3492324E-2,2.235307E-1,-1.5324508E-2,-3.5266325E-1,-9.426676E-2,3.15806E-1,4.4326675E-3,2.1659119E-2,-2.5638092E-2,9.092802E-3,-8.533248E-3,-1.2222816E-2,5.6132064E-3,2.8709708E-2,6.768249E-3,-0E0,4.5632057E-2,5.6565474E-3,-1.32709285E-2,-1.4111126E-2,3.635585E-2,-2.5277121E-2,-4.405822E-3,1.3189094E-2,-1.1920948E-2,9.480575E-3,3.326431E-2,-8.116598E-3,6.985631E-3,-1.6082972E-2,-6.760534E-2,-1.1473432E-3,-7.8791315E-3,1.9814355E-2,-3.1919397E-2,-6.173422E-3,1.2219653E-2],"categories":[],"categories_nodes":[],"categories_segments":[],"categories_sizes":[],"default_left":[0,0,0,0,0,0,0,0,0,0,0,0,0,0,0,0,0,0,0,0,0,0,0,0,0,0,0,0,0,0,0,0,0,0,0,0,0,0,0,0,0,0,0,0,0,0,0,0,0,0,0,0,0,0,0,0,0,0,0,0,0],"id":14,"left_children":[1,3,5,7,9,11,13,15,17,19,21,23,25,27,29,31,33,35,37,39,-1,41,43,45,47,49,51,53,55,57,59,-1,-1,-1,-1,-1,-1,-1,-1,-1,-1,-1,-1,-1,-1,-1,-1,-1,-1,-1,-1,-1,-1,-1,-1,-1,-1,-1,-1,-1,-1],"loss_changes":[5.961073E1,5.9010876E1,3.631714E1,2.840421E1,2.870308E1,3.134381E1,3.0189877E1,1.7012474E1,2.5457262E1,4.2046814E0,2.0159153E1,1.8785069E1,2.6282057E1,2.4518646E1,1.6221807E1,1.6699913E1,1.507114E1,1.8001036E1,9.419037E0,4.3724594E0,0E0,2.3863346E1,1.7502474E1,1.08712845E1,9.514841E0,1.4222542E1,1.9494728E1,1.0415031E1,2.9559341E1,1.8312332E1,1.868281E1,0E0,0E0,0E0,0E0,0E0,0E0,0E0,0E0,0E0,0E0,0E0,0E0,0E0,0E0,0E0,0E0,0E0,0E0,0E0,0E0,0E0,0E0,0E0,0E0,0E0,0E0,0E0,0E0,0E0,0E0],"parents":[2147483647,0,0,1,1,2,2,3,3,4,4,5,5,6,6,7,7,8,8,9,9,10,10,11,11,12,12,13,13,14,14,15,15,16,16,17,17,18,18,19,19,21,21,22,22,23,23,24,24,25,25,26,26,27,27,28,28,29,29,30,30],"right_children":[2,4,6,8,10,12,14,16,18,20,22,24,26,28,30,32,34,36,38,40,-1,42,44,46,48,50,52,54,56,58,60,-1,-1,-1,-1,-1,-1,-1,-1,-1,-1,-1,-1,-1,-1,-1,-1,-1,-1,-1,-1,-1,-1,-1,-1,-1,-1,-1,-1,-1,-1],"split_conditions":[-6.977246E-1,2.74E5,-4.77995E-2,8.3E6,-3.9712489E0,5.602E7,1.0170303E2,-1.3539783E0,1.0095436E2,-6.8880194E-1,1.30437E-1,-3.44818E-2,6.94E5,9.768856E1,-6.92088E-3,-8.483538E-3,-1.272917E0,9.842061E1,2E2,4.304E5,-0E0,3.23807E-1,1.952E7,-2.030632E-2,-7.022403E-5,-5.8241695E-2,9.772959E1,5.1341043E0,7.5188E-3,6.281313E10,1.7087E6,2.1659119E-2,-2.5638092E-2,9.092802E-3,-8.533248E-3,-1.2222816E-2,5.6132064E-3,2.8709708E-2,6.768249E-3,-0E0,4.5632057E-2,5.6565474E-3,-1.32709285E-2,-1.4111126E-2,3.635585E-2,-2.5277121E-2,-4.405822E-3,1.3189094E-2,-1.1920948E-2,9.480575E-3,3.326431E-2,-8.116598E-3,6.985631E-3,-1.6082972E-2,-6.760534E-2,-1.1473432E-3,-7.8791315E-3,1.9814355E-2,-3.1919397E-2,-6.173422E-3,1.2219653E-2],"split_indices":[9,18,6,20,10,19,22,9,22,11,3,5,17,21,3,7,9,21,17,18,0,6,19,9,7,10,21,9,5,20,18,0,0,0,0,0,0,0,0,0,0,0,0,0,0,0,0,0,0,0,0,0,0,0,0,0,0,0,0,0,0],"split_type":[0,0,0,0,0,0,0,0,0,0,0,0,0,0,0,0,0,0,0,0,0,0,0,0,0,0,0,0,0,0,0,0,0,0,0,0,0,0,0,0,0,0,0,0,0,0,0,0,0,0,0,0,0,0,0,0,0,0,0,0,0],"sum_hessian":[1.741467E4,7.351567E3,1.0063104E4,1.9966747E3,5.354892E3,2.2741406E3,7.7889624E3,1.2211392E3,7.755356E2,7.0328545E1,5.2845635E3,4.3073373E2,1.843407E3,6.9547173E3,8.3424493E2,2.2141415E2,9.99725E2,5.7064923E2,2.0488635E2,6.305229E1,7.2762504E0,5.178044E3,1.0651968E2,2.7117575E2,1.5955798E2,9.925468E2,8.5086017E2,3.891941E2,6.5655234E3,2.3144626E2,6.0279865E2,1.8449085E1,2.0296506E2,1.3808904E2,8.616359E2,2.4739644E2,3.232528E2,1.0544013E2,9.944621E1,6.49267E0,5.655962E1,5.008391E3,1.6965277E2,1.9335371E1,8.71843E1,1.64709E2,1.0646675E2,1.0350395E2,5.6054028E1,9.254765E2,6.707035E1,4.3834695E2,4.125132E2,3.805335E2,8.660593E0,3.0925984E3,3.472925E3,2.1500511E2,1.6441141E1,3.9248682E2,2.1031184E2],"tree_param":{"num_deleted":"0","num_feature":"23","num_nodes":"61","size_leaf_vector":"1"}},{"base_weights":[-4.3108602E-4,-1.067266E-2,3.087932E-1,-4.9812673E-3,-6.6471577E-1,7.542368E-1,2.1604922E-1,1.0884445E-2,-1.8939646E-1,-8.376791E-1,-2.917348E-1,9.9936914E-1,5.0250566E-1,3.8967304E-2,3.9070258E-1,-3.6022805E-2,6.430804E-2,-3.124924E-1,-3.139279E-2,-1.7461939E-2,-9.545486E-1,2.5044996E-1,-6.1483204E-1,5.017486E-1,1.1810801E0,-2.9286945E-3,6.221188E-1,7.014818E-1,-5.8836557E-2,4.883604E-1,-8.4245495E-2,-7.7685836E-4,-3.4709882E-2,3.3780973E-2,2.6321935E-3,8.38944E-3,-1.7368974E-2,4.731564E-3,-1.4996827E-2,2.8369932E-2,-2.9085442E-2,-1.7941268E-2,-5.205501E-2,-5.416765E-3,4.7628157E-2,-4.4289853E-2,7.1489713E-3,4.3578185E-2,-4.8249615E-3,6.614366E-2,1.57641E-2,4.4903304E-2,1.5530601E-2,-2.3596374E-2,4.9581714E-2,4.625487E-3,-2.478088E-2,5.099533E-2,1.7540315E-2,-5.931279E-2,6.551832E-3],"categories":[],"categories_nodes":[],"categories_segments":[],"categories_sizes":[],"default_left":[0,0,0,0,0,0,0,0,0,0,0,0,0,0,0,0,0,0,0,0,0,0,0,0,0,0,0,0,0,0,0,0,0,0,0,0,0,0,0,0,0,0,0,0,0,0,0,0,0,0,0,0,0,0,0,0,0,0,0,0,0],"id":15,"left_children":[1,3,5,7,9,11,13,15,17,19,21,23,25,27,29,31,33,35,37,39,41,43,45,47,49,-1,51,53,55,57,59,-1,-1,-1,-1,-1,-1,-1,-1,-1,-1,-1,-1,-1,-1,-1,-1,-1,-1,-1,-1,-1,-1,-1,-1,-1,-1,-1,-1,-1,-1],"loss_changes":[5.492722E1,6.2325195E1,2.2157005E1,4.893357E1,8.265865E0,4.04982E0,1.4101814E1,3.8534164E1,2.557798E1,8.75087E0,9.205501E0,2.009262E0,3.807046E0,1.5565304E1,1.104052E1,1.0991812E2,5.0842323E1,1.2651344E1,1.9930634E1,5.4958463E0,2.8878937E0,5.520664E0,7.263527E0,4.1292133E0,2.0887794E0,0E0,2.560585E0,1.1720075E1,1.3849727E1,1.2748455E1,1.0419184E1,0E0,0E0,0E0,0E0,0E0,0E0,0E0,0E0,0E0,0E0,0E0,0E0,0E0,0E0,0E0,0E0,0E0,0E0,0E0,0E0,0E0,0E0,0E0,0E0,0E0,0E0,0E0,0E0,0E0,0E0],"parents":[2147483647,0,0,1,1,2,2,3,3,4,4,5,5,6,6,7,7,8,8,9,9,10,10,11,11,12,12,13,13,14,14,15,15,16,16,17,17,18,18,19,19,20,20,21,21,22,22,23,23,24,24,26,26,27,27,28,28,29,29,30,30],"right_children":[2,4,6,8,10,12,14,16,18,20,22,24,26,28,30,32,34,36,38,40,42,44,46,48,50,-1,52,54,56,58,60,-1,-1,-1,-1,-1,-1,-1,-1,-1,-1,-1,-1,-1,-1,-1,-1,-1,-1,-1,-1,-1,-1,-1,-1,-1,-1,-1,-1,-1,-1],"split_conditions":[1.9650633E-2,1.7655464E-2,-6.4849514E-3,2.0808134E0,1.79992E-2,-1.12917E0,1.51776E-2,1.1103365E-3,2.427224E-2,-5.2145884E9,-1.20936E-2,4.304E5,3.1288E7,2.0697644E-2,3.4881614E-2,9.366406E-4,1.4924984E-3,-2.2973258E-3,3.82742E-1,-3.110075E-1,9.834897E1,1.0363851E-3,1.0170303E2,7.1091644E-2,1.38613E-1,-2.9286945E-3,1.36981E-2,-1.094872E9,1.69733E-2,1.15924E-2,-5.16129E-3,-7.7685836E-4,-3.4709882E-2,3.3780973E-2,2.6321935E-3,8.38944E-3,-1.7368974E-2,4.731564E-3,-1.4996827E-2,2.8369932E-2,-2.9085442E-2,-1.7941268E-2,-5.205501E-2,-5.416765E-3,4.7628157E-2,-4.4289853E-2,7.1489713E-3,4.3578185E-2,-4.8249615E-3,6.614366E-2,1.57641E-2,4.4903304E-2,1.5530601E-2,-2.3596374E-2,4.9581714E-2,4.625487E-3,-2.478088E-2,5.099533E-2,1.7540315E-2,-5.931279E-2,6.551832E-3],"split_indices":[15,15,7,9,3,9,3,15,13,16,6,17,20,15,15,15,15,7,1,8,22,7,22,14,4,0,3,16,0,4,4,0,0,0,0,0,0,0,0,0,0,0,0,0,0,0,0,0,0,0,0,0,0,0,0,0,0,0,0,0,0],"split_type":[0,0,0,0,0,0,0,0,0,0,0,0,0,0,0,0,0,0,0,0,0,0,0,0,0,0,0,0,0,0,0,0,0,0,0,0,0,0,0,0,0,0,0,0,0,0,0,0,0,0,0,0,0,0,0,0,0,0,0,0,0],"sum_hessian":[1.738691E4,1.6832947E4,5.539629E2,1.669049E4,1.424586E2,9.20752E1,4.618877E2,1.5367551E4,1.3229392E3,9.4707375E1,4.775122E1,4.2633274E1,4.944193E1,2.3198549E2,2.2990219E2,8.178189E3,7.1893613E3,7.407348E2,5.8220435E2,1.2631775E1,8.20756E1,1.7420427E1,3.0330795E1,1.4151931E1,2.848134E1,8.132862E0,4.1309067E1,2.8911205E1,2.0307428E2,1.9151878E2,3.838341E1,7.9340493E3,2.4413971E2,1.3167458E2,7.0576865E3,4.867587E1,6.9205896E2,3.9586392E2,1.8634044E2,5.761982E0,6.869793E0,1.24503E1,6.96253E1,1.21771E1,5.243326E0,2.25793E1,7.7514954E0,8.697504E0,5.4544272E0,2.3069813E1,5.411528E0,1.9056696E1,2.2252369E1,5.1416388E0,2.3769566E1,1.5113655E2,5.193773E1,3.598786E1,1.5553093E2,5.1782846E0,3.3205128E1],"tree_param":{"num_deleted":"0","num_feature":"23","num_nodes":"61","size_leaf_vector":"1"}},{"base_weights":[2.0314383E-3,-3.932475E-3,4.4650075E-1,-1.4530678E-2,2.165187E-1,5.3393215E-1,-3.0595034E-1,2.0715831E-1,-2.2881689E-2,2.8656676E-1,-2.4435398E-1,1.419731E-1,7.0710397E-1,-6.9566935E-1,1.3021032E-2,-1.1543632E-1,4.979224E-1,-1.3938595E0,-1.6464181E-2,-1.07336625E-1,3.5693654E-1,-5.5176693E-1,9.736305E-2,-2.9882649E-2,2.341796E-1,8.523761E-1,3.7416908E-1,1.3214775E-3,-5.4573577E-2,2.7743176E-2,-1.1989484E-2,6.229299E-2,1.6131362E-2,-7.744451E-2,-2.7676785E-2,2.8106195E-3,-2.007772E-3,3.5038948E-2,-1.2046473E-2,2.4521565E-2,2.6199722E-3,7.0485095E-3,-3.486362E-2,-6.8921926E-3,3.2498784E-2,2.975217E-2,-2.6172888E-3,5.4804552E-2,2.356294E-2,3.8976233E-2,2.9721248E-3],"categories":[],"categories_nodes":[],"categories_segments":[],"categories_sizes":[],"default_left":[0,0,0,0,0,0,0,0,0,0,0,0,0,0,0,0,0,0,0,0,0,0,0,0,0,0,0,0,0,0,0,0,0,0,0,0,0,0,0,0,0,0,0,0,0,0,0,0,0,0,0],"id":16,"left_children":[1,3,5,7,9,11,13,15,17,19,21,23,25,27,-1,29,31,33,35,37,39,41,43,-1,45,47,49,-1,-1,-1,-1,-1,-1,-1,-1,-1,-1,-1,-1,-1,-1,-1,-1,-1,-1,-1,-1,-1,-1,-1,-1],"loss_changes":[4.6212795E1,3.990434E1,1.5626743E1,3.0165785E1,2.5447193E1,1.3501614E1,6.0331564E0,5.5756676E1,1.3781825E2,1.9099548E1,1.12048435E1,4.6786056E0,5.6635056E0,5.0782647E0,0E0,2.3535263E1,3.9332863E1,6.7433014E0,2.6991951E1,1.1313573E1,2.325576E1,6.0733643E0,6.925673E0,0E0,6.719056E0,7.185875E0,5.6167192E0,0E0,0E0,0E0,0E0,0E0,0E0,0E0,0E0,0E0,0E0,0E0,0E0,0E0,0E0,0E0,0E0,0E0,0E0,0E0,0E0,0E0,0E0,0E0,0E0],"parents":[2147483647,0,0,1,1,2,2,3,3,4,4,5,5,6,6,7,7,8,8,9,9,10,10,11,11,12,12,13,13,15,15,16,16,17,17,18,18,19,19,20,20,21,21,22,22,24,24,25,25,26,26],"right_children":[2,4,6,8,10,12,14,16,18,20,22,24,26,28,-1,30,32,34,36,38,40,42,44,-1,46,48,50,-1,-1,-1,-1,-1,-1,-1,-1,-1,-1,-1,-1,-1,-1,-1,-1,-1,-1,-1,-1,-1,-1,-1,-1],"split_conditions":[2.6320238E-2,1.57798E-1,8.06954E-2,-2.5826303E-2,4.72873E-1,7.62E4,5.531418E-2,-3.5932325E-2,-2.2994818E-2,9.9E5,1.1941021E-2,2.43828E-1,3.4881614E-2,4.69443E-2,1.3021032E-2,-1.77966E-1,-5.454118E-3,1.86461E-2,-4.77995E-2,-1.84211E-2,1.4369316E0,4.2011827E-2,4.62672E9,-2.9882649E-2,4.9747664E-2,7.119E9,5.1182915E-2,1.3214775E-3,-5.4573577E-2,2.7743176E-2,-1.1989484E-2,6.229299E-2,1.6131362E-2,-7.744451E-2,-2.7676785E-2,2.8106195E-3,-2.007772E-3,3.5038948E-2,-1.2046473E-2,2.4521565E-2,2.6199722E-3,7.0485095E-3,-3.486362E-2,-6.8921926E-3,3.2498784E-2,2.975217E-2,-2.6172888E-3,5.4804552E-2,2.356294E-2,3.8976233E-2,2.9721248E-3],"split_indices":[15,5,0,15,6,18,13,15,15,19,7,2,15,3,0,5,7,0,6,3,11,13,19,0,14,20,14,0,0,0,0,0,0,0,0,0,0,0,0,0,0,0,0,0,0,0,0,0,0,0,0],"split_type":[0,0,0,0,0,0,0,0,0,0,0,0,0,0,0,0,0,0,0,0,0,0,0,0,0,0,0,0,0,0,0,0,0,0,0,0,0,0,0,0,0,0,0,0,0,0,0,0,0,0,0],"sum_hessian":[1.7346879E4,1.7118045E4,2.2883351E2,1.633679E4,7.8125586E2,2.0612772E2,2.270579E1,5.891631E2,1.5747627E4,6.797777E2,1.0147815E2,6.5163315E1,1.409644E2,1.3703003E1,9.002787E0,2.790506E2,3.101125E2,7.099314E1,1.5676634E4,1.0179754E2,5.7798016E2,5.3543533E1,4.793462E1,5.4068437E0,5.975647E1,9.492349E1,4.604091E1,5.0652285E0,8.637774E0,4.1955227E1,2.3709537E2,5.602066E1,2.5409183E2,5.8009586E1,1.2983554E1,3.8481118E3,1.1828521E4,1.2705683E1,8.909185E1,3.9984448E2,1.7813571E2,8.708634E0,4.4834896E1,3.4041824E1,1.3892796E1,2.6266594E1,3.3489876E1,5.480998E1,4.0113514E1,1.8137793E1,2.7903114E1],"tree_param":{"num_deleted":"0","num_feature":"23","num_nodes":"51","size_leaf_vector":"1"}},{"base_weights":[-2.9198534E-3,1.720845E-2,-1.22561395E-1,8.173958E-3,2.815392E-1,2.1156149E-2,-1.8027113E-1,1.5650053E-2,-5.5825025E-1,7.0486253E-1,1.6768663E-1,-7.9531E-2,2.2044735E-1,-2.525327E-1,-9.826194E-2,2.9414261E-3,2.856843E-1,-1.2960888E-1,-7.127962E-1,9.689168E-1,4.1084695E-1,3.212033E-1,-5.698531E-2,3.8528988E-1,-1.5118556E-1,-1.06991716E-1,3.402062E-1,-2.932395E-1,7.7016056E-2,2.9326996E-2,-2.4990033E-1,-1.8725699E-2,4.5122436E-4,2.7630663E-2,-8.6708105E-4,-2.2419678E-2,2.7600193E-2,-0E0,-4.112072E-2,1.5274678E-2,5.8546104E-2,-6.658673E-3,3.0967632E-2,-1.8384751E-2,1.988935E-2,-5.877626E-2,1.4828356E-2,1.0594475E-2,6.0273845E-2,-1.2542648E-3,-2.0288166E-2,2.0569637E-2,-1.8929154E-2,2.0667939E-2,-1.7389543E-2,-8.252426E-3,-1.9506956E-2,4.698104E-2,-1.0582157E-2,-7.7517354E-3,9.261749E-3,-1.40877385E-2,2.861896E-2],"categories":[],"categories_nodes":[],"categories_segments":[],"categories_sizes":[],"default_left":[0,0,0,0,0,0,0,0,0,0,0,0,0,0,0,0,0,0,0,0,0,0,0,0,0,0,0,0,0,0,0,0,0,0,0,0,0,0,0,0,0,0,0,0,0,0,0,0,0,0,0,0,0,0,0,0,0,0,0,0,0,0,0],"id":17,"left_children":[1,3,5,7,9,11,13,15,17,19,21,23,25,27,29,31,33,35,37,39,41,43,45,47,49,51,53,55,57,59,61,-1,-1,-1,-1,-1,-1,-1,-1,-1,-1,-1,-1,-1,-1,-1,-1,-1,-1,-1,-1,-1,-1,-1,-1,-1,-1,-1,-1,-1,-1,-1,-1],"loss_changes":[4.1756535E1,3.52429E1,2.080104E1,6.0447327E1,2.2842907E1,1.4449667E1,1.0350925E1,4.841523E1,1.17099495E1,6.4216576E0,1.3553079E1,1.581047E1,9.684372E0,1.2819386E1,1.6424168E1,3.0863098E1,5.1588436E1,1.1866E1,1.0473381E1,5.420513E0,6.37024E0,1.2555788E1,6.357956E1,7.745597E0,1.3044165E1,9.4810505E0,9.323479E0,1.0054459E1,2.6667423E1,1.3222793E1,1.0312613E1,0E0,0E0,0E0,0E0,0E0,0E0,0E0,0E0,0E0,0E0,0E0,0E0,0E0,0E0,0E0,0E0,0E0,0E0,0E0,0E0,0E0,0E0,0E0,0E0,0E0,0E0,0E0,0E0,0E0,0E0,0E0,0E0],"parents":[2147483647,0,0,1,1,2,2,3,3,4,4,5,5,6,6,7,7,8,8,9,9,10,10,11,11,12,12,13,13,14,14,15,15,16,16,17,17,18,18,19,19,20,20,21,21,22,22,23,23,24,24,25,25,26,26,27,27,28,28,29,29,30,30],"right_children":[2,4,6,8,10,12,14,16,18,20,22,24,26,28,30,32,34,36,38,40,42,44,46,48,50,52,54,56,58,60,62,-1,-1,-1,-1,-1,-1,-1,-1,-1,-1,-1,-1,-1,-1,-1,-1,-1,-1,-1,-1,-1,-1,-1,-1,-1,-1,-1,-1,-1,-1,-1,-1],"split_conditions":[1.3920335E0,1.9650633E-2,-2.16883E-2,1.6904846E-2,-5.946926E-3,9.988601E1,2.238225E-2,1.2943692E-2,-4.66135E8,-1.089034E0,2.491899E-2,-9.35453E-2,1.7642468E0,1.933595E0,5.12813E-2,-1.3774698E0,1.4624066E-2,4.9176797E-2,2E3,1.63031E5,9.8504974E1,-2.7151728E0,2.6320238E-2,6.168886E10,5.553E5,6.75461E-1,5.1341043E0,2.042093E0,1.4482395E-2,1.00187256E2,3.03333E-1,-1.8725699E-2,4.5122436E-4,2.7630663E-2,-8.6708105E-4,-2.2419678E-2,2.7600193E-2,-0E0,-4.112072E-2,1.5274678E-2,5.8546104E-2,-6.658673E-3,3.0967632E-2,-1.8384751E-2,1.988935E-2,-5.877626E-2,1.4828356E-2,1.0594475E-2,6.0273845E-2,-1.2542648E-3,-2.0288166E-2,2.0569637E-2,-1.8929154E-2,2.0667939E-2,-1.7389543E-2,-8.252426E-3,-1.9506956E-2,4.698104E-2,-1.0582157E-2,-7.7517354E-3,9.261749E-3,-1.40877385E-2,2.861896E-2],"split_indices":[9,15,5,15,7,22,13,15,16,9,15,0,9,10,0,8,15,13,18,18,22,10,15,19,17,2,9,9,13,22,6,0,0,0,0,0,0,0,0,0,0,0,0,0,0,0,0,0,0,0,0,0,0,0,0,0,0,0,0,0,0,0,0],"split_type":[0,0,0,0,0,0,0,0,0,0,0,0,0,0,0,0,0,0,0,0,0,0,0,0,0,0,0,0,0,0,0,0,0,0,0,0,0,0,0,0,0,0,0,0,0,0,0,0,0,0,0,0,0,0,0,0,0,0,0,0,0,0,0],"sum_hessian":[1.731382E4,1.4818339E4,2.4954807E3,1.4332428E4,4.8591092E2,7.12846E2,1.7826348E3,1.4148513E4,1.8391527E2,9.9855896E1,3.8605502E2,4.7271228E2,2.401337E2,9.4218365E2,8.4045105E2,1.351627E4,6.3224304E2,5.0569817E1,1.3334546E2,4.9293816E1,5.056208E1,2.3015677E2,1.5589825E2,6.1036762E1,4.1167554E2,6.3246433E1,1.7688727E2,8.401442E2,1.0203948E2,4.5550436E2,3.8494666E2,2.1114813E2,1.3305122E4,3.361439E2,2.9609918E2,3.542139E1,1.5148423E1,1.81906E1,1.1515486E2,1.3256565E1,3.603725E1,1.354524E1,3.701684E1,2.1612572E1,2.085442E2,3.6664997E1,1.1923326E2,5.296536E1,8.0714035E0,2.7809003E2,1.3358551E2,2.0757067E1,4.2489365E1,1.6126553E2,1.562174E1,3.6622382E2,4.7392038E2,2.4888048E1,7.7151436E1,2.07243E2,2.4826137E2,3.7244138E2,1.2505303E1],"tree_param":{"num_deleted":"0","num_feature":"23","num_nodes":"63","size_leaf_vector":"1"}},{"base_weights":[-5.8519474E-4,-1.0989613E-2,2.582237E-1,-1.0305537E-1,1.2359209E-2,3.2846728E-1,-1.2842925E-1,-1.3690102E-1,9.5414616E-2,7.6144606E-2,-2.987085E-2,1.3107635E-1,4.5884332E-1,2.826134E-1,-4.771158E-1,-5.92585E-1,-1.0915202E-1,1.4975818E-1,-9.410224E-1,-3.5582385E-3,1.3691673E-1,7.66197E-2,-7.05077E-2,2.2190908E-1,-5.746656E-1,9.3381125E-1,3.7915507E-1,5.706632E-1,-5.423278E-1,-9.945739E-1,-6.194855E-2,-2.2074062E-2,-5.142204E-2,-3.7190614E-3,-1.8923117E-2,1.2442555E-3,2.9473085E-2,-0E0,-5.9181955E-2,3.4051392E-2,-8.747961E-4,1.0827881E-2,1.9568705E-3,1.0715826E-2,-1.1333472E-3,-4.1556223E-3,1.8687386E-2,1.3883143E-2,-4.1907266E-2,-4.0282782E-2,-2.2084357E-3,2.800166E-2,6.5812424E-2,2.1710418E-2,-1.6780103E-2,7.2083706E-3,5.366781E-2,-4.01372E-2,-1.4611209E-3,-6.3021122E-3,-5.9716206E-2,2.1414675E-2,-2.7017582E-2],"categories":[],"categories_nodes":[],"categories_segments":[],"categories_sizes":[],"default_left":[0,0,0,0,0,0,0,0,0,0,0,0,0,0,0,0,0,0,0,0,0,0,0,0,0,0,0,0,0,0,0,0,0,0,0,0,0,0,0,0,0,0,0,0,0,0,0,0,0,0,0,0,0,0,0,0,0,0,0,0,0,0,0],"id":18,"left_children":[1,3,5,7,9,11,13,15,17,19,21,23,25,27,29,31,33,35,37,39,41,43,45,47,49,51,53,55,57,59,61,-1,-1,-1,-1,-1,-1,-1,-1,-1,-1,-1,-1,-1,-1,-1,-1,-1,-1,-1,-1,-1,-1,-1,-1,-1,-1,-1,-1,-1,-1,-1,-1],"loss_changes":[4.680646E1,3.6068035E1,1.842773E1,2.2848522E1,3.6025814E1,1.4256054E1,1.5217033E1,3.622613E1,2.7685158E1,2.5878262E1,3.478882E1,1.4892598E1,1.1542038E1,1.2075107E1,1.1692704E1,9.232971E0,2.5372643E1,2.5533052E1,5.08811E0,2.1672726E1,2.3427185E1,3.0421795E1,3.2517544E1,1.2408088E1,2.7243195E0,4.266514E0,1.1999149E1,7.038726E0,1.2792735E0,3.3603382E0,8.622012E0,0E0,0E0,0E0,0E0,0E0,0E0,0E0,0E0,0E0,0E0,0E0,0E0,0E0,0E0,0E0,0E0,0E0,0E0,0E0,0E0,0E0,0E0,0E0,0E0,0E0,0E0,0E0,0E0,0E0,0E0,0E0,0E0],"parents":[2147483647,0,0,1,1,2,2,3,3,4,4,5,5,6,6,7,7,8,8,9,9,10,10,11,11,12,12,13,13,14,14,15,15,16,16,17,17,18,18,19,19,20,20,21,21,22,22,23,23,24,24,25,25,26,26,27,27,28,28,29,29,30,30],"right_children":[2,4,6,8,10,12,14,16,18,20,22,24,26,28,30,32,34,36,38,40,42,44,46,48,50,52,54,56,58,60,62,-1,-1,-1,-1,-1,-1,-1,-1,-1,-1,-1,-1,-1,-1,-1,-1,-1,-1,-1,-1,-1,-1,-1,-1,-1,-1,-1,-1,-1,-1,-1,-1],"split_conditions":[7.52411E-1,7.02E4,-2.6857728E-1,5.37897E-1,-7.221117E-1,6.551E7,9.162E5,9.6055984E1,8.718517E-3,0E0,-2.62605E-2,2.5339844E0,1.27E4,1.50229E-1,-2.90323E-2,-6.0370266E-1,5.072083E-2,3.042347E9,3.593715E-2,-4.2060685E0,1.8289128E-1,2.6226327E-2,1.25E-1,1.12466736E2,1.0786029E2,1.01625175E2,1.722185E10,2.512E5,5.6106426E-2,8.9280594E1,1.4417253E0,-2.2074062E-2,-5.142204E-2,-3.7190614E-3,-1.8923117E-2,1.2442555E-3,2.9473085E-2,-0E0,-5.9181955E-2,3.4051392E-2,-8.747961E-4,1.0827881E-2,1.9568705E-3,1.0715826E-2,-1.1333472E-3,-4.1556223E-3,1.8687386E-2,1.3883143E-2,-4.1907266E-2,-4.0282782E-2,-2.2084357E-3,2.800166E-2,6.5812424E-2,2.1710418E-2,-1.6780103E-2,7.2083706E-3,5.366781E-2,-4.01372E-2,-1.4611209E-3,-6.3021122E-3,-5.9716206E-2,2.1414675E-2,-2.7017582E-2],"split_indices":[1,18,9,1,9,19,18,21,7,7,5,10,18,0,5,11,14,19,14,10,11,14,4,21,21,22,16,18,14,21,10,0,0,0,0,0,0,0,0,0,0,0,0,0,0,0,0,0,0,0,0,0,0,0,0,0,0,0,0,0,0,0,0],"split_type":[0,0,0,0,0,0,0,0,0,0,0,0,0,0,0,0,0,0,0,0,0,0,0,0,0,0,0,0,0,0,0,0,0,0,0,0,0,0,0,0,0,0,0,0,0,0,0,0,0,0,0,0,0,0,0,0,0,0,0,0,0,0,0],"sum_hessian":[1.7424162E4,1.6754459E4,6.697017E2,3.3924438E3,1.3362016E4,5.680904E2,1.0161137E2,2.900887E3,4.915569E2,5.3266846E3,8.035331E3,2.2909042E2,3.3899994E2,4.6151527E1,5.5459835E1,1.6313959E2,2.7377473E3,4.691513E2,2.2405603E1,2.3016794E3,3.025005E3,2.215485E3,5.819846E3,2.048099E2,2.4280514E1,4.4723324E1,2.942766E2,3.511336E1,1.1038169E1,2.2909838E1,3.2549995E1,1.2498307E2,3.8156517E1,2.4285986E3,3.0914868E2,3.679158E2,1.0123549E2,5.347924E0,1.7057678E1,4.3299747E1,2.25838E3,1.6629751E3,1.3620298E3,9.2933923E2,1.286146E3,5.661952E3,1.5789374E2,1.9642662E2,8.383289E0,1.5535947E1,8.744567E0,2.5771503E1,1.895182E1,2.746097E2,1.9666918E1,2.0926813E1,1.4186547E1,5.926748E0,5.1114216E0,5.361723E0,1.7548115E1,1.5663361E1,1.6886635E1],"tree_param":{"num_deleted":"0","num_feature":"23","num_nodes":"63","size_leaf_vector":"1"}},{"base_weights":[5.71866E-3,-4.7136156E-4,4.743876E-1,-4.2614955E-2,5.4772004E-2,5.245996E-1,-4.2010435E-1,-4.0509003E-1,-3.5004105E-2,9.5200546E-2,-4.311465E-2,4.885014E-2,6.4052707E-1,-4.6191495E-2,7.159172E-3,-6.1986935E-1,-1.2184149E-2,-1.5238811E-1,-1.0023766E-2,-8.673927E-2,1.3350631E-1,2.4539055E-1,-6.855058E-2,-3.4231558E-1,3.627547E-1,7.909714E-1,3.4804168E-1,3.0000309E-2,-3.4580607E-2,1.19826775E-2,-3.0384703E-2,-3.5332546E-3,-2.0884942E-2,2.5358957E-3,-2.6022154E-3,-1.3500567E-2,1.14942E-2,1.6989274E-2,4.7827223E-3,5.79514E-3,3.9562438E-2,3.0877008E-4,-1.0486629E-2,1.7055867E-2,-3.8086977E-2,3.13263E-3,3.700474E-2,4.9655672E-2,2.1171244E-2,-1.4427982E-2,2.8572926E-2],"categories":[],"categories_nodes":[],"categories_segments":[],"categories_sizes":[],"default_left":[0,0,0,0,0,0,0,0,0,0,0,0,0,0,0,0,0,0,0,0,0,0,0,0,0,0,0,0,0,0,0,0,0,0,0,0,0,0,0,0,0,0,0,0,0,0,0,0,0,0,0],"id":19,"left_children":[1,3,5,7,9,11,13,15,17,19,21,23,25,-1,-1,27,29,31,33,35,37,39,41,43,45,47,49,-1,-1,-1,-1,-1,-1,-1,-1,-1,-1,-1,-1,-1,-1,-1,-1,-1,-1,-1,-1,-1,-1,-1,-1],"loss_changes":[5.0510098E1,3.981948E1,1.068618E1,2.653525E1,2.9308899E1,1.1522392E1,4.242468E0,1.6387737E1,2.7809254E1,3.656204E1,1.5795967E1,5.832022E0,6.4885483E0,0E0,0E0,1.2010845E1,1.1406099E1,3.5807888E1,2.0039816E1,5.296159E1,3.3535843E1,1.1650924E1,2.1079021E1,6.6143627E0,2.5477989E0,6.7333984E0,9.492945E0,0E0,0E0,0E0,0E0,0E0,0E0,0E0,0E0,0E0,0E0,0E0,0E0,0E0,0E0,0E0,0E0,0E0,0E0,0E0,0E0,0E0,0E0,0E0,0E0],"parents":[2147483647,0,0,1,1,2,2,3,3,4,4,5,5,6,6,7,7,8,8,9,9,10,10,11,11,12,12,15,15,16,16,17,17,18,18,19,19,20,20,21,21,22,22,23,23,24,24,25,25,26,26],"right_children":[2,4,6,8,10,12,14,16,18,20,22,24,26,-1,-1,28,30,32,34,36,38,40,42,44,46,48,50,-1,-1,-1,-1,-1,-1,-1,-1,-1,-1,-1,-1,-1,-1,-1,-1,-1,-1,-1,-1,-1,-1,-1,-1],"split_conditions":[2.6320238E-2,3.72961E-1,6.8368125E-1,-1.373789E0,-3.434768E-1,3.4E3,1.3275E6,3.206E5,9.810203E1,-1.3854E-1,-1.8253526E-2,5.31008E-1,3.4881614E-2,-4.6191495E-2,7.159172E-3,-1.00001E-1,1.39415E8,-3.9444858E-1,-2.36128E-3,7.2656274E-2,-2.0120585E-1,-2.1088084E-2,4.5E-2,3.36933E-1,-4.745321E-1,7.300665E9,-2.01129E-3,3.0000309E-2,-3.4580607E-2,1.19826775E-2,-3.0384703E-2,-3.5332546E-3,-2.0884942E-2,2.5358957E-3,-2.6022154E-3,-1.3500567E-2,1.14942E-2,1.6989274E-2,4.7827223E-3,5.79514E-3,3.9562438E-2,3.0877008E-4,-1.0486629E-2,1.7055867E-2,-3.8086977E-2,3.13263E-3,3.700474E-2,4.9655672E-2,2.1171244E-2,-1.4427982E-2,2.8572926E-2],"split_indices":[15,1,12,9,9,18,18,18,21,0,15,1,15,0,0,5,20,10,5,13,12,15,14,1,9,20,4,0,0,0,0,0,0,0,0,0,0,0,0,0,0,0,0,0,0,0,0,0,0,0,0],"split_type":[0,0,0,0,0,0,0,0,0,0,0,0,0,0,0,0,0,0,0,0,0,0,0,0,0,0,0,0,0,0,0,0,0,0,0,0,0,0,0,0,0,0,0,0,0,0,0,0,0,0,0],"sum_hessian":[1.7327012E4,1.7102064E4,2.2494719E2,9.706647E3,7.395417E3,2.1430336E2,1.0643828E1,1.9611891E2,9.510528E3,5.2374434E3,2.1579736E3,4.339057E1,1.7091278E2,5.4117928E0,5.2320356E0,1.2523318E2,7.0885735E1,1.6634883E3,7.84704E3,9.082019E2,4.3292417E3,1.7184799E2,1.9861257E3,1.852819E1,2.4862381E1,1.0948131E2,6.1431473E1,5.750962E0,1.19482216E2,5.006785E1,2.0817888E1,1.2751302E3,3.8835803E2,3.2037014E3,4.643339E3,5.764228E2,3.3177908E2,6.667159E2,3.6625256E3,1.4159877E2,3.0249218E1,1.2976603E3,6.8846545E2,6.735034E0,1.1793156E1,1.5885574E1,8.976808E0,6.756032E1,4.1920986E1,1.5225886E1,4.620559E1],"tree_param":{"num_deleted":"0","num_feature":"23","num_nodes":"51","size_leaf_vector":"1"}},{"base_weights":[-1.1141472E-3,-1.0984255E-2,2.984603E-1,-3.7583015E-3,-4.158596E-1,6.849968E-1,2.0285325E-1,-1.4511259E-2,2.496032E-1,1.8477388E-1,-5.110026E-1,4.0906245E-1,9.4442964E-1,2.4653669E-1,-3.8794094E-1,2.2801988E-1,-2.4172546E-2,4.592587E-1,-4.4953585E-2,3.7362024E-1,-1.6050262E-2,-1.0233467E0,-4.0450338E-1,7.354948E-1,1.8417677E-2,1.0508411E0,7.7719497E-3,-1.7083991E-2,3.4484795E-1,1.6213426E-2,-7.193797E-1,-4.114563E-3,2.5002336E-2,-6.395388E-2,-8.9757284E-4,4.229531E-2,1.4511238E-2,-2.6387079E-2,6.5390985E-3,2.8593918E-2,-1.264845E-2,-5.8653124E-2,-0E0,1.1411599E-3,-2.8004551E-2,-0E0,4.667428E-2,1.2679894E-2,-2.769657E-2,5.9579115E-2,2.627919E-2,-8.696235E-3,2.7294723E-2,3.234043E-2,1.1037915E-2,-4.7752615E-2,-0E0],"categories":[],"categories_nodes":[],"categories_segments":[],"categories_sizes":[],"default_left":[0,0,0,0,0,0,0,0,0,0,0,0,0,0,0,0,0,0,0,0,0,0,0,0,0,0,0,0,0,0,0,0,0,0,0,0,0,0,0,0,0,0,0,0,0,0,0,0,0,0,0,0,0,0,0,0,0],"id":20,"left_children":[1,3,5,7,9,11,13,15,17,19,21,23,25,27,29,31,33,35,37,39,-1,41,43,45,47,49,-1,51,53,-1,55,-1,-1,-1,-1,-1,-1,-1,-1,-1,-1,-1,-1,-1,-1,-1,-1,-1,-1,-1,-1,-1,-1,-1,-1,-1,-1],"loss_changes":[5.122423E1,4.8995575E1,1.9696354E1,4.491893E1,1.7135513E1,6.259098E0,1.1652195E1,3.706951E1,4.1694633E1,4.1737967E0,1.2360298E1,6.8190336E0,3.523117E0,1.1010788E1,7.923396E0,5.142498E1,1.1840197E2,2.4641815E1,2.4083483E1,4.353583E0,0E0,6.372837E0,1.4592354E1,4.038103E0,3.9716203E0,1.2768059E0,0E0,1.0077341E1,1.0746037E1,0E0,4.0765305E0,0E0,0E0,0E0,0E0,0E0,0E0,0E0,0E0,0E0,0E0,0E0,0E0,0E0,0E0,0E0,0E0,0E0,0E0,0E0,0E0,0E0,0E0,0E0,0E0,0E0,0E0],"parents":[2147483647,0,0,1,1,2,2,3,3,4,4,5,5,6,6,7,7,8,8,9,9,10,10,11,11,12,12,13,13,14,14,15,15,16,16,17,17,18,18,19,19,21,21,22,22,23,23,24,24,25,25,27,27,28,28,30,30],"right_children":[2,4,6,8,10,12,14,16,18,20,22,24,26,28,30,32,34,36,38,40,-1,42,44,46,48,50,-1,52,54,-1,56,-1,-1,-1,-1,-1,-1,-1,-1,-1,-1,-1,-1,-1,-1,-1,-1,-1,-1,-1,-1,-1,-1,-1,-1,-1,-1],"split_conditions":[1.9650633E-2,1.6771147E-2,9.6055984E1,1.2943692E-2,3.4E3,-9.26578E-2,1.2704631E0,-2.5826303E-2,1.4624066E-2,1.8550351E-2,-3.77371E-2,-9.4602877E-1,-5.767209E-1,7.62E4,8.74894E-1,-3.5932325E-2,-2.2994818E-2,7.10423E-1,1.5083319E-2,5.9908E-2,-1.6050262E-2,4.5711675E-1,-1.5430383E-1,2.28E6,-2.5345206E0,1.01851E-1,7.7719497E-3,8.725374E-1,8.05233E-1,1.6213426E-2,1.56628E0,-4.114563E-3,2.5002336E-2,-6.395388E-2,-8.9757284E-4,4.229531E-2,1.4511238E-2,-2.6387079E-2,6.5390985E-3,2.8593918E-2,-1.264845E-2,-5.8653124E-2,-0E0,1.1411599E-3,-2.8004551E-2,-0E0,4.667428E-2,1.2679894E-2,-2.769657E-2,5.9579115E-2,2.627919E-2,-8.696235E-3,2.7294723E-2,3.234043E-2,1.1037915E-2,-4.7752615E-2,-0E0],"split_indices":[15,15,21,15,18,5,11,15,15,15,3,9,11,18,2,15,15,2,15,3,0,11,12,20,10,4,0,10,2,0,2,0,0,0,0,0,0,0,0,0,0,0,0,0,0,0,0,0,0,0,0,0,0,0,0,0,0],"split_type":[0,0,0,0,0,0,0,0,0,0,0,0,0,0,0,0,0,0,0,0,0,0,0,0,0,0,0,0,0,0,0,0,0,0,0,0,0,0,0,0,0,0,0,0,0,0,0,0,0,0,0,0,0,0,0,0,0],"sum_hessian":[1.7368418E4,1.6817912E4,5.505056E2,1.6526217E4,2.916957E2,1.0568108E2,4.4482455E2,1.5857082E4,6.6913416E2,3.8911266E1,2.5278444E2,5.464313E1,5.1037952E1,4.1607184E2,2.8752712E1,6.037577E2,1.5253325E4,3.9124115E2,2.77893E2,2.9432875E1,9.478394E0,3.9731636E1,2.1305281E2,2.8109043E1,2.6534086E1,4.3829212E1,7.2087407E0,1.12084625E2,3.039872E2,8.665854E0,2.0086857E1,2.8182562E2,3.2193204E2,7.282902E1,1.5180496E4,1.1567653E2,2.7556464E2,7.3849556E1,2.0404346E2,2.3097298E1,6.3355775E0,3.4390305E1,5.3413286E0,5.646441E1,1.565884E2,6.7836146E0,2.132543E1,2.021507E1,6.319014E0,3.1815327E1,1.20138855E1,8.943821E1,2.2646418E1,8.491072E1,2.1907649E2,1.5000567E1,5.08629E0],"tree_param":{"num_deleted":"0","num_feature":"23","num_nodes":"57","size_leaf_vector":"1"}},{"base_weights":[2.2840868E-3,-1.1500096E-2,1.7605202E-1,4.0591958E-1,-1.6686656E-2,-1.5044743E-1,2.4163528E-1,-3.4441504E-1,4.9601382E-1,-1.172988E-1,4.5291106E-3,1.8500099E-1,-3.9433512E-1,1.911592E-1,6.292476E-1,-5.2946E-2,2.069957E-1,-1.2816183E-1,6.152227E-1,-1.7392921E-1,1.6236451E-1,3.28865E-2,-9.713157E-2,3.7476882E-1,-5.601984E-1,-4.7901854E-1,2.2670455E-2,2.3535772E-1,-3.2975858E-1,8.987321E-1,3.0343318E-1,3.2213215E-2,-9.232871E-3,7.7052484E-3,-3.55529E-2,3.6009934E-2,-0E0,-3.1026367E-2,-7.454291E-3,1.5428047E-2,-1.5581264E-2,-8.752142E-5,7.7983625E-3,-8.724792E-3,1.569603E-3,-8.764183E-3,3.0687079E-2,-5.1734187E-2,-0E0,1.1080801E-2,-2.8223667E-2,1.59426E-2,-1.3129445E-4,-2.7848944E-2,-0E0,5.5975135E-2,1.6709898E-2,-1.3062795E-2,2.4080465E-2],"categories":[],"categories_nodes":[],"categories_segments":[],"categories_sizes":[],"default_left":[0,0,0,0,0,0,0,0,0,0,0,0,0,0,0,0,0,0,0,0,0,0,0,0,0,0,0,0,0,0,0,0,0,0,0,0,0,0,0,0,0,0,0,0,0,0,0,0,0,0,0,0,0,0,0,0,0,0,0],"id":21,"left_children":[1,3,5,7,9,11,13,15,17,19,21,23,25,27,29,-1,31,33,35,37,39,41,43,45,47,49,-1,51,53,55,57,-1,-1,-1,-1,-1,-1,-1,-1,-1,-1,-1,-1,-1,-1,-1,-1,-1,-1,-1,-1,-1,-1,-1,-1,-1,-1,-1,-1],"loss_changes":[4.1708786E1,3.4673176E1,2.7525127E1,1.369952E1,3.4007023E1,1.7762245E1,2.024231E1,9.393314E0,1.3558651E1,4.3993874E1,3.783387E1,1.3140484E1,9.452547E0,2.1954098E1,9.479752E0,0E0,2.7791116E0,5.3248343E0,9.7747E0,2.5051277E1,3.2528378E1,4.3876373E1,2.8529476E1,1.015501E1,5.288844E0,7.3402996E0,0E0,1.757983E1,5.539137E0,6.548626E0,6.262433E0,0E0,0E0,0E0,0E0,0E0,0E0,0E0,0E0,0E0,0E0,0E0,0E0,0E0,0E0,0E0,0E0,0E0,0E0,0E0,0E0,0E0,0E0,0E0,0E0,0E0,0E0,0E0,0E0],"parents":[2147483647,0,0,1,1,2,2,3,3,4,4,5,5,6,6,7,7,8,8,9,9,10,10,11,11,12,12,13,13,14,14,16,16,17,17,18,18,19,19,20,20,21,21,22,22,23,23,24,24,25,25,27,27,28,28,29,29,30,30],"right_children":[2,4,6,8,10,12,14,16,18,20,22,24,26,28,30,-1,32,34,36,38,40,42,44,46,48,50,-1,52,54,56,58,-1,-1,-1,-1,-1,-1,-1,-1,-1,-1,-1,-1,-1,-1,-1,-1,-1,-1,-1,-1,-1,-1,-1,-1,-1,-1,-1,-1],"split_conditions":[1.25699E-1,-3.0677E-1,7.5E6,5.49719E-1,2.94E4,2.5339844E0,7.78633E-1,8.3E3,1.69E6,5.27683E-1,1.3042386E0,6.232157E-3,2.7066846E0,4.72873E-1,2.7363E6,-5.2946E-2,-9.33173E-1,-2.8169E-2,5.4444E6,9.6055984E1,9E2,6.722432E-3,4.93038E-2,1.349402E0,1.0622524E2,4.60092E-3,2.2670455E-2,1.5367031E0,1.1941021E-2,2.9368668E0,3.292E6,3.2213215E-2,-9.232871E-3,7.7052484E-3,-3.55529E-2,3.6009934E-2,-0E0,-3.1026367E-2,-7.454291E-3,1.5428047E-2,-1.5581264E-2,-8.752142E-5,7.7983625E-3,-8.724792E-3,1.569603E-3,-8.764183E-3,3.0687079E-2,-5.1734187E-2,-0E0,1.1080801E-2,-2.8223667E-2,1.59426E-2,-1.3129445E-4,-2.7848944E-2,-0E0,5.5975135E-2,1.6709898E-2,-1.3062795E-2,2.4080465E-2],"split_indices":[5,6,19,1,18,10,1,18,20,1,10,7,11,6,17,0,9,3,17,21,17,15,4,10,21,3,0,11,7,10,18,0,0,0,0,0,0,0,0,0,0,0,0,0,0,0,0,0,0,0,0,0,0,0,0,0,0,0,0],"split_type":[0,0,0,0,0,0,0,0,0,0,0,0,0,0,0,0,0,0,0,0,0,0,0,0,0,0,0,0,0,0,0,0,0,0,0,0,0,0,0,0,0,0,0,0,0,0,0,0,0,0,0,0,0,0,0,0,0,0,0],"sum_hessian":[1.737509E4,1.6097168E4,1.2779214E3,1.9447763E2,1.590269E4,2.1204842E2,1.065873E3,1.9647911E1,1.7482971E2,2.7719067E3,1.3130783E4,8.8607925E1,1.234405E2,9.4684784E2,1.1902517E2,8.151451E0,1.1496461E1,2.733895E1,1.4749077E2,2.307245E3,4.6466156E2,1.0271818E4,2.8589656E3,7.195058E1,1.6657345E1,1.1355671E2,9.883784E0,8.74689E2,7.215886E1,6.237922E1,5.664595E1,5.4256053E0,6.070855E0,1.8832697E1,8.506253E0,1.25932495E2,2.1558268E1,1.17996506E2,2.1892488E3,3.5646664E2,1.0819492E2,8.0143564E3,2.2574612E3,1.786665E3,1.0723007E3,2.131948E1,5.06311E1,8.409344E0,8.248E0,1.1362122E1,1.0219459E2,6.485669E2,2.2612212E2,4.1849476E1,3.0309381E1,4.279264E1,1.9586575E1,1.2689778E1,4.395617E1],"tree_param":{"num_deleted":"0","num_feature":"23","num_nodes":"59","size_leaf_vector":"1"}},{"base_weights":[3.4865917E-4,-5.1873147E-2,5.1119477E-2,-1.06256366E-1,1.6627807E-2,1.2121421E-1,-1.0488957E-2,-7.197426E-2,-3.3056402E-1,5.5508174E-2,-1.5827009E-1,-4.5540985E-2,1.6381647E-1,7.057061E-2,-8.750695E-2,-8.629433E-2,6.4389586E-1,-2.2773625E-1,-6.2683517E-1,2.215586E-1,5.1231803E-3,1.7970121E-1,-2.2205964E-1,6.605404E-1,-1.23671696E-1,2.4335498E-1,3.2668024E-2,-1.21053696E-1,1.1780472E-1,-1.4942618E-1,6.2734924E-2,-2.8577005E-2,-3.7567688E-3,3.8682923E-2,-2.504468E-5,-2.1032704E-2,-2.7929617E-3,-2.6058463E-2,-5.426508E-2,1.9041777E-2,4.8971307E-3,-1.4500415E-4,3.7509557E-2,-2.0946113E-2,1.4828061E-2,1.0217874E-2,-1.2714406E-2,4.2057186E-2,-1.8434642E-2,-1.1141586E-2,1.3564418E-2,-4.9699605E-3,1.3893475E-2,-7.925463E-4,1.6226454E-2,1.2545133E-3,-1.6134456E-2,1.1553741E-2,1.5128272E-3,-8.881527E-3,1.5038647E-2,-1.0090978E-3,1.6369378E-2],"categories":[],"categories_nodes":[],"categories_segments":[],"categories_sizes":[],"default_left":[0,0,0,0,0,0,0,0,0,0,0,0,0,0,0,0,0,0,0,0,0,0,0,0,0,0,0,0,0,0,0,0,0,0,0,0,0,0,0,0,0,0,0,0,0,0,0,0,0,0,0,0,0,0,0,0,0,0,0,0,0,0,0],"id":22,"left_children":[1,3,5,7,9,11,13,15,17,19,21,23,25,27,29,31,33,35,37,39,41,43,45,47,49,51,53,55,57,59,61,-1,-1,-1,-1,-1,-1,-1,-1,-1,-1,-1,-1,-1,-1,-1,-1,-1,-1,-1,-1,-1,-1,-1,-1,-1,-1,-1,-1,-1,-1,-1,-1],"loss_changes":[4.5976414E1,3.1875357E1,3.8049133E1,3.6406887E1,2.5661232E1,2.9337868E1,2.9239594E1,4.226631E1,1.8463814E1,2.5780403E1,1.4877747E1,4.6091846E1,3.4101097E1,2.064753E1,2.2426086E1,2.157849E1,7.137932E0,1.5354704E1,5.806305E0,1.3826645E1,1.4599532E1,7.790482E0,8.082146E0,1.6304878E1,2.971653E1,2.4294807E1,1.7786352E1,1.340811E1,1.8010744E1,2.1698887E1,1.5542151E1,0E0,0E0,0E0,0E0,0E0,0E0,0E0,0E0,0E0,0E0,0E0,0E0,0E0,0E0,0E0,0E0,0E0,0E0,0E0,0E0,0E0,0E0,0E0,0E0,0E0,0E0,0E0,0E0,0E0,0E0,0E0,0E0],"parents":[2147483647,0,0,1,1,2,2,3,3,4,4,5,5,6,6,7,7,8,8,9,9,10,10,11,11,12,12,13,13,14,14,15,15,16,16,17,17,18,18,19,19,20,20,21,21,22,22,23,23,24,24,25,25,26,26,27,27,28,28,29,29,30,30],"right_children":[2,4,6,8,10,12,14,16,18,20,22,24,26,28,30,32,34,36,38,40,42,44,46,48,50,52,54,56,58,60,62,-1,-1,-1,-1,-1,-1,-1,-1,-1,-1,-1,-1,-1,-1,-1,-1,-1,-1,-1,-1,-1,-1,-1,-1,-1,-1,-1,-1,-1,-1,-1,-1],"split_conditions":[3.38798E-1,2.0317482E-3,-7.5026107E-1,6.187699E-4,1.682076E0,-1.25596E-1,3.671349E-2,5.6455383E-4,1.0048888E2,1.4185876E-2,-2.05128E-2,-2.4348E-1,1.9040793E-1,9.847737E1,1.01144516E2,-1.3539783E0,2.9415207E-2,1.1103365E-3,5.1554435E-1,-6.67717E-3,1.92437E-1,3.6088E8,-3.5223E-2,-8.7181115E-1,1.1589988E-2,-1.3951955E0,1.02887596E2,-1.397911E-2,-3.0543648E-3,1.9650633E-2,3.1146E6,-2.8577005E-2,-3.7567688E-3,3.8682923E-2,-2.504468E-5,-2.1032704E-2,-2.7929617E-3,-2.6058463E-2,-5.426508E-2,1.9041777E-2,4.8971307E-3,-1.4500415E-4,3.7509557E-2,-2.0946113E-2,1.4828061E-2,1.0217874E-2,-1.2714406E-2,4.2057186E-2,-1.8434642E-2,-1.1141586E-2,1.3564418E-2,-4.9699605E-3,1.3893475E-2,-7.925463E-4,1.6226454E-2,1.2545133E-3,-1.6134456E-2,1.1553741E-2,1.5128272E-3,-8.881527E-3,1.5038647E-2,-1.0090978E-3,1.6369378E-2],"split_indices":[1,15,9,15,9,0,14,15,22,14,4,5,11,22,22,9,14,15,8,0,0,20,5,9,15,9,22,12,12,15,18,0,0,0,0,0,0,0,0,0,0,0,0,0,0,0,0,0,0,0,0,0,0,0,0,0,0,0,0,0,0,0,0],"split_type":[0,0,0,0,0,0,0,0,0,0,0,0,0,0,0,0,0,0,0,0,0,0,0,0,0,0,0,0,0,0,0,0,0,0,0,0,0,0,0,0,0,0,0,0,0,0,0,0,0,0,0,0,0,0,0,0,0,0,0,0,0,0,0],"sum_hessian":[1.7336938E4,8.54147E3,8.795469E3,4.764839E3,3.7766304E3,4.1172573E3,4.6782114E3,4.1373735E3,6.2746533E2,3.0932214E3,6.8340906E2,8.3540643E2,3.281851E3,2.2762202E3,2.4019912E3,4.058643E3,7.8730576E1,4.6967776E2,1.5778757E2,7.161933E2,2.377028E3,1.06686676E2,5.7672235E2,8.110826E1,7.542982E2,2.0394486E3,1.2424023E3,4.474098E2,1.8288105E3,1.7033344E3,6.986568E2,8.7971466E1,3.9706716E3,6.584588E1,1.2884693E1,2.1855919E2,2.5111858E2,1.3259224E2,2.5195332E1,3.093697E2,4.068236E2,2.3530107E3,2.401726E1,1.5881959E1,9.080471E1,3.8684822E1,5.3803754E2,6.972471E1,1.1383556E1,6.046342E2,1.4966397E2,1.8491019E2,1.8545385E3,1.0654589E3,1.7694353E2,2.5897668E2,1.8843309E2,7.9336395E2,1.0354465E3,1.6050986E3,9.823572E1,5.31952E2,1.6670477E2],"tree_param":{"num_deleted":"0","num_feature":"23","num_nodes":"63","size_leaf_vector":"1"}},{"base_weights":[-0E0,2.164179E-2,-9.876795E-2,-6.0535572E-2,4.6618503E-2,-1.9854009E-1,-5.7057735E-2,-2.8737077E-1,-2.1542972E-2,1.6529587E-1,1.983627E-2,2.7825388E-1,-2.2627966E-1,3.4382007E-1,-7.90842E-2,-4.2695586E-2,-4.518501E-1,9.321272E-1,-3.189887E-2,8.667162E-1,1.3903268E-1,1.24059334E-1,-6.628073E-3,5.007695E-1,-2.1409671E-1,-1.453385E-1,-3.8110432E-1,5.43557E-1,3.0473338E-2,2.5602388E-1,-1.0051838E-1,6.3269116E-2,-5.524895E-3,-2.9217457E-2,-6.9933296E-3,5.984311E-2,9.318786E-3,1.607074E-4,-9.905779E-3,-5.124695E-3,4.8035413E-2,5.5454597E-3,2.2343922E-2,2.5510136E-3,3.412294E-2,6.845228E-3,-2.3296194E-3,-1.6914634E-2,3.648311E-2,-4.0566027E-2,1.4158348E-2,-2.7934989E-2,-3.6221405E-3,-2.898611E-2,-1.2802074E-2,3.4948185E-2,-1.2351218E-2,-4.3361023E-2,2.126762E-2,2.2861924E-2,-5.539642E-3,-8.032869E-3,6.208734E-4],"categories":[],"categories_nodes":[],"categories_segments":[],"categories_sizes":[],"default_left":[0,0,0,0,0,0,0,0,0,0,0,0,0,0,0,0,0,0,0,0,0,0,0,0,0,0,0,0,0,0,0,0,0,0,0,0,0,0,0,0,0,0,0,0,0,0,0,0,0,0,0,0,0,0,0,0,0,0,0,0,0,0,0],"id":23,"left_children":[1,3,5,7,9,11,13,15,17,19,21,23,25,27,29,31,33,35,37,39,41,43,45,47,49,51,53,55,57,59,61,-1,-1,-1,-1,-1,-1,-1,-1,-1,-1,-1,-1,-1,-1,-1,-1,-1,-1,-1,-1,-1,-1,-1,-1,-1,-1,-1,-1,-1,-1,-1,-1],"loss_changes":[3.712795E1,2.9210545E1,1.2844625E1,2.9141666E1,3.4611343E1,1.221833E1,1.9422243E1,1.9192612E1,2.7574532E1,3.6228203E1,2.4651266E1,5.8664465E0,1.0503124E1,6.8282194E0,1.5030314E1,1.7263094E1,1.1379959E1,4.77824E0,1.6461763E1,7.127392E0,1.639745E1,7.3357605E1,4.0741756E1,7.589756E0,5.579978E0,1.6939743E1,6.6037865E0,9.006876E0,1.7374386E1,9.513862E0,1.34786415E1,0E0,0E0,0E0,0E0,0E0,0E0,0E0,0E0,0E0,0E0,0E0,0E0,0E0,0E0,0E0,0E0,0E0,0E0,0E0,0E0,0E0,0E0,0E0,0E0,0E0,0E0,0E0,0E0,0E0,0E0,0E0,0E0],"parents":[2147483647,0,0,1,1,2,2,3,3,4,4,5,5,6,6,7,7,8,8,9,9,10,10,11,11,12,12,13,13,14,14,15,15,16,16,17,17,18,18,19,19,20,20,21,21,22,22,23,23,24,24,25,25,26,26,27,27,28,28,29,29,30,30],"right_children":[2,4,6,8,10,12,14,16,18,20,22,24,26,28,30,32,34,36,38,40,42,44,46,48,50,52,54,56,58,60,62,-1,-1,-1,-1,-1,-1,-1,-1,-1,-1,-1,-1,-1,-1,-1,-1,-1,-1,-1,-1,-1,-1,-1,-1,-1,-1,-1,-1,-1,-1,-1,-1],"split_conditions":[1.0656486E0,9E6,9.946082E1,-9.148017E-3,-1.0661647E0,-1.4554E-1,-2.8651734E-3,-3.81125E-2,-8.387713E-3,-1.3948419E0,-6.435396E-3,2.291795E0,5.49451E-3,2.909E5,-3.59712E-2,-4.4986542E-2,1.69E6,-6.0188574E-1,5.1667232E-2,2.955E6,1.02887596E2,-7.537025E-3,-1.059382E-1,9.6819885E1,4.0359218E-2,-5.7715E-2,3.5562797E-4,1.32423E0,1.4528098E0,1.05548E8,4.048271E-3,6.3269116E-2,-5.524895E-3,-2.9217457E-2,-6.9933296E-3,5.984311E-2,9.318786E-3,1.607074E-4,-9.905779E-3,-5.124695E-3,4.8035413E-2,5.5454597E-3,2.2343922E-2,2.5510136E-3,3.412294E-2,6.845228E-3,-2.3296194E-3,-1.6914634E-2,3.648311E-2,-4.0566027E-2,1.4158348E-2,-2.7934989E-2,-3.6221405E-3,-2.898611E-2,-1.2802074E-2,3.4948185E-2,-1.2351218E-2,-4.3361023E-2,2.126762E-2,2.2861924E-2,-5.539642E-3,-8.032869E-3,6.208734E-4],"split_indices":[9,19,22,15,9,6,7,4,15,11,15,9,3,17,3,15,20,9,14,20,22,15,12,22,14,0,7,2,9,16,15,0,0,0,0,0,0,0,0,0,0,0,0,0,0,0,0,0,0,0,0,0,0,0,0,0,0,0,0,0,0,0,0],"split_type":[0,0,0,0,0,0,0,0,0,0,0,0,0,0,0,0,0,0,0,0,0,0,0,0,0,0,0,0,0,0,0,0,0,0,0,0,0,0,0,0,0,0,0,0,0,0,0,0,0,0,0,0,0,0,0,0,0,0,0,0,0,0,0],"sum_hessian":[1.735087E4,1.423019E4,3.1206775E3,3.3116074E3,1.0918583E4,9.142516E2,2.206426E3,4.8200916E2,2.8295981E3,2.0050035E3,8.91358E3,4.828204E1,8.6596954E2,1.1221494E2,2.094211E3,1.9600148E2,2.8600766E2,2.7965519E1,2.8016328E3,6.936652E1,1.935637E3,1.807342E3,7.106238E3,3.3929222E1,1.4352819E1,5.733391E2,2.926304E2,6.665923E1,4.555571E1,1.23179E2,1.971032E3,7.554578E0,1.8844691E2,1.983991E2,8.760857E1,1.9251226E1,8.7142935E0,2.3121482E3,4.894845E2,5.6460576E0,6.3720467E1,1.7775887E3,1.580482E2,1.6010072E3,2.0633476E2,1.5439061E3,5.5623315E3,6.598921E0,2.73303E1,6.4039307E0,7.9488893E0,8.2923935E1,4.904152E2,1.0871169E2,1.8391872E2,5.6430717E1,1.02285185E1,1.2799521E1,3.2756187E1,8.010698E1,4.3072018E1,1.2884873E3,6.8254474E2],"tree_param":{"num_deleted":"0","num_feature":"23","num_nodes":"63","size_leaf_vector":"1"}},{"base_weights":[-3.0668247E-3,-3.9561614E-1,1.9923775E-3,2.9647885E-2,-6.4707255E-1,1.5260444E-2,-1.4977497E-1,3.5697177E-1,-1.9764356E-1,-7.185308E-1,1.795933E-2,7.4166167E-3,2.7132866E-1,-2.5861278E-1,-3.891829E-2,6.1534387E-1,-2.4349364E-2,1.7825308E-1,-4.0778995E-1,-4.0527487E-1,-9.294748E-1,-3.2234746E-3,1.886912E-1,-1.3138206E-1,3.7532E-1,1.1874159E-1,-2.930916E-1,7.839081E-2,-3.1348458E-1,-3.4522288E-4,4.387514E-2,-1.8673457E-2,2.8597219E-2,-4.4224676E-2,-7.1886205E-3,-1.1922354E-2,-5.4582294E-2,-5.06427E-2,-1.5659286E-2,1.960311E-2,-3.364301E-4,2.8277328E-2,6.830384E-3,9.442995E-3,-2.3681922E-2,2.2611963E-2,3.4853397E-4,-1.7892081E-2,1.732371E-2,-3.4270417E-2,-1.1797399E-2,-1.1651999E-2,6.5472433E-3,-4.1762386E-2,-6.3417912E-3],"categories":[],"categories_nodes":[],"categories_segments":[],"categories_sizes":[],"default_left":[0,0,0,0,0,0,0,0,0,0,0,0,0,0,0,0,0,0,0,0,0,0,0,0,0,0,0,0,0,0,0,0,0,0,0,0,0,0,0,0,0,0,0,0,0,0,0,0,0,0,0,0,0,0,0],"id":24,"left_children":[1,3,5,7,9,11,13,15,17,19,-1,21,23,25,27,29,-1,31,33,35,37,39,41,43,45,47,49,51,53,-1,-1,-1,-1,-1,-1,-1,-1,-1,-1,-1,-1,-1,-1,-1,-1,-1,-1,-1,-1,-1,-1,-1,-1,-1,-1],"loss_changes":[3.4724453E1,2.4137386E1,3.450051E1,6.4583282E0,1.0808151E1,3.1570238E1,1.6446241E1,8.5077505E0,4.1992993E0,7.3307343E0,0E0,2.9650457E1,1.9791561E1,9.163349E0,2.228946E1,5.158388E0,0E0,4.5274253E0,3.4410949E0,5.4322205E0,2.6409607E0,1.9866346E1,1.6221869E1,1.0887775E1,1.03301735E1,6.5550246E0,1.3475723E1,7.891679E0,1.9493923E1,0E0,0E0,0E0,0E0,0E0,0E0,0E0,0E0,0E0,0E0,0E0,0E0,0E0,0E0,0E0,0E0,0E0,0E0,0E0,0E0,0E0,0E0,0E0,0E0,0E0,0E0],"parents":[2147483647,0,0,1,1,2,2,3,3,4,4,5,5,6,6,7,7,8,8,9,9,11,11,12,12,13,13,14,14,15,15,17,17,18,18,19,19,20,20,21,21,22,22,23,23,24,24,25,25,26,26,27,27,28,28],"right_children":[2,4,6,8,10,12,14,16,18,20,-1,22,24,26,28,30,-1,32,34,36,38,40,42,44,46,48,50,52,54,-1,-1,-1,-1,-1,-1,-1,-1,-1,-1,-1,-1,-1,-1,-1,-1,-1,-1,-1,-1,-1,-1,-1,-1,-1,-1],"split_conditions":[1.25268E-1,-6.92088E-3,2.0808134E0,2.9264452E-2,4.8E6,9.89015E-2,2.3194395E-2,1.0151215E2,-7.6328987E-1,-3.66048E-3,1.795933E-2,1.0251389E2,2.206E7,-2.1851948E-3,3.82742E-1,-1.1965541E0,-2.4349364E-2,3.9896503E-2,9.8126205E1,2.0678503E-2,2.1000185E0,-2.4348E-1,-5.50219E9,2.9940982E0,1.07503624E2,9.970368E1,9.777229E1,-1.7528781E-3,3.448884E-2,-3.4522288E-4,4.387514E-2,-1.8673457E-2,2.8597219E-2,-4.4224676E-2,-7.1886205E-3,-1.1922354E-2,-5.4582294E-2,-5.06427E-2,-1.5659286E-2,1.960311E-2,-3.364301E-4,2.8277328E-2,6.830384E-3,9.442995E-3,-2.3681922E-2,2.2611963E-2,3.4853397E-4,-1.7892081E-2,1.732371E-2,-3.4270417E-2,-1.1797399E-2,-1.1651999E-2,6.5472433E-3,-4.1762386E-2,-6.3417912E-3],"split_indices":[2,3,9,13,16,3,13,21,9,5,0,22,19,7,1,8,0,13,22,9,10,5,16,10,21,22,21,7,13,0,0,0,0,0,0,0,0,0,0,0,0,0,0,0,0,0,0,0,0,0,0,0,0,0,0],"split_type":[0,0,0,0,0,0,0,0,0,0,0,0,0,0,0,0,0,0,0,0,0,0,0,0,0,0,0,0,0,0,0,0,0,0,0,0,0,0,0,0,0,0,0,0,0,0,0,0,0,0,0,0,0,0,0],"sum_hessian":[1.7382846E4,2.204737E2,1.7162373E4,8.18405E1,1.386332E2,1.5787283E4,1.3750896E3,3.397361E1,4.786689E1,1.30439E2,8.1942E0,1.5321955E4,4.653283E2,6.9024194E2,6.848477E2,2.6879005E1,7.094604E0,1.6420025E1,3.1446865E1,5.5795044E1,7.464395E1,1.4471729E4,8.5022626E2,9.440525E1,3.7092307E2,5.6163982E1,6.3407794E2,4.7956174E2,2.0528596E2,7.979447E0,1.8899559E1,6.3515744E0,1.006845E1,8.858358E0,2.2588507E1,4.7639233E1,8.155811E0,6.390046E1,1.0743493E1,1.2399516E2,1.4347733E4,9.967821E1,7.5054803E2,4.84795E1,4.5925747E1,3.0534714E2,6.557595E1,1.7080622E1,3.9083363E1,7.6707466E1,5.573705E2,6.687625E1,4.1268552E2,5.1550762E1,1.537352E2],"tree_param":{"num_deleted":"0","num_feature":"23","num_nodes":"55","size_leaf_vector":"1"}},{"base_weights":[2.656409E-3,2.4778537E-2,-9.776912E-2,-3.5712644E-1,3.0350257E-2,5.4563105E-2,-1.3570191E-1,-1.6498409E-1,-8.24052E-1,2.1906106E-2,2.8196773E-1,1.3538763E-1,-1.740888E-1,2.4908507E-1,-1.4915666E-1,2.9542357E-2,-4.8750558E-1,-1.3094363E-1,-1.0182947E0,