{"learner":{"attributes":{"scikit_learn":"{\"_estimator_type\": \"classifier\"}"},"feature_names":["price_vs_sma50","volatility_20","volume_ratio_20","return_3d","return_5d","return_10d","return_20d","sma_50_LogReturn","volume_LogReturn","PCA_Trend","PCA_Oscillators","PCA_MACD","PCA_ShortReturns","atr_14","high_low","market_return"],"feature_types":["float","float","float","float","float","float","float","float","float","float","float","float","float","float","float","float"],"gradient_booster":{"model":{"cats":{"enc":[],"feature_segments":[],"sorted_idx":[]},"gbtree_model_param":{"num_parallel_tree":"1","num_trees":"300"},"iteration_indptr":[0,1,2,3,4,5,6,7,8,9,10,11,12,13,14,15,16,17,18,19,20,21,22,23,24,25,26,27,28,29,30,31,32,33,34,35,36,37,38,39,40,41,42,43,44,45,46,47,48,49,50,51,52,53,54,55,56,57,58,59,60,61,62,63,64,65,66,67,68,69,70,71,72,73,74,75,76,77,78,79,80,81,82,83,84,85,86,87,88,89,90,91,92,93,94,95,96,97,98,99,100,101,102,103,104,105,106,107,108,109,110,111,112,113,114,115,116,117,118,119,120,121,122,123,124,125,126,127,128,129,130,131,132,133,134,135,136,137,138,139,140,141,142,143,144,145,146,147,148,149,150,151,152,153,154,155,156,157,158,159,160,161,162,163,164,165,166,167,168,169,170,171,172,173,174,175,176,177,178,179,180,181,182,183,184,185,186,187,188,189,190,191,192,193,194,195,196,197,198,199,200,201,202,203,204,205,206,207,208,209,210,211,212,213,214,215,216,217,218,219,220,221,222,223,224,225,226,227,228,229,230,231,232,233,234,235,236,237,238,239,240,241,242,243,244,245,246,247,248,249,250,251,252,253,254,255,256,257,258,259,260,261,262,263,264,265,266,267,268,269,270,271,272,273,274,275,276,277,278,279,280,281,282,283,284,285,286,287,288,289,290,291,292,293,294,295,296,297,298,299,300],"tree_info":[0,0,0,0,0,0,0,0,0,0,0,0,0,0,0,0,0,0,0,0,0,0,0,0,0,0,0,0,0,0,0,0,0,0,0,0,0,0,0,0,0,0,0,0,0,0,0,0,0,0,0,0,0,0,0,0,0,0,0,0,0,0,0,0,0,0,0,0,0,0,0,0,0,0,0,0,0,0,0,0,0,0,0,0,0,0,0,0,0,0,0,0,0,0,0,0,0,0,0,0,0,0,0,0,0,0,0,0,0,0,0,0,0,0,0,0,0,0,0,0,0,0,0,0,0,0,0,0,0,0,0,0,0,0,0,0,0,0,0,0,0,0,0,0,0,0,0,0,0,0,0,0,0,0,0,0,0,0,0,0,0,0,0,0,0,0,0,0,0,0,0,0,0,0,0,0,0,0,0,0,0,0,0,0,0,0,0,0,0,0,0,0,0,0,0,0,0,0,0,0,0,0,0,0,0,0,0,0,0,0,0,0,0,0,0,0,0,0,0,0,0,0,0,0,0,0,0,0,0,0,0,0,0,0,0,0,0,0,0,0,0,0,0,0,0,0,0,0,0,0,0,0,0,0,0,0,0,0,0,0,0,0,0,0,0,0,0,0,0,0,0,0,0,0,0,0,0,0,0,0,0,0,0,0,0,0,0,0,0,0,0,0,0,0,0,0,0,0,0,0],"trees":[{"base_weights":[2.2864188E-3,1.9627327E-1,-1.362033E-1,5.2831566E-1,1.4632335E-1,-8.537694E-2,-4.590751E-1,5.9714854E-1,-4.1538352E-1,1.4246573E-2,2.6022524E-1,-2.2907588E-1,2.7118783E-2,-4.207747E-1,-9.6619594E-1,4.348515E-1,8.792884E-1,-5.7603604E-1,2.578774E-2,-5.479604E-1,5.2104034E-2,1.1207935E0,2.1636614E-1,-5.9059624E-2,-5.183835E-1,8.168655E-1,-6.4376118E-3,-4.6984586E-1,1.6599096E-2,-1.0895861E0,3.8939882E-2,1.1389924E0,2.1592698E-1,1.3059262E0,4.9348783E-1,4.3727732E-1,-7.997919E-1,1.0597519E0,-7.464998E-1,1.5766181E-1,-1.4838377E-1,8.218922E-1,1.5121154E0,4.740753E-1,7.055052E-2,-4.6643507E-1,2.4150144E-2,-6.2427706E-1,-2.3991426E-2,1.2336465E0,4.904599E-1,-9.52635E-2,9.3009874E-2,-1.2614699E-1,-5.398271E-1,3.627657E-1,-2.2703893E-1,-5.497125E-1,-1.2410772E0,2.6578767E-2,6.84292E-2,6.088246E-3,7.484721E-2,7.9270996E-2,4.9157333E-2,4.582086E-2,1.55268805E-2,-9.434366E-3,5.1055104E-2,4.457468E-3,-5.356608E-2,7.586553E-2,7.805203E-3,-4.0586025E-2,2.0627206E-2,1.22517925E-2,-1.5159584E-2,3.2943964E-3,-1.617602E-2,6.1939824E-2,1.5555553E-2,3.5457376E-2,8.7759756E-2,3.92779E-2,1.7297434E-2,-2.9145723E-2,5.6693167E-3,-4.6025794E-2,-4.4180853E-3,-2.9523554E-3,2.2737836E-2,-3.788427E-2,-1.6579688E-2,-3.2459896E-2,5.9641567E-3,2.5772274E-2,6.708191E-2,3.6172823E-3,4.397062E-2,8.4092785E-3,-8.511732E-3,1.0304758E-2,-3.0201392E-3,-1.4558434E-3,-6.4823635E-2,-4.9653538E-2,-2.540015E-2,7.783891E-3,5.1921267E-2,-3.91201E-2,6.7617754E-3,6.9757714E-3,-4.0101245E-2,-6.7662135E-2,-3.5453305E-2],"categories":[],"categories_nodes":[],"categories_segments":[],"categories_sizes":[],"default_left":[0,0,0,0,0,0,0,0,0,0,0,0,0,0,0,0,0,0,0,0,0,0,0,0,0,0,0,0,0,0,0,0,0,0,0,0,0,0,0,0,0,0,0,0,0,0,0,0,0,0,0,0,0,0,0,0,0,0,0,0,0,0,0,0,0,0,0,0,0,0,0,0,0,0,0,0,0,0,0,0,0,0,0,0,0,0,0,0,0,0,0,0,0,0,0,0,0,0,0,0,0,0,0,0,0,0,0,0,0,0,0,0,0,0,0],"id":0,"left_children":[1,3,5,7,9,11,13,15,17,19,21,23,25,27,29,31,33,35,-1,37,39,41,43,45,47,49,51,53,55,57,-1,59,61,63,65,67,69,71,73,75,77,79,81,83,85,87,89,91,93,95,97,99,101,103,105,107,109,111,113,-1,-1,-1,-1,-1,-1,-1,-1,-1,-1,-1,-1,-1,-1,-1,-1,-1,-1,-1,-1,-1,-1,-1,-1,-1,-1,-1,-1,-1,-1,-1,-1,-1,-1,-1,-1,-1,-1,-1,-1,-1,-1,-1,-1,-1,-1,-1,-1,-1,-1,-1,-1,-1,-1,-1,-1],"loss_changes":[5.1010522E2,1.3103467E2,1.8170213E2,6.740546E1,1.0342055E2,1.5477661E2,2.8710052E1,4.3620514E1,1.0887371E1,6.778388E1,1.3897148E2,2.0669197E2,1.4239421E2,3.0152267E1,2.3447845E1,9.427945E1,5.6910217E1,1.4195906E1,0E0,6.488806E1,6.3214134E1,1.9424149E1,1.3197083E2,8.985825E1,8.136713E1,2.9014786E1,4.551845E1,3.0199738E1,1.2091633E1,7.1834183E0,0E0,1.9345291E1,5.632115E1,1.3145264E1,1.3978878E1,4.508753E0,1.2340969E1,8.874594E0,1.3941261E1,7.886304E1,3.8701065E1,2.1529808E1,1.3351654E1,5.0278687E1,6.2882477E1,7.700299E1,7.8904854E1,4.966153E1,2.4821669E1,6.521057E0,2.0105858E1,5.379718E1,4.219481E1,2.423272E1,1.4451477E1,8.017329E0,1.705543E1,4.26359E0,3.3616562E0,0E0,0E0,0E0,0E0,0E0,0E0,0E0,0E0,0E0,0E0,0E0,0E0,0E0,0E0,0E0,0E0,0E0,0E0,0E0,0E0,0E0,0E0,0E0,0E0,0E0,0E0,0E0,0E0,0E0,0E0,0E0,0E0,0E0,0E0,0E0,0E0,0E0,0E0,0E0,0E0,0E0,0E0,0E0,0E0,0E0,0E0,0E0,0E0,0E0,0E0,0E0,0E0,0E0,0E0,0E0,0E0],"parents":[2147483647,0,0,1,1,2,2,3,3,4,4,5,5,6,6,7,7,8,8,9,9,10,10,11,11,12,12,13,13,14,14,15,15,16,16,17,17,19,19,20,20,21,21,22,22,23,23,24,24,25,25,26,26,27,27,28,28,29,29,31,31,32,32,33,33,34,34,35,35,36,36,37,37,38,38,39,39,40,40,41,41,42,42,43,43,44,44,45,45,46,46,47,47,48,48,49,49,50,50,51,51,52,52,53,53,54,54,55,55,56,56,57,57,58,58],"right_children":[2,4,6,8,10,12,14,16,18,20,22,24,26,28,30,32,34,36,-1,38,40,42,44,46,48,50,52,54,56,58,-1,60,62,64,66,68,70,72,74,76,78,80,82,84,86,88,90,92,94,96,98,100,102,104,106,108,110,112,114,-1,-1,-1,-1,-1,-1,-1,-1,-1,-1,-1,-1,-1,-1,-1,-1,-1,-1,-1,-1,-1,-1,-1,-1,-1,-1,-1,-1,-1,-1,-1,-1,-1,-1,-1,-1,-1,-1,-1,-1,-1,-1,-1,-1,-1,-1,-1,-1,-1,-1,-1,-1,-1,-1,-1,-1],"split_conditions":[1.2447E3,1.0451E3,1.6805E3,1.48762E-1,1.15649E3,1.30937E3,1.88033E3,-1.1124342E-3,1.03963E3,-1.41611E-1,-5.469711E-1,1.27716E3,1.3167E3,1.86158E3,3.2308E-1,9.7146E2,-1.80446E-2,1.01888E3,2.578774E-2,-1.26949E-1,3.37708E-2,1.22043E3,1.19144E3,1.25037E3,1.05264E-1,-8.84956E-3,1.5045019E-3,-1.614533E-1,1.12296E-3,2.37675E-1,3.8939882E-2,5.28068E-1,1.41474E-1,-4.67511E-2,-2.31103E-2,6.14048E-1,-6.51042E-2,5.28068E-1,-5.111807E-1,1.13433E3,1.08223E3,1.18888E3,-3.66977E-2,-9.524741E-1,1.19553E3,-9.12256E-3,4.41079E-1,1.2922E3,-1.1430125E-3,1.85731E-1,-2.3159529E-4,-7.54414E-2,1.47602E3,2.5600013E-3,1.68318E3,-2.88184E-3,2.678023E-2,-6.3313486E-4,1.14856E-1,2.6578767E-2,6.84292E-2,6.088246E-3,7.484721E-2,7.9270996E-2,4.9157333E-2,4.582086E-2,1.55268805E-2,-9.434366E-3,5.1055104E-2,4.457468E-3,-5.356608E-2,7.586553E-2,7.805203E-3,-4.0586025E-2,2.0627206E-2,1.22517925E-2,-1.5159584E-2,3.2943964E-3,-1.617602E-2,6.1939824E-2,1.5555553E-2,3.5457376E-2,8.7759756E-2,3.92779E-2,1.7297434E-2,-2.9145723E-2,5.6693167E-3,-4.6025794E-2,-4.4180853E-3,-2.9523554E-3,2.2737836E-2,-3.788427E-2,-1.6579688E-2,-3.2459896E-2,5.9641567E-3,2.5772274E-2,6.708191E-2,3.6172823E-3,4.397062E-2,8.4092785E-3,-8.511732E-3,1.0304758E-2,-3.0201392E-3,-1.4558434E-3,-6.4823635E-2,-4.9653538E-2,-2.540015E-2,7.783891E-3,5.1921267E-2,-3.91201E-2,6.7617754E-3,6.9757714E-3,-4.0101245E-2,-6.7662135E-2,-3.5453305E-2],"split_indices":[14,14,14,6,14,14,14,7,14,0,12,14,14,14,6,14,4,14,0,3,5,14,14,14,6,4,7,12,4,1,0,1,5,5,6,1,4,1,11,14,14,14,4,10,14,5,1,14,7,1,7,6,14,7,14,3,12,7,0,0,0,0,0,0,0,0,0,0,0,0,0,0,0,0,0,0,0,0,0,0,0,0,0,0,0,0,0,0,0,0,0,0,0,0,0,0,0,0,0,0,0,0,0,0,0,0,0,0,0,0,0,0,0,0,0],"split_type":[0,0,0,0,0,0,0,0,0,0,0,0,0,0,0,0,0,0,0,0,0,0,0,0,0,0,0,0,0,0,0,0,0,0,0,0,0,0,0,0,0,0,0,0,0,0,0,0,0,0,0,0,0,0,0,0,0,0,0,0,0,0,0,0,0,0,0,0,0,0,0,0,0,0,0,0,0,0,0,0,0,0,0,0,0,0,0,0,0,0,0,0,0,0,0,0,0,0,0,0,0,0,0,0,0,0,0,0,0,0,0,0,0,0,0],"sum_hessian":[1.8985375E4,7.9082915E3,1.1077084E4,1.0325865E3,6.8757046E3,9.571859E3,1.5052245E3,9.628313E2,6.975517E1,3.1847632E3,3.6909417E3,4.2029634E3,5.3688965E3,1.4014097E3,1.0381483E2,6.130681E2,3.497632E2,5.9907825E1,9.847348E0,1.9990678E2,2.9848564E3,1.776864E2,3.5132551E3,2.6482354E3,1.554728E3,2.1799687E2,5.1508994E3,1.2601782E3,1.4123135E2,9.736309E1,6.4517393E0,1.44297E2,4.687711E2,1.6483553E2,1.849277E2,1.0582435E1,4.932539E1,2.1441174E1,1.784656E2,1.9558203E3,1.0290361E3,1.0264187E2,7.5044525E1,1.2684703E3,2.244785E3,4.4859857E2,2.1996367E3,1.2800828E3,2.7464517E2,9.438835E1,1.2360852E2,2.7212993E3,2.4296003E3,2.1389705E2,1.0462812E3,5.8307785E1,8.292357E1,2.2492956E1,7.487013E1,4.0609566E1,1.0368744E2,4.3776593E2,3.1005175E1,8.60787E1,7.875683E1,5.4464783E1,1.3046292E2,5.3508697E0,5.2315655E0,1.1612261E1,3.771313E1,1.3709609E1,7.7315655E0,1.6932352E2,9.142087E0,1.6446865E3,3.111338E2,4.6283344E2,5.6620276E2,5.5621784E1,4.702009E1,1.8444696E1,5.6599827E1,3.679799E2,9.004904E2,1.3717792E2,2.107607E3,2.0304018E2,2.455584E2,1.843991E3,3.5564578E2,8.7796576E2,4.02117E2,5.067626E1,2.2396892E2,1.3213131E1,8.117522E1,6.0266567E1,6.3341957E1,6.0228577E2,2.1190134E3,1.3988054E3,1.0307949E3,1.9854617E2,1.5350869E1,6.6456085E1,9.7982513E2,4.568413E1,1.2623652E1,3.2388565E1,5.0535E1,6.0412173E0,1.6451738E1,6.0403477E1,1.4466652E1],"tree_param":{"num_deleted":"0","num_feature":"16","num_nodes":"115","size_leaf_vector":"1"}},{"base_weights":[3.652349E-3,2.3451993E-1,-3.0547814E-2,1.493911E-1,5.6831145E-1,4.932349E-2,-1.14497826E-1,5.8669597E-1,1.0855389E-1,7.885008E-1,4.1902807E-1,4.05982E-2,8.850515E-1,3.4488603E-1,-1.3111548E-1,1.4059992E0,4.6128237E-1,-1.5132297E0,1.3659401E-1,8.496707E-2,7.2699285E-1,2.0707613E-3,5.524782E-1,2.5507553E-2,3.986551E-1,1.1493634E0,9.817537E-2,-3.344376E-1,4.8391476E-1,-1.8100752E-1,-4.805812E-2,3.1205297E-2,7.996691E-2,1.8167919E-1,8.255129E-1,-8.519321E-2,-2.7685786E-2,-1.21573284E-1,2.1324249E-1,4.5489892E-1,9.1204894E-1,2.4804193E-1,-6.025129E-1,3.563303E-1,7.198203E-1,-2.5307775E-1,4.23942E-2,5.888105E-1,1.9601935E-1,1.2382531E0,7.3018344E-3,5.366672E-2,-2.739613E-1,-1.1221092E0,-8.849393E-3,1.0436918E0,3.599471E-1,-4.028262E-1,-1.4720178E-1,4.412442E-1,-8.206115E-2,1.1650799E-3,8.084937E-2,7.617229E-2,2.9523259E-2,-1.288104E-2,1.5177423E-2,5.532787E-4,1.5036257E-2,4.6199313E-3,4.3711245E-2,4.799448E-2,-0E0,2.1211019E-2,-2.2961503E-2,-5.3509492E-2,-3.2243782E-3,2.4065843E-2,-1.1603507E-2,4.1325554E-2,-4.7480296E-3,-2.1733351E-2,7.625033E-3,-1.0891804E-3,5.33246E-3,4.4315945E-2,1.6707659E-2,-1.1094264E-3,2.6450401E-2,6.561025E-2,3.3643354E-2,1.7444676E-2,-3.638565E-2,-7.2833136E-2,-2.1702548E-2,-1.8281143E-2,2.7907884E-2,7.021249E-2,2.4151659E-2,6.0019656E-3,2.9723186E-2,-2.2030072E-2,6.463411E-3,-2.86917E-3,-1.138953E-2,2.9140314E-2,1.6918557E-3,-5.300963E-3,1.00267865E-2],"categories":[],"categories_nodes":[],"categories_segments":[],"categories_sizes":[],"default_left":[0,0,0,0,0,0,0,0,0,0,0,0,0,0,0,0,0,0,0,0,0,0,0,0,0,0,0,0,0,0,0,0,0,0,0,0,0,0,0,0,0,0,0,0,0,0,0,0,0,0,0,0,0,0,0,0,0,0,0,0,0,0,0,0,0,0,0,0,0,0,0,0,0,0,0,0,0,0,0,0,0,0,0,0,0,0,0,0,0,0,0,0,0,0,0,0,0,0,0,0,0,0,0,0,0,0,0,0,0],"id":1,"left_children":[1,3,5,7,9,11,13,15,17,19,21,23,25,27,29,31,33,35,37,-1,39,41,43,45,47,49,51,53,55,57,59,-1,-1,61,63,-1,-1,65,67,69,71,73,75,77,79,81,83,85,87,89,-1,-1,91,93,95,97,99,101,103,105,107,-1,-1,-1,-1,-1,-1,-1,-1,-1,-1,-1,-1,-1,-1,-1,-1,-1,-1,-1,-1,-1,-1,-1,-1,-1,-1,-1,-1,-1,-1,-1,-1,-1,-1,-1,-1,-1,-1,-1,-1,-1,-1,-1,-1,-1,-1,-1,-1],"loss_changes":[1.5052661E2,6.9739426E1,1.1133226E2,3.489666E1,1.59599E1,6.191008E1,6.182218E1,1.6334076E1,8.1717094E1,9.744621E0,1.6633137E1,4.5448975E1,1.8010658E1,2.6874523E1,3.2347137E1,2.043007E0,1.46696205E1,4.416565E0,3.497917E1,0E0,8.99015E0,1.1104973E1,7.0880127E0,3.800958E1,1.2915695E1,5.521492E0,8.8112335E0,1.2313331E1,1.5804508E1,3.6481552E1,4.8820915E1,0E0,0E0,1.8965939E1,9.254818E0,0E0,0E0,2.3474562E1,2.4060593E1,1.1819376E1,4.860649E0,6.8404245E0,5.239379E0,7.989197E0,1.069252E1,3.4097595E1,3.143843E1,1.2822319E1,1.215756E1,1.42453E0,0E0,0E0,5.251935E0,2.420847E0,7.3476844E0,7.616825E0,1.0784332E1,1.304126E1,3.0626091E1,1.0912937E1,1.8594728E1,0E0,0E0,0E0,0E0,0E0,0E0,0E0,0E0,0E0,0E0,0E0,0E0,0E0,0E0,0E0,0E0,0E0,0E0,0E0,0E0,0E0,0E0,0E0,0E0,0E0,0E0,0E0,0E0,0E0,0E0,0E0,0E0,0E0,0E0,0E0,0E0,0E0,0E0,0E0,0E0,0E0,0E0,0E0,0E0,0E0,0E0,0E0,0E0],"parents":[2147483647,0,0,1,1,2,2,3,3,4,4,5,5,6,6,7,7,8,8,9,9,10,10,11,11,12,12,13,13,14,14,15,15,16,16,17,17,18,18,20,20,21,21,22,22,23,23,24,24,25,25,26,26,27,27,28,28,29,29,30,30,33,33,34,34,37,37,38,38,39,39,40,40,41,41,42,42,43,43,44,44,45,45,46,46,47,47,48,48,49,49,52,52,53,53,54,54,55,55,56,56,57,57,58,58,59,59,60,60],"right_children":[2,4,6,8,10,12,14,16,18,20,22,24,26,28,30,32,34,36,38,-1,40,42,44,46,48,50,52,54,56,58,60,-1,-1,62,64,-1,-1,66,68,70,72,74,76,78,80,82,84,86,88,90,-1,-1,92,94,96,98,100,102,104,106,108,-1,-1,-1,-1,-1,-1,-1,-1,-1,-1,-1,-1,-1,-1,-1,-1,-1,-1,-1,-1,-1,-1,-1,-1,-1,-1,-1,-1,-1,-1,-1,-1,-1,-1,-1,-1,-1,-1,-1,-1,-1,-1,-1,-1,-1,-1,-1,-1],"split_conditions":[-2.2908819E-1,1.15449885E-2,-3.8717386E-1,-2.5195498E-2,-9.109442E-1,3.0676948E-2,-2.5195498E-2,-2.40404E-1,-2.2022765E-2,-2.76188E-1,-1E-1,7.30834E-1,1.8724217E-1,2.2146E-1,4.0644235E-3,-1.6318332E-1,-3.480163E-2,-1.30933E-1,-2.2681446E0,8.496707E-2,-7.16725E-2,-4.68753E-2,4.60276E-1,-1.3759046E0,1.33333E-1,-5.8524585E-1,-1.5122224E-1,-9.066322E-2,-1.31656E-1,1.61979E-1,4.5362557E-3,3.1205297E-2,7.996691E-2,-4.21367E-2,-3.3401784E-2,-8.519321E-2,-2.7685786E-2,6.54955E-1,3.71998E-1,2.6024958E-2,3.63671E-2,7.51709E-1,-2.1692536E0,1.09715E-2,3.3994954E-2,4.8088E-1,1.2184326E-3,1.6018581E-4,1.77885E-1,9.3157667E-1,7.3018344E-3,5.366672E-2,3.6639072E-2,-1.73455E-2,-1.08696E-2,3.871349E-1,-3.480163E-2,1.9045267E0,-2.5325017E-3,2.53585E-2,2.1632653E-2,1.1650799E-3,8.084937E-2,7.617229E-2,2.9523259E-2,-1.288104E-2,1.5177423E-2,5.532787E-4,1.5036257E-2,4.6199313E-3,4.3711245E-2,4.799448E-2,-0E0,2.1211019E-2,-2.2961503E-2,-5.3509492E-2,-3.2243782E-3,2.4065843E-2,-1.1603507E-2,4.1325554E-2,-4.7480296E-3,-2.1733351E-2,7.625033E-3,-1.0891804E-3,5.33246E-3,4.4315945E-2,1.6707659E-2,-1.1094264E-3,2.6450401E-2,6.561025E-2,3.3643354E-2,1.7444676E-2,-3.638565E-2,-7.2833136E-2,-2.1702548E-2,-1.8281143E-2,2.7907884E-2,7.021249E-2,2.4151659E-2,6.0019656E-3,2.9723186E-2,-2.2030072E-2,6.463411E-3,-2.86917E-3,-1.138953E-2,2.9140314E-2,1.6918557E-3,-5.300963E-3,1.00267865E-2],"split_indices":[12,15,9,15,9,15,15,5,15,5,5,1,12,1,15,8,15,6,10,0,5,4,1,9,6,9,11,8,5,1,15,0,0,0,15,0,0,1,1,15,0,1,10,5,15,1,15,15,5,8,0,0,15,0,5,8,15,10,15,4,15,0,0,0,0,0,0,0,0,0,0,0,0,0,0,0,0,0,0,0,0,0,0,0,0,0,0,0,0,0,0,0,0,0,0,0,0,0,0,0,0,0,0,0,0,0,0,0,0],"split_type":[0,0,0,0,0,0,0,0,0,0,0,0,0,0,0,0,0,0,0,0,0,0,0,0,0,0,0,0,0,0,0,0,0,0,0,0,0,0,0,0,0,0,0,0,0,0,0,0,0,0,0,0,0,0,0,0,0,0,0,0,0,0,0,0,0,0,0,0,0,0,0,0,0,0,0,0,0,0,0,0,0,0,0,0,0,0,0,0,0,0,0,0,0,0,0,0,0,0,0,0,0,0,0,0,0,0,0,0,0],"sum_hessian":[1.905987E4,2.4588064E3,1.6601062E4,1.9605443E3,4.982621E2,8.506793E3,8.094269E3,1.6609563E2,1.7944487E3,1.9931926E2,2.9894284E2,8.420053E3,8.6740074E1,2.8167874E2,7.8125903E3,2.0588251E1,1.4550739E2,2.9537323E1,1.7649114E3,1.0821099E1,1.8849817E2,7.290869E1,2.2603413E2,8.0808286E3,3.3922366E2,6.449008E1,2.2249987E1,4.7493027E1,2.3418571E2,4.879264E3,2.9333264E3,5.0223494E0,1.5565902E1,8.331987E1,6.2187508E1,2.3907455E1,5.6298666E0,4.0360355E2,1.3613079E3,7.792341E1,1.1057476E2,5.236105E1,2.054764E1,1.0577649E2,1.2025765E2,4.606931E2,7.6201357E3,1.7376323E2,1.6546042E2,5.893493E1,5.5551553E0,5.6994457E0,1.655054E1,1.3084681E1,3.4408344E1,4.0968124E1,1.9321759E2,6.434365E2,4.2358276E3,1.8963068E2,2.7436956E3,7.6017685E1,7.3021865E0,1.4178895E1,4.8008614E1,3.062323E2,9.7371254E1,4.1182608E2,9.4948175E2,4.2575996E1,3.534741E1,1.0500556E2,5.5692005E0,4.235275E1,1.00083E1,1.0363889E1,1.018375E1,8.753455E1,1.8241932E1,1.0642966E2,1.3828002E1,3.1833853E2,1.423546E2,3.8119102E3,3.8082256E3,7.881406E1,9.494917E1,1.0034034E2,6.512008E1,5.079343E1,8.141497E0,6.979983E0,9.5705595E0,7.9545517E0,5.1301293E0,2.1445744E1,1.2962603E1,2.390919E1,1.7058935E1,9.64691E1,9.674849E1,6.011207E2,4.231578E1,2.0046005E3,2.231227E3,1.4022916E2,4.9401527E1,2.5301707E3,2.1352504E2],"tree_param":{"num_deleted":"0","num_feature":"16","num_nodes":"109","size_leaf_vector":"1"}},{"base_weights":[-5.0576297E-3,1.8241622E-1,-1.3942136E-1,7.262657E-1,1.5575743E-1,-8.299727E-2,-3.8628444E-1,5.3871703E-1,1.4667271E0,2.3108946E-1,4.6292506E-3,-2.1619461E-1,3.355203E-2,-1.199277E0,-3.421588E-1,9.553365E-1,8.3081156E-2,8.341005E-2,4.9006674E-1,1.2389038E-1,3.634312E-1,1.9628835E-1,-6.694334E-2,-5.7792656E-2,-4.828094E-1,7.503539E-1,-8.6575147E-4,-9.328677E-1,-8.945558E-2,-4.1073373E-1,8.419695E-2,2.4887474E-1,1.2772036E0,-4.5212832E-1,1.4114146E0,5.1607825E-2,-1.3807838E-2,8.097924E-2,9.782873E-1,6.9334847E-1,2.2577225E-1,3.660709E-1,-1.0456024E-1,-1.6633584E-1,3.786576E-2,-1.2808587E-1,3.3470175E-1,-5.872265E-1,4.6269456E-3,9.75906E-1,2.749392E-1,-5.4310348E-2,3.6807021E-1,-1.1826231E0,-5.532202E-1,5.9058154E-1,-4.471692E-1,-9.233875E-2,7.21806E-1,2.7435211E-2,-2.3481827E-2,-2.650011E-2,7.1821414E-2,4.995681E-2,-5.2218523E-2,3.7279375E-2,8.413481E-2,-9.710516E-3,1.2552842E-2,-1.243142E-2,5.6161787E-2,6.073937E-2,2.8105948E-2,4.830321E-2,7.6098726E-3,-6.486498E-3,2.6153196E-2,-1.1653894E-2,3.0289365E-2,2.660369E-3,-1.52236195E-2,-1.4678686E-2,6.867239E-3,-2.800631E-2,-3.601772E-3,-4.0528074E-2,2.1793796E-2,-3.5548553E-2,-1.5635628E-2,-3.595611E-2,5.9193033E-3,1.1616769E-2,5.58332E-2,-3.0248258E-2,3.787178E-2,-7.449089E-4,-3.7446823E-2,4.0937796E-2,4.167352E-3,-1.8864298E-2,-6.585123E-2,-4.402877E-2,2.0747741E-3,3.677335E-2,4.7535296E-3,-1.5208216E-2,-2.9380007E-2,2.8771663E-2,-1.2516946E-2,5.783887E-2,1.0483797E-2],"categories":[],"categories_nodes":[],"categories_segments":[],"categories_sizes":[],"default_left":[0,0,0,0,0,0,0,0,0,0,0,0,0,0,0,0,0,0,0,0,0,0,0,0,0,0,0,0,0,0,0,0,0,0,0,0,0,0,0,0,0,0,0,0,0,0,0,0,0,0,0,0,0,0,0,0,0,0,0,0,0,0,0,0,0,0,0,0,0,0,0,0,0,0,0,0,0,0,0,0,0,0,0,0,0,0,0,0,0,0,0,0,0,0,0,0,0,0,0,0,0,0,0,0,0,0,0,0,0,0,0],"id":2,"left_children":[1,3,5,7,9,11,13,15,17,19,21,23,25,27,29,31,33,-1,35,37,39,41,43,45,47,49,51,53,-1,55,57,59,61,63,65,-1,-1,67,69,71,73,75,77,79,81,83,85,87,89,91,93,95,97,99,101,103,105,107,109,-1,-1,-1,-1,-1,-1,-1,-1,-1,-1,-1,-1,-1,-1,-1,-1,-1,-1,-1,-1,-1,-1,-1,-1,-1,-1,-1,-1,-1,-1,-1,-1,-1,-1,-1,-1,-1,-1,-1,-1,-1,-1,-1,-1,-1,-1,-1,-1,-1,-1,-1,-1],"loss_changes":[4.7973453E2,1.1507236E2,1.5445288E2,5.054187E1,8.6280396E1,1.4023643E2,7.345712E1,5.6341927E1,1.3587875E1,7.16712E1,3.4638058E1,1.7794525E2,1.1892484E2,1.466983E1,5.733371E1,3.4850876E1,1.0270816E2,0E0,6.2620697E0,1.0234986E2,1.02521515E2,3.513971E1,1.916085E1,7.3017E1,8.0004486E1,2.3288368E1,9.064182E1,6.286064E0,0E0,6.1821533E1,3.074744E1,1.1028404E1,3.1462036E1,8.952929E1,5.9969788E0,0E0,0E0,1.24745575E2,2.4115631E1,4.4679077E1,8.679797E1,3.430867E1,2.2771032E1,2.8663816E1,2.9524282E1,5.4256714E1,4.6886993E1,4.3624115E1,2.2908094E1,1.522673E1,3.129498E1,1.0988311E2,7.447683E1,4.119644E0,6.3131685E0,4.1250267E0,3.2447754E1,2.2668495E1,1.2812347E1,0E0,0E0,0E0,0E0,0E0,0E0,0E0,0E0,0E0,0E0,0E0,0E0,0E0,0E0,0E0,0E0,0E0,0E0,0E0,0E0,0E0,0E0,0E0,0E0,0E0,0E0,0E0,0E0,0E0,0E0,0E0,0E0,0E0,0E0,0E0,0E0,0E0,0E0,0E0,0E0,0E0,0E0,0E0,0E0,0E0,0E0,0E0,0E0,0E0,0E0,0E0,0E0],"parents":[2147483647,0,0,1,1,2,2,3,3,4,4,5,5,6,6,7,7,8,8,9,9,10,10,11,11,12,12,13,13,14,14,15,15,16,16,18,18,19,19,20,20,21,21,22,22,23,23,24,24,25,25,26,26,27,27,29,29,30,30,31,31,32,32,33,33,34,34,37,37,38,38,39,39,40,40,41,41,42,42,43,43,44,44,45,45,46,46,47,47,48,48,49,49,50,50,51,51,52,52,53,53,54,54,55,55,56,56,57,57,58,58],"right_children":[2,4,6,8,10,12,14,16,18,20,22,24,26,28,30,32,34,-1,36,38,40,42,44,46,48,50,52,54,-1,56,58,60,62,64,66,-1,-1,68,70,72,74,76,78,80,82,84,86,88,90,92,94,96,98,100,102,104,106,108,110,-1,-1,-1,-1,-1,-1,-1,-1,-1,-1,-1,-1,-1,-1,-1,-1,-1,-1,-1,-1,-1,-1,-1,-1,-1,-1,-1,-1,-1,-1,-1,-1,-1,-1,-1,-1,-1,-1,-1,-1,-1,-1,-1,-1,-1,-1,-1,-1,-1,-1,-1,-1],"split_conditions":[1.2447E3,1.01888E3,1.65442E3,1.00569E3,1.4078346E-1,1.30937E3,-1.5645785E-2,9.7146E2,1.9927678E-1,1.16827E3,7.67263E-3,1.27716E3,1.3167E3,1.77565E3,1.4475662E-2,5.28068E-1,6.7088166E-3,8.341005E-2,3.61002E-2,2.7956305E-2,1.19144E3,1.18217E3,1.16201E3,4.41079E-1,1.05264E-1,1.2440585E0,1.54715E3,1.3229496E-2,-8.945558E-2,-1.413261E-2,1.76512E3,1.8881207E-3,-3.480163E-2,-3.1687036E-2,1.2059431E-2,5.1607825E-2,-1.3807838E-2,-4.5738748E-1,1.03375E3,-1.03829E-1,-4.98708E-1,1.05576E3,1.23847E3,1.07715E3,1.9805313E-5,1.24853E3,-6.36364E-2,1.2922E3,-1.8683178E-3,1.85731E-1,3.45302E-2,1.51051E3,1.63E3,-1.1205453E0,1.73724E3,1.85329E3,0E0,1.6728E3,1.8305E3,2.7435211E-2,-2.3481827E-2,-2.650011E-2,7.1821414E-2,4.995681E-2,-5.2218523E-2,3.7279375E-2,8.413481E-2,-9.710516E-3,1.2552842E-2,-1.243142E-2,5.6161787E-2,6.073937E-2,2.8105948E-2,4.830321E-2,7.6098726E-3,-6.486498E-3,2.6153196E-2,-1.1653894E-2,3.0289365E-2,2.660369E-3,-1.52236195E-2,-1.4678686E-2,6.867239E-3,-2.800631E-2,-3.601772E-3,-4.0528074E-2,2.1793796E-2,-3.5548553E-2,-1.5635628E-2,-3.595611E-2,5.9193033E-3,1.1616769E-2,5.58332E-2,-3.0248258E-2,3.787178E-2,-7.449089E-4,-3.7446823E-2,4.0937796E-2,4.167352E-3,-1.8864298E-2,-6.585123E-2,-4.402877E-2,2.0747741E-3,3.677335E-2,4.7535296E-3,-1.5208216E-2,-2.9380007E-2,2.8771663E-2,-1.2516946E-2,5.783887E-2,1.0483797E-2],"split_indices":[14,14,14,14,11,14,15,14,11,14,5,14,14,14,15,1,15,0,3,15,14,14,14,1,6,10,14,11,0,15,14,15,15,15,15,0,0,11,14,0,12,14,14,14,7,14,3,14,7,1,0,14,14,11,14,14,6,14,14,0,0,0,0,0,0,0,0,0,0,0,0,0,0,0,0,0,0,0,0,0,0,0,0,0,0,0,0,0,0,0,0,0,0,0,0,0,0,0,0,0,0,0,0,0,0,0,0,0,0,0,0],"split_type":[0,0,0,0,0,0,0,0,0,0,0,0,0,0,0,0,0,0,0,0,0,0,0,0,0,0,0,0,0,0,0,0,0,0,0,0,0,0,0,0,0,0,0,0,0,0,0,0,0,0,0,0,0,0,0,0,0,0,0,0,0,0,0,0,0,0,0,0,0,0,0,0,0,0,0,0,0,0,0,0,0,0,0,0,0,0,0,0,0,0,0,0,0,0,0,0,0,0,0,0,0,0,0,0,0,0,0,0,0,0,0],"sum_hessian":[1.9043041E4,7.949804E3,1.1093235E4,3.70078E2,7.5797266E3,9.030848E3,2.0623882E3,2.9677225E2,7.3305725E1,5.057534E3,2.5221921E3,4.214428E3,4.8164194E3,1.0471021E2,1.957678E3,1.54336E2,1.4243626E2,6.0097794E1,1.3207933E1,2.7956782E3,2.261856E3,6.856891E2,1.8365029E3,2.644727E3,1.5697012E3,2.1984851E2,4.596571E3,7.402611E1,3.0684105E1,1.6866663E3,2.710117E2,4.8959446E1,1.0537655E2,1.019451E2,4.0491173E1,7.608496E0,5.599437E0,2.663137E3,1.3254126E2,6.645099E2,1.5973462E3,4.383972E2,2.4729189E2,9.4279724E2,8.9370575E2,2.2438047E3,4.0092242E2,1.2927687E3,2.769325E2,1.4825055E2,7.159795E1,4.01594E3,5.80631E2,4.3216908E1,3.0809196E1,5.8588573E1,1.6280776E3,2.127936E2,5.821811E1,3.480929E1,1.4150154E1,8.293091E0,9.708346E1,2.9297327E1,7.264777E1,1.2913526E1,2.7577646E1,1.016953E3,1.6461841E3,1.3855572E1,1.1868569E2,1.3179698E2,5.327129E2,1.4318306E2,1.4541631E3,1.0532047E2,3.3307672E2,2.100939E2,3.719799E1,3.6406784E2,5.787294E2,2.0563255E2,6.880732E2,2.564321E2,1.9873726E3,3.1893772E1,3.6902866E2,8.897401E2,4.0302853E2,3.6773647E1,2.4015884E2,2.4131924E1,1.2411863E2,2.519324E1,4.6404716E1,3.8014177E3,2.1452203E2,2.2393674E2,3.566942E2,6.8317885E0,3.638512E1,1.9669693E1,1.1139503E1,4.4802444E1,1.3786128E1,8.085676E2,8.1951E2,4.0088524E1,1.7270506E2,3.069428E1,2.7523829E1],"tree_param":{"num_deleted":"0","num_feature":"16","num_nodes":"111","size_leaf_vector":"1"}},{"base_weights":[-3.3454592E-3,1.6966727E-1,-1.2691525E-1,2.5383562E-1,-4.1184747E-3,-7.891132E-2,-4.2897484E-1,2.0176667E-1,5.222435E-1,9.832662E-1,-1.9667828E-2,-2.0309097E-1,1.9450318E-2,-1.246423E0,-3.7640128E-1,4.9401125E-1,1.5879546E-1,2.879607E-1,7.786664E-1,1.3871418E0,-1.0270733E-2,-2.9177053E-3,-7.7401865E-1,-6.658686E-2,-4.3540847E-1,7.345425E-1,-1.16101E-2,-9.809448E-1,-8.5445784E-2,5.517615E-1,-4.12301E-1,2.3968501E-1,8.533488E-1,-2.822732E-2,2.7450612E-1,1.2010924E0,8.116687E-2,8.4673874E-2,6.989223E-1,3.9933715E-2,1.5240717E0,2.1262804E-1,-6.0958747E-2,-0E0,-1.075277E0,-4.7018424E-1,1.4583535E-2,-5.289316E-1,6.6651884E-3,9.456087E-1,3.3354554E-1,5.0363016E-1,-4.3860655E-2,-1.0587406E0,-6.691232E-3,6.8238246E-1,-5.520512E-4,-4.92261E-1,8.99364E-2,-5.412827E-2,1.4415833E-2,7.612381E-2,3.227791E-2,-2.3094354E-2,4.1976995E-3,7.845879E-3,2.0231536E-2,-6.524589E-2,7.010568E-2,-1.9693108E-2,2.5999283E-2,4.5864373E-2,2.2675727E-2,8.437892E-2,3.795075E-2,-1.4580749E-2,1.384674E-2,-1.2446747E-2,-3.6191693E-4,2.0905383E-2,-2.2054188E-2,-6.494013E-2,-1.23171685E-2,3.7767466E-2,-3.0114776E-2,1.3475972E-2,-5.5098045E-3,-3.4127582E-2,-9.038157E-3,9.291131E-3,-4.5987867E-2,8.90042E-3,5.6829758E-2,-6.957265E-2,2.644126E-2,-2.3456316E-2,4.507149E-2,-5.077493E-2,-8.5342425E-4,-6.0387414E-2,-2.3631189E-2,4.104042E-2,-2.373409E-3,-5.7406206E-2,-2.2786928E-2,-1.0484958E-2,3.8910445E-2],"categories":[],"categories_nodes":[],"categories_segments":[],"categories_sizes":[],"default_left":[0,0,0,0,0,0,0,0,0,0,0,0,0,0,0,0,0,0,0,0,0,0,0,0,0,0,0,0,0,0,0,0,0,0,0,0,0,0,0,0,0,0,0,0,0,0,0,0,0,0,0,0,0,0,0,0,0,0,0,0,0,0,0,0,0,0,0,0,0,0,0,0,0,0,0,0,0,0,0,0,0,0,0,0,0,0,0,0,0,0,0,0,0,0,0,0,0,0,0,0,0,0,0,0,0,0,0],"id":3,"left_children":[1,3,5,7,9,11,13,15,17,19,21,23,25,27,29,31,33,35,37,39,-1,41,43,45,47,49,51,53,-1,55,57,59,61,63,65,67,69,-1,71,-1,73,75,77,79,81,83,85,87,89,91,93,95,97,99,-1,101,-1,103,105,-1,-1,-1,-1,-1,-1,-1,-1,-1,-1,-1,-1,-1,-1,-1,-1,-1,-1,-1,-1,-1,-1,-1,-1,-1,-1,-1,-1,-1,-1,-1,-1,-1,-1,-1,-1,-1,-1,-1,-1,-1,-1,-1,-1,-1,-1,-1,-1],"loss_changes":[4.0662222E2,1.1593495E2,1.6080196E2,7.4438385E1,3.9629265E1,1.1698326E2,6.4736084E1,5.603473E1,5.1724564E1,1.9613895E1,3.2104797E1,1.3415483E2,1.18770096E2,9.272537E0,4.7884094E1,5.2022995E1,8.4469406E1,8.56143E1,2.8699448E1,9.726486E-1,0E0,3.118619E1,1.282341E1,8.744668E1,6.480765E1,1.8396355E1,8.5089066E1,3.7281456E0,0E0,4.014906E0,5.5425674E1,2.1896067E1,3.1723022E1,7.265632E1,3.6769608E1,4.404341E1,7.772202E1,0E0,1.9896698E1,0E0,1.369873E0,1.7224306E1,1.9817871E1,3.2293878E0,6.8799133E0,7.279916E1,7.0722206E1,6.894153E1,4.5620846E1,2.0941818E1,2.7082264E1,1.17182E2,1.2539373E2,4.080887E0,0E0,4.5275116E0,0E0,2.780017E1,3.939118E1,0E0,0E0,0E0,0E0,0E0,0E0,0E0,0E0,0E0,0E0,0E0,0E0,0E0,0E0,0E0,0E0,0E0,0E0,0E0,0E0,0E0,0E0,0E0,0E0,0E0,0E0,0E0,0E0,0E0,0E0,0E0,0E0,0E0,0E0,0E0,0E0,0E0,0E0,0E0,0E0,0E0,0E0,0E0,0E0,0E0,0E0,0E0,0E0],"parents":[2147483647,0,0,1,1,2,2,3,3,4,4,5,5,6,6,7,7,8,8,9,9,10,10,11,11,12,12,13,13,14,14,15,15,16,16,17,17,18,18,19,19,21,21,22,22,23,23,24,24,25,25,26,26,27,27,29,29,30,30,31,31,32,32,33,33,34,34,35,35,36,36,38,38,40,40,41,41,42,42,43,43,44,44,45,45,46,46,47,47,48,48,49,49,50,50,51,51,52,52,53,53,55,55,57,57,58,58],"right_children":[2,4,6,8,10,12,14,16,18,20,22,24,26,28,30,32,34,36,38,40,-1,42,44,46,48,50,52,54,-1,56,58,60,62,64,66,68,70,-1,72,-1,74,76,78,80,82,84,86,88,90,92,94,96,98,100,-1,102,-1,104,106,-1,-1,-1,-1,-1,-1,-1,-1,-1,-1,-1,-1,-1,-1,-1,-1,-1,-1,-1,-1,-1,-1,-1,-1,-1,-1,-1,-1,-1,-1,-1,-1,-1,-1,-1,-1,-1,-1,-1,-1,-1,-1,-1,-1,-1,-1,-1,-1],"split_conditions":[1.2447E3,1.3282807E-1,1.6805E3,6.25415E-1,1.01888E3,1.30937E3,-1.5645785E-2,1.0451E3,1.10831E3,1.363214E0,3.3680716E0,1.27716E3,1.3167E3,1.77565E3,-1.413261E-2,-1.2112277E-3,-1.0731588E-3,9.7146E2,1.11522E3,3.21569E-1,-1.0270733E-2,-1.7762E-2,6.473173E-1,1.25037E3,8.0029275E-3,1.0928601E0,-1.8767647E-2,5.177581E-1,-8.5445784E-2,3.001351E-3,1.4475662E-2,6.309405E-3,-6.83227E-2,1.08806E3,1.16827E3,-3.480163E-2,-1.47379E-1,8.4673874E-2,-2.7878948E-3,3.9933715E-2,2.41322E-2,-6.69356E-3,1.6784089E-4,7.389245E-4,4.06534E-1,-7.927685E-3,1.26036E3,1.2922E3,1.29874E3,1.92683E-1,-3.52548E-2,1.35705E3,-1.53460065E-2,1.3194351E0,-6.691232E-3,1.0705436E0,-5.520512E-4,1.68318E3,1.76512E3,-5.412827E-2,1.4415833E-2,7.612381E-2,3.227791E-2,-2.3094354E-2,4.1976995E-3,7.845879E-3,2.0231536E-2,-6.524589E-2,7.010568E-2,-1.9693108E-2,2.5999283E-2,4.5864373E-2,2.2675727E-2,8.437892E-2,3.795075E-2,-1.4580749E-2,1.384674E-2,-1.2446747E-2,-3.6191693E-4,2.0905383E-2,-2.2054188E-2,-6.494013E-2,-1.23171685E-2,3.7767466E-2,-3.0114776E-2,1.3475972E-2,-5.5098045E-3,-3.4127582E-2,-9.038157E-3,9.291131E-3,-4.5987867E-2,8.90042E-3,5.6829758E-2,-6.957265E-2,2.644126E-2,-2.3456316E-2,4.507149E-2,-5.077493E-2,-8.5342425E-4,-6.0387414E-2,-2.3631189E-2,4.104042E-2,-2.373409E-3,-5.7406206E-2,-2.2786928E-2,-1.0484958E-2,3.8910445E-2],"split_indices":[14,11,14,1,14,14,15,14,14,10,9,14,14,14,15,7,15,14,14,1,0,3,11,14,15,10,15,8,0,7,15,13,5,14,14,15,0,0,7,0,3,0,7,7,1,15,14,14,14,1,0,14,15,9,0,10,0,14,14,0,0,0,0,0,0,0,0,0,0,0,0,0,0,0,0,0,0,0,0,0,0,0,0,0,0,0,0,0,0,0,0,0,0,0,0,0,0,0,0,0,0,0,0,0,0,0,0],"split_type":[0,0,0,0,0,0,0,0,0,0,0,0,0,0,0,0,0,0,0,0,0,0,0,0,0,0,0,0,0,0,0,0,0,0,0,0,0,0,0,0,0,0,0,0,0,0,0,0,0,0,0,0,0,0,0,0,0,0,0,0,0,0,0,0,0,0,0,0,0,0,0,0,0,0,0,0,0,0,0,0,0,0,0,0,0,0,0,0,0,0,0,0,0,0,0,0,0,0,0,0,0,0,0,0,0,0,0],"sum_hessian":[1.9017764E4,7.9231743E3,1.109459E4,5.337984E3,2.5851907E3,9.574571E3,1.5200183E3,4.4724824E3,8.6550104E2,3.9015854E1,2.5461748E3,4.23187E3,5.3427017E3,9.036434E1,1.429654E3,5.7168225E2,3.9008003E3,4.5358887E2,4.1191217E2,2.9059526E1,9.956329E0,2.4919775E3,5.419715E1,2.6666995E3,1.5651705E3,2.2159418E2,5.1211074E3,5.953024E1,3.0834103E1,5.259861E1,1.3770554E3,3.3589386E2,2.3578838E2,1.4909211E3,2.4098792E3,8.27779E1,3.7081097E2,3.130428E1,3.8060788E2,6.913064E0,2.2146461E1,5.277389E2,1.9642386E3,1.5505507E1,3.8691643E1,4.4592084E2,2.2207788E3,1.2918932E3,2.732774E2,1.4412561E2,7.746856E1,3.006209E2,4.8204863E3,5.4186157E1,5.34408E0,4.2662315E1,9.936292E0,1.1881171E3,1.8893826E2,1.1088587E1,3.248053E2,5.425812E1,1.8153026E2,3.059568E2,1.1849644E3,1.2674805E3,1.1423988E3,5.702269E0,7.707564E1,1.7799876E2,1.9281221E2,1.997362E2,1.8087169E2,1.71456E1,5.0008626E0,5.91151E1,4.686238E2,4.3535776E2,1.528881E3,7.93547E0,7.5700374E0,2.9932686E1,8.758958E0,4.2859463E1,4.0306137E2,7.2965985E2,1.4911189E3,8.955209E2,3.9637228E2,2.2975357E2,4.3523838E1,2.9204483E1,1.1492113E2,7.20305E0,7.026551E1,8.712927E1,2.1349162E2,1.2826396E2,4.6922227E3,4.222113E1,1.1965027E1,3.5871243E1,6.791074E0,6.0921787E1,1.1271953E3,1.3201591E2,5.692235E1],"tree_param":{"num_deleted":"0","num_feature":"16","num_nodes":"107","size_leaf_vector":"1"}},{"base_weights":[3.8735066E-3,1.6842335E-1,-1.1392692E-1,6.45978E-1,1.4434657E-1,-7.023347E-2,-3.8971844E-1,4.6118882E-1,1.3909476E0,1.8451571E-1,-1.2303617E-1,-1.8844545E-1,2.3401802E-2,-1.1356887E0,-3.4282044E-1,8.555509E-1,3.5699185E-2,1.5056733E0,2.0738626E-2,2.5560457E-1,4.753512E-2,9.04081E-1,-1.4426288E-1,-5.9796505E-2,-4.0811062E-1,7.0656294E-1,-6.495466E-3,-8.521573E-1,-8.170721E-2,4.917154E-1,-3.7908268E-1,-4.0377605E-1,9.982359E-1,-4.3328297E-1,1.2458923E0,1.6478996E0,1.2114938E0,2.349484E-1,8.2742953E-1,-7.574313E-1,6.96157E-2,6.322354E-3,1.1514667E0,-2.8031915E-1,-2.4101608E-3,-5.1103914E-1,-4.5853886E-3,-5.073082E-1,4.9534418E-2,9.1372454E-1,3.2570714E-1,5.126552E-1,-3.8734183E-2,-1.0444142E0,-1.4248878E-1,6.524514E-1,-1.6946075E-2,-4.4729045E-1,5.902028E-2,-5.5174142E-2,1.2609708E-2,6.355088E-2,1.719335E-2,4.5671713E-2,-4.901708E-2,3.0240899E-2,7.858253E-2,8.6268164E-2,4.533081E-2,4.0229983E-3,7.3940665E-2,6.8619302E-3,1.7317547E-2,5.066943E-2,-3.63167E-3,5.3962894E-2,-4.7642633E-2,4.553403E-3,-3.2783866E-2,6.642424E-2,3.37882E-2,-2.4998868E-3,-2.2147538E-2,1.6983489E-2,-4.7197375E-3,3.4164805E-2,-3.6575086E-2,-1.4423111E-3,3.8612712E-2,-2.9384626E-2,-4.5694453E-3,-3.525975E-2,8.709097E-3,6.2379103E-2,3.6880605E-2,-2.3034966E-2,3.4788247E-2,-2.0247197E-2,4.4400044E-2,-4.9498282E-2,-5.940679E-4,-2.8558636E-2,-5.9503254E-2,-2.3266762E-2,1.5171046E-2,4.0453356E-2,-1.4731494E-2,-5.668046E-2,-2.039348E-2,-1.14871E-2,3.4057748E-2],"categories":[],"categories_nodes":[],"categories_segments":[],"categories_sizes":[],"default_left":[0,0,0,0,0,0,0,0,0,0,0,0,0,0,0,0,0,0,0,0,0,0,0,0,0,0,0,0,0,0,0,0,0,0,0,0,0,0,0,0,0,0,0,0,0,0,0,0,0,0,0,0,0,0,0,0,0,0,0,0,0,0,0,0,0,0,0,0,0,0,0,0,0,0,0,0,0,0,0,0,0,0,0,0,0,0,0,0,0,0,0,0,0,0,0,0,0,0,0,0,0,0,0,0,0,0,0,0,0,0,0],"id":4,"left_children":[1,3,5,7,9,11,13,15,17,19,21,23,25,27,29,31,33,35,-1,37,39,41,43,45,47,49,51,53,-1,55,57,59,61,63,65,67,69,71,73,75,77,-1,79,81,83,85,87,89,91,93,95,97,99,101,103,105,-1,107,109,-1,-1,-1,-1,-1,-1,-1,-1,-1,-1,-1,-1,-1,-1,-1,-1,-1,-1,-1,-1,-1,-1,-1,-1,-1,-1,-1,-1,-1,-1,-1,-1,-1,-1,-1,-1,-1,-1,-1,-1,-1,-1,-1,-1,-1,-1,-1,-1,-1,-1,-1,-1],"loss_changes":[3.6925745E2,9.121326E1,1.3370068E2,5.162143E1,8.131299E1,1.0611119E2,5.2559082E1,5.1372665E1,7.5961E0,6.403462E1,2.1610897E1,1.19663086E2,1.0931966E2,1.0967194E1,4.3434708E1,2.9050072E1,8.506045E1,5.103302E-1,0E0,5.0859894E1,3.997418E1,3.5859966E0,1.868547E1,6.655233E1,7.109219E1,1.7284119E1,8.5752945E1,7.7938805E0,0E0,8.243022E0,4.1022903E1,8.089169E0,2.4974121E1,8.040052E1,7.5756836E0,5.8364105E-1,7.5130005E0,4.5424545E1,2.5347855E1,2.256279E1,3.4091705E1,0E0,1.648655E-1,1.8454098E1,1.4988123E1,7.7191025E1,4.4864395E1,4.2874176E1,2.6356707E1,7.3847046E0,2.385373E1,1.0357945E2,1.23178246E2,2.330059E0,2.1531692E0,7.793356E0,0E0,3.1479523E1,3.3496475E1,0E0,0E0,0E0,0E0,0E0,0E0,0E0,0E0,0E0,0E0,0E0,0E0,0E0,0E0,0E0,0E0,0E0,0E0,0E0,0E0,0E0,0E0,0E0,0E0,0E0,0E0,0E0,0E0,0E0,0E0,0E0,0E0,0E0,0E0,0E0,0E0,0E0,0E0,0E0,0E0,0E0,0E0,0E0,0E0,0E0,0E0,0E0,0E0,0E0,0E0,0E0,0E0],"parents":[2147483647,0,0,1,1,2,2,3,3,4,4,5,5,6,6,7,7,8,8,9,9,10,10,11,11,12,12,13,13,14,14,15,15,16,16,17,17,19,19,20,20,21,21,22,22,23,23,24,24,25,25,26,26,27,27,29,29,30,30,31,31,32,32,33,33,34,34,35,35,36,36,37,37,38,38,39,39,40,40,42,42,43,43,44,44,45,45,46,46,47,47,48,48,49,49,50,50,51,51,52,52,53,53,54,54,55,55,57,57,58,58],"right_children":[2,4,6,8,10,12,14,16,18,20,22,24,26,28,30,32,34,36,-1,38,40,42,44,46,48,50,52,54,-1,56,58,60,62,64,66,68,70,72,74,76,78,-1,80,82,84,86,88,90,92,94,96,98,100,102,104,106,-1,108,110,-1,-1,-1,-1,-1,-1,-1,-1,-1,-1,-1,-1,-1,-1,-1,-1,-1,-1,-1,-1,-1,-1,-1,-1,-1,-1,-1,-1,-1,-1,-1,-1,-1,-1,-1,-1,-1,-1,-1,-1,-1,-1,-1,-1,-1,-1,-1,-1,-1,-1,-1,-1],"split_conditions":[1.2447E3,1.01888E3,1.6805E3,1.00569E3,1.3937051E0,1.30937E3,-1.5645785E-2,9.7146E2,1.5045019E-3,4.08163E-2,-8.46561E-2,1.27716E3,1.3167E3,1.77565E3,-1.413261E-2,-3.480163E-2,6.7088166E-3,-2.34133E-2,2.0738626E-2,2.7956305E-2,1.02801E3,4.1666668E-2,1.17195E3,1.24853E3,1.05264E-1,1.0928601E0,-1.8767647E-2,1.3194351E0,-8.170721E-2,3.55886E-2,1.4475662E-2,-4.30631E-2,1.8881207E-3,-3.1687036E-2,1.2059431E-2,4.1044882E-1,9.61035E-4,1.16827E3,1.16906E3,-1.717863E-2,4.09274E-1,6.322354E-3,2.7356155E0,1.9544626E0,-1.1498019E-1,-7.927685E-3,1.27685E3,8.0029275E-3,-1.8683178E-3,-2.3067282E-3,-6.05204E-4,1.35705E3,-1.53460065E-2,-3.09091E-2,1.12296E-3,3.6998126E-3,-1.6946075E-2,1.68318E3,1.76512E3,-5.5174142E-2,1.2609708E-2,6.355088E-2,1.719335E-2,4.5671713E-2,-4.901708E-2,3.0240899E-2,7.858253E-2,8.6268164E-2,4.533081E-2,4.0229983E-3,7.3940665E-2,6.8619302E-3,1.7317547E-2,5.066943E-2,-3.63167E-3,5.3962894E-2,-4.7642633E-2,4.553403E-3,-3.2783866E-2,6.642424E-2,3.37882E-2,-2.4998868E-3,-2.2147538E-2,1.6983489E-2,-4.7197375E-3,3.4164805E-2,-3.6575086E-2,-1.4423111E-3,3.8612712E-2,-2.9384626E-2,-4.5694453E-3,-3.525975E-2,8.709097E-3,6.2379103E-2,3.6880605E-2,-2.3034966E-2,3.4788247E-2,-2.0247197E-2,4.4400044E-2,-4.9498282E-2,-5.940679E-4,-2.8558636E-2,-5.9503254E-2,-2.3266762E-2,1.5171046E-2,4.0453356E-2,-1.4731494E-2,-5.668046E-2,-2.039348E-2,-1.14871E-2,3.4057748E-2],"split_indices":[14,14,14,14,9,14,15,14,7,6,3,14,14,14,15,15,15,5,0,15,14,13,14,14,6,10,15,9,0,4,15,3,15,15,15,8,5,14,14,15,6,0,9,9,12,15,14,15,7,7,7,14,15,3,4,7,0,14,14,0,0,0,0,0,0,0,0,0,0,0,0,0,0,0,0,0,0,0,0,0,0,0,0,0,0,0,0,0,0,0,0,0,0,0,0,0,0,0,0,0,0,0,0,0,0,0,0,0,0,0,0],"split_type":[0,0,0,0,0,0,0,0,0,0,0,0,0,0,0,0,0,0,0,0,0,0,0,0,0,0,0,0,0,0,0,0,0,0,0,0,0,0,0,0,0,0,0,0,0,0,0,0,0,0,0,0,0,0,0,0,0,0,0,0,0,0,0,0,0,0,0,0,0,0,0,0,0,0,0,0,0,0,0,0,0,0,0,0,0,0,0,0,0,0,0,0,0,0,0,0,0,0,0,0,0,0,0,0,0,0,0,0,0,0,0],"sum_hessian":[1.9047287E4,7.946966E3,1.1100322E4,3.7999112E2,7.5669746E3,9.583614E3,1.5167076E3,3.0587286E2,7.411825E1,6.5792515E3,9.87723E2,4.2359272E3,5.347687E3,8.821364E1,1.428494E3,1.5809648E2,1.4777638E2,6.574648E1,8.371767E0,4.330339E3,2.2489128E3,1.9061739E1,9.686613E2,2.6724878E3,1.5634396E3,2.2341026E2,5.124277E3,5.808434E1,3.01293E1,5.884829E1,1.3696458E3,1.5832178E1,1.4226431E2,1.0690657E2,4.0869812E1,4.098833E1,2.475815E1,4.180897E3,1.4944177E2,5.9031643E1,2.189881E3,5.062767E0,1.3998972E1,4.9357443E2,4.7508688E2,2.9024408E2,2.3822437E3,1.2850143E3,2.784253E2,1.4362538E2,7.978489E1,2.9855435E2,4.825722E3,4.5220905E1,1.2863435E1,4.9587543E1,9.260745E0,1.185313E3,1.8433273E2,7.404363E0,8.427815E0,9.963505E1,4.262926E1,3.0636036E1,7.627053E1,1.4836344E1,2.6033468E1,3.5786255E1,5.2020736E0,5.053169E0,1.970498E1,2.228999E3,1.9518982E3,1.2384066E2,2.5601114E1,5.1927323E0,5.383891E1,2.1279539E3,6.1927254E1,8.74274E0,5.256232E0,2.0507143E2,2.8850302E2,9.9876816E1,3.7521005E2,4.4829823E1,2.4541428E2,2.3111575E3,7.108624E1,1.076338E3,2.0867622E2,3.8691574E1,2.3973372E2,4.7302284E1,9.63231E1,2.5365574E1,5.441931E1,8.657098E1,2.1198338E2,1.3140092E2,4.6943213E3,1.196216E1,3.3258747E1,7.5661244E0,5.297311E0,4.2766674E1,6.8208694E0,6.273861E1,1.1225743E3,1.2621864E2,5.8114094E1],"tree_param":{"num_deleted":"0","num_feature":"16","num_nodes":"111","size_leaf_vector":"1"}},{"base_weights":[1.505129E-3,1.0379807E-1,-5.8451273E-2,-1.8608952E-2,1.7728934E-1,7.872615E-2,-8.388555E-2,-3.9169577E-1,1.6069278E-2,2.1872798E-1,1.5755239E-3,-2.2503568E-2,2.3003173E-1,1.0883611E-2,-1.1610579E-1,3.5261095E-2,-4.4557804E-1,-4.3469E-2,1.8488069E-1,1.2905113E-1,3.4059614E-1,-1.5368353E-1,1.8525276E-1,1.5922828E-2,-2.7932876E-1,4.005276E-1,1.2082331E-1,-3.631192E-1,2.8273005E-2,-4.688944E-2,-1.7521934E-1,-6.2005854E-1,-2.090111E-1,3.558573E-2,-1.5809685E-1,-2.5059822E-1,2.7445138E-1,6.6803527E-1,1.077657E-1,6.6756314E-1,2.5226146E-1,-6.5211445E-4,-3.8929132E-1,1.1569114E0,1.3133287E-1,8.999063E-2,-1.3381697E-1,-6.170337E-1,5.269131E-3,-3.2105584E-2,4.3904364E-1,5.5176336E-1,5.3958226E-2,-1.7122377E-1,-8.2643104E-1,-3.3431165E-2,1.03069745E-1,-4.1375893E-1,-3.177872E-2,6.156742E-2,-1.8921936E-1,-3.565049E-2,3.0076236E-2,1.2856479E-2,-3.150556E-2,8.271389E-3,-3.0340157E-3,5.513634E-2,-8.460506E-3,-6.282341E-2,-8.263233E-3,7.1721375E-3,1.860412E-2,-1.842774E-2,3.87189E-2,2.6490411E-3,1.2386839E-2,4.592091E-2,1.4273725E-2,-4.0850006E-2,1.341477E-2,1.640054E-2,-8.224471E-3,-2.3906767E-2,5.176718E-2,2.007658E-2,6.968544E-2,1.7186847E-2,-1.9881036E-3,-6.7439885E-4,1.97676E-2,1.4644461E-2,-1.0630654E-2,-3.72252E-2,1.4247856E-2,-1.2749677E-2,1.094163E-2,1.238787E-2,3.401681E-2,4.5585673E-2,1.7027861E-3,-9.392761E-3,7.2050104E-3,1.9228233E-2,-1.5120833E-2,-5.435889E-2,1.1425925E-2,6.6960873E-3,-4.126662E-3,6.06703E-3,-2.0419242E-2,-1.5627848E-2,-5.2075516E-2,4.2582275E-3,-3.4706441E-3,-1.8937489E-2,1.3301082E-2,-1.0018964E-2,3.9203656E-3],"categories":[],"categories_nodes":[],"categories_segments":[],"categories_sizes":[],"default_left":[0,0,0,0,0,0,0,0,0,0,0,0,0,0,0,0,0,0,0,0,0,0,0,0,0,0,0,0,0,0,0,0,0,0,0,0,0,0,0,0,0,0,0,0,0,0,0,0,0,0,0,0,0,0,0,0,0,0,0,0,0,0,0,0,0,0,0,0,0,0,0,0,0,0,0,0,0,0,0,0,0,0,0,0,0,0,0,0,0,0,0,0,0,0,0,0,0,0,0,0,0,0,0,0,0,0,0,0,0,0,0,0,0,0,0,0,0,0,0],"id":5,"left_children":[1,3,5,7,9,11,13,15,17,19,21,23,25,27,29,-1,31,33,35,37,39,41,43,45,47,49,51,53,55,57,59,61,63,65,67,69,71,73,75,77,79,81,83,85,87,89,91,93,95,-1,97,99,101,103,105,107,109,111,113,115,117,-1,-1,-1,-1,-1,-1,-1,-1,-1,-1,-1,-1,-1,-1,-1,-1,-1,-1,-1,-1,-1,-1,-1,-1,-1,-1,-1,-1,-1,-1,-1,-1,-1,-1,-1,-1,-1,-1,-1,-1,-1,-1,-1,-1,-1,-1,-1,-1,-1,-1,-1,-1,-1,-1,-1,-1,-1,-1],"loss_changes":[1.1652665E2,6.3181717E1,4.179691E1,3.4128166E1,3.1927155E1,2.8718914E1,3.0867943E1,1.3547115E1,2.4255589E1,3.8706924E1,2.3951931E1,1.1112636E1,1.38904915E1,1.6652641E1,3.0829285E1,0E0,8.642323E0,1.61736E1,2.4617079E1,2.3337307E1,4.3174347E1,1.6359179E1,1.9889015E1,1.08476E1,1.4148123E1,1.20117035E1,1.3159283E1,9.870799E0,1.1323947E1,1.9213999E1,1.3505989E1,1.4373764E1,1.8417778E1,1.3212792E1,1.02993355E1,8.89323E0,6.579376E0,8.858788E0,1.5069668E1,3.0195007E1,2.0494652E1,1.4952387E1,2.3073734E1,2.8409462E0,1.3343711E1,2.0739239E1,1.0928223E1,7.982834E0,4.518361E0,0E0,1.279417E1,1.1326181E1,8.727889E0,6.075485E0,9.383453E0,1.1043874E1,1.03848915E1,8.253782E0,1.4704641E1,2.0559593E1,1.1498093E1,0E0,0E0,0E0,0E0,0E0,0E0,0E0,0E0,0E0,0E0,0E0,0E0,0E0,0E0,0E0,0E0,0E0,0E0,0E0,0E0,0E0,0E0,0E0,0E0,0E0,0E0,0E0,0E0,0E0,0E0,0E0,0E0,0E0,0E0,0E0,0E0,0E0,0E0,0E0,0E0,0E0,0E0,0E0,0E0,0E0,0E0,0E0,0E0,0E0,0E0,0E0,0E0,0E0,0E0,0E0,0E0,0E0,0E0],"parents":[2147483647,0,0,1,1,2,2,3,3,4,4,5,5,6,6,7,7,8,8,9,9,10,10,11,11,12,12,13,13,14,14,16,16,17,17,18,18,19,19,20,20,21,21,22,22,23,23,24,24,25,25,26,26,27,27,28,28,29,29,30,30,31,31,32,32,33,33,34,34,35,35,36,36,37,37,38,38,39,39,40,40,41,41,42,42,43,43,44,44,45,45,46,46,47,47,48,48,50,50,51,51,52,52,53,53,54,54,55,55,56,56,57,57,58,58,59,59,60,60],"right_children":[2,4,6,8,10,12,14,16,18,20,22,24,26,28,30,-1,32,34,36,38,40,42,44,46,48,50,52,54,56,58,60,62,64,66,68,70,72,74,76,78,80,82,84,86,88,90,92,94,96,-1,98,100,102,104,106,108,110,112,114,116,118,-1,-1,-1,-1,-1,-1,-1,-1,-1,-1,-1,-1,-1,-1,-1,-1,-1,-1,-1,-1,-1,-1,-1,-1,-1,-1,-1,-1,-1,-1,-1,-1,-1,-1,-1,-1,-1,-1,-1,-1,-1,-1,-1,-1,-1,-1,-1,-1,-1,-1,-1,-1,-1,-1,-1,-1,-1,-1],"split_conditions":[-7.243546E-1,3.25119E-1,-1.5264213E-1,-1.3759046E0,3.914577E-3,4.62464E-1,-1.73647E-2,-5.1963697E-3,1.5400077E-3,-1.1661847E-4,3.00844E-1,4.4802155E-2,3.4485474E-2,1.55151E-1,1.1036198E-1,3.5261095E-2,8.4424E-1,2.3377178E-2,-1.53304E-2,-2.40404E-1,7.746458E-5,-9.5620954E-1,1.6393442E-2,1.0275183E0,-3.0157152E-1,-8.477251E-3,-4.266902E0,-1.9348E-2,2.774637E-3,3.46938E-1,-1.3126783E0,1.1866755E-3,3.1874865E-2,-9.67256E-3,-1.35593E-1,-8.572863E-1,-1.027284E0,-1.443052E0,6.31342E-1,4.5967594E-2,6.79459E-2,4.8828735E-3,7.98053E-1,1.875E-1,5.02586E-1,3.4215823E-1,-2.8533235E-3,-4.7782356E-1,2.6362732E-1,-3.2105584E-2,5.66136E-1,-4.98708E-1,-1.17145E-1,-1.8683178E-3,1.2487709E-2,1.9634465E-2,5.10957E-2,3.8043477E-2,2.32958E-1,-2.07797E0,2.39285E0,-3.565049E-2,3.0076236E-2,1.2856479E-2,-3.150556E-2,8.271389E-3,-3.0340157E-3,5.513634E-2,-8.460506E-3,-6.282341E-2,-8.263233E-3,7.1721375E-3,1.860412E-2,-1.842774E-2,3.87189E-2,2.6490411E-3,1.2386839E-2,4.592091E-2,1.4273725E-2,-4.0850006E-2,1.341477E-2,1.640054E-2,-8.224471E-3,-2.3906767E-2,5.176718E-2,2.007658E-2,6.968544E-2,1.7186847E-2,-1.9881036E-3,-6.7439885E-4,1.97676E-2,1.4644461E-2,-1.0630654E-2,-3.72252E-2,1.4247856E-2,-1.2749677E-2,1.094163E-2,1.238787E-2,3.401681E-2,4.5585673E-2,1.7027861E-3,-9.392761E-3,7.2050104E-3,1.9228233E-2,-1.5120833E-2,-5.435889E-2,1.1425925E-2,6.6960873E-3,-4.126662E-3,6.06703E-3,-2.0419242E-2,-1.5627848E-2,-5.2075516E-2,4.2582275E-3,-3.4706441E-3,-1.8937489E-2,1.3301082E-2,-1.0018964E-2,3.9203656E-3],"split_indices":[9,1,12,9,7,1,3,7,7,7,12,13,13,1,9,0,2,13,4,5,7,9,13,9,12,7,11,4,12,2,11,7,13,5,4,8,9,9,1,11,2,7,1,5,1,9,7,11,8,0,1,12,5,7,12,13,4,13,1,11,2,0,0,0,0,0,0,0,0,0,0,0,0,0,0,0,0,0,0,0,0,0,0,0,0,0,0,0,0,0,0,0,0,0,0,0,0,0,0,0,0,0,0,0,0,0,0,0,0,0,0,0,0,0,0,0,0,0,0],"split_type":[0,0,0,0,0,0,0,0,0,0,0,0,0,0,0,0,0,0,0,0,0,0,0,0,0,0,0,0,0,0,0,0,0,0,0,0,0,0,0,0,0,0,0,0,0,0,0,0,0,0,0,0,0,0,0,0,0,0,0,0,0,0,0,0,0,0,0,0,0,0,0,0,0,0,0,0,0,0,0,0,0,0,0,0,0,0,0,0,0,0,0,0,0,0,0,0,0,0,0,0,0,0,0,0,0,0,0,0,0,0,0,0,0,0,0,0,0,0,0],"sum_hessian":[1.8996854E4,7.0203003E3,1.1976553E4,2.633436E3,4.3868643E3,1.8723236E3,1.01042295E4,2.2332932E2,2.410107E3,3.5490718E3,8.377924E2,1.1219097E3,7.504139E2,2.5630642E3,7.5411655E3,9.803747E0,2.1352557E2,1.7818236E3,6.282832E2,2.0462303E3,1.5028414E3,4.538121E2,3.8398032E2,9.763727E2,1.4553705E2,2.9159433E2,4.5881952E2,1.12737045E2,2.4503271E3,3.4753484E3,4.065817E3,1.2171246E2,9.181311E1,1.0544348E3,7.2738885E2,1.06684654E2,5.215985E2,7.640638E1,1.969824E3,3.1801892E2,1.1848225E3,2.7598328E2,1.7782881E2,1.9014812E1,3.649655E2,6.539617E2,3.2241098E2,6.6184975E1,7.9352066E1,9.737234E0,2.8185712E2,6.0453587E1,3.9836594E2,8.083997E1,3.1897064E1,1.3422463E3,1.1080808E3,1.3617555E2,3.3391729E3,2.2638329E2,3.8394336E3,1.1356908E2,8.143382E0,4.364822E1,4.8164894E1,4.4906445E2,6.053703E2,5.418552E0,7.2197034E2,7.1779885E0,9.950667E1,2.2421864E2,2.9737988E2,6.7922215E0,6.961415E1,1.4172164E3,5.5260754E2,1.9097292E2,1.2704601E2,1.667419E1,1.1681483E3,9.127342E1,1.8470985E2,1.6808138E2,9.747429E0,5.2823086E0,1.3732504E1,1.6263696E2,2.0232854E2,4.8891135E2,1.6505034E2,4.9635063E1,2.7277594E2,5.8239918E1,7.9450603E0,3.546717E1,4.3884895E1,1.5858167E2,1.2327544E2,3.5097145E1,2.5356441E1,1.0758005E2,2.907859E2,1.49236355E1,6.591634E1,2.5627165E1,6.2699003E0,3.036302E2,1.0386162E3,1.070787E3,3.7293797E1,1.18697174E2,1.7478384E1,8.1201654E2,2.5271562E3,7.135974E1,1.5502354E2,3.6863398E3,1.5309384E2],"tree_param":{"num_deleted":"0","num_feature":"16","num_nodes":"119","size_leaf_vector":"1"}},{"base_weights":[-3.0481468E-3,1.5049021E-1,-1.125327E-1,6.25819E-1,1.2719692E-1,-7.473432E-2,-3.989817E-1,4.6054015E-1,1.2823174E0,5.166258E-2,2.1874419E-1,4.1976392E-1,-9.509868E-2,-1.1799681E0,-3.4384555E-1,8.202019E-1,8.401956E-2,1.4116311E0,1.583794E-3,-4.2554137E-1,8.606566E-2,4.9392885E-1,9.8824345E-2,-2.0547402E-1,9.0802294E-1,-1.9870134E-1,2.214489E-2,-9.280418E-1,-7.984731E-2,6.2719226E-1,-3.9252406E-1,-5.766454E-1,9.833673E-1,-3.83919E-1,1.2427232E0,6.366227E-1,1.5428647E0,8.896044E-1,-6.1935437E-1,2.0890188E-1,-3.1594098E-2,9.455746E-1,3.698046E-1,-1.8718973E-1,2.1762767E-1,2.3885229E-1,-1.0436145E0,-3.78617E-2,9.6608615E-1,-1.0765339E0,-1.804619E-1,-8.631349E-1,3.681139E-2,-1.0011238E0,-7.8043486E-3,1.1783944E0,4.1912797E-1,-4.8369458E-1,-5.7381164E-2,-2.517542E-3,-5.9505768E-2,4.56343E-3,6.1900545E-2,7.615245E-2,-3.625949E-2,3.7588965E-2,7.254418E-2,5.7785097E-3,5.2335244E-2,4.226589E-2,7.975466E-2,1.4010842E-2,7.243027E-2,-3.9780404E-2,7.153332E-3,1.5278031E-2,-9.06635E-3,6.80684E-3,-8.512191E-3,-0E0,5.1099032E-2,9.098811E-3,3.2546893E-2,-1.5871437E-2,2.0646544E-2,-1.5274259E-2,1.48856E-2,-2.2178167E-2,4.7433004E-2,-6.415423E-2,5.476298E-4,3.9236E-2,7.2905466E-2,-6.854126E-2,-1.5328656E-2,-1.1354076E-2,5.887872E-3,-7.775324E-2,-1.8846832E-2,3.978524E-3,-1.409288E-2,-2.4083849E-2,-5.483232E-2,2.8076947E-2,7.787274E-2,-2.618669E-2,2.9061774E-2,-2.1599883E-2,-4.7406156E-2,5.4176566E-3,-3.1362113E-2],"categories":[],"categories_nodes":[],"categories_segments":[],"categories_sizes":[],"default_left":[0,0,0,0,0,0,0,0,0,0,0,0,0,0,0,0,0,0,0,0,0,0,0,0,0,0,0,0,0,0,0,0,0,0,0,0,0,0,0,0,0,0,0,0,0,0,0,0,0,0,0,0,0,0,0,0,0,0,0,0,0,0,0,0,0,0,0,0,0,0,0,0,0,0,0,0,0,0,0,0,0,0,0,0,0,0,0,0,0,0,0,0,0,0,0,0,0,0,0,0,0,0,0,0,0,0,0,0,0,0,0],"id":6,"left_children":[1,3,5,7,9,11,13,15,17,19,21,23,25,27,29,31,33,35,-1,37,39,41,43,45,47,49,51,53,-1,55,57,59,61,63,65,67,69,71,73,75,77,79,81,83,85,87,89,-1,91,93,95,97,99,101,-1,103,105,107,109,-1,-1,-1,-1,-1,-1,-1,-1,-1,-1,-1,-1,-1,-1,-1,-1,-1,-1,-1,-1,-1,-1,-1,-1,-1,-1,-1,-1,-1,-1,-1,-1,-1,-1,-1,-1,-1,-1,-1,-1,-1,-1,-1,-1,-1,-1,-1,-1,-1,-1,-1,-1],"loss_changes":[3.1924124E2,8.736723E1,1.1995906E2,3.9254272E1,5.2079895E1,9.865054E1,5.5069122E1,3.9968987E1,1.1697197E1,6.783214E1,1.12304565E2,1.18532486E2,1.143128E2,7.158409E0,5.7331802E1,3.5092827E1,7.973505E1,5.5647736E0,0E0,7.133354E1,5.573709E1,5.745125E1,8.071215E1,6.386738E1,2.1813782E1,7.966737E1,5.7266083E1,2.8483543E0,0E0,5.993763E0,3.509378E1,5.108335E0,3.0629242E1,6.917331E1,3.0121536E0,2.2082572E0,4.5028687E-1,1.1693218E1,3.2803253E1,7.122306E1,4.582505E1,1.5961777E1,4.26987E1,5.4599052E1,7.038801E1,5.4837505E1,1.5135712E1,0E0,1.745871E1,2.2382675E1,6.809703E1,2.3399574E1,5.9187675E1,1.805954E0,0E0,2.467638E0,6.999011E0,2.1172653E1,2.3501383E1,0E0,0E0,0E0,0E0,0E0,0E0,0E0,0E0,0E0,0E0,0E0,0E0,0E0,0E0,0E0,0E0,0E0,0E0,0E0,0E0,0E0,0E0,0E0,0E0,0E0,0E0,0E0,0E0,0E0,0E0,0E0,0E0,0E0,0E0,0E0,0E0,0E0,0E0,0E0,0E0,0E0,0E0,0E0,0E0,0E0,0E0,0E0,0E0,0E0,0E0,0E0,0E0],"parents":[2147483647,0,0,1,1,2,2,3,3,4,4,5,5,6,6,7,7,8,8,9,9,10,10,11,11,12,12,13,13,14,14,15,15,16,16,17,17,19,19,20,20,21,21,22,22,23,23,24,24,25,25,26,26,27,27,29,29,30,30,31,31,32,32,33,33,34,34,35,35,36,36,37,37,38,38,39,39,40,40,41,41,42,42,43,43,44,44,45,45,46,46,48,48,49,49,50,50,51,51,52,52,53,53,55,55,56,56,57,57,58,58],"right_children":[2,4,6,8,10,12,14,16,18,20,22,24,26,28,30,32,34,36,-1,38,40,42,44,46,48,50,52,54,-1,56,58,60,62,64,66,68,70,72,74,76,78,80,82,84,86,88,90,-1,92,94,96,98,100,102,-1,104,106,108,110,-1,-1,-1,-1,-1,-1,-1,-1,-1,-1,-1,-1,-1,-1,-1,-1,-1,-1,-1,-1,-1,-1,-1,-1,-1,-1,-1,-1,-1,-1,-1,-1,-1,-1,-1,-1,-1,-1,-1,-1,-1,-1,-1,-1,-1,-1,-1,-1,-1,-1,-1,-1],"split_conditions":[1.2447E3,1.01888E3,1.69482E3,1.00569E3,1.16827E3,-1.8767647E-2,-1.5645785E-2,9.7146E2,1.19467E-1,-1.59576E-1,1.19144E3,1.35705E3,2.3517471E-3,1.77565E3,-1.413261E-2,-3.480163E-2,6.7088166E-3,3.08984E-1,1.583794E-3,-1.15385E-1,4.1324E-3,-5.20833E-2,-5.6689773E-3,1.32609E3,2.69669E-1,-1.717863E-2,1.24695E3,2.0489945E0,-7.984731E-2,-4.31823E-2,1.10395495E-2,6.1989E-1,4.41079E-1,-3.3401784E-2,1.2059431E-2,8.04149E-1,-6.1621064E-1,1.12827E0,1.15449885E-2,1.13433E3,1.08223E3,2.47895E-1,2.8808598E-4,1.23618E3,1.20172E3,1.29874E3,4.76222E-2,-3.78617E-2,-2.2741556E-2,1.64069E3,8.56695E-2,3.986864E-3,1.63546E3,1.9804E-1,-7.8043486E-3,-6.38298E-2,-2.39415E-2,1.88033E3,2.6024958E-2,-2.517542E-3,-5.9505768E-2,4.56343E-3,6.1900545E-2,7.615245E-2,-3.625949E-2,3.7588965E-2,7.254418E-2,5.7785097E-3,5.2335244E-2,4.226589E-2,7.975466E-2,1.4010842E-2,7.243027E-2,-3.9780404E-2,7.153332E-3,1.5278031E-2,-9.06635E-3,6.80684E-3,-8.512191E-3,-0E0,5.1099032E-2,9.098811E-3,3.2546893E-2,-1.5871437E-2,2.0646544E-2,-1.5274259E-2,1.48856E-2,-2.2178167E-2,4.7433004E-2,-6.415423E-2,5.476298E-4,3.9236E-2,7.2905466E-2,-6.854126E-2,-1.5328656E-2,-1.1354076E-2,5.887872E-3,-7.775324E-2,-1.8846832E-2,3.978524E-3,-1.409288E-2,-2.4083849E-2,-5.483232E-2,2.8076947E-2,7.787274E-2,-2.618669E-2,2.9061774E-2,-2.1599883E-2,-4.7406156E-2,5.4176566E-3,-3.1362113E-2],"split_indices":[14,14,14,14,14,15,15,14,0,0,14,14,15,14,15,15,15,1,0,3,5,5,15,14,2,15,14,10,0,0,15,1,1,15,15,2,8,2,15,14,14,1,7,14,14,14,5,0,15,14,5,15,14,1,0,5,6,14,15,0,0,0,0,0,0,0,0,0,0,0,0,0,0,0,0,0,0,0,0,0,0,0,0,0,0,0,0,0,0,0,0,0,0,0,0,0,0,0,0,0,0,0,0,0,0,0,0,0,0,0,0],"split_type":[0,0,0,0,0,0,0,0,0,0,0,0,0,0,0,0,0,0,0,0,0,0,0,0,0,0,0,0,0,0,0,0,0,0,0,0,0,0,0,0,0,0,0,0,0,0,0,0,0,0,0,0,0,0,0,0,0,0,0,0,0,0,0,0,0,0,0,0,0,0,0,0,0,0,0,0,0,0,0,0,0,0,0,0,0,0,0,0,0,0,0,0,0,0,0,0,0,0,0,0,0,0,0,0,0,0,0,0,0,0,0],"sum_hessian":[1.8989281E4,7.9038433E3,1.10854375E4,3.6782153E2,7.536022E3,9.794602E3,1.2908364E3,2.953249E2,7.2496635E1,4.1305884E3,3.4054333E3,3.8643588E2,9.408165E3,8.365628E1,1.2071802E3,1.5030545E2,1.4501944E2,6.551395E1,6.9826894E0,2.768019E2,3.8537864E3,1.0323978E3,2.3730356E3,1.6961304E2,2.1682285E2,4.9947217E3,4.413444E3,5.430949E1,2.9346794E1,5.696214E1,1.150218E3,1.539165E1,1.349138E2,1.0371632E2,4.130312E1,1.0444764E1,5.5069183E1,3.5025494E1,2.4177643E2,1.8854548E3,1.9683317E3,2.2096349E2,8.114344E2,6.96008E2,1.6770276E3,1.1123784E2,5.8375195E1,6.8415976E0,2.0998125E2,1.003743E2,4.894347E3,7.087234E1,4.3425713E3,4.9223072E1,5.086418E0,1.4199832E1,4.2762306E1,9.0365173E2,2.4656633E2,8.954601E0,6.437049E0,3.0347574E1,1.0456622E2,1.5173466E1,8.8542854E1,1.3814267E1,2.7488855E1,5.271916E0,5.172848E0,5.1665115E0,4.9902676E1,1.7561369E1,1.7464123E1,1.9644957E2,4.5326855E1,1.5115266E3,3.7392816E2,8.904321E2,1.0778995E3,1.6665993E1,2.042975E2,4.8763965E2,3.2379474E2,5.724186E2,1.23589386E2,2.2211345E2,1.4549141E3,5.6832638E1,5.44052E1,4.7473167E1,1.0902028E1,1.554708E2,5.4510452E1,7.195984E1,2.8414457E1,4.233165E3,6.6118225E2,2.8255964E1,4.2616375E1,3.8297576E3,5.1281366E2,8.746967E0,4.0476105E1,6.4495316E0,7.7503004E0,5.8557863E0,3.690652E1,8.150694E2,8.858233E1,1.9150482E2,5.506151E1],"tree_param":{"num_deleted":"0","num_feature":"16","num_nodes":"111","size_leaf_vector":"1"}},{"base_weights":[-4.5524273E-4,1.2723024E-1,-3.9448448E-2,5.637291E-1,9.252552E-2,6.2504016E-2,-9.0740524E-2,2.6835623E-1,1.1488645E0,-2.1633232E-2,2.366238E-1,-4.375549E-2,1.5701832E-1,-1.3767079E-1,-9.900547E-3,6.125622E-1,9.3434766E-2,-2.1192671E-3,1.2198547E0,-7.3575294E-1,1.9286487E-2,1.5412624E-1,4.04974E-1,-1.6926114E-1,5.7578094E-2,-3.0935705E-2,2.0946234E-1,1.3171173E-2,-2.1046694E-1,3.6988685E-1,-3.8611215E-2,1.3645664E0,2.7549714E-1,-6.3891435E-1,2.8127724E-1,1.4984022E0,1.0129803E0,-1.4126471E0,-5.017555E-1,-1.1899003E-2,6.523048E-1,3.156096E-1,5.0494593E-2,-5.4300427E-2,4.199913E-1,-6.3660616E-1,-9.693544E-2,-1.0835884E0,7.4125856E-2,-4.0045172E-1,1.2238637E-2,-5.226665E-1,2.2125332E-1,2.0493269E-1,-9.9770695E-2,-2.3558728E-1,-2.7062593E-2,5.6533927E-1,9.1165066E-2,-5.6807205E-2,1.491107E-1,8.08684E-2,2.1872176E-2,2.9445782E-2,-1.978752E-2,-5.774796E-2,-3.7155387E-3,1.302458E-4,4.078776E-2,3.1574342E-2,8.173658E-2,2.8985133E-2,6.6982545E-2,-3.4681104E-2,-7.776042E-2,-6.3928036E-4,-3.9243672E-2,4.327246E-2,-1.1462922E-3,5.068615E-2,1.9449743E-2,-5.963216E-2,1.674636E-2,-9.949311E-4,1.9963374E-2,7.860389E-3,2.572367E-2,-2.0652672E-2,-4.778817E-2,-2.6488487E-2,-2.948806E-3,-7.6933265E-2,-1.2865058E-2,8.093241E-4,1.47886565E-2,2.6434637E-3,-2.9091874E-2,-1.29675595E-2,3.5050157E-3,-4.0448487E-2,3.1190043E-2,1.0437057E-2,3.672339E-2,1.0899117E-3,1.6289094E-2,-1.2846517E-2,3.562469E-3,-1.9734187E-2,-1.041098E-2,4.3184357E-3,-1.8561509E-2,6.1083138E-2,2.191875E-2,-1.2158606E-2,1.3586992E-2,-1.7891575E-3,-4.0777903E-2,2.0995457E-2,1.5064649E-3],"categories":[],"categories_nodes":[],"categories_segments":[],"categories_sizes":[],"default_left":[0,0,0,0,0,0,0,0,0,0,0,0,0,0,0,0,0,0,0,0,0,0,0,0,0,0,0,0,0,0,0,0,0,0,0,0,0,0,0,0,0,0,0,0,0,0,0,0,0,0,0,0,0,0,0,0,0,0,0,0,0,0,0,0,0,0,0,0,0,0,0,0,0,0,0,0,0,0,0,0,0,0,0,0,0,0,0,0,0,0,0,0,0,0,0,0,0,0,0,0,0,0,0,0,0,0,0,0,0,0,0,0,0,0,0,0,0,0,0],"id":7,"left_children":[1,3,5,7,9,11,13,15,17,19,21,23,25,27,29,31,33,-1,35,37,39,41,43,45,47,49,51,53,55,57,59,61,63,65,67,69,71,73,75,77,79,81,83,-1,85,87,89,91,93,95,97,99,101,103,105,107,109,111,113,115,117,-1,-1,-1,-1,-1,-1,-1,-1,-1,-1,-1,-1,-1,-1,-1,-1,-1,-1,-1,-1,-1,-1,-1,-1,-1,-1,-1,-1,-1,-1,-1,-1,-1,-1,-1,-1,-1,-1,-1,-1,-1,-1,-1,-1,-1,-1,-1,-1,-1,-1,-1,-1,-1,-1,-1,-1,-1,-1],"loss_changes":[9.4610054E1,6.7221596E1,7.614172E1,5.6064774E1,6.778897E1,4.8956795E1,3.673458E1,1.3040934E1,9.410339E0,6.726441E1,2.5177261E1,2.9198349E1,2.5452496E1,6.731282E1,3.8798027E1,1.8046036E1,2.0282639E1,0E0,4.1801453E0,1.88591E1,4.3012142E1,2.0436804E1,1.3778572E1,3.4529854E1,2.3954903E1,9.02923E0,1.7501251E1,4.324339E1,1.9012619E1,1.3504814E1,1.1308362E1,4.325157E0,1.1187112E1,8.5555935E0,1.738897E1,3.6700745E0,7.8825607E0,1.9136314E0,1.29735565E1,1.999919E1,9.200508E0,1.4241333E1,1.8393805E1,0E0,1.4570267E1,9.248665E0,1.4524105E1,6.240011E0,1.6048918E1,4.951025E0,7.935658E0,1.107248E1,1.2507408E1,1.6340199E1,3.3795414E1,1.5685654E1,1.9564545E1,1.1512756E1,6.376278E0,4.805258E1,9.361969E0,0E0,0E0,0E0,0E0,0E0,0E0,0E0,0E0,0E0,0E0,0E0,0E0,0E0,0E0,0E0,0E0,0E0,0E0,0E0,0E0,0E0,0E0,0E0,0E0,0E0,0E0,0E0,0E0,0E0,0E0,0E0,0E0,0E0,0E0,0E0,0E0,0E0,0E0,0E0,0E0,0E0,0E0,0E0,0E0,0E0,0E0,0E0,0E0,0E0,0E0,0E0,0E0,0E0,0E0,0E0,0E0,0E0,0E0],"parents":[2147483647,0,0,1,1,2,2,3,3,4,4,5,5,6,6,7,7,8,8,9,9,10,10,11,11,12,12,13,13,14,14,15,15,16,16,18,18,19,19,20,20,21,21,22,22,23,23,24,24,25,25,26,26,27,27,28,28,29,29,30,30,31,31,32,32,33,33,34,34,35,35,36,36,37,37,38,38,39,39,40,40,41,41,42,42,44,44,45,45,46,46,47,47,48,48,49,49,50,50,51,51,52,52,53,53,54,54,55,55,56,56,57,57,58,58,59,59,60,60],"right_children":[2,4,6,8,10,12,14,16,18,20,22,24,26,28,30,32,34,-1,36,38,40,42,44,46,48,50,52,54,56,58,60,62,64,66,68,70,72,74,76,78,80,82,84,-1,86,88,90,92,94,96,98,100,102,104,106,108,110,112,114,116,118,-1,-1,-1,-1,-1,-1,-1,-1,-1,-1,-1,-1,-1,-1,-1,-1,-1,-1,-1,-1,-1,-1,-1,-1,-1,-1,-1,-1,-1,-1,-1,-1,-1,-1,-1,-1,-1,-1,-1,-1,-1,-1,-1,-1,-1,-1,-1,-1,-1,-1,-1,-1,-1,-1,-1,-1,-1,-1],"split_conditions":[-5.38862E-2,-2.8863251E-2,-7.5270206E-1,-3.480163E-2,-1.6758964E0,1.2184326E-3,4.0644235E-3,-4.5260083E-2,2.34422E-1,-2.0605272E-2,5.62328E-1,3.25119E-1,-4.2938113E-1,-4.8957234E-3,4.5362557E-3,-1E-1,-3.7228197E-2,-2.1192671E-3,-3.3401784E-2,-9.841173E-1,2.6024958E-2,6.45721E-1,6.79459E-2,-1.2929618E0,-1.47379E-1,-1.2875724E0,-1.03829E-1,-1.73647E-2,2.342347E0,1.6092918E-3,1.8856036E-2,-3.6134799E0,-1.050439E-3,-3.2121983E0,-1.5757127E-3,3.5013527E-2,-3.1687036E-2,-9.590845E-2,-2.5195498E-2,-1.9647848E-2,-9.6996355E-1,-1.74003E-1,1.2621238E-2,-5.4300427E-2,-6.4826156E-3,2.8185247E-2,-1.53460065E-2,5.729443E-2,6.04572E-1,1.1494253E-2,-2.38095E-2,7.80732E-1,3.0676948E-2,9.166362E-2,-9.126585E-3,1.61979E-1,4.8366E-1,4.1406625E-3,-2.7612898E-1,1.752711E-2,-1.4231622E-1,8.08684E-2,2.1872176E-2,2.9445782E-2,-1.978752E-2,-5.774796E-2,-3.7155387E-3,1.302458E-4,4.078776E-2,3.1574342E-2,8.173658E-2,2.8985133E-2,6.6982545E-2,-3.4681104E-2,-7.776042E-2,-6.3928036E-4,-3.9243672E-2,4.327246E-2,-1.1462922E-3,5.068615E-2,1.9449743E-2,-5.963216E-2,1.674636E-2,-9.949311E-4,1.9963374E-2,7.860389E-3,2.572367E-2,-2.0652672E-2,-4.778817E-2,-2.6488487E-2,-2.948806E-3,-7.6933265E-2,-1.2865058E-2,8.093241E-4,1.47886565E-2,2.6434637E-3,-2.9091874E-2,-1.29675595E-2,3.5050157E-3,-4.0448487E-2,3.1190043E-2,1.0437057E-2,3.672339E-2,1.0899117E-3,1.6289094E-2,-1.2846517E-2,3.562469E-3,-1.9734187E-2,-1.041098E-2,4.3184357E-3,-1.8561509E-2,6.1083138E-2,2.191875E-2,-1.2158606E-2,1.3586992E-2,-1.7891575E-3,-4.0777903E-2,2.0995457E-2,1.5064649E-3],"split_indices":[6,15,9,15,10,15,15,15,1,15,1,1,8,15,15,3,8,0,15,9,15,2,2,9,0,8,0,3,10,7,15,10,7,10,7,13,15,8,15,15,9,0,15,0,7,13,15,13,1,13,3,1,15,11,15,1,1,15,9,15,8,0,0,0,0,0,0,0,0,0,0,0,0,0,0,0,0,0,0,0,0,0,0,0,0,0,0,0,0,0,0,0,0,0,0,0,0,0,0,0,0,0,0,0,0,0,0,0,0,0,0,0,0,0,0,0,0,0,0],"split_type":[0,0,0,0,0,0,0,0,0,0,0,0,0,0,0,0,0,0,0,0,0,0,0,0,0,0,0,0,0,0,0,0,0,0,0,0,0,0,0,0,0,0,0,0,0,0,0,0,0,0,0,0,0,0,0,0,0,0,0,0,0,0,0,0,0,0,0,0,0,0,0,0,0,0,0,0,0,0,0,0,0,0,0,0,0,0,0,0,0,0,0,0,0,0,0,0,0,0,0,0,0,0,0,0,0,0,0,0,0,0,0,0,0,0,0,0,0,0,0],"sum_hessian":[1.9002084E4,4.444263E3,1.4557821E4,3.259905E2,4.1182725E3,4.871885E3,9.6859375E3,2.1771754E2,1.0827297E2,2.2979373E3,1.8203352E3,2.2931953E3,2.5786892E3,6.1270464E3,3.5588909E3,7.232489E1,1.4539265E2,6.032863E0,1.0224011E2,1.2374998E2,2.1741873E3,1.2233567E3,5.969785E2,1.0245571E3,1.2686381E3,5.622273E2,2.016462E3,1.9942266E3,4.13282E3,2.4905124E2,3.3098396E3,2.1349138E1,5.097575E1,2.908073E1,1.1631193E2,4.0705482E1,6.153463E1,3.0386198E1,9.336378E1,2.0728901E3,1.0129718E2,4.7702505E2,7.4633167E2,5.175311E0,5.918032E2,1.360784E2,8.8847876E2,1.712519E1,1.2515128E3,5.8195E1,5.0403232E2,3.113933E1,1.9853228E3,7.3920966E2,1.255017E3,3.6342214E3,4.9859814E2,1.4557812E2,1.0347313E2,3.0184863E3,2.913535E2,1.6105295E1,5.2438426E0,3.493538E1,1.6040375E1,1.4554897E1,1.4525832E1,7.723449E1,3.907744E1,6.3964105E0,3.430907E1,2.7775475E1,3.3759155E1,6.1143937E0,2.4271805E1,3.4748466E1,5.8615314E1,2.4655136E1,2.0482349E3,4.1333412E1,5.9963768E1,5.198881E0,4.7182617E2,6.215415E2,1.2479016E2,1.5749205E2,4.3431116E2,8.155851E1,5.451989E1,7.0379555E1,8.180992E2,1.040918E1,6.716011E0,9.933674E2,2.581455E2,1.6675827E1,4.1519173E1,8.760823E1,4.1642407E2,2.522227E1,5.9170623E0,1.9396359E3,4.568678E1,2.9467224E2,4.4453745E2,6.540538E2,6.0096313E2,5.3089526E2,3.1033262E3,3.7534863E2,1.2324951E2,2.2071743E1,1.2350638E2,3.597127E1,6.7501854E1,2.9382498E3,8.023634E1,8.790788E1,2.0344562E2],"tree_param":{"num_deleted":"0","num_feature":"16","num_nodes":"119","size_leaf_vector":"1"}},{"base_weights":[3.6609855E-3,1.4661603E-1,-9.857304E-2,6.061636E-1,1.2471935E-1,-6.0716126E-2,-3.3718288E-1,4.2173725E-1,1.304121E0,1.8907672E-1,-4.950586E-3,-1.3505255E-1,6.532944E-2,-1.0373082E0,-2.933703E-1,8.038064E-1,7.4811573E-3,1.3765529E0,1.3706771E-2,9.588378E-2,3.0393478E-1,1.3936825E-1,-9.1971874E-2,-2.349148E-1,-1.4535188E-2,8.448372E-1,1.5221091E-2,-7.832233E-1,-7.517376E-2,5.4147005E-1,-3.2812303E-1,-4.9390506E-2,9.2296004E-1,-4.6769026E-1,1.1512077E0,1.5127733E0,1.0987003E0,5.782048E-2,8.5881805E-1,5.7794374E-1,1.888728E-1,2.6632673E-1,-1.5729664E-1,-6.76146E-2,-6.4134777E-1,-1.5048146E-2,-3.5302785E-1,-6.731227E-1,8.559851E-3,1.0138555E0,3.278509E-1,-8.347206E-1,4.9688116E-2,-1.0214827E0,-3.0908898E-1,7.0307374E-1,-1.8071413E-2,-3.9595938E-1,1.0387351E-1,-1.305285E-2,5.328259E-2,4.307903E-2,-5.0699145E-2,3.1767767E-2,6.8945825E-2,7.939999E-2,3.9943863E-2,4.0686484E-3,6.6912405E-2,-9.096119E-3,1.0311808E-2,7.60035E-3,5.7238918E-2,5.540487E-2,2.0226102E-2,-1.0860137E-2,1.6347762E-2,6.3271984E-4,1.9759178E-2,-2.2638641E-2,-1.8007493E-4,6.2113424E-4,-1.0985377E-2,-4.4079285E-2,-1.3065308E-2,-8.416001E-3,1.9631237E-2,-2.8066685E-2,-7.966517E-3,6.1367657E-3,-4.7245815E-2,-3.7448965E-2,1.4398532E-3,6.300405E-2,2.3805365E-2,1.7780233E-3,6.157235E-2,-7.253364E-2,-2.578792E-2,1.76253E-2,-4.083659E-3,-1.3896421E-2,-5.9261333E-2,2.782783E-2,-3.1354558E-2,2.4026068E-2,5.753798E-2,-1.47346845E-2,-3.0660912E-2,-6.8866946E-3,3.2774303E-2],"categories":[],"categories_nodes":[],"categories_segments":[],"categories_sizes":[],"default_left":[0,0,0,0,0,0,0,0,0,0,0,0,0,0,0,0,0,0,0,0,0,0,0,0,0,0,0,0,0,0,0,0,0,0,0,0,0,0,0,0,0,0,0,0,0,0,0,0,0,0,0,0,0,0,0,0,0,0,0,0,0,0,0,0,0,0,0,0,0,0,0,0,0,0,0,0,0,0,0,0,0,0,0,0,0,0,0,0,0,0,0,0,0,0,0,0,0,0,0,0,0,0,0,0,0,0,0,0,0,0,0],"id":8,"left_children":[1,3,5,7,9,11,13,15,17,19,21,23,25,27,29,31,33,35,-1,37,39,41,43,45,47,49,51,53,-1,55,57,-1,59,61,63,65,67,69,71,73,75,77,79,81,83,85,87,89,91,93,95,97,99,101,103,105,-1,107,109,-1,-1,-1,-1,-1,-1,-1,-1,-1,-1,-1,-1,-1,-1,-1,-1,-1,-1,-1,-1,-1,-1,-1,-1,-1,-1,-1,-1,-1,-1,-1,-1,-1,-1,-1,-1,-1,-1,-1,-1,-1,-1,-1,-1,-1,-1,-1,-1,-1,-1,-1,-1],"loss_changes":[2.7822452E2,7.972757E1,1.00195595E2,4.568953E1,6.326275E1,8.9784E1,4.616272E1,4.5304737E1,5.035652E0,5.4149063E1,3.15829E1,7.251082E1,1.387327E2,9.128433E0,4.1681168E1,3.2725563E1,7.600457E1,7.0796204E-1,0E0,8.11206E1,7.1318085E1,3.5671555E1,2.0887177E1,8.554115E1,4.1636993E1,1.8280014E1,9.783125E1,6.3056297E0,0E0,8.672554E0,4.0358627E1,0E0,2.4067535E1,7.253546E1,3.7469063E0,8.4239197E-1,6.271614E0,9.491891E1,2.653331E1,6.0997665E1,8.9739784E1,2.1622074E1,1.2841656E1,1.8333324E1,5.712017E0,7.209103E1,8.632669E1,2.0259117E1,4.0436832E1,2.0551743E1,1.4218976E1,2.462313E1,1.2781063E2,4.299389E0,6.294157E0,4.183037E0,0E0,2.5878998E1,2.508766E1,0E0,0E0,0E0,0E0,0E0,0E0,0E0,0E0,0E0,0E0,0E0,0E0,0E0,0E0,0E0,0E0,0E0,0E0,0E0,0E0,0E0,0E0,0E0,0E0,0E0,0E0,0E0,0E0,0E0,0E0,0E0,0E0,0E0,0E0,0E0,0E0,0E0,0E0,0E0,0E0,0E0,0E0,0E0,0E0,0E0,0E0,0E0,0E0,0E0,0E0,0E0,0E0],"parents":[2147483647,0,0,1,1,2,2,3,3,4,4,5,5,6,6,7,7,8,8,9,9,10,10,11,11,12,12,13,13,14,14,15,15,16,16,17,17,19,19,20,20,21,21,22,22,23,23,24,24,25,25,26,26,27,27,29,29,30,30,32,32,33,33,34,34,35,35,36,36,37,37,38,38,39,39,40,40,41,41,42,42,43,43,44,44,45,45,46,46,47,47,48,48,49,49,50,50,51,51,52,52,53,53,54,54,55,55,57,57,58,58],"right_children":[2,4,6,8,10,12,14,16,18,20,22,24,26,28,30,32,34,36,-1,38,40,42,44,46,48,50,52,54,-1,56,58,-1,60,62,64,66,68,70,72,74,76,78,80,82,84,86,88,90,92,94,96,98,100,102,104,106,-1,108,110,-1,-1,-1,-1,-1,-1,-1,-1,-1,-1,-1,-1,-1,-1,-1,-1,-1,-1,-1,-1,-1,-1,-1,-1,-1,-1,-1,-1,-1,-1,-1,-1,-1,-1,-1,-1,-1,-1,-1,-1,-1,-1,-1,-1,-1,-1,-1,-1,-1,-1,-1,-1],"split_conditions":[1.2447E3,1.01888E3,1.6805E3,1.00569E3,1.4078346E-1,1.37485E3,-1.5645785E-2,9.7146E2,6.473173E-1,1.16827E3,2.48235E-3,2.1281203E-3,-1.8767647E-2,1.77565E3,-1.413261E-2,5.1490446E-3,6.7088166E-3,-2.60039E-2,1.3706771E-2,2.7956305E-2,1.19144E3,1.19144E3,3.72031E-1,1.26909E3,-1.41611E-1,7.4627094E-2,-1.53460065E-2,5.38898E-3,-7.517376E-2,3.55886E-2,1.4475662E-2,-4.9390506E-2,-3.480163E-2,-3.1687036E-2,1.2059431E-2,3.6502022E-1,-7.6118E-3,-4.5738748E-1,1.0451E3,-4.48304E-2,-3.75758E-2,1.08806E3,1.21725E3,5.0997916E-3,2.44314E-1,2.91439E-2,1.2936E3,1.27977E3,1.24695E3,-1.62162E-2,-2.2741556E-2,1.43897E3,1.47042E3,-1.1205453E0,2.28013E-2,4.2669028E-2,-1.8071413E-2,7.027736E-3,1.76512E3,-1.305285E-2,5.328259E-2,4.307903E-2,-5.0699145E-2,3.1767767E-2,6.8945825E-2,7.939999E-2,3.9943863E-2,4.0686484E-3,6.6912405E-2,-9.096119E-3,1.0311808E-2,7.60035E-3,5.7238918E-2,5.540487E-2,2.0226102E-2,-1.0860137E-2,1.6347762E-2,6.3271984E-4,1.9759178E-2,-2.2638641E-2,-1.8007493E-4,6.2113424E-4,-1.0985377E-2,-4.4079285E-2,-1.3065308E-2,-8.416001E-3,1.9631237E-2,-2.8066685E-2,-7.966517E-3,6.1367657E-3,-4.7245815E-2,-3.7448965E-2,1.4398532E-3,6.300405E-2,2.3805365E-2,1.7780233E-3,6.157235E-2,-7.253364E-2,-2.578792E-2,1.76253E-2,-4.083659E-3,-1.3896421E-2,-5.9261333E-2,2.782783E-2,-3.1354558E-2,2.4026068E-2,5.753798E-2,-1.47346845E-2,-3.0660912E-2,-6.8866946E-3,3.2774303E-2],"split_indices":[14,14,14,14,11,14,15,14,11,14,4,15,15,14,15,13,15,5,0,15,14,14,6,14,0,13,15,0,0,4,15,0,15,15,15,8,5,11,14,4,4,14,14,15,5,5,14,14,14,3,15,14,14,11,5,12,0,15,14,0,0,0,0,0,0,0,0,0,0,0,0,0,0,0,0,0,0,0,0,0,0,0,0,0,0,0,0,0,0,0,0,0,0,0,0,0,0,0,0,0,0,0,0,0,0,0,0,0,0,0,0],"split_type":[0,0,0,0,0,0,0,0,0,0,0,0,0,0,0,0,0,0,0,0,0,0,0,0,0,0,0,0,0,0,0,0,0,0,0,0,0,0,0,0,0,0,0,0,0,0,0,0,0,0,0,0,0,0,0,0,0,0,0,0,0,0,0,0,0,0,0,0,0,0,0,0,0,0,0,0,0,0,0,0,0,0,0,0,0,0,0,0,0,0,0,0,0,0,0,0,0,0,0,0,0,0,0,0,0,0,0,0,0,0,0],"sum_hessian":[1.9034768E4,7.9369634E3,1.1097805E4,3.5956155E2,7.577402E3,9.579614E3,1.5181908E3,2.8579214E2,7.376941E1,5.0642446E3,2.513157E3,6.0262847E3,3.5533296E3,8.794062E1,1.4302502E3,1.4805707E2,1.3773508E2,6.851747E1,5.251936E0,2.7972952E3,2.2669495E3,9.4469476E2,1.5684622E3,3.2945767E3,2.731708E3,2.1354062E2,3.339789E3,5.8791092E1,2.9149529E1,5.6461315E1,1.373789E3,8.725736E0,1.3933133E2,9.7663536E1,4.007154E1,4.275295E1,2.576452E1,2.6655176E3,1.317776E2,6.6897015E2,1.5979794E3,6.618807E2,2.8281412E2,1.5031244E3,6.5337814E1,1.1520387E3,2.1425378E3,9.1741936E1,2.639966E3,1.6005827E2,5.3482338E1,1.2913976E2,3.2106492E3,3.8219772E1,2.057132E1,4.8171494E1,8.289821E0,1.1876132E3,1.8617575E2,1.4820932E1,1.245104E2,2.8224895E1,6.943864E1,1.356675E1,2.6504791E1,3.7442932E1,5.310019E0,5.245353E0,2.0519167E1,1.0188391E3,1.6466785E3,3.8499428E1,9.327817E1,1.6342137E2,5.0554877E2,4.05165E2,1.1928145E3,2.2358914E2,4.382915E2,9.588341E1,1.8693071E2,9.850258E2,5.180985E2,3.9062298E1,2.6275515E1,8.37862E2,3.141767E2,1.031177E3,1.1113608E3,2.3400826E1,6.834111E1,6.76246E1,2.5723416E3,1.0873925E2,5.1319027E1,4.127949E1,1.22028475E1,4.2740807E1,8.639895E1,9.711058E2,2.2395435E3,7.4947057E0,3.0725065E1,5.2407227E0,1.5330596E1,3.371026E1,1.4461237E1,8.119671E2,3.7564603E2,1.2986406E2,5.63117E1],"tree_param":{"num_deleted":"0","num_feature":"16","num_nodes":"111","size_leaf_vector":"1"}},{"base_weights":[-7.033486E-4,1.1679567E-1,-1.0946353E-1,5.552363E-1,9.848084E-2,-7.449938E-2,-3.7953645E-1,3.9002308E-1,1.2121223E0,1.318502E-1,-1.1388786E-1,-2.590886E-1,4.1755615E-3,-4.6668613E-1,-1.0149631E-1,1.9904019E-1,1.0913116E0,6.9847226E-2,2.9594818E-1,-2.0853649E-1,1.4719446E-1,-7.202853E-2,-4.0556622E-1,-8.587562E-2,-4.889085E-1,1.5315893E-1,-5.276624E-2,-4.1616106E-1,-1.095529E0,4.6745896E-1,-1.9338726E-1,-9.919505E-1,2.9108936E-1,6.0113245E-1,7.360919E-2,4.3654565E-2,-2.7039027E-2,-4.1198957E-1,-3.1339996E-2,2.0141415E-1,3.9025698E-2,-1.0648319E-1,3.427477E-1,2.8782507E-2,-4.7964787E-1,-1.2575543E-1,6.9087327E-1,-5.673527E-1,-1.0041229E-1,5.9057217E-2,3.060309E-1,8.6321965E-2,-1.0396689E-1,-7.36845E-1,-3.2019153E-1,-8.23467E-1,-7.6614045E-2,7.8539747E-1,-6.357018E-2,-8.7041897E-1,-1.1708258E-1,-7.049279E-2,-9.538245E-3,3.3319063E-2,-1.9642974E-3,1.3358106E-3,4.1327268E-2,-2.4463488E-2,3.560885E-2,-1.0472982E-2,1.952451E-2,6.702864E-3,1.44585315E-2,2.8299047E-3,-2.3180185E-2,-4.6925634E-2,-4.502728E-3,6.2169833E-3,3.573257E-2,-5.1259782E-2,-1.6425874E-2,-2.814536E-3,-2.4232008E-2,5.493265E-2,9.58672E-3,-3.16614E-2,-1.4221556E-2,-1.0489897E-2,2.6629115E-2,1.570178E-2,-1.5086586E-3,1.7791104E-2,-1.8339904E-2,-1.0387758E-3,1.6225738E-2,-1.6704592E-3,-1.1718452E-2,-4.1058864E-2,3.3919413E-3,-9.7064385E-3,-2.7071012E-2,-5.7779667E-3,-5.75868E-2,5.367569E-2,-9.237964E-3,-5.6471057E-2,-1.0888286E-2,1.6872577E-2,-1.0114828E-2],"categories":[],"categories_nodes":[],"categories_segments":[],"categories_sizes":[],"default_left":[0,0,0,0,0,0,0,0,0,0,0,0,0,0,0,0,0,0,0,0,0,0,0,0,0,0,0,0,0,0,0,0,0,0,0,0,0,0,0,0,0,0,0,0,0,0,0,0,0,0,0,0,0,0,0,0,0,0,0,0,0,0,0,0,0,0,0,0,0,0,0,0,0,0,0,0,0,0,0,0,0,0,0,0,0,0,0,0,0,0,0,0,0,0,0,0,0,0,0,0,0,0,0,0,0,0,0,0,0],"id":9,"left_children":[1,3,5,7,9,11,13,15,17,19,21,23,25,27,29,31,33,-1,35,37,39,41,43,45,47,49,51,53,55,57,59,61,63,65,-1,-1,-1,67,69,71,73,75,77,-1,79,81,83,85,87,89,91,93,95,97,99,101,-1,103,-1,105,107,-1,-1,-1,-1,-1,-1,-1,-1,-1,-1,-1,-1,-1,-1,-1,-1,-1,-1,-1,-1,-1,-1,-1,-1,-1,-1,-1,-1,-1,-1,-1,-1,-1,-1,-1,-1,-1,-1,-1,-1,-1,-1,-1,-1,-1,-1,-1,-1],"loss_changes":[2.4277812E2,7.3206825E1,9.309243E1,3.905764E1,6.21446E1,1.2690956E2,2.7284927E1,3.900654E1,1.1761681E1,3.960077E1,1.4459759E1,1.0385405E2,5.1992233E1,2.671814E1,1.4246828E1,2.568203E1,1.05864105E1,0E0,7.0717726E0,1.1730632E1,4.2496338E1,1.4914137E1,1.1090603E1,4.6202293E1,3.406479E1,2.432663E1,3.1578043E1,2.4212326E1,6.0124664E0,2.1883726E1,1.1910182E1,5.200136E0,2.6926483E1,3.6679173E0,0E0,0E0,0E0,1.3519625E1,1.3295955E1,2.846518E1,2.1386442E1,1.2985783E1,6.3243055E0,0E0,1.0995998E1,3.5287075E1,1.4482346E1,1.7115997E1,1.3227868E1,2.3943663E1,2.1741688E1,3.0463419E1,2.9785488E1,1.2533234E1,1.7002777E1,9.32506E0,0E0,9.421495E0,0E0,3.584486E0,8.265046E0,0E0,0E0,0E0,0E0,0E0,0E0,0E0,0E0,0E0,0E0,0E0,0E0,0E0,0E0,0E0,0E0,0E0,0E0,0E0,0E0,0E0,0E0,0E0,0E0,0E0,0E0,0E0,0E0,0E0,0E0,0E0,0E0,0E0,0E0,0E0,0E0,0E0,0E0,0E0,0E0,0E0,0E0,0E0,0E0,0E0,0E0,0E0,0E0],"parents":[2147483647,0,0,1,1,2,2,3,3,4,4,5,5,6,6,7,7,8,8,9,9,10,10,11,11,12,12,13,13,14,14,15,15,16,16,18,18,19,19,20,20,21,21,22,22,23,23,24,24,25,25,26,26,27,27,28,28,29,29,30,30,31,31,32,32,33,33,37,37,38,38,39,39,40,40,41,41,42,42,44,44,45,45,46,46,47,47,48,48,49,49,50,50,51,51,52,52,53,53,54,54,55,55,57,57,59,59,60,60],"right_children":[2,4,6,8,10,12,14,16,18,20,22,24,26,28,30,32,34,-1,36,38,40,42,44,46,48,50,52,54,56,58,60,62,64,66,-1,-1,-1,68,70,72,74,76,78,-1,80,82,84,86,88,90,92,94,96,98,100,102,-1,104,-1,106,108,-1,-1,-1,-1,-1,-1,-1,-1,-1,-1,-1,-1,-1,-1,-1,-1,-1,-1,-1,-1,-1,-1,-1,-1,-1,-1,-1,-1,-1,-1,-1,-1,-1,-1,-1,-1,-1,-1,-1,-1,-1,-1,-1,-1,-1,-1,-1,-1],"split_conditions":[1.26036E3,1.01888E3,1.71029E3,1.00569E3,1.3937051E0,1.2936E3,4.2471793E-1,7.51709E-1,2.4038643E-1,3.20821E-1,1.526696E0,1.27716E3,-7.591031E-1,1.88033E3,-2.94696E-2,1.1494253E-2,-5.86238E-2,6.9847226E-2,2.15252E-2,1.15649E3,1.3282807E-1,5.58397E-2,-4.41151E-2,1.27685E3,1.05264E-1,6.67499E-2,-1.73647E-2,1.75E3,3.58689E-1,6.91927E-1,2.2497006E-1,2.69669E-1,9.7146E2,7.2463766E-2,7.360919E-2,4.3654565E-2,-2.7039027E-2,8.766302E-1,4.65271E-1,1.12296E-3,3.72031E-1,2.17096E-1,3.74469E-1,2.8782507E-2,1.16201E3,1.27329E3,2.2497006E-1,1.29797E0,6.86578E-2,-1.5710619E-1,1.63E3,1.54715E3,1.4985E3,5.17968E-1,2.06612E-3,-2.6261818E-1,-7.6614045E-2,2.8275971E0,-6.357018E-2,1.85329E3,1.75549E3,-7.049279E-2,-9.538245E-3,3.3319063E-2,-1.9642974E-3,1.3358106E-3,4.1327268E-2,-2.4463488E-2,3.560885E-2,-1.0472982E-2,1.952451E-2,6.702864E-3,1.44585315E-2,2.8299047E-3,-2.3180185E-2,-4.6925634E-2,-4.502728E-3,6.2169833E-3,3.573257E-2,-5.1259782E-2,-1.6425874E-2,-2.814536E-3,-2.4232008E-2,5.493265E-2,9.58672E-3,-3.16614E-2,-1.4221556E-2,-1.0489897E-2,2.6629115E-2,1.570178E-2,-1.5086586E-3,1.7791104E-2,-1.8339904E-2,-1.0387758E-3,1.6225738E-2,-1.6704592E-3,-1.1718452E-2,-4.1058864E-2,3.3919413E-3,-9.7064385E-3,-2.7071012E-2,-5.7779667E-3,-5.75868E-2,5.367569E-2,-9.237964E-3,-5.6471057E-2,-1.0888286E-2,1.6872577E-2,-1.0114828E-2],"split_indices":[14,14,14,14,9,14,11,1,11,2,11,14,9,14,4,13,4,0,5,14,11,5,3,14,6,6,3,14,1,1,10,2,14,13,0,0,0,11,1,4,6,2,1,0,14,14,10,2,3,12,14,14,14,1,6,11,0,9,0,14,14,0,0,0,0,0,0,0,0,0,0,0,0,0,0,0,0,0,0,0,0,0,0,0,0,0,0,0,0,0,0,0,0,0,0,0,0,0,0,0,0,0,0,0,0,0,0,0,0],"split_type":[0,0,0,0,0,0,0,0,0,0,0,0,0,0,0,0,0,0,0,0,0,0,0,0,0,0,0,0,0,0,0,0,0,0,0,0,0,0,0,0,0,0,0,0,0,0,0,0,0,0,0,0,0,0,0,0,0,0,0,0,0,0,0,0,0,0,0,0,0,0,0,0,0,0,0,0,0,0,0,0,0,0,0,0,0,0,0,0,0,0,0,0,0,0,0,0,0,0,0,0,0,0,0,0,0,0,0,0,0],"sum_hessian":[1.899595E4,9.130655E3,9.865294E3,3.6472354E2,8.765932E3,8.735966E3,1.1293281E3,2.9282196E2,7.190159E1,7.57632E3,1.189612E3,2.6103865E3,6.125579E3,8.590325E2,2.7029565E2,2.3126709E2,6.1554874E1,5.93041E1,1.2597484E1,3.259762E2,7.2503438E3,1.0417048E3,1.479073E2,1.4895422E3,1.1208444E3,1.6938447E3,4.4317344E3,7.9683105E2,6.2201454E1,3.686509E1,2.3343056E2,1.5812478E1,2.154546E2,2.8157406E1,3.339747E1,7.5001945E0,5.097289E0,1.5086592E2,1.7511029E2,4.8283447E3,2.421999E3,9.627181E2,7.8986755E1,9.813009E0,1.3809428E2,1.4177205E3,7.182169E1,9.319496E2,1.8889476E2,1.0497203E3,6.441244E2,1.1917279E3,3.2400063E3,1.8175925E2,6.150718E2,4.0245857E1,2.1955599E1,3.1678701E1,5.186387E0,2.245707E1,2.1097348E2,9.810638E0,6.0018396E0,1.0053588E2,1.1491873E2,8.375753E0,1.9781652E1,1.4177351E2,9.092409E0,1.23642296E2,5.1467987E1,2.733745E3,2.0945996E3,2.3412336E3,8.076537E1,1.743639E1,9.452817E2,5.077268E1,2.8214071E1,2.8558647E1,1.09535645E2,1.1890138E3,2.2870665E2,3.875705E1,3.3064644E1,7.5464667E2,1.7730293E2,1.617669E2,2.7127851E1,2.7175992E2,7.7796045E2,6.00319E2,4.380544E1,8.224339E2,3.6929407E2,2.1037415E3,1.1362648E3,1.6461145E2,1.7147795E1,3.932918E2,2.2177997E2,1.3275049E1,2.6970808E1,2.4422323E1,7.256378E0,1.5444335E1,7.0127354E0,3.2655327E1,1.7831816E2],"tree_param":{"num_deleted":"0","num_feature":"16","num_nodes":"109","size_leaf_vector":"1"}},{"base_weights":[1.9664583E-3,6.421758E-2,-6.847116E-2,2.2189574E-2,2.1857965E-1,3.0177936E-1,-8.27024E-2,7.4909246E-1,1.4558215E-2,1.7923373E-1,6.072882E-1,-2.2266442E-1,3.9827356E-1,3.643019E-1,-9.244045E-2,9.250324E-1,-2.281733E-1,-6.172326E-3,1.6844694E-1,9.836122E-1,1.6264255E-1,8.494695E-1,4.0999308E-1,2.9891063E-2,-4.2506596E-1,2.0064606E-1,5.4704297E-1,4.619518E-2,5.110029E-1,-2.3134506E-1,-7.2069645E-2,1.4884464E-3,9.989872E-1,-3.678124E-2,1.3080644E-2,-4.1360912E-1,3.7095943E-3,2.0958547E-1,-2.209878E-1,1.0274559E-3,1.2530539E0,-1.6118306E-1,1.9523667E-1,1.0130055E0,3.670957E-1,1.8662825E-1,7.8450394E-1,-8.188014E-1,3.5809404E-3,8.2900786E-1,-1.6631392E-3,6.165902E-1,-1.7393859E-1,3.1469807E-1,-4.7731906E-1,-4.3244112E-2,6.9219714E-1,-2.6652962E-1,3.940298E-1,-8.0215156E-2,2.166034E-1,5.9242915E-2,3.596071E-2,-1.33153675E-2,-4.3023165E-2,-1.2876091E-2,9.568885E-4,1.1758958E-2,-2.0001914E-2,8.806604E-3,-3.405913E-2,7.10065E-2,3.0410765E-2,-1.9555779E-3,-4.495201E-2,2.2863261E-2,7.4440115E-3,6.0899433E-2,2.440762E-2,4.3670025E-2,-3.440696E-3,1.8357059E-2,-2.0452803E-2,5.4951847E-2,1.4080375E-2,-2.8121818E-2,-6.8349764E-2,-3.0515928E-2,1.2305488E-2,5.4323014E-2,1.9132746E-3,-4.1539883E-3,4.8392855E-2,4.0066645E-2,1.4644337E-2,1.632092E-2,-3.134332E-2,2.2318158E-3,5.1453244E-2,-5.209568E-2,-1.9746025E-4,-1.7059734E-2,5.0955445E-2,4.6677344E-2,1.0959016E-2,7.2996914E-3,-1.5849994E-2,6.531895E-2,1.1335285E-2,-2.2245938E-2,-3.6297913E-3,4.5373823E-2,5.0681233E-3],"categories":[],"categories_nodes":[],"categories_segments":[],"categories_sizes":[],"default_left":[0,0,0,0,0,0,0,0,0,0,0,0,0,0,0,0,0,0,0,0,0,0,0,0,0,0,0,0,0,0,0,0,0,0,0,0,0,0,0,0,0,0,0,0,0,0,0,0,0,0,0,0,0,0,0,0,0,0,0,0,0,0,0,0,0,0,0,0,0,0,0,0,0,0,0,0,0,0,0,0,0,0,0,0,0,0,0,0,0,0,0,0,0,0,0,0,0,0,0,0,0,0,0,0,0,0,0,0,0,0,0,0,0],"id":10,"left_children":[1,3,5,7,9,11,13,15,17,19,21,23,25,27,29,31,33,35,37,39,41,43,45,-1,47,49,51,53,55,57,59,-1,61,-1,-1,63,65,67,69,-1,71,73,75,77,79,81,83,85,87,89,91,93,95,97,99,101,103,105,107,109,111,-1,-1,-1,-1,-1,-1,-1,-1,-1,-1,-1,-1,-1,-1,-1,-1,-1,-1,-1,-1,-1,-1,-1,-1,-1,-1,-1,-1,-1,-1,-1,-1,-1,-1,-1,-1,-1,-1,-1,-1,-1,-1,-1,-1,-1,-1,-1,-1,-1,-1,-1,-1],"loss_changes":[8.312198E1,6.526128E1,4.6860794E1,4.3801872E1,3.2742096E1,1.6761477E1,3.728854E1,1.438731E1,2.4999123E1,2.5840508E1,8.950882E0,8.810144E0,8.003384E0,8.441534E0,2.3674042E1,4.489502E0,3.5286832E0,2.7829939E1,1.4948843E1,1.0025681E1,2.0285427E1,6.384239E0,9.03034E0,0E0,7.1885266E0,1.5526256E1,8.074902E0,8.419281E0,1.2612698E1,2.3660309E1,1.719965E1,0E0,2.3037567E0,0E0,0E0,1.0431599E1,2.7140938E1,1.3217026E1,1.6460312E1,0E0,2.2251244E0,1.5698488E1,2.105381E1,6.1788254E0,5.404368E0,7.772298E0,6.0279408E0,2.1392555E0,3.2444265E0,5.8937016E0,7.314459E0,8.295029E0,3.5332482E0,7.5037374E0,5.304274E0,1.0255381E1,1.042646E1,2.119165E1,8.298461E0,1.9682812E1,1.5780216E1,0E0,0E0,0E0,0E0,0E0,0E0,0E0,0E0,0E0,0E0,0E0,0E0,0E0,0E0,0E0,0E0,0E0,0E0,0E0,0E0,0E0,0E0,0E0,0E0,0E0,0E0,0E0,0E0,0E0,0E0,0E0,0E0,0E0,0E0,0E0,0E0,0E0,0E0,0E0,0E0,0E0,0E0,0E0,0E0,0E0,0E0,0E0,0E0,0E0,0E0,0E0,0E0],"parents":[2147483647,0,0,1,1,2,2,3,3,4,4,5,5,6,6,7,7,8,8,9,9,10,10,11,11,12,12,13,13,14,14,15,15,16,16,17,17,18,18,19,19,20,20,21,21,22,22,24,24,25,25,26,26,27,27,28,28,29,29,30,30,32,32,35,35,36,36,37,37,38,38,40,40,41,41,42,42,43,43,44,44,45,45,46,46,47,47,48,48,49,49,50,50,51,51,52,52,53,53,54,54,55,55,56,56,57,57,58,58,59,59,60,60],"right_children":[2,4,6,8,10,12,14,16,18,20,22,24,26,28,30,32,34,36,38,40,42,44,46,-1,48,50,52,54,56,58,60,-1,62,-1,-1,64,66,68,70,-1,72,74,76,78,80,82,84,86,88,90,92,94,96,98,100,102,104,106,108,110,112,-1,-1,-1,-1,-1,-1,-1,-1,-1,-1,-1,-1,-1,-1,-1,-1,-1,-1,-1,-1,-1,-1,-1,-1,-1,-1,-1,-1,-1,-1,-1,-1,-1,-1,-1,-1,-1,-1,-1,-1,-1,-1,-1,-1,-1,-1,-1,-1,-1,-1,-1,-1],"split_conditions":[-3.8717386E-1,8.3234515E-3,-2.5195498E-2,-1.82978E-1,2.7956305E-2,2.2146E-1,-4.98708E-1,-2.7122623E-3,6.56172E-2,8.566969E-3,-1.1049695E0,-5.26323E-2,-3.9244704E-2,4.78175E-1,1.66006E-1,4.26953E-1,5.433208E-3,1.78749E-1,8.740459E-3,-1.4199451E-2,-1E-1,3.6639072E-2,-2.3159529E-4,2.9891063E-2,-1.03704E-2,-1.13477E-1,4.08163E-2,-9.9254185E-1,-2.3040361E0,2.1722748E0,2.3431625E-2,1.4884464E-3,-2.40404E-1,-3.678124E-2,1.3080644E-2,1.3578819E-3,-6.1458903E-3,4.09274E-1,-8.920347E-1,1.0274559E-3,5.718592E-1,-1.0363801E-2,-2.2908819E-1,-3.84601E-2,-6.22354E-3,-5.04987E-2,5.220292E-4,2.08278E-1,1.39653E-1,-4.5260083E-2,1.3390806E0,-2.8863251E-2,6.93639E-2,-2.6251064E-4,-6.6287245E-4,1.22448E0,8.20705E-1,-3.49382E-2,1.03507E-1,-1.37255E-1,2.422691E-2,5.9242915E-2,3.596071E-2,-1.33153675E-2,-4.3023165E-2,-1.2876091E-2,9.568885E-4,1.1758958E-2,-2.0001914E-2,8.806604E-3,-3.405913E-2,7.10065E-2,3.0410765E-2,-1.9555779E-3,-4.495201E-2,2.2863261E-2,7.4440115E-3,6.0899433E-2,2.440762E-2,4.3670025E-2,-3.440696E-3,1.8357059E-2,-2.0452803E-2,5.4951847E-2,1.4080375E-2,-2.8121818E-2,-6.8349764E-2,-3.0515928E-2,1.2305488E-2,5.4323014E-2,1.9132746E-3,-4.1539883E-3,4.8392855E-2,4.0066645E-2,1.4644337E-2,1.632092E-2,-3.134332E-2,2.2318158E-3,5.1453244E-2,-5.209568E-2,-1.9746025E-4,-1.7059734E-2,5.0955445E-2,4.6677344E-2,1.0959016E-2,7.2996914E-3,-1.5849994E-2,6.531895E-2,1.1335285E-2,-2.2245938E-2,-3.6297913E-3,4.5373823E-2,5.0681233E-3],"split_indices":[9,15,15,4,15,1,12,15,4,15,9,6,15,1,1,2,15,2,7,12,5,15,7,0,5,4,4,10,10,10,15,0,5,0,0,7,7,6,9,0,11,12,12,6,4,0,7,1,1,15,10,15,6,7,7,2,2,5,1,5,15,0,0,0,0,0,0,0,0,0,0,0,0,0,0,0,0,0,0,0,0,0,0,0,0,0,0,0,0,0,0,0,0,0,0,0,0,0,0,0,0,0,0,0,0,0,0,0,0,0,0,0,0],"split_type":[0,0,0,0,0,0,0,0,0,0,0,0,0,0,0,0,0,0,0,0,0,0,0,0,0,0,0,0,0,0,0,0,0,0,0,0,0,0,0,0,0,0,0,0,0,0,0,0,0,0,0,0,0,0,0,0,0,0,0,0,0,0,0,0,0,0,0,0,0,0,0,0,0,0,0,0,0,0,0,0,0,0,0,0,0,0,0,0,0,0,0,0,0,0,0,0,0,0,0,0,0,0,0,0,0,0,0,0,0,0,0,0,0],"sum_hessian":[1.8954852E4,1.0062955E4,8.891896E3,7.910864E3,2.1520913E3,3.2811722E2,8.563778E3,8.104346E1,7.8298203E3,1.9558357E3,1.962556E2,5.0625412E1,2.774918E2,1.8159024E2,8.382188E3,6.881099E1,1.2232463E1,6.900549E3,9.2927136E2,3.8226242E1,1.9176095E3,8.639392E1,1.0986167E2,9.533056E0,4.1092354E1,1.2047368E2,1.5701813E2,5.7943027E1,1.2364722E2,1.070102E3,7.3120864E3,5.4607205E0,6.335027E1,5.8616443E0,6.3708186E0,1.626741E2,6.737875E3,8.411354E2,8.813601E1,8.673179E0,2.9553064E1,1.7472148E2,1.742888E3,6.354375E1,2.2850174E1,6.992345E1,3.9938225E1,2.1065573E1,2.0026781E1,2.8707195E1,9.176648E1,1.4346292E2,1.355521E1,3.8689587E1,1.9253439E1,3.0515177E1,9.313204E1,1.0137979E3,5.6304115E1,7.112462E3,1.9962444E2,3.5904263E1,2.7446009E1,1.2371291E2,3.896119E1,3.7450726E2,6.3633677E3,8.079919E2,3.314346E1,4.7524902E1,4.061111E1,2.2393566E1,7.1594973E0,1.5093864E2,2.3782843E1,2.6033417E2,1.4825538E3,4.461001E1,1.8933743E1,1.0213302E1,1.2636872E1,5.4085278E1,1.5838169E1,2.3719053E1,1.6219172E1,1.585794E1,5.2076325E0,5.125101E0,1.490168E1,2.1278753E1,7.428441E0,8.559592E1,6.1705675E0,9.019994E1,5.326297E1,6.468204E0,7.087006E0,2.8948328E1,9.74126E0,8.136555E0,1.1116884E1,2.443502E1,6.0801544E0,6.0882603E1,3.2249435E1,1.1009034E2,9.037076E2,7.578201E0,4.8725914E1,1.4410847E2,6.9683535E3,2.7431194E1,1.7219324E2],"tree_param":{"num_deleted":"0","num_feature":"16","num_nodes":"113","size_leaf_vector":"1"}},{"base_weights":[9.411883E-5,1.1608974E-1,-1.0645386E-1,3.6923197E-1,8.407431E-2,-6.9914654E-2,-3.1080768E-1,4.1514188E-1,-4.6580732E-1,5.896106E-1,7.049769E-2,-2.2565703E-1,1.8836346E-2,-9.9971735E-1,-2.6956853E-1,2.1910802E-2,5.0110734E-1,5.541889E-1,-7.3967856E-1,-5.0611544E-1,9.316871E-1,6.0621012E-2,6.4560074E-1,-5.328085E-2,-3.355733E-1,6.8474084E-1,-9.865419E-3,-7.253996E-1,-7.657475E-2,5.1041216E-1,-3.0292106E-1,6.432977E-1,-3.42218E-1,7.9141915E-1,3.380971E-1,5.903516E-2,-7.6845135E-3,-1.0233979E0,1.7845085E-2,-9.945562E-1,8.150821E-1,1.0934218E0,4.4186968E-1,7.039534E-2,-8.595482E-2,1.2030114E0,2.1428381E-1,-7.61895E-2,-3.282499E-2,-3.903214E-1,1.6109712E-1,1.0073448E0,3.9402708E-1,-1.15206085E-1,7.947972E-2,-8.014543E-1,-1.2585536E-3,6.395464E-1,-1.140549E-2,-3.6829206E-1,1.1467499E-1,6.504904E-3,5.861495E-2,-3.3886913E-2,4.032418E-2,2.3360556E-2,6.263329E-2,1.37633355E-2,5.3854253E-2,4.565851E-3,-6.151135E-2,-1.02422675E-2,-7.565584E-2,5.716123E-2,1.6265428E-2,5.7854857E-2,1.0097341E-2,1.0410732E-3,4.8346933E-2,3.2780503E-3,6.40497E-2,7.947747E-2,4.070708E-2,4.5383416E-2,-2.9525475E-3,1.8211825E-2,-4.4697244E-3,-2.6750801E-2,-1.1474724E-2,-2.2513108E-2,1.6293725E-2,6.00557E-2,3.9789204E-2,-1.4611868E-3,3.839118E-2,-1.5947808E-2,9.51149E-4,6.044443E-3,-9.15855E-3,-1.4538129E-2,-4.921978E-2,1.3262418E-2,4.995822E-2,5.9703726E-4,-2.1258084E-2,1.800179E-2,-2.1748114E-2],"categories":[],"categories_nodes":[],"categories_segments":[],"categories_sizes":[],"default_left":[0,0,0,0,0,0,0,0,0,0,0,0,0,0,0,0,0,0,0,0,0,0,0,0,0,0,0,0,0,0,0,0,0,0,0,0,0,0,0,0,0,0,0,0,0,0,0,0,0,0,0,0,0,0,0,0,0,0,0,0,0,0,0,0,0,0,0,0,0,0,0,0,0,0,0,0,0,0,0,0,0,0,0,0,0,0,0,0,0,0,0,0,0,0,0,0,0,0,0,0,0,0,0,0,0,0,0],"id":11,"left_children":[1,3,5,7,9,11,13,15,17,19,21,23,25,27,29,31,33,35,37,39,41,43,45,47,49,51,53,55,-1,57,59,61,63,65,67,-1,-1,69,-1,71,73,75,77,79,-1,81,83,-1,85,87,89,91,93,95,97,99,-1,101,-1,103,105,-1,-1,-1,-1,-1,-1,-1,-1,-1,-1,-1,-1,-1,-1,-1,-1,-1,-1,-1,-1,-1,-1,-1,-1,-1,-1,-1,-1,-1,-1,-1,-1,-1,-1,-1,-1,-1,-1,-1,-1,-1,-1,-1,-1,-1,-1],"loss_changes":[2.3368364E2,7.329308E1,7.3525024E1,3.9128937E1,5.506252E1,1.1560251E2,4.205069E1,3.2505936E1,1.5315749E1,7.918894E1,4.436161E1,5.7461884E1,1.01885475E2,1.0899544E1,3.6845474E1,3.964184E1,3.702272E1,5.5062695E0,1.3660196E1,3.3428467E1,1.2068893E1,1.3387415E2,3.1315334E1,3.539711E1,5.0477325E1,2.0121132E1,4.8084152E1,2.9518852E0,0E0,5.729764E0,3.7032402E1,1.7302141E1,4.3053043E1,4.15988E1,2.3161045E1,0E0,0E0,8.090393E0,0E0,1.4828903E1,1.7520552E0,6.4273987E0,9.087572E0,4.4595722E1,0E0,7.067566E0,1.448302E1,0E0,2.624991E1,3.8655243E1,1.8722733E1,3.091591E0,1.8712446E1,6.4167595E1,3.0074522E1,4.4050865E0,0E0,6.318205E0,0E0,2.5373215E1,2.494104E1,0E0,0E0,0E0,0E0,0E0,0E0,0E0,0E0,0E0,0E0,0E0,0E0,0E0,0E0,0E0,0E0,0E0,0E0,0E0,0E0,0E0,0E0,0E0,0E0,0E0,0E0,0E0,0E0,0E0,0E0,0E0,0E0,0E0,0E0,0E0,0E0,0E0,0E0,0E0,0E0,0E0,0E0,0E0,0E0,0E0,0E0],"parents":[2147483647,0,0,1,1,2,2,3,3,4,4,5,5,6,6,7,7,8,8,9,9,10,10,11,11,12,12,13,13,14,14,15,15,16,16,17,17,18,18,19,19,20,20,21,21,22,22,23,23,24,24,25,25,26,26,27,27,29,29,30,30,31,31,32,32,33,33,34,34,37,37,39,39,40,40,41,41,42,42,43,43,45,45,46,46,48,48,49,49,50,50,51,51,52,52,53,53,54,54,55,55,57,57,59,59,60,60],"right_children":[2,4,6,8,10,12,14,16,18,20,22,24,26,28,30,32,34,36,38,40,42,44,46,48,50,52,54,56,-1,58,60,62,64,66,68,-1,-1,70,-1,72,74,76,78,80,-1,82,84,-1,86,88,90,92,94,96,98,100,-1,102,-1,104,106,-1,-1,-1,-1,-1,-1,-1,-1,-1,-1,-1,-1,-1,-1,-1,-1,-1,-1,-1,-1,-1,-1,-1,-1,-1,-1,-1,-1,-1,-1,-1,-1,-1,-1,-1,-1,-1,-1,-1,-1,-1,-1,-1,-1,-1,-1],"split_conditions":[1.26036E3,1.0451E3,1.6805E3,1.81818E-1,-6.5874314E-1,1.30937E3,-1.5645785E-2,-2.42506E-1,-1.8203638E-2,1.08806E3,2.7956305E-2,1.27329E3,1.3167E3,1.77565E3,-1.413261E-2,9.7146E2,-3.28737E-2,-5.02806E-2,1.03963E3,-1.12998E-1,-2.0490848E-3,2.422691E-2,3.6639072E-2,-4.1945793E-2,1.52174E-1,-5.45E-3,8.947356E-4,5E-2,-7.657475E-2,3.55886E-2,1.4475662E-2,-1.26984E-1,6.7088166E-3,-1.2773467E-3,1.24774E-1,5.903516E-2,-7.6845135E-3,1.01888E3,1.7845085E-2,1.05712E3,-1.4587493E0,1.5083319E-2,-4.770454E-1,2.1632653E-2,-8.595482E-2,-2.40039E-2,-9.04908E-2,-7.61895E-2,-5.1779E-2,1.9836766E-3,-5.9879792E-5,-1.4200812E-3,-3.2057276E-4,1.42302E3,1.63E3,-3.09091E-2,-1.2585536E-3,2.774637E-3,-1.140549E-2,-2.95858E-2,2.6024958E-2,6.504904E-3,5.861495E-2,-3.3886913E-2,4.032418E-2,2.3360556E-2,6.263329E-2,1.37633355E-2,5.3854253E-2,4.565851E-3,-6.151135E-2,-1.02422675E-2,-7.565584E-2,5.716123E-2,1.6265428E-2,5.7854857E-2,1.0097341E-2,1.0410732E-3,4.8346933E-2,3.2780503E-3,6.40497E-2,7.947747E-2,4.070708E-2,4.5383416E-2,-2.9525475E-3,1.8211825E-2,-4.4697244E-3,-2.6750801E-2,-1.1474724E-2,-2.2513108E-2,1.6293725E-2,6.00557E-2,3.9789204E-2,-1.4611868E-3,3.839118E-2,-1.5947808E-2,9.51149E-4,6.044443E-3,-9.15855E-3,-1.4538129E-2,-4.921978E-2,1.3262418E-2,4.995822E-2,5.9703726E-4,-2.1258084E-2,1.800179E-2,-2.1748114E-2],"split_indices":[14,14,14,6,12,14,15,0,15,14,15,14,14,14,15,14,4,4,14,0,7,15,15,15,6,4,7,4,0,4,15,4,15,7,5,0,0,14,0,14,10,15,10,15,0,5,4,0,0,15,7,7,7,14,14,3,0,12,0,3,15,0,0,0,0,0,0,0,0,0,0,0,0,0,0,0,0,0,0,0,0,0,0,0,0,0,0,0,0,0,0,0,0,0,0,0,0,0,0,0,0,0,0,0,0,0,0],"split_type":[0,0,0,0,0,0,0,0,0,0,0,0,0,0,0,0,0,0,0,0,0,0,0,0,0,0,0,0,0,0,0,0,0,0,0,0,0,0,0,0,0,0,0,0,0,0,0,0,0,0,0,0,0,0,0,0,0,0,0,0,0,0,0,0,0,0,0,0,0,0,0,0,0,0,0,0,0,0,0,0,0,0,0,0,0,0,0,0,0,0,0,0,0,0,0,0,0,0,0,0,0,0,0,0,0,0,0],"sum_hessian":[1.8905744E4,9.051976E3,9.853769E3,1.0147568E3,8.037219E3,8.360681E3,1.4930881E3,9.624638E2,5.2293015E1,2.0889914E2,7.82832E3,3.034773E3,5.3259077E3,8.288065E1,1.4102075E3,1.7309499E2,7.893688E2,1.0774856E1,4.1518158E1,4.951685E1,1.5938228E2,7.697406E3,1.3091403E2,1.1825824E3,1.8521904E3,2.1927084E2,5.1066367E3,5.635965E1,2.6521002E1,5.711916E1,1.3530884E3,6.377342E1,1.0932157E2,2.8224255E2,5.0712625E2,5.4365315E0,5.338324E0,3.3109604E1,8.408552E0,3.638748E1,1.3129367E1,1.18738945E2,4.0643337E1,7.656373E3,4.1032696E1,5.6227566E1,7.468647E1,1.5149523E1,1.1674329E3,1.6686682E3,1.8352231E2,1.02603294E2,1.1666756E2,2.3439165E3,2.76272E3,5.057872E1,5.780933E0,4.8847378E1,8.271781E0,1.170253E3,1.8283533E2,3.3098534E1,3.0674885E1,8.499325E1,2.432833E1,1.6705212E2,1.1519042E2,4.6877756E2,3.83487E1,5.193578E0,2.7916027E1,1.505232E1,2.1335163E1,6.940768E0,6.1885996E0,1.104404E2,8.2985525E0,2.3238605E1,1.740473E1,7.6270522E3,2.9320707E1,2.652091E1,2.9706654E1,2.0564476E1,5.4121994E1,1.4468463E2,1.0227482E3,8.7683704E2,7.918311E2,3.846596E1,1.4505635E2,5.086543E1,5.173786E1,5.5021194E1,6.1646362E1,9.306404E2,1.4132762E3,2.3872673E3,3.7545282E2,1.4166913E1,3.6411804E1,2.4922829E1,2.392455E1,1.5213081E2,1.0181222E3,1.2677102E2,5.6064312E1],"tree_param":{"num_deleted":"0","num_feature":"16","num_nodes":"107","size_leaf_vector":"1"}},{"base_weights":[8.2788634E-4,1.2060151E-1,-8.452548E-2,3.435268E-1,8.67214E-2,-5.7038628E-2,-3.2750526E-1,4.0511912E-1,-4.5905757E-1,-3.8443417E-3,1.7809108E-1,-1.2754893E-1,2.9160406E-2,-9.150439E-1,-2.7669033E-1,2.5315797E-1,6.6163176E-1,2.5915328E-1,-6.1607736E-1,-2.8849691E-2,7.7619207E-1,4.3836164E-1,6.58297E-2,3.1412172E-1,-1.6091016E-1,-5.713382E-1,4.7282115E-2,-6.6055393E-1,-7.124061E-2,5.00872E-1,-3.1993586E-1,7.555157E-1,1.0141088E-1,1.1395888E0,3.7361968E-1,5.56852E-2,-3.2141168E-2,-8.477201E-2,-1.75317E-1,-9.071148E-4,-8.512659E-2,1.3492074E0,2.4514776E-1,9.6296537E-1,3.0640942E-1,4.1542602E-1,-4.6072133E-2,-2.3027907E-1,7.504023E-1,-9.8645145E-1,-1.4424863E-1,-7.314917E-2,-3.1432265E-1,8.727852E-2,-2.0786262E-1,-8.142673E-1,-1.3310176E-1,-2.4217092E-2,6.138564E-1,1.4998023E-2,-4.0613344E-1,-1.4763395E-2,4.4094823E-2,-5.335323E-3,4.1497387E-2,6.933791E-2,4.7726285E-2,3.39815E-2,1.0440925E-3,-4.0652044E-2,9.5363585E-3,-1.6538141E-2,2.7159231E-3,4.4120237E-2,7.1708836E-2,3.4385677E-2,-1.3267428E-2,6.894999E-2,4.1658282E-2,8.462595E-3,2.770527E-2,-9.189035E-3,2.7875835E-2,-5.9028786E-2,-6.682546E-4,8.265483E-3,-4.9158968E-2,4.2914294E-2,-8.577543E-3,-6.256685E-2,-1.5288834E-2,-1.6732136E-3,-1.2524749E-2,5.389698E-3,-4.0577207E-2,3.139014E-3,3.8861986E-2,3.8255795E-3,-2.5395844E-2,-6.492415E-3,-4.4918075E-2,1.5453576E-2,-3.3154145E-2,5.227339E-2,1.2633368E-2,5.220781E-2,-4.929826E-3,-3.1847645E-2,-1.224944E-2],"categories":[],"categories_nodes":[],"categories_segments":[],"categories_sizes":[],"default_left":[0,0,0,0,0,0,0,0,0,0,0,0,0,0,0,0,0,0,0,0,0,0,0,0,0,0,0,0,0,0,0,0,0,0,0,0,0,0,0,0,0,0,0,0,0,0,0,0,0,0,0,0,0,0,0,0,0,0,0,0,0,0,0,0,0,0,0,0,0,0,0,0,0,0,0,0,0,0,0,0,0,0,0,0,0,0,0,0,0,0,0,0,0,0,0,0,0,0,0,0,0,0,0,0,0,0,0,0,0],"id":12,"left_children":[1,3,5,7,9,11,13,15,17,19,21,23,25,27,29,31,33,35,37,39,41,43,45,47,49,51,53,55,-1,57,59,61,63,65,67,-1,-1,-1,69,71,-1,73,75,77,79,81,83,85,87,89,91,-1,93,95,97,99,101,-1,103,105,107,-1,-1,-1,-1,-1,-1,-1,-1,-1,-1,-1,-1,-1,-1,-1,-1,-1,-1,-1,-1,-1,-1,-1,-1,-1,-1,-1,-1,-1,-1,-1,-1,-1,-1,-1,-1,-1,-1,-1,-1,-1,-1,-1,-1,-1,-1,-1,-1],"loss_changes":[1.9389938E2,5.953665E1,7.390359E1,5.161638E1,5.6725754E1,6.049002E1,3.321074E1,3.7434692E1,8.598486E0,6.708474E1,9.961044E1,8.069275E1,4.869574E1,1.0390007E1,3.5008865E1,4.6271748E1,4.882553E1,1.1521353E1,2.880028E1,1.5585242E2,3.2016068E1,7.0719345E1,9.3365135E1,9.1563126E1,6.9762344E1,2.9398983E1,4.4367973E1,4.7690163E0,0E0,6.4212074E0,2.842482E1,1.9044113E1,7.1288994E1,4.5864563E0,2.4262638E1,0E0,0E0,0E0,1.0695923E1,5.9840828E1,0E0,5.284195E-1,1.3047327E1,9.750168E0,2.7786804E1,4.9408066E1,6.693478E1,5.1396942E1,2.1482994E1,1.7566635E1,5.8709625E1,0E0,2.1797562E1,6.3406086E1,5.0345413E1,2.4940014E0,3.797977E0,0E0,7.3667736E0,2.3804216E1,2.8845047E1,0E0,0E0,0E0,0E0,0E0,0E0,0E0,0E0,0E0,0E0,0E0,0E0,0E0,0E0,0E0,0E0,0E0,0E0,0E0,0E0,0E0,0E0,0E0,0E0,0E0,0E0,0E0,0E0,0E0,0E0,0E0,0E0,0E0,0E0,0E0,0E0,0E0,0E0,0E0,0E0,0E0,0E0,0E0,0E0,0E0,0E0,0E0,0E0],"parents":[2147483647,0,0,1,1,2,2,3,3,4,4,5,5,6,6,7,7,8,8,9,9,10,10,11,11,12,12,13,13,14,14,15,15,16,16,17,17,18,18,19,19,20,20,21,21,22,22,23,23,24,24,25,25,26,26,27,27,29,29,30,30,31,31,32,32,33,33,34,34,38,38,39,39,41,41,42,42,43,43,44,44,45,45,46,46,47,47,48,48,49,49,50,50,52,52,53,53,54,54,55,55,56,56,58,58,59,59,60,60],"right_children":[2,4,6,8,10,12,14,16,18,20,22,24,26,28,30,32,34,36,38,40,42,44,46,48,50,52,54,56,-1,58,60,62,64,66,68,-1,-1,-1,70,72,-1,74,76,78,80,82,84,86,88,90,92,-1,94,96,98,100,102,-1,104,106,108,-1,-1,-1,-1,-1,-1,-1,-1,-1,-1,-1,-1,-1,-1,-1,-1,-1,-1,-1,-1,-1,-1,-1,-1,-1,-1,-1,-1,-1,-1,-1,-1,-1,-1,-1,-1,-1,-1,-1,-1,-1,-1,-1,-1,-1,-1,-1,-1],"split_conditions":[1.2447E3,1.0451E3,1.71029E3,1.48762E-1,1.16827E3,2.3517471E-3,-1.5645785E-2,-1.2112277E-3,-1.8203638E-2,2.7956305E-2,1.19144E3,-1.8767647E-2,1.24955E3,1.77565E3,-1.413261E-2,9.7146E2,-2.68638E-2,-4.48304E-2,-1.3257243E-2,2.0489959E-2,-5.3520143E-1,-3.92992E-2,-1.614533E-1,1.35705E3,-1.717863E-2,3.986864E-3,1.63546E3,1.3194351E0,-7.124061E-2,4.52074E-1,-2.56807E-2,-3.480163E-2,1.0389796E-2,-5.51422E-2,-4.334475E-1,5.56852E-2,-3.2141168E-2,-8.477201E-2,4.2669028E-2,-7.69527E-2,-8.512659E-2,-4.5174035E-1,3.6639072E-2,-4.99221E-3,5.565347E-4,-9.211206E-3,-6.4826156E-3,1.32609E3,1.458112E0,1.64069E3,-2.5325017E-3,-7.314917E-2,8.566969E-3,1.54715E3,0E0,-1.03829E-1,1.2549743E-3,-2.4217092E-2,9.76547E-1,-6.9611883E-3,4.0644235E-3,-1.4763395E-2,4.4094823E-2,-5.335323E-3,4.1497387E-2,6.933791E-2,4.7726285E-2,3.39815E-2,1.0440925E-3,-4.0652044E-2,9.5363585E-3,-1.6538141E-2,2.7159231E-3,4.4120237E-2,7.1708836E-2,3.4385677E-2,-1.3267428E-2,6.894999E-2,4.1658282E-2,8.462595E-3,2.770527E-2,-9.189035E-3,2.7875835E-2,-5.9028786E-2,-6.682546E-4,8.265483E-3,-4.9158968E-2,4.2914294E-2,-8.577543E-3,-6.256685E-2,-1.5288834E-2,-1.6732136E-3,-1.2524749E-2,5.389698E-3,-4.0577207E-2,3.139014E-3,3.8861986E-2,3.8255795E-3,-2.5395844E-2,-6.492415E-3,-4.4918075E-2,1.5453576E-2,-3.3154145E-2,5.227339E-2,1.2633368E-2,5.220781E-2,-4.929826E-3,-3.1847645E-2,-1.224944E-2],"split_indices":[14,14,14,6,14,15,15,7,15,15,14,15,14,14,15,14,4,4,15,15,10,4,12,14,15,15,14,9,0,2,4,15,15,6,9,0,0,0,12,0,0,8,15,7,7,15,7,14,10,14,15,0,15,14,6,0,7,0,2,15,15,0,0,0,0,0,0,0,0,0,0,0,0,0,0,0,0,0,0,0,0,0,0,0,0,0,0,0,0,0,0,0,0,0,0,0,0,0,0,0,0,0,0,0,0,0,0,0,0],"split_type":[0,0,0,0,0,0,0,0,0,0,0,0,0,0,0,0,0,0,0,0,0,0,0,0,0,0,0,0,0,0,0,0,0,0,0,0,0,0,0,0,0,0,0,0,0,0,0,0,0,0,0,0,0,0,0,0,0,0,0,0,0,0,0,0,0,0,0,0,0,0,0,0,0,0,0,0,0,0,0,0,0,0,0,0,0,0,0,0,0,0,0,0,0,0,0,0,0,0,0,0,0,0,0,0,0,0,0,0,0],"sum_hessian":[1.896447E4,7.8914346E3,1.1073037E4,1.039515E3,6.8519194E3,9.949191E3,1.1238463E3,9.6600146E2,7.351349E1,3.4410298E3,3.4108896E3,5.472994E3,4.4761973E3,8.795113E1,1.0358951E3,6.081205E2,3.57881E2,1.2957659E1,6.0555832E1,3.3352056E3,1.0582428E2,1.0267174E3,2.384172E3,3.8356375E2,5.08943E3,1.3006868E2,4.3461284E3,6.0326496E1,2.7624636E1,5.3898335E1,9.819968E2,1.4000316E2,4.6811734E2,1.3332455E2,2.2455646E2,6.5901494E0,6.367509E0,1.6667025E1,4.388881E1,3.2814807E3,5.372492E1,5.0069054E1,5.575523E1,2.049279E2,8.217895E2,5.776615E2,1.8065106E3,1.7074599E2,2.1281776E2,9.941531E1,4.9900146E3,2.7966225E1,1.0210246E2,3.7580652E3,5.880633E2,4.614521E1,1.4181287E1,5.115935E0,4.8782402E1,2.0092769E2,7.810691E2,1.4802366E1,1.252008E2,3.6466238E2,1.0345495E2,5.407219E1,7.925236E1,1.1959451E2,1.0496194E2,1.5659241E1,2.8229567E1,4.7015036E2,2.8113303E3,9.644752E0,4.04243E1,2.97836E1,2.5971628E1,4.626019E1,1.5866772E2,5.302561E2,2.9153345E2,1.10534096E2,4.671274E2,4.955211E1,1.7569585E3,1.1235831E2,5.8387672E1,1.9068234E2,2.2135433E1,7.0856224E1,2.8559086E1,2.4439421E3,2.5460728E3,5.553666E1,4.6565804E1,3.6303977E3,1.2766754E2,3.021318E2,2.8593146E2,5.457924E0,4.0687286E1,7.855464E0,6.3258224E0,2.1235344E1,2.7547056E1,1.9246271E1,1.8168143E2,3.1964487E2,4.6142426E2],"tree_param":{"num_deleted":"0","num_feature":"16","num_nodes":"109","size_leaf_vector":"1"}},{"base_weights":[3.7550584E-3,-2.6119245E-2,1.250786E-1,2.9365045E-1,-3.8697414E-2,8.817532E-2,3.482543E-1,7.845654E-1,1.236433E-1,-1.3677846E-2,-1.4297454E-1,1.4326611E-1,-2.0098649E-1,9.055807E-1,2.6190913E-1,5.644021E-1,1.1850482E0,-1.3672552E-1,3.7297338E-1,-9.492777E-3,-6.9489956E-1,3.5759988E-1,-1.6143738E-1,3.2450557E-1,9.355082E-2,-4.4134033E-1,1.4311987E-1,-2.7650138E-3,9.901701E-1,-1.4518115E-3,5.119209E-1,1.0492489E0,2.3750089E-1,8.103902E-1,1.4010422E0,-2.1156463E-1,6.345264E-1,-4.555823E-1,4.8643956E-1,-2.3514941E-2,1.5848008E-1,-9.423842E-1,4.76576E-2,5.9188646E-1,8.696965E-3,-2.5768378E-1,-9.3883984E-2,2.1052314E-1,6.4214134E-1,-3.4577343E-1,1.4439495E-1,-1.917676E-1,-6.813827E-1,-2.7257988E-1,4.83575E-1,1.2664391E0,6.864624E-1,1.485016E-1,-4.0626383E-1,6.5243804E-1,1.6741951E-1,6.4242624E-2,1.7801454E-2,-5.6949365E-3,4.9121637E-2,5.173373E-2,4.374832E-3,7.671452E-2,3.8385943E-2,-2.3767825E-2,-1.0238605E-3,5.3789835E-2,-3.7951076E-3,-5.2237958E-2,7.581235E-3,2.9423743E-2,-2.9532298E-2,-1.2299272E-2,-6.5080484E-4,5.9913415E-3,2.5874523E-2,-1.3673249E-2,-6.0111284E-2,-2.625223E-2,3.5889838E-2,-9.022083E-3,3.3293884E-2,2.2937956E-3,-1.4949444E-2,-4.1325097E-3,-4.3110836E-2,1.9667605E-2,-4.223698E-3,3.7327755E-2,1.723367E-3,9.368668E-5,-5.3806175E-2,9.649079E-3,-3.5225588E-3,3.1914113E-3,-3.8365807E-2,-4.4699233E-2,-1.9116903E-2,-2.2481998E-2,7.7763237E-3,3.700998E-2,7.4719847E-3,7.069826E-2,1.9945784E-2,8.572105E-3,4.832379E-2,5.2524414E-3,6.036089E-2,-5.4488678E-2,-9.860942E-3,-3.2870015E-4,3.9029367E-2,5.1707454E-2,-4.1853223E-4],"categories":[],"categories_nodes":[],"categories_segments":[],"categories_sizes":[],"default_left":[0,0,0,0,0,0,0,0,0,0,0,0,0,0,0,0,0,0,0,0,0,0,0,0,0,0,0,0,0,0,0,0,0,0,0,0,0,0,0,0,0,0,0,0,0,0,0,0,0,0,0,0,0,0,0,0,0,0,0,0,0,0,0,0,0,0,0,0,0,0,0,0,0,0,0,0,0,0,0,0,0,0,0,0,0,0,0,0,0,0,0,0,0,0,0,0,0,0,0,0,0,0,0,0,0,0,0,0,0,0,0,0,0,0,0,0,0,0,0],"id":13,"left_children":[1,3,5,7,9,11,13,15,17,19,21,23,25,27,29,31,33,35,37,39,41,43,45,47,49,51,53,-1,55,57,59,61,63,65,67,69,71,73,75,77,79,81,-1,83,85,87,89,91,93,95,97,99,101,103,105,107,109,111,113,115,117,-1,-1,-1,-1,-1,-1,-1,-1,-1,-1,-1,-1,-1,-1,-1,-1,-1,-1,-1,-1,-1,-1,-1,-1,-1,-1,-1,-1,-1,-1,-1,-1,-1,-1,-1,-1,-1,-1,-1,-1,-1,-1,-1,-1,-1,-1,-1,-1,-1,-1,-1,-1,-1,-1,-1,-1,-1,-1],"loss_changes":[6.845448E1,6.093036E1,3.0660892E1,4.7657326E1,3.8021305E1,5.1064125E1,2.5093163E1,1.2128387E1,2.7804443E1,3.3452023E1,2.6104664E1,2.4185417E1,4.251117E1,5.8682175E0,3.0301914E1,1.4997112E1,2.78022E0,1.2183468E1,2.0782192E1,2.7524128E1,3.0120934E1,8.145499E0,1.7631912E1,2.0730644E1,4.726158E1,1.7896626E1,3.008555E1,0E0,4.374737E0,1.3716469E1,1.1227509E1,5.6908646E0,1.5736184E1,3.240159E0,1.1981888E0,9.610065E0,6.0318666E0,9.817065E0,2.154919E1,2.5174599E1,1.2367048E1,1.0447979E1,0E0,8.82099E0,5.3318563E0,1.4094666E1,1.3652944E1,2.3125307E1,9.546814E0,5.5821983E1,1.981836E1,2.2161945E1,9.291855E0,7.3559594E0,9.812668E0,3.4258003E0,4.5136347E0,7.3050513E0,8.392576E0,1.418544E1,1.0759903E1,0E0,0E0,0E0,0E0,0E0,0E0,0E0,0E0,0E0,0E0,0E0,0E0,0E0,0E0,0E0,0E0,0E0,0E0,0E0,0E0,0E0,0E0,0E0,0E0,0E0,0E0,0E0,0E0,0E0,0E0,0E0,0E0,0E0,0E0,0E0,0E0,0E0,0E0,0E0,0E0,0E0,0E0,0E0,0E0,0E0,0E0,0E0,0E0,0E0,0E0,0E0,0E0,0E0,0E0,0E0,0E0,0E0,0E0],"parents":[2147483647,0,0,1,1,2,2,3,3,4,4,5,5,6,6,7,7,8,8,9,9,10,10,11,11,12,12,13,13,14,14,15,15,16,16,17,17,18,18,19,19,20,20,21,21,22,22,23,23,24,24,25,25,26,26,28,28,29,29,30,30,31,31,32,32,33,33,34,34,35,35,36,36,37,37,38,38,39,39,40,40,41,41,43,43,44,44,45,45,46,46,47,47,48,48,49,49,50,50,51,51,52,52,53,53,54,54,55,55,56,56,57,57,58,58,59,59,60,60],"right_children":[2,4,6,8,10,12,14,16,18,20,22,24,26,28,30,32,34,36,38,40,42,44,46,48,50,52,54,-1,56,58,60,62,64,66,68,70,72,74,76,78,80,82,-1,84,86,88,90,92,94,96,98,100,102,104,106,108,110,112,114,116,118,-1,-1,-1,-1,-1,-1,-1,-1,-1,-1,-1,-1,-1,-1,-1,-1,-1,-1,-1,-1,-1,-1,-1,-1,-1,-1,-1,-1,-1,-1,-1,-1,-1,-1,-1,-1,-1,-1,-1,-1,-1,-1,-1,-1,-1,-1,-1,-1,-1,-1,-1,-1,-1,-1,-1,-1,-1,-1],"split_conditions":[8.929374E-3,-2.8863251E-2,2.3431625E-2,-1.43662E-1,1.0575289E0,1.6867293E-2,2.422691E-2,-3.480163E-2,-3.9244704E-2,8.781259E-3,-3.309809E-3,9.956584E-3,1.8856036E-2,-3.6570728E-3,5.02586E-1,-4.5260083E-2,9.98676E-1,2.6554894E-1,2.18129E-1,1.24774E-1,1.41474E-1,9.67295E-1,2.16435E-1,9.557365E-3,1.0389796E-2,1.752711E-2,-1.4586143E-1,-2.7650138E-3,-8.4769316E-2,-5.5423394E-2,3.6639072E-2,3.503697E-1,1.41038E0,-1.5757127E-3,6.91927E-1,1.18083E0,4.029784E-1,1.02426656E-1,5.1003173E-3,-9.8761266E-1,7.80732E-1,3.91922E-1,4.76576E-2,-1.17145E-1,1.6896E0,-3.57143E-2,8.566969E-3,1.9115809E-1,8.38616E-2,1.0220877E-2,1.1759269E0,1.21025E0,1.63934E-2,-4.0241785E-2,-3.7756184E-1,4.78198E-2,-1.20717E-2,2.4651562E-1,-7.7783066E-1,2.6024958E-2,4.46213E-1,6.4242624E-2,1.7801454E-2,-5.6949365E-3,4.9121637E-2,5.173373E-2,4.374832E-3,7.671452E-2,3.8385943E-2,-2.3767825E-2,-1.0238605E-3,5.3789835E-2,-3.7951076E-3,-5.2237958E-2,7.581235E-3,2.9423743E-2,-2.9532298E-2,-1.2299272E-2,-6.5080484E-4,5.9913415E-3,2.5874523E-2,-1.3673249E-2,-6.0111284E-2,-2.625223E-2,3.5889838E-2,-9.022083E-3,3.3293884E-2,2.2937956E-3,-1.4949444E-2,-4.1325097E-3,-4.3110836E-2,1.9667605E-2,-4.223698E-3,3.7327755E-2,1.723367E-3,9.368668E-5,-5.3806175E-2,9.649079E-3,-3.5225588E-3,3.1914113E-3,-3.8365807E-2,-4.4699233E-2,-1.9116903E-2,-2.2481998E-2,7.7763237E-3,3.700998E-2,7.4719847E-3,7.069826E-2,1.9945784E-2,8.572105E-3,4.832379E-2,5.2524414E-3,6.036089E-2,-5.4488678E-2,-9.860942E-3,-3.2870015E-4,3.9029367E-2,5.1707454E-2,-4.1853223E-4],"split_indices":[15,15,15,5,9,15,15,15,15,15,7,15,15,7,1,15,2,12,1,5,5,2,1,15,15,15,11,0,12,11,15,8,2,7,1,2,8,8,7,8,1,1,0,5,2,5,15,11,5,15,9,2,3,12,9,3,3,12,9,15,2,0,0,0,0,0,0,0,0,0,0,0,0,0,0,0,0,0,0,0,0,0,0,0,0,0,0,0,0,0,0,0,0,0,0,0,0,0,0,0,0,0,0,0,0,0,0,0,0,0,0,0,0,0,0,0,0,0,0],"split_type":[0,0,0,0,0,0,0,0,0,0,0,0,0,0,0,0,0,0,0,0,0,0,0,0,0,0,0,0,0,0,0,0,0,0,0,0,0,0,0,0,0,0,0,0,0,0,0,0,0,0,0,0,0,0,0,0,0,0,0,0,0,0,0,0,0,0,0,0,0,0,0,0,0,0,0,