{"learner":{"attributes":{"scikit_learn":"{\"_estimator_type\": \"classifier\"}"},"feature_names":["price_vs_sma50","volatility_20","volume_ratio_20","return_3d","return_5d","return_10d","return_20d","sma_50_LogReturn","volume_LogReturn","PCA_Trend","PCA_Oscillators","PCA_MACD","PCA_ShortReturns","atr_14","high_low","market_return","foreign_net","bu","sd","fs","fb"],"feature_types":["float","float","float","float","float","float","float","float","float","float","float","float","float","float","float","float","float","float","float","float","float"],"gradient_booster":{"model":{"cats":{"enc":[],"feature_segments":[],"sorted_idx":[]},"gbtree_model_param":{"num_parallel_tree":"1","num_trees":"300"},"iteration_indptr":[0,1,2,3,4,5,6,7,8,9,10,11,12,13,14,15,16,17,18,19,20,21,22,23,24,25,26,27,28,29,30,31,32,33,34,35,36,37,38,39,40,41,42,43,44,45,46,47,48,49,50,51,52,53,54,55,56,57,58,59,60,61,62,63,64,65,66,67,68,69,70,71,72,73,74,75,76,77,78,79,80,81,82,83,84,85,86,87,88,89,90,91,92,93,94,95,96,97,98,99,100,101,102,103,104,105,106,107,108,109,110,111,112,113,114,115,116,117,118,119,120,121,122,123,124,125,126,127,128,129,130,131,132,133,134,135,136,137,138,139,140,141,142,143,144,145,146,147,148,149,150,151,152,153,154,155,156,157,158,159,160,161,162,163,164,165,166,167,168,169,170,171,172,173,174,175,176,177,178,179,180,181,182,183,184,185,186,187,188,189,190,191,192,193,194,195,196,197,198,199,200,201,202,203,204,205,206,207,208,209,210,211,212,213,214,215,216,217,218,219,220,221,222,223,224,225,226,227,228,229,230,231,232,233,234,235,236,237,238,239,240,241,242,243,244,245,246,247,248,249,250,251,252,253,254,255,256,257,258,259,260,261,262,263,264,265,266,267,268,269,270,271,272,273,274,275,276,277,278,279,280,281,282,283,284,285,286,287,288,289,290,291,292,293,294,295,296,297,298,299,300],"tree_info":[0,0,0,0,0,0,0,0,0,0,0,0,0,0,0,0,0,0,0,0,0,0,0,0,0,0,0,0,0,0,0,0,0,0,0,0,0,0,0,0,0,0,0,0,0,0,0,0,0,0,0,0,0,0,0,0,0,0,0,0,0,0,0,0,0,0,0,0,0,0,0,0,0,0,0,0,0,0,0,0,0,0,0,0,0,0,0,0,0,0,0,0,0,0,0,0,0,0,0,0,0,0,0,0,0,0,0,0,0,0,0,0,0,0,0,0,0,0,0,0,0,0,0,0,0,0,0,0,0,0,0,0,0,0,0,0,0,0,0,0,0,0,0,0,0,0,0,0,0,0,0,0,0,0,0,0,0,0,0,0,0,0,0,0,0,0,0,0,0,0,0,0,0,0,0,0,0,0,0,0,0,0,0,0,0,0,0,0,0,0,0,0,0,0,0,0,0,0,0,0,0,0,0,0,0,0,0,0,0,0,0,0,0,0,0,0,0,0,0,0,0,0,0,0,0,0,0,0,0,0,0,0,0,0,0,0,0,0,0,0,0,0,0,0,0,0,0,0,0,0,0,0,0,0,0,0,0,0,0,0,0,0,0,0,0,0,0,0,0,0,0,0,0,0,0,0,0,0,0,0,0,0,0,0,0,0,0,0,0,0,0,0,0,0,0,0,0,0,0,0],"trees":[{"base_weights":[3.8665198E-4,-1.4402839E-2,8.5212725E-1,2.6288908E-2,-1.9821495E-1,9.3250805E-1,-3.7834108E-1,1.1094228E-2,4.0155014E-1,3.7989303E-2,-2.3406528E-1,3.2975334E-1,1.113556E0,-7.8667384E-1,2.5192235E-2,-1.7456277E-1,4.5480147E-2,4.8481384E-1,-1.7136604E-1,3.4470484E-1,-4.560425E-2,4.6529073E-1,-2.4481292E-1,1.6156854E-1,5.070085E-2,6.782432E-2,8.732605E-1,-2.1799537E-3,-5.628096E-2,-2.3786996E-2,-5.400606E-3,2.5325472E-2,1.6773826E-3,2.1873914E-2,7.27558E-2,1.780242E-2,-3.0139292E-2,2.7786482E-2,-0E0,8.454527E-3,-7.0867836E-3,3.0333728E-2,-2.4741732E-3,-9.483549E-3,-1.6942104E-2,2.6356956E-2,-8.323161E-3,4.8187047E-2,2.360241E-3],"categories":[],"categories_nodes":[],"categories_segments":[],"categories_sizes":[],"default_left":[0,0,0,0,0,0,0,0,0,0,0,0,0,0,0,0,0,0,0,0,0,0,0,0,0,0,0,0,0,0,0,0,0,0,0,0,0,0,0,0,0,0,0,0,0,0,0,0,0],"id":0,"left_children":[1,3,5,7,9,11,13,15,17,19,21,23,25,27,-1,29,31,33,35,37,39,41,43,45,-1,-1,47,-1,-1,-1,-1,-1,-1,-1,-1,-1,-1,-1,-1,-1,-1,-1,-1,-1,-1,-1,-1,-1,-1],"loss_changes":[2.2278543E2,1.2987405E2,3.0838745E1,8.078401E1,2.6767395E1,2.957016E1,7.977064E0,8.713105E1,2.6629814E1,1.0811761E1,2.0672745E1,7.042682E0,9.192688E0,2.9776592E0,0E0,4.2341232E1,6.3102318E1,1.9954475E1,1.6637844E1,6.696043E0,6.768927E0,3.3500051E0,1.3582336E1,7.3679366E0,0E0,0E0,8.060211E0,0E0,0E0,0E0,0E0,0E0,0E0,0E0,0E0,0E0,0E0,0E0,0E0,0E0,0E0,0E0,0E0,0E0,0E0,0E0,0E0,0E0,0E0],"parents":[2147483647,0,0,1,1,2,2,3,3,4,4,5,5,6,6,7,7,8,8,9,9,10,10,11,11,12,12,13,13,15,15,16,16,17,17,18,18,19,19,20,20,21,21,22,22,23,23,26,26],"right_children":[2,4,6,8,10,12,14,16,18,20,22,24,26,28,-1,30,32,34,36,38,40,42,44,46,-1,-1,48,-1,-1,-1,-1,-1,-1,-1,-1,-1,-1,-1,-1,-1,-1,-1,-1,-1,-1,-1,-1,-1,-1],"split_conditions":[2.7693078E-2,1.0563322E0,2.7335262E0,7.71991E-1,-2.78088E-2,2.62E4,2.0710314E10,2.93E4,-2.5929144E-1,-1.7798377E-2,-1.3001E-1,7.48496E-1,-1.0651611E0,-1.1862532E0,2.5192235E-2,-9.205633E-3,-3.1687036E-2,2.0259121E-2,1.138E6,-4.33213E-2,-9.726314E9,6.765E5,2.245852E0,3.3994954E-2,5.070085E-2,6.782432E-2,1.6322801E0,-2.1799537E-3,-5.628096E-2,-2.3786996E-2,-5.400606E-3,2.5325472E-2,1.6773826E-3,2.1873914E-2,7.27558E-2,1.780242E-2,-3.0139292E-2,2.7786482E-2,-0E0,8.454527E-3,-7.0867836E-3,3.0333728E-2,-2.4741732E-3,-9.483549E-3,-1.6942104E-2,2.6356956E-2,-8.323161E-3,4.8187047E-2,2.360241E-3],"split_indices":[15,9,10,1,3,18,20,18,9,15,6,1,10,9,0,15,15,15,18,3,16,18,9,15,0,0,9,0,0,0,0,0,0,0,0,0,0,0,0,0,0,0,0,0,0,0,0,0,0],"split_type":[0,0,0,0,0,0,0,0,0,0,0,0,0,0,0,0,0,0,0,0,0,0,0,0,0,0,0,0,0,0,0,0,0,0,0,0,0,0,0,0,0,0,0,0,0,0,0,0,0],"sum_hessian":[1.7648662E4,1.7348799E4,2.9986273E2,1.4203474E4,3.1453264E3,2.8231128E2,1.7551443E1,1.3654001E4,5.494718E2,4.1262567E2,2.7327007E3,6.715147E1,2.1515982E2,1.2533455E1,5.0179877E0,2.1301528E3,1.1523849E4,4.8077896E2,6.8692825E1,8.831622E1,3.2430945E2,3.9375916E1,2.693325E3,5.647376E1,1.0677703E1,1.01338905E2,1.13820915E2,5.095325E0,7.43813E0,3.8192563E2,1.7482272E3,2.8759003E2,1.1236259E4,4.6167355E2,1.9105406E1,3.0543537E1,3.814929E1,5.442988E1,3.388634E1,9.822341E1,2.2608603E2,3.1373394E1,8.002521E0,1.7048774E3,9.884474E2,2.6855406E1,2.9618353E1,1.0173853E2,1.2082378E1],"tree_param":{"num_deleted":"0","num_feature":"21","num_nodes":"49","size_leaf_vector":"1"}},{"base_weights":[4.8512626E-3,-8.892621E-3,8.0977297E-1,9.392308E-2,-8.305221E-2,8.843359E-1,-3.7952018E-1,-1.1664949E-1,1.7082168E-1,-3.816173E-2,-2.1086887E-1,3.2525772E-1,1.0319686E0,-9.186006E-1,2.988754E-2,-2.0719734E-1,1.6264708E-1,7.050036E-3,2.4031334E-1,5.933241E-2,-7.784815E-2,9.643396E-2,-2.439537E-1,-4.4088653E-1,5.391153E-1,1.0750816E0,-8.3117763E-4,-1.6327528E-2,-6.1933037E-2,-2.6691714E-2,-5.263321E-3,-4.93753E-4,1.8465528E-2,-4.9121394E-3,7.3642805E-3,1.1123925E-2,3.7588313E-2,-1.2423946E-2,5.1041627E-3,4.1228025E-3,-6.288516E-3,1.2947318E-2,-9.642904E-3,-1.714683E-2,-7.6192194E-3,-4.975235E-2,2.2480772E-3,1.4708126E-2,5.5917587E-2,5.9525933E-2,3.336553E-2],"categories":[],"categories_nodes":[],"categories_segments":[],"categories_sizes":[],"default_left":[0,0,0,0,0,0,0,0,0,0,0,0,0,0,0,0,0,0,0,0,0,0,0,0,0,0,0,0,0,0,0,0,0,0,0,0,0,0,0,0,0,0,0,0,0,0,0,0,0,0,0],"id":1,"left_children":[1,3,5,7,9,11,13,15,17,19,21,23,25,27,-1,29,31,33,35,37,39,41,43,45,47,49,-1,-1,-1,-1,-1,-1,-1,-1,-1,-1,-1,-1,-1,-1,-1,-1,-1,-1,-1,-1,-1,-1,-1,-1,-1],"loss_changes":[1.9627304E2,1.3274553E2,2.7336578E1,1.1815948E2,5.7911148E1,2.1866333E1,1.1045052E1,4.9412453E1,6.0698807E1,2.9010658E1,2.6823914E1,1.074641E1,1.055101E1,8.8891983E-1,0E0,4.8679092E1,1.7203144E1,2.3625944E1,3.3386444E1,2.8470366E1,4.0986855E1,1.2132997E1,2.1157867E1,4.3888593E0,5.75605E0,7.4923096E0,0E0,0E0,0E0,0E0,0E0,0E0,0E0,0E0,0E0,0E0,0E0,0E0,0E0,0E0,0E0,0E0,0E0,0E0,0E0,0E0,0E0,0E0,0E0,0E0,0E0],"parents":[2147483647,0,0,1,1,2,2,3,3,4,4,5,5,6,6,7,7,8,8,9,9,10,10,11,11,12,12,13,13,15,15,16,16,17,17,18,18,19,19,20,20,21,21,22,22,23,23,24,24,25,25],"right_children":[2,4,6,8,10,12,14,16,18,20,22,24,26,28,-1,30,32,34,36,38,40,42,44,46,48,50,-1,-1,-1,-1,-1,-1,-1,-1,-1,-1,-1,-1,-1,-1,-1,-1,-1,-1,-1,-1,-1,-1,-1,-1,-1],"split_conditions":[2.7693078E-2,-7.0128393E-1,2.8281198E0,2.728E5,1.3449861E0,1.83E4,2.9527E6,5.47774E-1,3.02551E-1,-5.501263E-2,-2.185344E-3,3.98698E-1,2.7865632E0,6.09774E-2,2.988754E-2,-5.66065E-3,2.56E7,2.255101E-3,8.6804E-1,-2.7144003E0,-4.9192845E-3,-8.102971E-1,2.2389E-1,-1.9789706E-3,7.11958E-1,3.6550853E-2,-8.3117763E-4,-1.6327528E-2,-6.1933037E-2,-2.6691714E-2,-5.263321E-3,-4.93753E-4,1.8465528E-2,-4.9121394E-3,7.3642805E-3,1.1123925E-2,3.7588313E-2,-1.2423946E-2,5.1041627E-3,4.1228025E-3,-6.288516E-3,1.2947318E-2,-9.642904E-3,-1.714683E-2,-7.6192194E-3,-4.975235E-2,2.2480772E-3,1.4708126E-2,5.5917587E-2,5.9525933E-2,3.336553E-2],"split_indices":[15,9,10,18,9,18,18,1,1,12,7,2,9,0,0,15,20,15,1,10,15,10,1,7,1,15,0,0,0,0,0,0,0,0,0,0,0,0,0,0,0,0,0,0,0,0,0,0,0,0,0],"split_type":[0,0,0,0,0,0,0,0,0,0,0,0,0,0,0,0,0,0,0,0,0,0,0,0,0,0,0,0,0,0,0,0,0,0,0,0,0,0,0,0,0,0,0,0,0,0,0,0,0,0,0],"sum_hessian":[1.7702297E4,1.7406441E4,2.9585492E2,7.290933E3,1.0115508E4,2.7927875E2,1.6576166E1,1.9483104E3,5.3426226E3,7.491076E3,2.6244316E3,6.0387444E1,2.188913E2,1.1090269E1,5.4858966E0,1.4730535E3,4.752569E2,1.5944246E3,3.7481982E3,2.1632417E3,5.3278345E3,2.5324716E2,2.3711843E3,1.2204318E1,4.8183125E1,2.1065645E2,8.234853E0,5.857597E0,5.232672E0,3.4716998E2,1.1258835E3,2.5874353E2,2.1651338E2,9.089744E2,6.8545013E2,3.6256172E3,1.22580925E2,2.61206E2,1.9020358E3,1.2234392E3,4.104395E3,1.6339609E2,8.9851074E1,1.134204E3,1.2369805E3,5.202887E0,7.0014315E0,3.6588947E1,1.1594174E1,1.6023091E2,5.042554E1],"tree_param":{"num_deleted":"0","num_feature":"21","num_nodes":"51","size_leaf_vector":"1"}},{"base_weights":[-7.704841E-4,-1.4111743E-2,7.6599216E-1,7.05576E-2,-9.516584E-2,9.663799E-1,2.634411E-1,-1.3151206E-1,1.3909855E-1,-5.2155472E-2,-2.0634452E-1,2.2074857E-1,1.1145692E0,5.381778E-1,-6.0372627E-1,-2.6080588E-1,-1.0347682E-2,8.8271546E-1,1.3149601E-1,1.1000336E-1,-8.311939E-2,1.4399806E-1,-2.3646024E-1,-3.4971958E-1,6.283092E-1,1.151545E0,2.4969801E-3,6.4204514E-2,3.170506E-1,4.858724E-3,-8.534824E-1,-2.8127087E-2,-8.888124E-3,-1.3353558E-2,4.305892E-3,5.555243E-2,6.3349823E-3,5.0295843E-3,1.3352956E-2,-1.04215145E-2,9.351897E-3,-4.7496934E-3,1.7979262E-2,1.0480341E-2,-2.5708487E-2,6.3303034E-3,-1.30455345E-2,-4.3057602E-2,1.6719798E-2,-0E0,4.265267E-2,6.1742384E-2,3.1928685E-2,-1.5596206E-2,2.7822271E-2,-3.2378496E-3,-5.6899197E-2],"categories":[],"categories_nodes":[],"categories_segments":[],"categories_sizes":[],"default_left":[0,0,0,0,0,0,0,0,0,0,0,0,0,0,0,0,0,0,0,0,0,0,0,0,0,0,0,0,0,0,0,0,0,0,0,0,0,0,0,0,0,0,0,0,0,0,0,0,0,0,0,0,0,0,0,0,0],"id":2,"left_children":[1,3,5,7,9,11,13,15,17,19,21,23,25,27,29,31,33,35,37,39,41,43,45,47,49,51,-1,-1,53,-1,55,-1,-1,-1,-1,-1,-1,-1,-1,-1,-1,-1,-1,-1,-1,-1,-1,-1,-1,-1,-1,-1,-1,-1,-1,-1,-1],"loss_changes":[1.8059485E2,1.1936231E2,2.9279526E1,1.178062E2,4.235015E1,2.252826E1,2.1945982E1,3.3584698E1,3.5171623E1,3.221324E1,2.6231277E1,9.552416E0,6.2828827E0,9.845617E0,4.4029713E0,2.5474106E1,2.776001E1,1.0021366E1,2.611779E1,2.5253859E1,2.8270084E1,8.521181E0,2.0386238E1,6.737335E0,3.5048351E0,4.805023E0,0E0,0E0,9.016926E0,0E0,3.0621681E0,0E0,0E0,0E0,0E0,0E0,0E0,0E0,0E0,0E0,0E0,0E0,0E0,0E0,0E0,0E0,0E0,0E0,0E0,0E0,0E0,0E0,0E0,0E0,0E0,0E0,0E0],"parents":[2147483647,0,0,1,1,2,2,3,3,4,4,5,5,6,6,7,7,8,8,9,9,10,10,11,11,12,12,13,13,14,14,15,15,16,16,17,17,18,18,19,19,20,20,21,21,22,22,23,23,24,24,25,25,28,28,30,30],"right_children":[2,4,6,8,10,12,14,16,18,20,22,24,26,28,30,32,34,36,38,40,42,44,46,48,50,52,-1,-1,54,-1,56,-1,-1,-1,-1,-1,-1,-1,-1,-1,-1,-1,-1,-1,-1,-1,-1,-1,-1,-1,-1,-1,-1,-1,-1,-1,-1],"split_conditions":[2.7693078E-2,-5.6593615E-1,3.6550853E-2,2.108E5,1.4139869E0,1.11E4,1.779676E-1,3.5714287E-2,-2.49395E-1,-1.5214892E-1,-3.73843E-2,7.25389E-1,2.6412218E0,-8.47453E-2,-4.622702E-3,-5.66065E-3,-2.0587108E0,-8.399601E-1,5.78293E-2,-2.4912872E0,1.26694E-1,1.0856335E-2,-2.5444168E-3,-7.955638E-4,-1.0320711E0,5.999899E-1,2.4969801E-3,6.4204514E-2,1.4E3,4.858724E-3,4.17801E-2,-2.8127087E-2,-8.888124E-3,-1.3353558E-2,4.305892E-3,5.555243E-2,6.3349823E-3,5.0295843E-3,1.3352956E-2,-1.04215145E-2,9.351897E-3,-4.7496934E-3,1.7979262E-2,1.0480341E-2,-2.5708487E-2,6.3303034E-3,-1.30455345E-2,-4.3057602E-2,1.6719798E-2,-0E0,4.265267E-2,6.1742384E-2,3.1928685E-2,-1.5596206E-2,2.7822271E-2,-3.2378496E-3,-5.6899197E-2],"split_indices":[15,9,15,17,9,18,12,13,5,12,3,2,10,4,7,15,10,9,4,10,4,15,7,7,9,8,0,0,18,0,3,0,0,0,0,0,0,0,0,0,0,0,0,0,0,0,0,0,0,0,0,0,0,0,0,0,0],"split_type":[0,0,0,0,0,0,0,0,0,0,0,0,0,0,0,0,0,0,0,0,0,0,0,0,0,0,0,0,0,0,0,0,0,0,0,0,0,0,0,0,0,0,0,0,0,0,0,0,0,0,0,0,0,0,0,0,0],"sum_hessian":[1.7686818E4,1.738691E4,2.9990762E2,8.500917E3,8.885992E3,2.1238158E2,8.7526054E1,2.1508213E3,6.350096E3,6.4126445E3,2.4733481E3,3.6596313E1,1.7578526E2,6.748178E1,2.0044277E1,1.0373933E3,1.113428E3,6.126936E1,6.2888267E3,1.0247499E3,5.3878945E3,1.9386862E2,2.2794797E3,1.4857332E1,2.1738983E1,1.6927327E2,6.511995E0,1.2715228E1,5.4766552E1,5.0610743E0,1.4983204E1,2.200994E2,8.172939E2,3.045571E2,8.088709E2,4.5827793E1,1.5441565E1,5.12716E3,1.1616665E3,1.9768561E2,8.270643E2,5.249782E3,1.381124E2,1.7822519E2,1.5643444E1,1.4200667E2,2.137473E3,8.62371E0,6.2336226E0,6.044426E0,1.5694557E1,1.4236507E2,2.69082E1,1.4355375E1,4.0411175E1,5.0886364E0,9.8945675E0],"tree_param":{"num_deleted":"0","num_feature":"21","num_nodes":"57","size_leaf_vector":"1"}},{"base_weights":[2.3325018E-3,-7.789781E-2,1.0274434E-1,-3.0389184E-1,-5.35019E-2,2.7583742E-1,4.6398226E-2,-3.809823E-1,-9.737581E-2,2.465975E-2,-1.2200011E-1,1.2552243E-1,4.6166956E-1,1.7995714E-1,-0E0,5.744367E-2,-4.1308054E-1,-0E0,-4.4319123E-1,8.328484E-2,-1.25973E-1,-2.2343953E-1,-5.181609E-2,-2.2041525E-1,2.4257366E-1,1.078497E0,4.0722486E-1,3.852799E-2,3.625112E-1,-2.8240189E-2,1.993932E-1,2.007055E-2,-1.4699881E-2,-4.8752792E-2,-1.7802628E-2,-5.99767E-3,2.8430898E-2,-4.345802E-2,-8.7506715E-3,7.151418E-2,3.8685284E-3,1.3310514E-2,-8.26856E-3,1.5768953E-2,-1.2373227E-2,-3.3646976E-3,2.8275317E-2,3.2857753E-2,-1.7046547E-2,9.1464985E-3,3.9455626E-2,8.005856E-2,3.5405707E-2,3.1429813E-3,2.4184646E-2,-1.5540462E-3,2.200164E-2,2.0072563E-2,-1.6301112E-2,-2.7750522E-2,-8.21748E-4,2.1030873E-2,1.5268639E-4],"categories":[],"categories_nodes":[],"categories_segments":[],"categories_sizes":[],"default_left":[0,0,0,0,0,0,0,0,0,0,0,0,0,0,0,0,0,0,0,0,0,0,0,0,0,0,0,0,0,0,0,0,0,0,0,0,0,0,0,0,0,0,0,0,0,0,0,0,0,0,0,0,0,0,0,0,0,0,0,0,0,0,0],"id":3,"left_children":[1,3,5,7,9,11,13,15,17,19,21,23,25,27,29,31,33,35,37,39,41,43,45,47,49,51,53,55,57,59,61,-1,-1,-1,-1,-1,-1,-1,-1,-1,-1,-1,-1,-1,-1,-1,-1,-1,-1,-1,-1,-1,-1,-1,-1,-1,-1,-1,-1,-1,-1,-1,-1],"loss_changes":[1.423617E2,5.3925354E1,7.638122E1,1.48791275E1,4.7527664E1,5.3372925E1,3.6796326E1,9.969696E0,8.765324E0,3.655587E1,3.3509384E1,4.338999E1,2.721782E1,3.9280193E1,2.471875E1,6.083683E0,1.9359505E1,1.4235564E1,5.7265434E0,2.2792591E1,1.79325E1,2.5112747E1,2.6588455E1,2.88601E1,2.5319813E1,9.682083E0,2.054921E1,2.4435808E1,1.8161888E1,2.3678856E1,2.3430574E1,0E0,0E0,0E0,0E0,0E0,0E0,0E0,0E0,0E0,0E0,0E0,0E0,0E0,0E0,0E0,0E0,0E0,0E0,0E0,0E0,0E0,0E0,0E0,0E0,0E0,0E0,0E0,0E0,0E0,0E0,0E0,0E0],"parents":[2147483647,0,0,1,1,2,2,3,3,4,4,5,5,6,6,7,7,8,8,9,9,10,10,11,11,12,12,13,13,14,14,15,15,16,16,17,17,18,18,19,19,20,20,21,21,22,22,23,23,24,24,25,25,26,26,27,27,28,28,29,29,30,30],"right_children":[2,4,6,8,10,12,14,16,18,20,22,24,26,28,30,32,34,36,38,40,42,44,46,48,50,52,54,56,58,60,62,-1,-1,-1,-1,-1,-1,-1,-1,-1,-1,-1,-1,-1,-1,-1,-1,-1,-1,-1,-1,-1,-1,-1,-1,-1,-1,-1,-1,-1,-1,-1,-1],"split_conditions":[3.71698E-1,2.228E3,-1.0585377E0,2.0412E-2,-1.12851E-3,1.4416E8,-1.4795163E-1,-1.4798837E0,2.8620176E-3,1.0563322E0,2.49262E-2,-1.23968E-1,-1.390063E0,-8.81552E-2,1.5425E-1,2.8279545E-2,-9.59259E-2,3.3582717E-2,-2.9260644E-1,-1.6667E-1,-2.5444168E-3,-6.34626E-2,6.574678E-3,-1.3554507E-2,7.71991E-1,-1.217622E0,-1.28353E-1,7.59106E-1,2.1315281E0,-7.904532E-3,1.1949769E0,2.007055E-2,-1.4699881E-2,-4.8752792E-2,-1.7802628E-2,-5.99767E-3,2.8430898E-2,-4.345802E-2,-8.7506715E-3,7.151418E-2,3.8685284E-3,1.3310514E-2,-8.26856E-3,1.5768953E-2,-1.2373227E-2,-3.3646976E-3,2.8275317E-2,3.2857753E-2,-1.7046547E-2,9.1464985E-3,3.9455626E-2,8.005856E-2,3.5405707E-2,3.1429813E-3,2.4184646E-2,-1.5540462E-3,2.200164E-2,2.0072563E-2,-1.6301112E-2,-2.7750522E-2,-8.21748E-4,2.1030873E-2,1.5268639E-4],"split_indices":[1,17,9,5,5,20,12,11,7,9,0,0,11,0,5,14,6,13,9,4,7,0,7,7,1,9,0,1,9,7,11,0,0,0,0,0,0,0,0,0,0,0,0,0,0,0,0,0,0,0,0,0,0,0,0,0,0,0,0,0,0,0,0],"split_type":[0,0,0,0,0,0,0,0,0,0,0,0,0,0,0,0,0,0,0,0,0,0,0,0,0,0,0,0,0,0,0,0,0,0,0,0,0,0,0,0,0,0,0,0,0,0,0,0,0,0,0,0,0,0,0,0,0,0,0,0,0,0,0],"sum_hessian":[1.7665822E4,9.817214E3,7.848607E3,9.522781E2,8.864937E3,1.9233835E3,5.9252236E3,6.904347E2,2.618434E2,4.137601E3,4.7273354E3,1.0666437E3,8.5673987E2,1.528248E3,4.3969756E3,4.5929703E1,6.44505E2,2.0648068E2,5.5362736E1,2.9814553E3,1.1561456E3,1.9285063E3,2.7988289E3,2.681386E2,7.98505E2,6.569144E1,7.910484E2,8.640264E2,6.642216E2,3.8546003E3,5.4237537E2,2.3786959E1,2.2142746E1,5.5603535E1,5.889014E2,1.7220474E2,3.427593E1,1.8937044E1,3.642569E1,1.055825E1,2.970897E3,1.0333258E2,1.052813E3,8.03947E1,1.8481117E3,2.7329E3,6.592892E1,3.0800581E1,2.3733804E2,7.2316986E2,7.533515E1,2.3928389E1,4.176305E1,1.4558873E2,6.454597E2,7.368743E2,1.27152084E2,6.3014386E2,3.4077736E1,8.154479E1,3.7730554E3,2.5275453E2,2.8962082E2],"tree_param":{"num_deleted":"0","num_feature":"21","num_nodes":"63","size_leaf_vector":"1"}},{"base_weights":[-6.1755464E-3,-1.9228179E-2,7.561925E-1,7.434557E-2,-8.6795196E-2,8.219109E-1,-2.799947E-1,-5.381649E-2,1.4849249E-1,3.2502852E-2,-1.2124714E-1,8.6387783E-1,-1.8619426E-2,2.163819E-2,-7.19992E-1,-1.6907859E-1,9.90595E-2,-5.9714336E-2,1.9423172E-1,-2.267639E-1,9.6597016E-2,-8.164626E-2,-2.3415224E-1,-2.1231744E-2,9.021691E-1,-5.29836E-2,-7.07466E-3,-1.3489691E-2,1.078572E-3,5.6326403E-3,-4.9774636E-2,2.7132738E-2,-6.8480857E-3,1.5237798E-2,4.2999214E-3,1.5374675E-2,-1.7356908E-2,2.746876E-3,1.4208825E-2,2.8532383E-3,-5.531041E-3,-1.7739993E-2,-6.6534886E-3,3.539608E-2,5.74543E-2],"categories":[],"categories_nodes":[],"categories_segments":[],"categories_sizes":[],"default_left":[0,0,0,0,0,0,0,0,0,0,0,0,0,0,0,0,0,0,0,0,0,0,0,0,0,0,0,0,0,0,0,0,0,0,0,0,0,0,0,0,0,0,0,0,0],"id":4,"left_children":[1,3,5,7,9,11,13,15,17,19,21,23,-1,-1,25,27,29,31,33,35,37,39,41,-1,43,-1,-1,-1,-1,-1,-1,-1,-1,-1,-1,-1,-1,-1,-1,-1,-1,-1,-1,-1,-1],"loss_changes":[1.7583018E2,1.10084045E2,2.0984055E1,6.940933E1,4.1617355E1,1.4955002E1,6.65516E0,4.717814E1,4.414383E1,3.7607895E1,3.490503E1,1.4430908E1,0E0,0E0,1.6136093E0,2.945399E1,1.6872997E1,3.869477E1,4.5151215E1,2.903748E1,1.4010155E1,2.3424107E1,2.4469429E1,0E0,1.0168259E1,0E0,0E0,0E0,0E0,0E0,0E0,0E0,0E0,0E0,0E0,0E0,0E0,0E0,0E0,0E0,0E0,0E0,0E0,0E0,0E0],"parents":[2147483647,0,0,1,1,2,2,3,3,4,4,5,5,6,6,7,7,8,8,9,9,10,10,11,11,14,14,15,15,16,16,17,17,18,18,19,19,20,20,21,21,22,22,24,24],"right_children":[2,4,6,8,10,12,14,16,18,20,22,24,-1,-1,26,28,30,32,34,36,38,40,42,-1,44,-1,-1,-1,-1,-1,-1,-1,-1,-1,-1,-1,-1,-1,-1,-1,-1,-1,-1,-1,-1],"split_conditions":[2.7693078E-2,-7.0128393E-1,2.8741434E0,3.25832E-1,-4.72222E-2,2.8895483E0,1.0310333E-1,2.255101E-3,-1.28353E-1,7.954E7,1.4139869E0,2.43686E-1,-1.8619426E-2,2.163819E-2,1.8422E8,-1.4440757E-2,2.394834E-2,-1.3554507E-2,4.28571E-2,1.66684E-2,5.70167E-1,-6.2856833E-3,2.15348E-1,-2.1231744E-2,-6.343951E-5,-5.29836E-2,-7.07466E-3,-1.3489691E-2,1.078572E-3,5.6326403E-3,-4.9774636E-2,2.7132738E-2,-6.8480857E-3,1.5237798E-2,4.2999214E-3,1.5374675E-2,-1.7356908E-2,2.746876E-3,1.4208825E-2,2.8532383E-3,-5.531041E-3,-1.7739993E-2,-6.6534886E-3,3.539608E-2,5.74543E-2],"split_indices":[15,9,10,1,6,9,11,15,0,19,9,2,0,0,16,11,15,7,6,14,1,15,1,0,7,0,0,0,0,0,0,0,0,0,0,0,0,0,0,0,0,0,0,0,0],"split_type":[0,0,0,0,0,0,0,0,0,0,0,0,0,0,0,0,0,0,0,0,0,0,0,0,0,0,0,0,0,0,0,0,0,0,0,0,0,0,0,0,0,0,0,0,0],"sum_hessian":[1.7701865E4,1.7406453E4,2.9541342E2,7.295413E3,1.0111039E4,2.7863745E2,1.6775993E1,2.671523E3,4.6238906E3,2.262432E3,7.848607E3,2.7011768E2,8.519769E0,5.982064E0,1.0793929E1,1.5248834E3,1.1466395E3,8.307483E2,3.793142E3,4.4588983E2,1.8165421E3,5.816407E3,2.0321998E3,6.836325E0,2.6328134E2,5.208058E0,5.5858717E0,9.9895496E2,5.2592847E2,1.1347974E3,1.1842148E1,9.232018E1,7.384281E2,1.8726268E3,1.9205153E3,8.065516E1,3.6523468E2,1.4907197E3,3.2582242E2,1.0017058E3,4.8147017E3,9.218973E2,1.1103025E3,1.5281895E2,1.1046239E2],"tree_param":{"num_deleted":"0","num_feature":"21","num_nodes":"45","size_leaf_vector":"1"}},{"base_weights":[1.3690774E-3,-1.0401441E-2,6.901822E-1,1.9537373E-2,-1.9146007E-1,7.5581443E-1,-3.9622033E-1,2.4625063E-3,2.7751714E-1,1.6838177E-1,-2.1681313E-1,3.16495E-1,9.0886724E-1,-4.4361636E-2,1.478001E-2,-5.5149887E-2,7.9165526E-2,3.7147698E-1,-1.576272E-2,-4.5983493E-1,2.7430266E-1,-3.6346976E-2,-2.454838E-1,-3.0073673E-2,4.098846E-1,9.4103205E-1,-1.4301685E-3,2.0255162E-3,-6.633673E-3,3.8280044E-2,2.897355E-3,1.7005324E-2,7.070906E-2,-1.267568E-2,1.4935801E-2,1.1417098E-2,-5.0376303E-2,2.3135254E-2,2.3650231E-3,-6.551591E-3,1.6113441E-2,-1.5620144E-2,-9.2434315E-3,8.430605E-3,3.5881788E-2,5.943477E-2,3.8845267E-2],"categories":[],"categories_nodes":[],"categories_segments":[],"categories_sizes":[],"default_left":[0,0,0,0,0,0,0,0,0,0,0,0,0,0,0,0,0,0,0,0,0,0,0,0,0,0,0,0,0,0,0,0,0,0,0,0,0,0,0,0,0,0,0,0,0,0,0],"id":5,"left_children":[1,3,5,7,9,11,13,15,17,19,21,23,25,-1,-1,27,29,31,33,35,37,39,41,-1,43,45,-1,-1,-1,-1,-1,-1,-1,-1,-1,-1,-1,-1,-1,-1,-1,-1,-1,-1,-1,-1,-1],"loss_changes":[1.43559E2,9.4236244E1,2.199115E1,6.550371E1,2.2602417E1,1.7751266E1,6.8759537E0,6.180437E1,2.563205E1,1.0951963E1,1.1776024E1,6.9716845E0,6.751297E0,0E0,0E0,5.9248196E1,8.691266E1,2.1078629E1,1.6925606E1,9.694683E0,5.7197094E0,1.0887107E1,7.6985474E0,0E0,4.6083536E0,5.327896E0,0E0,0E0,0E0,0E0,0E0,0E0,0E0,0E0,0E0,0E0,0E0,0E0,0E0,0E0,0E0,0E0,0E0,0E0,0E0,0E0,0E0],"parents":[2147483647,0,0,1,1,2,2,3,3,4,4,5,5,6,6,7,7,8,8,9,9,10,10,11,11,12,12,15,15,16,16,17,17,18,18,19,19,20,20,21,21,22,22,24,24,25,25],"right_children":[2,4,6,8,10,12,14,16,18,20,22,24,26,-1,-1,28,30,32,34,36,38,40,42,-1,44,46,-1,-1,-1,-1,-1,-1,-1,-1,-1,-1,-1,-1,-1,-1,-1,-1,-1,-1,-1,-1,-1],"split_conditions":[2.7693078E-2,1.4139869E0,2.8281198E0,7.11958E-1,-2.6709677E-3,7.56E4,5.7804E8,2.255101E-3,1.76471E-1,5.1872E-1,-4.05405E-2,1.72918E-1,2.7865632E0,-4.4361636E-2,1.478001E-2,-4.426431E-3,2.393344E-3,2.506041E-2,1.66028E-1,-6.371571E-1,2.2904685E0,-4.74281E-2,2.15348E-1,-3.0073673E-2,-5.60448E-2,-1.6763023E0,-1.4301685E-3,2.0255162E-3,-6.633673E-3,3.8280044E-2,2.897355E-3,1.7005324E-2,7.070906E-2,-1.267568E-2,1.4935801E-2,1.1417098E-2,-5.0376303E-2,2.3135254E-2,2.3650231E-3,-6.551591E-3,1.6113441E-2,-1.5620144E-2,-9.2434315E-3,8.430605E-3,3.5881788E-2,5.943477E-2,3.8845267E-2],"split_indices":[15,9,10,1,7,18,16,15,6,2,5,2,9,0,0,15,15,15,5,8,9,5,1,0,0,10,0,0,0,0,0,0,0,0,0,0,0,0,0,0,0,0,0,0,0,0,0],"split_type":[0,0,0,0,0,0,0,0,0,0,0,0,0,0,0,0,0,0,0,0,0,0,0,0,0,0,0,0,0,0,0,0,0,0,0,0,0,0,0,0,0,0,0,0,0,0,0],"sum_hessian":[1.7660838E4,1.736534E4,2.95497E2,1.4900502E4,2.4648384E3,2.796703E2,1.5826728E1,1.3979219E4,9.212831E2,1.6019199E2,2.3046465E3,7.4688545E1,2.0498174E2,9.349107E0,6.4776216E0,7.97966E3,5.999558E3,6.986303E2,2.2265282E2,2.146716E1,1.3872482E2,3.189576E2,1.9856888E3,5.3976583E0,6.9290886E1,1.9869038E2,6.29136E0,3.5695364E3,4.410124E3,1.7708154E2,5.8224766E3,6.812658E2,1.7364492E1,1.2792053E2,9.473229E1,9.625681E0,1.1841479E1,7.346918E1,6.525565E1,2.5444131E2,6.451631E1,9.359001E2,1.0497887E3,4.148651E1,2.7804375E1,7.300141E1,1.25688965E2],"tree_param":{"num_deleted":"0","num_feature":"21","num_nodes":"47","size_leaf_vector":"1"}},{"base_weights":[-8.6319604E-4,-1.1905717E-2,6.489866E-1,7.076643E-2,-7.1485884E-2,8.0381584E-1,2.640609E-1,-1.0081599E-1,1.3962778E-1,4.656388E-2,-1.0565891E-1,1.7886077E-1,8.83375E-1,5.138972E-1,-5.627941E-1,-1.9155158E-1,2.5914565E-2,1.0127133E0,1.3321424E-1,-1.7348963E-1,1.10779464E-1,-1.2379084E-1,1.3738829E-1,-3.720324E-1,7.063589E-1,9.205787E-1,-1.13860695E-2,7.507818E-2,8.790039E-1,3.7937015E-3,-8.0606955E-1,-2.321416E-2,-6.915498E-3,-3.0793634E-3,1.6851956E-2,1.4441766E-2,6.098474E-2,4.9904943E-3,1.3575057E-2,-1.7298548E-2,5.1016933E-3,8.714422E-3,-4.3912656E-3,8.483639E-4,-7.7372664E-3,3.0584395E-2,3.8563688E-3,-3.1577703E-2,-0E0,4.567714E-3,5.234511E-2,2.7634496E-2,5.2352082E-2,2.091273E-2,-2.9799268E-2,5.0684097E-3,5.806091E-2,-9.80085E-3,-5.3315468E-2],"categories":[],"categories_nodes":[],"categories_segments":[],"categories_sizes":[],"default_left":[0,0,0,0,0,0,0,0,0,0,0,0,0,0,0,0,0,0,0,0,0,0,0,0,0,0,0,0,0,0,0,0,0,0,0,0,0,0,0,0,0,0,0,0,0,0,0,0,0,0,0,0,0,0,0,0,0,0,0],"id":6,"left_children":[1,3,5,7,9,11,13,15,17,19,21,23,25,27,29,31,33,35,37,39,41,43,45,47,49,51,-1,53,55,-1,57,-1,-1,-1,-1,-1,-1,-1,-1,-1,-1,-1,-1,-1,-1,-1,-1,-1,-1,-1,-1,-1,-1,-1,-1,-1,-1,-1,-1],"loss_changes":[1.2634774E2,8.550495E1,1.6573547E1,8.59129E1,4.0751137E1,9.489059E0,1.8792463E1,2.401483E1,2.8212738E1,3.1994562E1,3.4534233E1,8.449692E0,8.338242E0,1.04958E1,3.7466178E0,1.7211327E1,2.3795353E1,4.0799294E0,2.3568024E1,2.4446945E1,2.2213577E1,3.1835472E1,1.50706005E1,1.5085839E0,2.3371153E0,6.3281555E0,0E0,8.3057375E0,7.25873E0,0E0,1.4797707E0,0E0,0E0,0E0,0E0,0E0,0E0,0E0,0E0,0E0,0E0,0E0,0E0,0E0,0E0,0E0,0E0,0E0,0E0,0E0,0E0,0E0,0E0,0E0,0E0,0E0,0E0,0E0,0E0],"parents":[2147483647,0,0,1,1,2,2,3,3,4,4,5,5,6,6,7,7,8,8,9,9,10,10,11,11,12,12,13,13,14,14,15,15,16,16,17,17,18,18,19,19,20,20,21,21,22,22,23,23,24,24,25,25,27,27,28,28,30,30],"right_children":[2,4,6,8,10,12,14,16,18,20,22,24,26,28,30,32,34,36,38,40,42,44,46,48,50,52,-1,54,56,-1,58,-1,-1,-1,-1,-1,-1,-1,-1,-1,-1,-1,-1,-1,-1,-1,-1,-1,-1,-1,-1,-1,-1,-1,-1,-1,-1,-1,-1],"split_conditions":[2.7693078E-2,-7.0128393E-1,3.6550853E-2,2.703E5,-4.72222E-2,8.2E3,1.02827795E-1,4.8E6,1.3445122E-2,1.45365E8,1.27659E-1,9.82E5,2.8895483E0,-2.161407E-1,-1.223112E0,-1.377535E0,5.6798622E-2,-4.6555963E-4,5.78293E-2,-3.44135E-2,1.7679E6,-6.2856833E-3,3.021526E-1,-1.9789706E-3,-1.4798837E0,2.9311841E-2,-1.13860695E-2,3.46328E-2,3.6313463E-2,3.7937015E-3,4.35812E-2,-2.321416E-2,-6.915498E-3,-3.0793634E-3,1.6851956E-2,1.4441766E-2,6.098474E-2,4.9904943E-3,1.3575057E-2,-1.7298548E-2,5.1016933E-3,8.714422E-3,-4.3912656E-3,8.483639E-4,-7.7372664E-3,3.0584395E-2,3.8563688E-3,-3.1577703E-2,-0E0,4.567714E-3,5.234511E-2,2.7634496E-2,5.2352082E-2,2.091273E-2,-2.9799268E-2,5.0684097E-3,5.806091E-2,-9.80085E-3,-5.3315468E-2],"split_indices":[15,9,15,17,6,17,12,20,13,19,5,19,9,12,9,9,13,7,4,5,17,15,11,7,11,15,0,3,14,0,3,0,0,0,0,0,0,0,0,0,0,0,0,0,0,0,0,0,0,0,0,0,0,0,0,0,0,0,0],"split_type":[0,0,0,0,0,0,0,0,0,0,0,0,0,0,0,0,0,0,0,0,0,0,0,0,0,0,0,0,0,0,0,0,0,0,0,0,0,0,0,0,0,0,0,0,0,0,0,0,0,0,0,0,0,0,0,0,0,0,0],"sum_hessian":[1.7647273E4,1.73551E4,2.9217236E2,7.2652417E3,1.0089859E4,2.0588396E2,8.628842E1,2.0783672E3,5.186874E3,2.2616602E3,7.8281987E3,2.4693329E1,1.8119063E2,6.7311714E1,1.8976711E1,1.2128922E3,8.6547504E2,3.496726E1,5.1519067E3,5.0837497E2,1.7532853E3,7.2875664E3,5.406322E2,1.1903486E1,1.2789843E1,1.760875E2,5.1031294E0,3.2286976E1,3.502474E1,5.0472293E0,1.3929482E1,1.9404742E2,1.0188448E3,6.754937E2,1.8998135E2,9.377576E0,2.5589682E1,4.1552344E3,9.966724E2,3.1345276E2,1.949222E2,1.3305654E3,4.227199E2,1.3109744E3,5.9765923E3,5.794691E1,4.8268527E2,6.6068654E0,5.2966213E0,5.985351E0,6.804491E0,4.880502E1,1.2728247E2,2.2353912E1,9.9330635E0,1.052191E1,2.4502829E1,5.7883077E0,8.141175E0],"tree_param":{"num_deleted":"0","num_feature":"21","num_nodes":"59","size_leaf_vector":"1"}},{"base_weights":[-4.0425346E-3,-1.4922611E-2,6.3767743E-1,-7.71986E-2,6.5093055E-2,7.090187E-1,-4.558254E-1,-1.3419612E-1,-6.863835E-4,1.4757094E-1,-1.802616E-2,1.2725635E-1,8.6133975E-1,-9.337523E-1,2.2366675E-2,-9.0783074E-2,-3.7997735E-1,4.7947937E-1,-2.302661E-2,1.1710568E-1,4.2257518E-1,2.6224834E-1,-4.4669308E-2,-9.756623E-2,4.9099993E-2,9.074964E-1,-1.4377591E-2,-1.3394912E-2,-6.573478E-2,-5.534476E-3,4.087122E-2,-3.700876E-2,-9.616533E-3,4.0914144E-2,7.7116126E-3,1.08145585E-4,-1.8554552E-2,-5.3925714E-3,8.6049205E-3,3.9032217E-2,1.6011393E-2,6.2198984E-3,4.1102055E-2,-1.6618896E-2,-1.1167391E-3,2.0434638E-2,-1.5653562E-2,4.7309577E-2,-1.1273077E-3],"categories":[],"categories_nodes":[],"categories_segments":[],"categories_sizes":[],"default_left":[0,0,0,0,0,0,0,0,0,0,0,0,0,0,0,0,0,0,0,0,0,0,0,0,0,0,0,0,0,0,0,0,0,0,0,0,0,0,0,0,0,0,0,0,0,0,0,0,0],"id":7,"left_children":[1,3,5,7,9,11,13,15,17,19,21,23,25,27,-1,29,31,33,35,37,39,41,43,45,-1,47,-1,-1,-1,-1,-1,-1,-1,-1,-1,-1,-1,-1,-1,-1,-1,-1,-1,-1,-1,-1,-1,-1,-1],"loss_changes":[1.2304414E2,8.658785E1,2.3691956E1,4.2556904E1,5.2180195E1,2.383342E1,9.185443E0,5.9422333E1,4.4616066E1,3.162339E1,2.817612E1,1.2261089E1,1.2418777E1,1.8758049E0,0E0,8.591406E1,5.5885002E1,1.9631985E1,3.5217644E1,4.2651863E1,1.2818138E1,2.4571732E1,2.2037636E1,5.582627E0,0E0,8.096588E0,0E0,0E0,0E0,0E0,0E0,0E0,0E0,0E0,0E0,0E0,0E0,0E0,0E0,0E0,0E0,0E0,0E0,0E0,0E0,0E0,0E0,0E0,0E0],"parents":[2147483647,0,0,1,1,2,2,3,3,4,4,5,5,6,6,7,7,8,8,9,9,10,10,11,11,12,12,13,13,15,15,16,16,17,17,18,18,19,19,20,20,21,21,22,22,23,23,25,25],"right_children":[2,4,6,8,10,12,14,16,18,20,22,24,26,28,-1,30,32,34,36,38,40,42,44,46,-1,48,-1,-1,-1,-1,-1,-1,-1,-1,-1,-1,-1,-1,-1,-1,-1,-1,-1,-1,-1,-1,-1,-1,-1],"split_conditions":[2.7693078E-2,3.71698E-1,2.8741434E0,2.255101E-3,-7.2590363E-1,1.83E4,2.9527E6,6.524786E-4,2.461149E-3,7.71991E-1,-1.8253526E-2,7.11958E-1,2.8895483E0,6.844648E-1,2.2366675E-2,5.714648E-4,1.0855043E-3,-1.88842E-3,1.6867293E-2,-4.310161E-3,-5.7334E8,-2.1088084E-2,-1.2474436E-2,3.37557E-1,4.9099993E-2,7.803771E-1,-1.4377591E-2,-1.3394912E-2,-6.573478E-2,-5.534476E-3,4.087122E-2,-3.700876E-2,-9.616533E-3,4.0914144E-2,7.7116126E-3,1.08145585E-4,-1.8554552E-2,-5.3925714E-3,8.6049205E-3,3.9032217E-2,1.6011393E-2,6.2198984E-3,4.1102055E-2,-1.6618896E-2,-1.1167391E-3,2.0434638E-2,-1.5653562E-2,4.7309577E-2,-1.1273077E-3],"split_indices":[15,1,10,15,9,18,18,15,15,1,15,1,9,12,0,15,15,5,15,7,16,15,15,1,0,11,0,0,0,0,0,0,0,0,0,0,0,0,0,0,0,0,0,0,0,0,0,0,0],"split_type":[0,0,0,0,0,0,0,0,0,0,0,0,0,0,0,0,0,0,0,0,0,0,0,0,0,0,0,0,0,0,0,0,0,0,0,0,0,0,0,0,0,0,0,0,0,0,0,0,0],"sum_hessian":[1.7663016E4,1.7371229E4,2.9178876E2,9.772014E3,7.5992144E3,2.7500748E2,1.6781305E1,5.5955703E3,4.1764434E3,3.8165635E3,3.7826506E3,5.8506413E1,2.1650105E2,1.1291839E1,5.489466E0,4.7596353E3,8.359349E2,1.8286034E2,3.993583E3,3.440132E3,3.7643152E2,3.2520288E2,3.4574478E3,4.7261887E1,1.1244525E1,2.0896146E2,7.5395904E0,5.8265653E0,5.4652734E0,4.6598066E3,9.9828674E1,2.833931E2,5.525418E2,8.732577E1,9.553457E1,3.7245847E3,2.6899823E2,6.7360815E2,2.766524E3,7.964566E1,2.9678586E2,2.6362274E2,6.1580143E1,2.4545091E2,3.2119968E3,1.2883432E1,3.4378456E1,2.0109753E2,7.863934E0],"tree_param":{"num_deleted":"0","num_feature":"21","num_nodes":"49","size_leaf_vector":"1"}},{"base_weights":[2.0233204E-3,-8.183558E-3,6.0505575E-1,-6.369834E-2,6.669164E-2,7.551672E-1,2.3966534E-1,-2.5438797E-1,-3.7940048E-2,1.1981054E-1,-6.7637384E-2,5.06725E-2,8.587185E-1,6.4181626E-1,-1.599064E-1,-5.283299E-1,-1.7894837E-1,4.231126E-2,-1.071733E-1,-2.985878E-2,1.704162E-1,2.354652E-1,-9.789668E-2,-3.0384779E-2,3.48283E-1,8.9796835E-1,-1.020374E-2,2.0800273E-1,1.125976E0,3.3754475E-2,-5.871112E-1,-6.6959257E-3,-3.4091648E-2,-4.1847166E-2,-7.0511024E-3,4.7174776E-3,-4.581499E-3,-5.780913E-3,2.914975E-2,-1.4728072E-2,1.5264996E-3,7.0768557E-3,2.8039489E-2,3.785761E-3,4.3538634E-2,4.9488135E-3,-7.5835288E-3,-2.0338556E-2,3.2690734E-2,2.770721E-2,5.08358E-2,-2.316452E-2,2.2865465E-2,6.6413514E-2,1.8476808E-2,-5.6310664E-3,2.9354796E-2,-4.4743985E-2,-2.2663034E-3],"categories":[],"categories_nodes":[],"categories_segments":[],"categories_sizes":[],"default_left":[0,0,0,0,0,0,0,0,0,0,0,0,0,0,0,0,0,0,0,0,0,0,0,0,0,0,0,0,0,0,0,0,0,0,0,0,0,0,0,0,0,0,0,0,0,0,0,0,0,0,0,0,0,0,0,0,0,0,0],"id":8,"left_children":[1,3,5,7,9,11,13,15,17,19,21,23,25,27,29,31,33,35,37,39,41,43,45,-1,47,49,-1,51,53,55,57,-1,-1,-1,-1,-1,-1,-1,-1,-1,-1,-1,-1,-1,-1,-1,-1,-1,-1,-1,-1,-1,-1,-1,-1,-1,-1,-1,-1],"loss_changes":[1.0920671E2,7.232959E1,1.5338615E1,4.8933952E1,5.2879913E1,1.4590126E1,1.4891277E1,2.3986351E1,4.8997116E1,4.029866E1,1.921061E1,6.0395713E0,8.226135E0,8.48955E0,4.127777E0,1.4777184E1,2.2610594E1,2.8449383E1,2.7494377E1,2.1584846E1,4.425798E1,1.862075E1,2.0272556E1,0E0,5.7284784E0,5.212616E0,0E0,4.967391E0,1.3306046E0,3.0249581E0,1.997313E0,0E0,0E0,0E0,0E0,0E0,0E0,0E0,0E0,0E0,0E0,0E0,0E0,0E0,0E0,0E0,0E0,0E0,0E0,0E0,0E0,0E0,0E0,0E0,0E0,0E0,0E0,0E0,0E0],"parents":[2147483647,0,0,1,1,2,2,3,3,4,4,5,5,6,6,7,7,8,8,9,9,10,10,11,11,12,12,13,13,14,14,15,15,16,16,17,17,18,18,19,19,20,20,21,21,22,22,24,24,25,25,27,27,28,28,29,29,30,30],"right_children":[2,4,6,8,10,12,14,16,18,20,22,24,26,28,30,32,34,36,38,40,42,44,46,-1,48,50,-1,52,54,56,58,-1,-1,-1,-1,-1,-1,-1,-1,-1,-1,-1,-1,-1,-1,-1,-1,-1,-1,-1,-1,-1,-1,-1,-1,-1,-1,-1,-1],"split_conditions":[2.7693078E-2,3.77532E-1,3.6550853E-2,5.1E3,-3.3504394E-1,8.2E3,-4.45437E-3,-4.9309042E-1,-1.12851E-3,1.112E7,-1.8253526E-2,4.42511E-1,3.006992E0,-1.8101327E-1,3.1835474E9,-1.3097402E0,-1.377535E0,1.0563322E0,7.011192E-3,-1.32801E-1,7.84602E-1,-2.1088084E-2,-1.3528599E-1,-3.0384779E-2,-9.996777E-1,2.9311841E-2,-1.020374E-2,5.1120434E-2,-5.367516E-1,4.5061E6,2.265958E10,-6.6959257E-3,-3.4091648E-2,-4.1847166E-2,-7.0511024E-3,4.7174776E-3,-4.581499E-3,-5.780913E-3,2.914975E-2,-1.4728072E-2,1.5264996E-3,7.0768557E-3,2.8039489E-2,3.785761E-3,4.3538634E-2,4.9488135E-3,-7.5835288E-3,-2.0338556E-2,3.2690734E-2,2.770721E-2,5.08358E-2,-2.316452E-2,2.2865465E-2,6.6413514E-2,1.8476808E-2,-5.6310664E-3,2.9354796E-2,-4.4743985E-2,-2.2663034E-3],"split_indices":[15,1,15,17,9,17,5,11,5,20,15,2,9,12,19,11,9,9,7,0,1,15,12,0,9,15,0,13,9,17,20,0,0,0,0,0,0,0,0,0,0,0,0,0,0,0,0,0,0,0,0,0,0,0,0,0,0,0,0],"split_type":[0,0,0,0,0,0,0,0,0,0,0,0,0,0,0,0,0,0,0,0,0,0,0,0,0,0,0,0,0,0,0,0,0,0,0,0,0,0,0,0,0,0,0,0,0,0,0,0,0,0,0,0,0,0,0,0,0,0,0],"sum_hessian":[1.7690443E4,1.7397125E4,2.933186E2,9.994139E3,7.4029863E3,2.0542363E2,8.789499E1,1.1849254E3,8.809214E3,5.307954E3,2.0950325E3,2.7325602E1,1.7809802E2,4.3825462E1,4.406953E1,2.5182935E2,9.3309607E2,4.076972E3,4.7322417E3,1.3389293E3,3.9690247E3,1.874353E2,1.907597E3,7.335118E0,1.9990484E1,1.725078E2,5.590222E0,2.5167234E1,1.8658228E1,3.0785427E1,1.3284102E1,7.251392E1,1.7931543E2,4.783713E1,8.852589E2,2.9393228E3,1.1376492E3,4.677398E3,5.4843628E1,2.4881601E2,1.0901133E3,3.699359E3,2.6966562E2,1.5219164E2,3.5243668E1,4.0690125E2,1.5006958E3,5.0964737E0,1.489401E1,4.8275047E1,1.2423275E2,5.8075066E0,1.9359728E1,1.30069065E1,5.651321E0,2.4890472E1,5.894954E0,7.051868E0,6.232235E0],"tree_param":{"num_deleted":"0","num_feature":"21","num_nodes":"59","size_leaf_vector":"1"}},{"base_weights":[-5.5771956E-4,-1.057765E-2,6.0090715E-1,-3.0034402E-2,2.0115349E-1,7.604418E-1,2.2236885E-1,-1.5735516E-1,8.3015114E-4,1.7446452E-1,1.0522369E0,1.846277E-2,8.665559E-1,6.9237065E-1,-2.1798319E-1,-4.1649663E-1,-1.0351765E-1,7.961832E-2,-4.9528185E-2,6.106167E-1,1.352974E-1,3.93768E-1,6.904381E-2,2.9639676E-1,-2.012924E-2,9.109908E-1,-1.265712E-2,1.6548428E-1,1.1235188E0,-4.0675613E-1,2.7148306E-1,-1.6626244E-2,-6.327951E-2,-3.9085798E-2,-4.4656303E-3,4.827108E-3,-1.906499E-2,5.415709E-3,-4.4252495E-3,3.5147358E-2,-5.1513608E-3,-5.3107794E-2,8.01631E-3,-6.9180615E-3,3.768144E-2,-3.807103E-4,3.6724716E-2,3.736646E-2,5.855873E-2,4.0659584E-2,-9.710313E-3,6.295141E-2,1.966926E-2,6.2468676E-3,-3.175531E-2,-0E0,2.3572108E-2],"categories":[],"categories_nodes":[],"categories_segments":[],"categories_sizes":[],"default_left":[0,0,0,0,0,0,0,0,0,0,0,0,0,0,0,0,0,0,0,0,0,0,0,0,0,0,0,0,0,0,0,0,0,0,0,0,0,0,0,0,0,0,0,0,0,0,0,0,0,0,0,0,0,0,0,0,0],"id":9,"left_children":[1,3,5,7,9,11,13,15,17,19,21,23,25,27,29,31,33,35,37,39,41,43,-1,45,-1,47,-1,49,51,53,55,-1,-1,-1,-1,-1,-1,-1,-1,-1,-1,-1,-1,-1,-1,-1,-1,-1,-1,-1,-1,-1,-1,-1,-1,-1,-1],"loss_changes":[1.0628258E2,7.1588524E1,1.6620926E1,6.269939E1,3.2230198E1,1.5393036E1,1.9048325E1,4.3076614E1,5.0907448E1,2.372971E1,7.4359818E0,3.4445417E0,9.531021E0,9.044258E0,4.644495E0,3.6371086E1,2.4292501E1,3.8976395E1,4.8128086E1,8.051197E0,3.9066395E1,3.92148E0,0E0,2.8575845E0,0E0,4.522461E0,0E0,5.936747E0,5.0725174E-1,4.731226E0,7.587949E-1,0E0,0E0,0E0,0E0,0E0,0E0,0E0,0E0,0E0,0E0,0E0,0E0,0E0,0E0,0E0,0E0,0E0,0E0,0E0,0E0,0E0,0E0,0E0,0E0,0E0,0E0],"parents":[2147483647,0,0,1,1,2,2,3,3,4,4,5,5,6,6,7,7,8,8,9,9,10,10,11,11,12,12,13,13,14,14,15,15,16,16,17,17,18,18,19,19,20,20,21,21,23,23,25,25,27,27,28,28,29,29,30,30],"right_children":[2,4,6,8,10,12,14,16,18,20,22,24,26,28,30,32,34,36,38,40,42,44,-1,46,-1,48,-1,50,52,54,56,-1,-1,-1,-1,-1,-1,-1,-1,-1,-1,-1,-1,-1,-1,-1,-1,-1,-1,-1,-1,-1,-1,-1,-1,-1,-1],"split_conditions":[2.7693078E-2,6.53334E-1,3.6550853E-2,6.42E4,2.0259121E-2,3.4E3,2.90791E-2,-9.205633E-3,-7.188733E-1,-2.4042618E-2,2.80934E-2,2E2,3.006992E0,1.62E4,4.056052E6,-9.671799E-3,-1.3985137E0,1.6867293E-2,-6.2856833E-3,4.0447335E-3,-2.1762531E-2,7.373272E-2,6.904381E-2,-4.3371713E-1,-2.012924E-2,0E0,-1.265712E-2,-1.35136E-2,-5.1151916E-2,-1.1524858E0,1.27659E-1,-1.6626244E-2,-6.327951E-2,-3.9085798E-2,-4.4656303E-3,4.827108E-3,-1.906499E-2,5.415709E-3,-4.4252495E-3,3.5147358E-2,-5.1513608E-3,-5.3107794E-2,8.01631E-3,-6.9180615E-3,3.768144E-2,-3.807103E-4,3.6724716E-2,3.736646E-2,5.855873E-2,4.0659584E-2,-9.710313E-3,6.295141E-2,1.966926E-2,6.2468676E-3,-3.175531E-2,-0E0,2.3572108E-2],"split_indices":[15,1,15,18,15,18,4,15,9,15,5,17,9,17,17,15,9,15,15,7,15,13,0,9,0,7,0,3,9,9,5,0,0,0,0,0,0,0,0,0,0,0,0,0,0,0,0,0,0,0,0,0,0,0,0,0,0],"split_type":[0,0,0,0,0,0,0,0,0,0,0,0,0,0,0,0,0,0,0,0,0,0,0,0,0,0,0,0,0,0,0,0,0,0,0,0,0,0,0,0,0,0,0,0,0,0,0,0,0,0,0,0,0,0,0,0,0],"sum_hessian":[1.7680342E4,1.7393377E4,2.869638E2,1.5933287E4,1.4600905E3,1.995324E2,8.74314E1,3.1104075E3,1.2822879E4,1.4186022E3,4.1488213E1,2.5849005E1,1.736834E2,4.2287464E1,4.514393E1,5.3112604E2,2.5792815E3,5.003468E3,7.8194116E3,1.13438835E2,1.3051633E3,1.5782944E1,2.5705269E1,1.664273E1,9.206275E0,1.67842E2,5.841404E0,2.0798235E1,2.148923E1,3.356021E1,1.1583719E1,4.8639566E2,4.473036E1,4.997635E1,2.5293052E3,4.82883E3,1.7463744E2,1.545261E3,6.2741504E3,1.0109046E2,1.2348367E1,2.4615824E1,1.2805476E3,6.303504E0,9.47944E0,1.0311303E1,6.331427E0,1.0896614E2,5.8875854E1,7.021978E0,1.3776257E1,1.6325691E1,5.1635385E0,9.6972065E0,2.3863003E1,5.66518E0,5.918539E0],"tree_param":{"num_deleted":"0","num_feature":"21","num_nodes":"57","size_leaf_vector":"1"}},{"base_weights":[-2.6498288E-3,-1.2187843E-2,5.726582E-1,-6.610521E-2,5.7052217E-2,7.306863E-1,1.9234392E-1,-3.0360922E-1,-4.6494853E-2,1.01379864E-1,-5.67401E-2,-1.3007969E-2,7.8322214E-1,5.720689E-1,-3.2414794E-1,-6.221789E-1,-1.8900105E-1,-4.2743757E-2,-1.2018274E0,-8.8322006E-2,1.5287931E-1,2.791662E-1,-1.1117391E-1,-3.863002E-2,3.5068132E-2,5.2278066E-1,8.98695E-1,3.2522254E-2,8.0738527E-1,-5.5006564E-1,1.9345483E-2,-4.82064E-2,-1.7890573E-2,6.6866777E-3,-1.3960286E-2,-4.4277906E-3,2.4366376E-3,-1.6552543E-2,-7.0432775E-2,6.160601E-3,-1.3139899E-2,-3.6559743E-3,9.888435E-3,3.3699322E-2,8.550347E-3,-7.7724867E-3,5.2887746E-3,5.0722636E-2,1.6246367E-2,5.3256024E-2,2.9618269E-2,-2.908194E-2,4.7628485E-2,4.8979204E-2,1.1677126E-2,-9.01847E-3,-4.718774E-2],"categories":[],"categories_nodes":[],"categories_segments":[],"categories_sizes":[],"default_left":[0,0,0,0,0,0,0,0,0,0,0,0,0,0,0,0,0,0,0,0,0,0,0,0,0,0,0,0,0,0,0,0,0,0,0,0,0,0,0,0,0,0,0,0,0,0,0,0,0,0,0,0,0,0,0,0,0],"id":10,"left_children":[1,3,5,7,9,11,13,15,17,19,21,23,25,27,29,31,33,35,37,39,41,43,45,-1,-1,47,49,51,53,55,-1,-1,-1,-1,-1,-1,-1,-1,-1,-1,-1,-1,-1,-1,-1,-1,-1,-1,-1,-1,-1,-1,-1,-1,-1,-1,-1],"loss_changes":[9.6533066E1,6.480526E1,1.6499031E1,4.5266033E1,3.8345245E1,8.259628E0,1.7725555E1,2.6460762E1,3.8375183E1,5.3497154E1,3.8876488E1,9.043461E0,4.0161896E0,6.118597E0,6.6024227E0,1.6219688E1,1.6156935E1,3.772638E1,3.365139E0,4.320845E1,4.376291E1,1.1985361E1,1.7668879E1,0E0,0E0,4.895994E0,4.354965E0,1.1744022E1,2.435751E0,3.4862604E0,0E0,0E0,0E0,0E0,0E0,0E0,0E0,0E0,0E0,0E0,0E0,0E0,0E0,0E0,0E0,0E0,0E0,0E0,0E0,0E0,0E0,0E0,0E0,0E0,0E0,0E0,0E0],"parents":[2147483647,0,0,1,1,2,2,3,3,4,4,5,5,6,6,7,7,8,8,9,9,10,10,11,11,12,12,13,13,14,14,15,15,16,16,17,17,18,18,19,19,20,20,21,21,22,22,25,25,26,26,27,27,28,28,29,29],"right_children":[2,4,6,8,10,12,14,16,18,20,22,24,26,28,30,32,34,36,38,40,42,44,46,-1,-1,48,50,52,54,56,-1,-1,-1,-1,-1,-1,-1,-1,-1,-1,-1,-1,-1,-1,-1,-1,-1,-1,-1,-1,-1,-1,-1,-1,-1,-1,-1],"split_conditions":[2.7693078E-2,3.71698E-1,3.6550853E-2,2E2,5.425485E-1,4.07264E-1,5.54662E-2,-5.7347813E-3,2.506041E-2,-1.32801E-1,-4.01351E-2,4.40403E-1,2.9311841E-2,1.4E3,3.1637E6,-3.4239806E-2,-1.1205423E-3,3.987135E-3,1.694E5,-4.15392E-3,-5.47696E-2,-1.7798377E-2,1.11434E-1,-3.863002E-2,3.5068132E-2,-2.6227868E0,3.7671512E-1,6.87341E-1,2.90791E-2,6.18997E-2,1.9345483E-2,-4.82064E-2,-1.7890573E-2,6.6866777E-3,-1.3960286E-2,-4.4277906E-3,2.4366376E-3,-1.6552543E-2,-7.0432775E-2,6.160601E-3,-1.3139899E-2,-3.6559743E-3,9.888435E-3,3.3699322E-2,8.550347E-3,-7.7724867E-3,5.2887746E-3,5.0722636E-2,1.6246367E-2,5.3256024E-2,2.9618269E-2,-2.908194E-2,4.7628485E-2,4.8979204E-2,1.1677126E-2,-9.01847E-3,-4.718774E-2],"split_indices":[15,1,15,18,11,2,4,15,15,0,3,1,15,18,18,12,15,15,17,15,4,15,4,0,0,10,8,1,4,6,0,0,0,0,0,0,0,0,0,0,0,0,0,0,0,0,0,0,0,0,0,0,0,0,0,0,0],"split_type":[0,0,0,0,0,0,0,0,0,0,0,0,0,0,0,0,0,0,0,0,0,0,0,0,0,0,0,0,0,0,0,0,0,0,0,0,0,0,0,0,0,0,0,0,0,0,0,0,0,0,0,0,0,0,0,0,0],"sum_hessian":[1.7638625E4,1.7353746E4,2.848805E2,9.7605205E3,7.5932246E3,1.990246E2,8.585589E1,7.402904E2,9.02023E3,5.4678447E3,2.1253796E3,1.2603116E1,1.864215E2,4.991282E1,3.5943066E1,1.923648E2,5.479256E2,8.993537E3,2.669315E1,1.1650737E3,4.302771E3,2.939566E2,1.8314231E3,6.3684335E0,6.2346826E0,6.1990536E1,1.24430954E2,1.6494501E1,3.341832E1,2.8153969E1,7.789096E0,8.0742455E1,1.1162236E2,1.182701E2,4.2965546E2,5.9961533E3,2.997384E3,6.585582E0,2.0107569E1,5.2558203E2,6.3949176E2,7.1096594E2,3.5918052E3,5.99676E1,2.33989E2,1.5233948E3,3.0802832E2,1.4693926E1,4.729661E1,7.635942E1,4.8071526E1,1.0006815E1,6.4876866E0,2.3946892E1,9.471427E0,1.6678377E1,1.1475592E1],"tree_param":{"num_deleted":"0","num_feature":"21","num_nodes":"57","size_leaf_vector":"1"}},{"base_weights":[-1.2557077E-3,-1.3149542E-2,3.3399084E-1,-1.4458105E-1,1.5402973E-2,4.6662432E-1,6.507531E-2,-1.8966855E-1,8.553695E-2,4.5322496E-2,-1.2844345E-1,7.534944E-1,3.300062E-1,-9.587316E-3,5.2624192E-2,-1.4701971E-1,-4.7805834E-1,4.9394473E-1,-8.237227E-2,-1.3827235E-1,6.1402682E-2,1.3487253E-1,-1.5656774E-1,3.5408485E-1,9.8799485E-1,1.4547864E-1,5.8433044E-1,3.0734554E-1,-2.2316006E-1,-2.9495088E-2,-6.36551E-3,-1.2591207E-2,-3.266601E-2,3.600333E-2,-8.869468E-3,6.3166628E-3,-1.25979325E-2,2.073772E-2,-1.0156822E-2,6.4894753E-3,-1.1914248E-4,1.3736509E-2,-3.6284998E-3,2.620521E-2,-8.337915E-3,-0E0,4.134522E-2,6.874513E-2,3.83168E-2,1.0923975E-2,-3.6729842E-2,1.5621004E-2,3.9935097E-2,2.9028583E-2,-1.80853E-2,-2.0430235E-2,1.7362243E-2],"categories":[],"categories_nodes":[],"categories_segments":[],"categories_sizes":[],"default_left":[0,0,0,0,0,0,0,0,0,0,0,0,0,0,0,0,0,0,0,0,0,0,0,0,0,0,0,0,0,0,0,0,0,0,0,0,0,0,0,0,0,0,0,0,0,0,0,0,0,0,0,0,0,0,0,0,0],"id":11,"left_children":[1,3,5,7,9,11,13,15,17,19,21,23,25,27,-1,29,31,33,35,37,39,41,43,45,47,49,51,53,55,-1,-1,-1,-1,-1,-1,-1,-1,-1,-1,-1,-1,-1,-1,-1,-1,-1,-1,-1,-1,-1,-1,-1,-1,-1,-1,-1,-1],"loss_changes":[7.003262E1,6.387225E1,2.113469E1,3.1601727E1,6.007836E1,1.4692162E1,1.5456911E1,3.0817635E1,3.4384922E1,3.412378E1,1.7844212E1,1.0500992E1,1.2447823E1,1.292911E1,0E0,1.8863346E1,1.2110779E1,2.2693233E1,1.2627826E1,3.3406464E1,4.6469746E1,6.8484163E0,1.5070408E1,8.257172E0,3.5077667E0,1.0607169E1,5.620693E0,1.4464565E1,1.2518582E1,0E0,0E0,0E0,0E0,0E0,0E0,0E0,0E0,0E0,0E0,0E0,0E0,0E0,0E0,0E0,0E0,0E0,0E0,0E0,0E0,0E0,0E0,0E0,0E0,0E0,0E0,0E0,0E0],"parents":[2147483647,0,0,1,1,2,2,3,3,4,4,5,5,6,6,7,7,8,8,9,9,10,10,11,11,12,12,13,13,15,15,16,16,17,17,18,18,19,19,20,20,21,21,22,22,23,23,24,24,25,25,26,26,27,27,28,28],"right_children":[2,4,6,8,10,12,14,16,18,20,22,24,26,28,-1,30,32,34,36,38,40,42,44,46,48,50,52,54,56,-1,-1,-1,-1,-1,-1,-1,-1,-1,-1,-1,-1,-1,-1,-1,-1,-1,-1,-1,-1,-1,-1,-1,-1,-1,-1,-1,-1],"split_conditions":[7.71991E-1,4.08E4,7.10552E-2,5.29664E-1,1.0563322E0,-1.1802902E0,1.85628E-1,4.9342375E-2,-3.490678E-1,-1.23968E-1,-3.56345E-2,1.84E6,-1.84769E-2,7.643E5,5.2624192E-2,-1.377535E0,-1.61901E-2,5E2,4.0478032E-2,-3.05555E-1,1.02747E-2,6.871E5,-1.3001E-1,-1.47911E-1,-1.2098855E0,5.837528E-3,9.41079E-1,6.157238E-1,2.68178E-1,-2.9495088E-2,-6.36551E-3,-1.2591207E-2,-3.266601E-2,3.600333E-2,-8.869468E-3,6.3166628E-3,-1.25979325E-2,2.073772E-2,-1.0156822E-2,6.4894753E-3,-1.1914248E-4,1.3736509E-2,-3.6284998E-3,2.620521E-2,-8.337915E-3,-0E0,4.134522E-2,6.874513E-2,3.83168E-2,1.0923975E-2,-3.6729842E-2,1.5621004E-2,3.9935097E-2,2.9028583E-2,-1.80853E-2,-2.0430235E-2,1.7362243E-2],"split_indices":[1,18,6,1,9,9,3,14,12,0,3,19,5,17,0,9,3,17,14,6,5,17,6,0,11,7,2,12,5,0,0,0,0,0,0,0,0,0,0,0,0,0,0,0,0,0,0,0,0,0,0,0,0,0,0,0,0],"split_type":[0,0,0,0,0,0,0,0,0,0,0,0,0,0,0,0,0,0,0,0,0,0,0,0,0,0,0,0,0,0,0,0,0,0,0,0,0,0,0,0,0,0,0,0,0,0,0,0,0,0,0,0,0,0,0,0,0],"sum_hessian":[1.7599656E4,1.6999947E4,5.99709E2,3.035673E3,1.3964274E4,3.9939243E2,2.0031653E2,2.540443E3,4.9523004E2,1.1563877E4,2.4003977E3,1.24750824E2,2.746416E2,1.8760504E2,1.2711498E1,2.21729E3,3.2315298E2,1.4402077E2,3.512093E2,9.275317E2,1.0636345E4,2.2919276E2,2.171205E3,4.8794464E1,7.595636E1,1.6212221E2,1.125194E2,7.423065E1,1.1337438E2,9.092539E1,2.1263647E3,1.4443619E2,1.7871678E2,1.08182014E2,3.583875E1,1.5635231E2,1.9485696E2,9.54274E1,8.3210425E2,5.135816E3,5.500529E3,1.379491E2,9.124365E1,2.981486E1,2.1413901E3,2.9404867E1,1.9389595E1,2.3054022E1,5.2902336E1,1.5161742E2,1.0504791E1,5.2797646E1,5.9721752E1,5.3424904E1,2.0805746E1,8.664807E1,2.672631E1],"tree_param":{"num_deleted":"0","num_feature":"21","num_nodes":"57","size_leaf_vector":"1"}},{"base_weights":[4.057727E-3,-3.0660992E-2,1.4382707E-1,-9.325799E-2,5.1527686E-2,1.8629406E-1,-2.230428E-1,-6.0106076E-2,-2.875923E-1,4.4578135E-1,2.728767E-2,1.5185001E-1,5.6655973E-1,-4.1033357E-1,2.838092E-2,-7.536499E-2,7.1792287E-1,-6.4408904E-1,-1.1098662E-1,9.164426E-1,3.3812186E-1,6.0520794E-2,-1.3781695E-1,5.91761E-1,1.1553239E-1,6.908464E-1,1.4292888E-1,-7.901037E-1,-2.3725207E-1,-3.9619625E-1,1.811594E-1,1.3116825E-3,-6.6214413E-3,4.732683E-2,1.3661005E-2,-2.1080745E-2,-4.602507E-2,-9.779156E-5,-3.837378E-2,5.1092584E-2,-3.361605E-3,-2.2493426E-2,2.026259E-2,-1.3254049E-2,4.2455555E-3,-1.9883418E-2,-4.332189E-3,1.5038683E-2,4.6754047E-2,-3.6061402E-2,6.7958147E-3,4.1810233E-2,1.7489798E-2,1.6802527E-2,-2.1436969E-2,-1.09572485E-2,-5.3445257E-2,-2.8536906E-2,-2.3211956E-3,4.1736583E-3,-3.4352116E-2,-1.2279381E-3,3.183468E-2],"categories":[],"categories_nodes":[],"categories_segments":[],"categories_sizes":[],"default_left":[0,0,0,0,0,0,0,0,0,0,0,0,0,0,0,0,0,0,0,0,0,0,0,0,0,0,0,0,0,0,0,0,0,0,0,0,0,0,0,0,0,0,0,0,0,0,0,0,0,0,0,0,0,0,0,0,0,0,0,0,0,0,0],"id":12,"left_children":[1,3,5,7,9,11,13,15,17,19,21,23,25,27,29,31,33,35,37,39,41,43,45,47,49,51,53,55,57,59,61,-1,-1,-1,-1,-1,-1,-1,-1,-1,-1,-1,-1,-1,-1,-1,-1,-1,-1,-1,-1,-1,-1,-1,-1,-1,-1,-1,-1,-1,-1,-1,-1],"loss_changes":[8.571999E1,7.276647E1,5.483365E1,5.1522903E1,5.813291E1,4.0766014E1,1.7373314E1,8.127771E1,7.2980995E1,1.6619225E1,3.1580856E1,4.5762268E1,1.3071617E1,1.2921532E1,1.01742E1,3.9104588E1,1.2251274E1,2.2252487E1,5.5732525E1,7.2097206E0,1.5734924E1,3.806218E1,1.2496544E1,2.0722359E1,4.5577072E1,8.714012E0,7.130475E0,9.0774E0,9.062439E0,6.1530657E0,1.13179E1,0E0,0E0,0E0,0E0,0E0,0E0,0E0,0E0,0E0,0E0,0E0,0E0,0E0,0E0,0E0,0E0,0E0,0E0,0E0,0E0,0E0,0E0,0E0,0E0,0E0,0E0,0E0,0E0,0E0,0E0,0E0,0E0],"parents":[2147483647,0,0,1,1,2,2,3,3,4,4,5,5,6,6,7,7,8,8,9,9,10,10,11,11,12,12,13,13,14,14,15,15,16,16,17,17,18,18,19,19,20,20,21,21,22,22,23,23,24,24,25,25,26,26,27,27,28,28,29,29,30,30],"right_children":[2,4,6,8,10,12,14,16,18,20,22,24,26,28,30,32,34,36,38,40,42,44,46,48,50,52,54,56,58,60,62,-1,-1,-1,-1,-1,-1,-1,-1,-1,-1,-1,-1,-1,-1,-1,-1,-1,-1,-1,-1,-1,-1,-1,-1,-1,-1,-1,-1,-1,-1,-1,-1],"split_conditions":[5.29664E-1,2.255101E-3,7.559344E-3,6.524786E-4,2.557018E-3,2.0259121E-2,6.79651E-1,5.714648E-4,1.0855043E-3,2.3144877E-3,1.4139869E0,-2.6238857E-2,3.6550853E-2,5.86E5,-3.9339503E-3,-1.53885E-2,7.720895E-1,9.4269146E-4,2.1718917E-3,1.58264E0,1.461E-1,-3.83254E-2,3.987135E-3,1.16416E9,-2.1762531E-2,-2.9478598E-2,1.0891252E-1,7.03446E-1,2.35846E-1,-8.817403E-1,8.576E8,1.3116825E-3,-6.6214413E-3,4.732683E-2,1.3661005E-2,-2.1080745E-2,-4.602507E-2,-9.779156E-5,-3.837378E-2,5.1092584E-2,-3.361605E-3,-2.2493426E-2,2.026259E-2,-1.3254049E-2,4.2455555E-3,-1.9883418E-2,-4.332189E-3,1.5038683E-2,4.6754047E-2,-3.6061402E-2,6.7958147E-3,4.1810233E-2,1.7489798E-2,1.6802527E-2,-2.1436969E-2,-1.09572485E-2,-5.3445257E-2,-2.8536906E-2,-2.3211956E-3,4.1736583E-3,-3.4352116E-2,-1.2279381E-3,3.183468E-2],"split_indices":[1,15,7,15,15,15,1,15,15,15,9,15,15,18,15,3,10,15,15,2,1,3,15,20,15,12,12,2,0,9,20,0,0,0,0,0,0,0,0,0,0,0,0,0,0,0,0,0,0,0,0,0,0,0,0,0,0,0,0,0,0,0,0],"split_type":[0,0,0,0,0,0,0,0,0,0,0,0,0,0,0,0,0,0,0,0,0,0,0,0,0,0,0,0,0,0,0,0,0,0,0,0,0,0,0,0,0,0,0,0,0,0,0,0,0,0,0,0,0,0,0,0,0,0,0,0,0,0,0],"sum_hessian":[1.7649232E4,1.4135865E4,3.5133667E3,8.027631E3,6.1082344E3,3.1509734E3,3.623934E2,6.862187E3,1.165444E3,3.5059222E2,5.7576426E3,2.8930386E3,2.579347E2,2.0809998E2,1.5429341E2,6.732594E3,1.2959253E2,3.8339545E2,7.820486E2,6.1604248E1,2.8898798E2,4.7964775E3,9.611649E2,2.1724316E2,2.6757954E3,1.9753824E2,6.0396454E1,6.2013405E1,1.4608658E2,3.9119526E1,1.1517389E2,2.418652E3,4.313942E3,8.335825E1,4.6234276E1,2.1622412E2,1.6717133E2,6.7303705E2,1.0901153E2,5.6030758E1,5.5734916E0,2.120669E1,2.6778128E2,3.3145377E2,4.4650234E3,1.5430568E2,8.0685925E2,1.20402374E2,9.684079E1,6.1414955E1,2.6143804E3,1.3544206E2,6.209617E1,4.641532E1,1.3981131E1,2.2106613E1,3.990679E1,5.076653E1,9.532005E1,1.465578E1,2.4463747E1,7.989022E1,3.5283672E1],"tree_param":{"num_deleted":"0","num_feature":"21","num_nodes":"63","size_leaf_vector":"1"}},{"base_weights":[4.6368674E-3,-4.0204115E-3,5.3443664E-1,-7.047116E-2,4.0925194E-2,5.955293E-1,-2.2946726E-1,-1.21855795E-1,3.5435047E-2,1.0715155E-1,-1.8803425E-2,7.1571715E-2,6.8683416E-1,-4.4751395E-2,2.1299177E-1,-1.0436864E-1,-6.375205E-1,3.4669653E-1,-3.1191964E-2,-2.6972508E-2,1.8937968E-1,-6.413332E-2,1.1908812E-1,-3.836859E-1,4.1141555E-1,8.2353187E-1,4.1723692E-1,2.5019819E-2,-5.737726E-3,-1.1998171E-2,-3.6055893E-3,1.0125795E-2,-3.3757966E-2,3.2286547E-2,8.442338E-3,-1.0389785E-3,-5.3828157E-2,2.219971E-2,-4.4292226E-3,5.8765206E-3,2.0304829E-2,-4.6092328E-2,-2.4305745E-3,-9.340088E-3,8.763805E-3,-3.4518674E-4,-3.6716342E-2,3.3952553E-2,-1.9340772E-3,2.43199E-2,5.5839993E-2,3.3395607E-2,-1.6471362E-3],"categories":[],"categories_nodes":[],"categories_segments":[],"categories_sizes":[],"default_left":[0,0,0,0,0,0,0,0,0,0,0,0,0,0,0,0,0,0,0,0,0,0,0,0,0,0,0,0,0,0,0,0,0,0,0,0,0,0,0,0,0,0,0,0,0,0,0,0,0,0,0,0,0],"id":13,"left_children":[1,3,5,7,9,11,13,15,17,19,21,23,25,-1,27,29,31,33,35,37,39,41,43,45,47,49,51,-1,-1,-1,-1,-1,-1,-1,-1,-1,-1,-1,-1,-1,-1,-1,-1,-1,-1,-1,-1,-1,-1,-1,-1,-1,-1],"loss_changes":[8.089972E1,5.168346E1,1.3690926E1,3.8060963E1,4.08518E1,1.2140083E1,7.1531134E0,4.193569E1,4.746491E1,5.408698E1,3.387544E1,6.856331E0,6.931389E0,0E0,1.6529377E0,1.9733742E1,5.3485336E0,2.0834099E1,1.9854727E1,5.387865E1,4.6942368E1,5.3799477E1,2.3078295E1,2.0550466E0,3.4744134E0,1.2454124E1,9.446011E0,0E0,0E0,0E0,0E0,0E0,0E0,0E0,0E0,0E0,0E0,0E0,0E0,0E0,0E0,0E0,0E0,0E0,0E0,0E0,0E0,0E0,0E0,0E0,0E0,0E0,0E0],"parents":[2147483647,0,0,1,1,2,2,3,3,4,4,5,5,6,6,7,7,8,8,9,9,10,10,11,11,12,12,14,14,15,15,16,16,17,17,18,18,19,19,20,20,21,21,22,22,23,23,24,24,25,25,26,26],"right_children":[2,4,6,8,10,12,14,16,18,20,22,24,26,-1,28,30,32,34,36,38,40,42,44,46,48,50,52,-1,-1,-1,-1,-1,-1,-1,-1,-1,-1,-1,-1,-1,-1,-1,-1,-1,-1,-1,-1,-1,-1,-1,-1,-1,-1],"split_conditions":[2.7693078E-2,3.00633E-1,2.6412218E0,3.987135E-3,8.69605E-3,5.1E3,8.576E8,3.511087E-3,5.1798266E-3,-8.81552E-2,1.12321E-1,4.986E7,-1.2858737E-1,-4.4751395E-2,6.48638E-1,1.5544E-1,-3.3117107E-3,-3.2603633E-4,2.506041E-2,-2.8628623E-2,5.29664E-1,-6.7141484E-3,3.74E6,2E2,5.39721E9,-1.7893872E-3,3.6550853E-2,2.5019819E-2,-5.737726E-3,-1.1998171E-2,-3.6055893E-3,1.0125795E-2,-3.3757966E-2,3.2286547E-2,8.442338E-3,-1.0389785E-3,-5.3828157E-2,2.219971E-2,-4.4292226E-3,5.8765206E-3,2.0304829E-2,-4.6092328E-2,-2.4305745E-3,-9.340088E-3,8.763805E-3,-3.4518674E-4,-3.6716342E-2,3.3952553E-2,-1.9340772E-3,2.43199E-2,5.5839993E-2,3.3395607E-2,-1.6471362E-3],"split_indices":[15,1,10,15,6,17,20,15,15,0,5,20,10,0,12,1,7,7,15,15,1,7,19,17,19,7,15,0,0,0,0,0,0,0,0,0,0,0,0,0,0,0,0,0,0,0,0,0,0,0,0,0,0],"split_type":[0,0,0,0,0,0,0,0,0,0,0,0,0,0,0,0,0,0,0,0,0,0,0,0,0,0,0,0,0,0,0,0,0,0,0,0,0,0,0,0,0,0,0,0,0,0,0,0,0,0,0,0,0],"sum_hessian":[1.7577424E4,1.729584E4,2.815844E2,6.982463E3,1.0313377E4,2.6174677E2,1.9837666E1,4.7043696E3,2.278093E3,4.893883E3,5.419494E3,4.0185276E1,2.2156148E2,7.556018E0,1.2281648E1,4.553332E3,1.5103757E2,4.0150043E2,1.8765925E3,1.8581985E3,3.0356843E3,4.0822185E3,1.3372756E3,1.643694E1,2.3748337E1,1.4305983E2,7.8501656E1,6.7950225E0,5.4866247E0,8.6958215E2,3.68375E3,5.531806E0,1.4550577E2,1.4672537E2,2.5477507E2,1.8605784E3,1.6014193E1,2.125929E2,1.6456056E3,2.2838872E3,7.5179694E2,6.991341E1,4.012305E3,2.0541875E2,1.1318568E3,9.593528E0,6.843412E0,1.4951458E1,8.796878E0,6.981925E1,7.324057E1,5.0516E1,2.7985655E1],"tree_param":{"num_deleted":"0","num_feature":"21","num_nodes":"53","size_leaf_vector":"1"}},{"base_weights":[-1.9077982E-3,2.4460474E-2,-1.2224572E-1,-1.21122904E-1,5.2080844E-2,1.7419943E-1,-1.4359029E-1,2.1584105E-1,-1.5196611E-1,6.0696256E-1,4.7149304E-2,3.7923837E-1,5.8347923E-3,8.396667E-2,-1.6385043E-1,4.1101936E-1,-5.239428E-1,-5.1461667E-1,-9.799732E-2,9.3279725E-1,1.2964916E-1,-1.607026E-1,6.29346E-2,7.5581706E-1,9.2063725E-2,-8.698237E-1,1.3521047E-1,2.4862942E-1,-2.065997E-1,-2.854859E-2,-1.8879841E-1,-1.0406265E-2,3.4327816E-2,-4.850963E-3,-5.5294033E-2,4.6465356E-2,-2.7905677E-2,-2.3857413E-3,-1.7555973E-2,1.847489E-2,6.0938638E-2,3.6386304E-2,-4.74547E-3,-1.2584077E-2,7.254875E-3,8.800826E-3,1.174156E-3,4.8469972E-2,-0E0,3.7161853E-2,-4.0444625E-3,-7.2646886E-2,2.3232123E-3,-5.5630966E-3,1.6611919E-2,4.4018347E-2,9.1805225E-3,1.8171495E-2,-1.923461E-2,-5.910211E-3,1.3038471E-2,-1.2688413E-2,-6.6536674E-3],"categories":[],"categories_nodes":[],"categories_segments":[],"categories_sizes":[],"default_left":[0,0,0,0,0,0,0,0,0,0,0,0,0,0,0,0,0,0,0,0,0,0,0,0,0,0,0,0,0,0,0,0,0,0,0,0,0,0,0,0,0,0,0,0,0,0,0,0,0,0,0,0,0,0,0,0,0,0,0,0,0,0,0],"id":14,"left_children":[1,3,5,7,9,11,13,15,17,19,21,23,25,27,29,31,33,35,37,39,41,43,45,47,49,51,53,55,57,59,61,-1,-1,-1,-1,-1,-1,-1,-1,-1,-1,-1,-1,-1,-1,-1,-1,-1,-1,-1,-1,-1,-1,-1,-1,-1,-1,-1,-1,-1,-1,-1,-1],"loss_changes":[5.616258E1,5.8293266E1,2.016798E1,2.4045544E1,3.2983704E1,7.157555E0,1.3763981E1,2.8271547E1,4.1068817E1,1.5768375E1,3.963762E1,9.676925E0,1.350267E1,1.1711105E1,9.097855E0,2.6887495E1,9.290056E0,1.7988144E1,2.3291824E1,8.335281E0,6.645229E0,2.3820946E1,5.003645E1,6.318918E0,6.842985E0,8.99405E0,5.384889E0,5.576565E0,9.1827135E0,1.1159388E1,8.073517E0,0E0,0E0,0E0,0E0,0E0,0E0,0E0,0E0,0E0,0E0,0E0,0E0,0E0,0E0,0E0,0E0,0E0,0E0,0E0,0E0,0E0,0E0,0E0,0E0,0E0,0E0,0E0,0E0,0E0,0E0,0E0,0E0],"parents":[2147483647,0,0,1,1,2,2,3,3,4,4,5,5,6,6,7,7,8,8,9,9,10,10,11,11,12,12,13,13,14,14,15,15,16,16,17,17,18,18,19,19,20,20,21,21,22,22,23,23,24,24,25,25,26,26,27,27,28,28,29,29,30,30],"right_children":[2,4,6,8,10,12,14,16,18,20,22,24,26,28,30,32,34,36,38,40,42,44,46,48,50,52,54,56,58,60,62,-1,-1,-1,-1,-1,-1,-1,-1,-1,-1,-1,-1,-1,-1,-1,-1,-1,-1,-1,-1,-1,-1,-1,-1,-1,-1,-1,-1,-1,-1,-1,-1],"split_conditions":[1.0563322E0,3.28E4,-2.6709677E-3,-6.4005284E-3,-2.49395E-1,-8.0184E8,-3.56345E-2,1.27E4,-2.3801818E0,-8.516087E-1,-1.42211E-1,2.321E5,-6.62979E-2,6.871E5,1.0661234E-2,5.8377475E-2,-8.752874E-1,1.2957639E-2,5.079365E-2,1.805E8,-1.79246E-1,7.917345E-2,-5.501263E-2,-1.3472563E0,-3.041718E0,5.302152E-2,-2.6824E-2,-8.82387E-2,2.6440727E-2,1.9975943E-2,2.2917384E-2,-1.0406265E-2,3.4327816E-2,-4.850963E-3,-5.5294033E-2,4.6465356E-2,-2.7905677E-2,-2.3857413E-3,-1.7555973E-2,1.847489E-2,6.0938638E-2,3.6386304E-2,-4.74547E-3,-1.2584077E-2,7.254875E-3,8.800826E-3,1.174156E-3,4.8469972E-2,-0E0,3.7161853E-2,-4.0444625E-3,-7.2646886E-2,2.3232123E-3,-5.5630966E-3,1.6611919E-2,4.4018347E-2,9.1805225E-3,1.8171495E-2,-1.923461E-2,-5.910211E-3,1.3038471E-2,-1.2688413E-2,-6.6536674E-3],"split_indices":[9,18,7,7,5,16,3,17,10,9,0,17,3,17,14,13,9,13,14,20,3,14,12,11,10,13,5,3,14,13,13,0,0,0,0,0,0,0,0,0,0,0,0,0,0,0,0,0,0,0,0,0,0,0,0,0,0,0,0,0,0,0,0],"split_type":[0,0,0,0,0,0,0,0,0,0,0,0,0,0,0,0,0,0,0,0,0,0,0,0,0,0,0,0,0,0,0,0,0,0,0,0,0,0,0,0,0,0,0,0,0,0,0,0,0,0,0,0,0,0,0,0,0,0,0,0,0,0,0],"sum_hessian":[1.7680283E4,1.4500412E4,3.1798708E3,2.3083782E3,1.2192034E4,2.1104285E2,2.9688281E3,1.9120833E2,2.1171697E3,1.0435874E2,1.2087676E4,9.2688995E1,1.1835384E2,2.40183E2,2.728645E3,1.5253062E2,3.8677704E1,2.708463E2,1.8463235E3,6.0263927E1,4.409481E1,8.4966956E2,1.1238006E4,3.7936752E1,5.4752243E1,1.3264438E1,1.0508941E2,1.5458803E2,8.5594955E1,4.2858823E2,2.300057E3,4.6567013E1,1.05963615E2,2.4151913E1,1.452579E1,6.393176E0,2.6445312E2,1.5439679E3,3.0235556E2,2.242496E1,3.783897E1,1.1421259E1,3.2673553E1,6.5637854E2,1.9329097E2,2.9015474E3,8.336459E3,2.9001463E1,8.935289E0,1.0713158E1,4.4039085E1,7.723576E0,5.540862E0,4.594603E1,5.914338E1,1.1367619E1,1.4322041E2,1.9212301E1,6.638266E1,3.2941742E2,9.91708E1,1.054516E3,1.2455408E3],"tree_param":{"num_deleted":"0","num_feature":"21","num_nodes":"63","size_leaf_vector":"1"}},{"base_weights":[5.513877E-3,7.465197E-2,-4.4780213E-2,-3.050819E-2,1.2104615E-1,4.6372592E-2,-7.245508E-2,-1.2894607E-2,-6.534652E-1,9.784739E-2,4.131616E-1,-1.6722256E-1,1.12064354E-1,-9.2394434E-2,1.2413215E-1,-2.1169752E-1,2.0461569E-2,5.4270662E-3,-7.5574404E-1,5.379304E-1,8.381369E-2,5.036478E-1,-1.7364144E-1,-3.2440087E-1,5.6220565E-2,1.9879729E-1,3.5128508E-2,1.1097098E-1,-1.0840797E-1,5.402602E-1,4.494152E-2,-7.781837E-3,-2.6220102E-2,-7.969585E-3,2.8184624E-3,-5.523953E-2,-2.5920684E-2,3.546106E-2,5.694184E-4,1.65448E-4,6.848077E-3,2.1487435E-2,4.9004614E-2,-2.5090275E-2,7.629967E-3,-1.9348823E-2,2.1821579E-2,2.2264514E-2,-4.428578E-3,1.2599361E-2,-7.77231E-3,1.0572819E-3,2.9109964E-2,-2.870348E-2,7.5508296E-3,-6.35895E-2,-5.307669E-3,3.8787052E-2,9.672877E-3,-4.3390386E-2,3.5443697E-3],"categories":[],"categories_nodes":[],"categories_segments":[],"categories_sizes":[],"default_left":[0,0,0,0,0,0,0,0,0,0,0,0,0,0,0,0,0,0,0,0,0,0,0,0,0,0,0,0,0,0,0,0,0,0,0,0,0,0,0,0,0,0,0,0,0,0,0,0,0,0,0,0,0,0,0,0,0,0,0,0,0],"id":15,"left_children":[1,3,5,7,9,11,13,15,17,19,21,23,25,27,29,31,33,-1,35,37,39,41,43,45,47,49,51,53,55,57,59,-1,-1,-1,-1,-1,-1,-1,-1,-1,-1,-1,-1,-1,-1,-1,-1,-1,-1,-1,-1,-1,-1,-1,-1,-1,-1,-1,-1,-1,-1],"loss_changes":[6.143169E1,3.636076E1,2.5802677E1,2.4628408E1,3.468254E1,3.3367992E1,3.0758942E1,1.48037815E1,5.302168E0,2.9191494E1,2.0410103E1,1.9774849E1,1.2021566E1,2.3230053E1,2.3417929E1,5.1208477E0,1.2223082E1,0E0,2.6234093E0,1.2846046E1,1.9811604E1,1.0027184E1,5.814416E0,1.5990898E1,1.3264896E1,1.6191433E1,7.098283E0,1.41964245E1,1.6377007E1,8.531609E0,1.414483E1,0E0,0E0,0E0,0E0,0E0,0E0,0E0,0E0,0E0,0E0,0E0,0E0,0E0,0E0,0E0,0E0,0E0,0E0,0E0,0E0,0E0,0E0,0E0,0E0,0E0,0E0,0E0,0E0,0E0,0E0],"parents":[2147483647,0,0,1,1,2,2,3,3,4,4,5,5,6,6,7,7,8,8,9,9,10,10,11,11,12,12,13,13,14,14,15,15,16,16,18,18,19,19,20,20,21,21,22,22,23,23,24,24,25,25,26,26,27,27,28,28,29,29,30,30],"right_children":[2,4,6,8,10,12,14,16,18,20,22,24,26,28,30,32,34,-1,36,38,40,42,44,46,48,50,52,54,56,58,60,-1,-1,-1,-1,-1,-1,-1,-1,-1,-1,-1,-1,-1,-1,-1,-1,-1,-1,-1,-1,-1,-1,-1,-1,-1,-1,-1,-1,-1,-1],"split_conditions":[-7.0128393E-1,9E6,-4.60424E-2,3.2584062E0,1.5942E-1,1.6791E8,1.12321E-1,-7.2926384E-1,9.11877E-3,-1.92983E-1,4.73415E-1,-3.86623E-2,2.8839938E-2,-4.01351E-2,4.663532E-1,5.45436E-2,-2.1509523E0,5.4270662E-3,1.66028E-1,-8.938449E-1,-3.7754886E-4,1.748202E10,1.5886173E0,8.8327855E-2,1.768947E-2,2.4039004E0,1.1555448E-1,-4.169809E-3,-1.02260355E-2,4.5456827E-2,-6.28859E-3,-7.781837E-3,-2.6220102E-2,-7.969585E-3,2.8184624E-3,-5.523953E-2,-2.5920684E-2,3.546106E-2,5.694184E-4,1.65448E-4,6.848077E-3,2.1487435E-2,4.9004614E-2,-2.5090275E-2,7.629967E-3,-1.9348823E-2,2.1821579E-2,2.2264514E-2,-4.428578E-3,1.2599361E-2,-7.77231E-3,1.0572819E-3,2.9109964E-2,-2.870348E-2,7.5508296E-3,-6.35895E-2,-5.307669E-3,3.8787052E-2,9.672877E-3,-4.3390386E-2,3.5443697E-3],"split_indices":[9,19,6,10,5,19,5,8,0,5,6,5,14,3,11,5,10,0,5,9,7,20,11,13,14,9,14,7,7,14,0,0,0,0,0,0,0,0,0,0,0,0,0,0,0,0,0,0,0,0,0,0,0,0,0,0,0,0,0,0,0],"split_type":[0,0,0,0,0,0,0,0,0,0,0,0,0,0,0,0,0,0,0,0,0,0,0,0,0,0,0,0,0,0,0,0,0,0,0,0,0,0,0,0,0,0,0,0,0,0,0,0,0,0,0,0,0,0,0,0,0,0,0,0,0],"sum_hessian":[1.765859E4,7.439988E3,1.0218603E4,2.2744573E3,5.165531E3,2.3753816E3,7.8432207E3,2.214683E3,5.977427E1,4.789544E3,3.7598676E2,5.56202E2,1.8191796E3,7.124231E3,7.189896E2,3.1881876E2,1.8958643E3,6.480632E0,5.3293636E1,1.446043E2,4.6449395E3,3.267385E2,4.924825E1,3.2730057E2,2.2890147E2,8.505984E2,9.685812E2,5.1688727E2,6.6073438E3,1.12079575E2,6.0691003E2,2.7424695E2,4.4571827E1,3.1205423E2,1.5838099E3,1.7758677E1,3.553496E1,1.0786951E2,3.6734787E1,1.8516771E3,2.7932622E3,2.8706638E2,3.9672123E1,2.4779247E1,2.4469004E1,3.0394238E2,2.3358177E1,6.189267E1,1.670088E2,7.4128296E2,1.0931544E2,9.473584E2,2.1222773E1,2.6384472E1,4.905028E2,1.0172802E1,6.597171E3,6.442156E1,4.7658012E1,1.444888E1,5.924612E2],"tree_param":{"num_deleted":"0","num_feature":"21","num_nodes":"61","size_leaf_vector":"1"}},{"base_weights":[-1.4248944E-3,-9.869616E-3,5.05849E-1,-8.52974E-2,1.5300304E-2,5.644098E-1,-4.3945026E-1,-2.8101122E-1,-4.335899E-2,1.1478251E-1,-1.7956533E-2,4.3289624E-2,6.6459906E-1,-4.115777E-2,6.6951956E-3,-1.2432722E-1,-5.791842E-1,6.7522883E-1,-6.2239707E-2,2.5560569E-2,2.4831037E-1,-5.460471E-1,3.357153E-3,2.2935827E-1,-3.0711327E-2,9.423469E-1,5.4182875E-1,1.0047476E-2,-1.2122964E-2,-5.3380746E-2,-1.4626472E-2,5.7829645E-2,1.2369786E-2,2.9722368E-2,-3.5838825E-3,1.5793374E-2,-2.6613015E-3,4.5017403E-2,8.42182E-3,-3.4274455E-2,-4.8436844E-3,5.368067E-2,-3.586899E-4,3.86311E-2,-0E0,6.328815E-2,3.1222114E-2,3.7054922E-2,1.6845811E-2],"categories":[],"categories_nodes":[],"categories_segments":[],"categories_sizes":[],"default_left":[0,0,0,0,0,0,0,0,0,0,0,0,0,0,0,0,0,0,0,0,0,0,0,0,0,0,0,0,0,0,0,0,0,0,0,0,0,0,0,0,0,0,0,0,0,0,0,0,0],"id":16,"left_children":[1,3,5,7,9,11,13,15,17,19,21,23,25,-1,-1,27,29,31,33,35,37,39,41,43,-1,45,47,-1,-1,-1,-1,-1,-1,-1,-1,-1,-1,-1,-1,-1,-1,-1,-1,-1,-1,-1,-1,-1,-1],"loss_changes":[7.519236E1,3.29254E1,1.6468246E1,3.5432053E1,4.301426E1,1.3790207E1,4.391301E0,3.51661E1,4.8324764E1,3.8658245E1,1.09791145E2,5.815796E0,5.9840927E0,0E0,0E0,1.9485909E1,3.5279724E1,1.7487263E1,2.1448544E1,4.4929516E1,6.698644E1,2.3175835E1,1.0597102E2,4.556802E0,0E0,4.228012E0,5.6382446E0,0E0,0E0,0E0,0E0,0E0,0E0,0E0,0E0,0E0,0E0,0E0,0E0,0E0,0E0,0E0,0E0,0E0,0E0,0E0,0E0,0E0,0E0],"parents":[2147483647,0,0,1,1,2,2,3,3,4,4,5,5,6,6,7,7,8,8,9,9,10,10,11,11,12,12,15,15,16,16,17,17,18,18,19,19,20,20,21,21,22,22,23,23,25,25,26,26],"right_children":[2,4,6,8,10,12,14,16,18,20,22,24,26,-1,-1,28,30,32,34,36,38,40,42,44,-1,46,48,-1,-1,-1,-1,-1,-1,-1,-1,-1,-1,-1,-1,-1,-1,-1,-1,-1,-1,-1,-1,-1,-1],"split_conditions":[2.7693078E-2,1.557E5,2.9290316E0,-9.205633E-3,-4.426431E-3,5.1E3,5.7804E8,-1.3493991E-2,-8.017205E-3,-8.954639E-3,-3.6932384E-3,2E2,-9.03558E-3,-4.115777E-2,6.6951956E-3,-3.401183E-3,6E2,-5.20896E-2,9.829797E-3,-2.6238857E-2,-8.017205E-3,2.3297935E-3,-3.5115501E-3,-7.9688184E-2,-3.0711327E-2,6.484287E-2,1.69184E9,1.0047476E-2,-1.2122964E-2,-5.3380746E-2,-1.4626472E-2,5.7829645E-2,1.2369786E-2,2.9722368E-2,-3.5838825E-3,1.5793374E-2,-2.6613015E-3,4.5017403E-2,8.42182E-3,-3.4274455E-2,-4.8436844E-3,5.368067E-2,-3.586899E-4,3.86311E-2,-0E0,6.328815E-2,3.1222114E-2,3.7054922E-2,1.6845811E-2],"split_indices":[15,17,10,15,15,17,16,15,15,15,15,17,3,0,0,7,18,0,13,15,15,7,15,8,0,13,20,0,0,0,0,0,0,0,0,0,0,0,0,0,0,0,0,0,0,0,0,0,0],"split_type":[0,0,0,0,0,0,0,0,0,0,0,0,0,0,0,0,0,0,0,0,0,0,0,0,0,0,0,0,0,0,0,0,0,0,0,0,0,0,0,0,0,0,0,0,0,0,0,0,0],"sum_hessian":[1.7606338E4,1.7320938E4,2.8539944E2,4.337538E3,1.29834E4,2.7000742E2,1.5392031E1,7.61328E2,3.5762102E3,3.2554382E3,9.727962E3,4.4806664E1,2.2520074E2,9.221458E0,6.1705728E0,5.020313E2,2.5929672E2,8.910039E1,3.4871099E3,1.9551527E3,1.3002855E3,3.7638818E2,9.351574E3,3.65315E1,8.275161E0,6.3689545E1,1.615112E2,1.3224896E2,3.6978235E2,9.32371E1,1.6605962E2,3.977418E1,4.9326202E1,4.6899776E1,3.44021E3,4.174164E2,1.5377363E3,1.3897583E2,1.1613097E3,2.8557004E2,9.0818146E1,8.961505E1,9.261959E3,9.029094E0,2.7502409E1,2.7835495E1,3.5854046E1,7.79928E1,8.351841E1],"tree_param":{"num_deleted":"0","num_feature":"21","num_nodes":"49","size_leaf_vector":"1"}},{"base_weights":[2.1350263E-3,-5.4503856E-3,4.69184E-1,-1.5557806E-2,2.9801443E-1,5.207032E-1,-3.032431E-1,-1.1661078E-1,9.083544E-3,4.5034268E-1,3.260058E-2,6.720888E-2,6.089774E-1,9.578711E-3,-3.399976E-2,-3.5121223E-1,-6.667557E-2,7.8760505E-2,-3.7629303E-2,6.4501595E-1,1.2164074E-1,2.585867E-1,-3.2816336E-1,-2.1985123E-1,4.408514E-1,6.4517784E-1,-2.0679144E-2,-8.8949865E-3,-3.54472E-2,-1.3955268E-3,-1.267401E-2,-6.4305807E-3,5.055021E-3,4.85567E-3,-3.9284127E-3,3.5882395E-2,3.9134403E-3,-3.3646033E-4,5.6461643E-2,3.6262553E-2,4.1552917E-3,5.200517E-3,-2.5005072E-2,-3.2469977E-2,8.060015E-3,4.6357166E-2,4.0257922E-3,3.7142076E-2,1.0133973E-2],"categories":[],"categories_nodes":[],"categories_segments":[],"categories_sizes":[],"default_left":[0,0,0,0,0,0,0,0,0,0,0,0,0,0,0,0,0,0,0,0,0,0,0,0,0,0,0,0,0,0,0,0,0,0,0,0,0,0,0,0,0,0,0,0,0,0,0,0,0],"id":17,"left_children":[1,3,5,7,9,11,13,15,17,19,21,23,25,-1,-1,27,29,31,33,35,37,39,41,43,45,47,-1,-1,-1,-1,-1,-1,-1,-1,-1,-1,-1,-1,-1,-1,-1,-1,-1,-1,-1,-1,-1,-1,-1],"loss_changes":[6.2536358E1,5.294637E1,1.165115E1,4.1766193E1,2.2220196E1,1.022113E1,3.9157114E0,3.8261993E1,4.3851334E1,2.1989891E1,1.6946274E1,5.2899256E0,8.842606E0,0E0,0E0,3.4941315E1,1.9506823E1,2.5070179E1,4.4454006E1,8.533745E0,1.7958166E1,1.0019161E1,6.205674E0,4.8506455E0,3.1349087E0,8.518394E0,0E0,0E0,0E0,0E0,0E0,0E0,0E0,0E0,0E0,0E0,0E0,0E0,0E0,0E0,0E0,0E0,0E0,0E0,0E0,0E0,0E0,0E0,0E0],"parents":[2147483647,0,0,1,1,2,2,3,3,4,4,5,5,6,6,7,7,8,8,9,9,10,10,11,11,12,12,15,15,16,16,17,17,18,18,19,19,20,20,21,21,22,22,23,23,24,24,25,25],"right_children":[2,4,6,8,10,12,14,16,18,20,22,24,26,-1,-1,28,30,32,34,36,38,40,42,44,46,48,-1,-1,-1,-1,-1,-1,-1,-1,-1,-1,-1,-1,-1,-1,-1,-1,-1,-1,-1,-1,-1,-1,-1],"split_conditions":[2.7693078E-2,7.71991E-1,2.8741434E0,6.42E4,8.38689E-3,5E3,1.0990475E-1,-9.205633E-3,-7.188733E-1,2.2346887E-3,-7.537556E-1,3.54E7,3.006992E0,9.578711E-3,-3.399976E-2,-1.3493991E-2,4.4775784E-2,-1.28353E-1,-4.9192845E-3,-2.824577E-1,2.0259121E-2,4.8027445E-2,-7.04565E8,7.06687E-1,-9.29655E-2,9.006453E-1,-2.0679144E-2,-8.8949865E-3,-3.54472E-2,-1.3955268E-3,-1.267401E-2,-6.4305807E-3,5.055021E-3,4.85567E-3,-3.9284127E-3,3.5882395E-2,3.9134403E-3,-3.3646033E-4,5.6461643E-2,3.6262553E-2,4.1552917E-3,5.200517E-3,-2.5005072E-2,-3.2469977E-2,8.060015E-3,4.6357166E-2,4.0257922E-3,3.7142076E-2,1.0133973E-2],"split_indices":[15,1,10,18,0,18,11,15,9,15,9,16,9,0,0,15,14,0,15,9,15,14,16,2,8,10,0,0,0,0,0,0,0,0,0,0,0,0,0,0,0,0,0,0,0,0,0,0,0],"split_type":[0,0,0,0,0,0,0,0,0,0,0,0,0,0,0,0,0,0,0,0,0,0,0,0,0,0,0,0,0,0,0,0,0,0,0,0,0,0,0,0,0,0,0,0,0,0,0,0,0],"sum_hessian":[1.7582988E4,1.7302875E4,2.8011246E2,1.674858E4,5.5429535E2,2.638156E2,1.6296848E1,3.2859377E3,1.3462643E4,3.5009113E2,2.0420425E2,4.4482212E1,2.193334E2,6.8958673E0,9.400981E0,5.7279584E2,2.7131418E3,5.4069536E3,8.055689E3,2.1770807E2,1.3238306E2,1.26755646E2,7.74486E1,2.4864483E1,1.9617731E1,2.1301923E2,6.3141875E0,3.8881604E2,1.8397981E2,2.250998E3,4.6214374E2,5.2273425E2,4.884219E3,1.8737249E3,6.1819644E3,1.9172293E2,2.5985132E1,1.1874503E2,1.3638026E1,3.2147945E1,9.4607704E1,2.144011E1,5.600849E1,1.1643171E1,1.3221311E1,6.4200025E0,1.3197729E1,1.7246672E2,4.05525E1],"tree_param":{"num_deleted":"0","num_feature":"21","num_nodes":"49","size_leaf_vector":"1"}},{"base_weights":[-1.4050296E-3,-8.94812E-3,4.608529E-1,-1.8230567E-2,2.6772356E-1,5.1187545E-1,-2.658152E-1,-1.0713968E-1,8.526381E-3,5.16477E-1,1.4989817E-1,9.769081E-3,6.00374E-1,1.2152411E-2,-6.4732116E-1,-2.929351E-1,-6.8345875E-2,3.02215E-1,-1.0237201E-3,2.2011335E-1,1.0936178E0,9.22496E-2,5.3590417E-2,-2.4344666E-1,3.3570882E-2,6.6831285E-1,1.4756322E-1,-4.7848195E-2,-3.9951135E-3,-1.0816038E-2,-5.928854E-2,2.3804555E-2,-4.1218083E-3,4.3980185E-2,9.897631E-3,-2.6502201E-2,3.6451675E-4,1.660122E-2,-6.9766186E-2,6.9107994E-2,-7.987759E-3,-6.8733566E-3,1.4611942E-2,6.756786E-3,-3.0278806E-2,2.511163E-2,4.1800056E-2,-3.251197E-2,2.0548819E-2],"categories":[],"categories_nodes":[],"categories_segments":[],"categories_sizes":[],"default_left":[0,0,0,0,0,0,0,0,0,0,0,0,0,0,0,0,0,0,0,0,0,0,0,0,0,0,0,0,0,0,0,0,0,0,0,0,0,0,0,0,0,0,0,0,0,0,0,0,0],"id":18,"left_children":[1,3,5,7,9,11,13,15,17,19,21,23,25,-1,27,29,31,33,35,37,39,41,-1,43,-1,45,47,-1,-1,-1,-1,-1,-1,-1,-1,-1,-1,-1,-1,-1,-1,-1,-1,-1,-1,-1,-1,-1,-1],"loss_changes":[6.1434895E1,4.4573006E1,1.088282E1,4.011088E1,1.6019787E1,1.1486832E1,4.250325E0,2.7888714E1,3.6448814E1,2.9452713E1,1.9754839E1,7.6920524E0,6.3150864E0,0E0,1.454361E0,4.467166E1,2.4668335E1,2.3748554E1,5.5398407E1,2.2314302E1,2.2608582E1,1.6987497E1,0E0,4.757266E0,0E0,3.896103E0,7.323519E0,0E0,0E0,0E0,0E0,0E0,0E0,0E0,0E0,0E0,0E0,0E0,0E0,0E0,0E0,0E0,0E0,0E0,0E0,0E0,0E0,0E0,0E0],"parents":[2147483647,0,0,1,1,2,2,3,3,4,4,5,5,6,6,7,7,8,8,9,9,10,10,11,11,12,12,14,14,15,15,16,16,17,17,18,18,19,19,20,20,21,21,23,23,25,25,26,26],"right_children":[2,4,6,8,10,12,14,16,18,20,22,24,26,-1,28,30,32,34,36,38,40,42,-1,44,-1,46,48,-1,-1,-1,-1,-1,-1,-1,-1,-1,-1,-1,-1,-1,-1,-1,-1,-1,-1,-1,-1,-1,-1],"split_conditions":[2.7693078E-2,7.71991E-1,2.8741434E0,1.274E5,-4.15392E-3,1.4E3,1.0990475E-1,-9.205633E-3,-2.6238857E-2,-9.205633E-3,2.0259121E-2,7.11958E-1,9.99998E-2,1.2152411E-2,1.13794E-1,-9.671799E-3,1.1115223E-2,-1.40354E-1,-2.1088084E-2,-1.0842876E-2,6.7815185E-3,-2.3617581E-3,5.3590417E-2,3.3994954E-2,3.3570882E-2,-6.343951E-5,6.04732E-1,-4.7848195E-2,-3.9951135E-3,-1.0816038E-2,-5.928854E-2,2.3804555E-2,-4.1218083E-3,4.3980185E-2,9.897631E-3,-2.6502201E-2,3.6451675E-4,1.660122E-2,-6.9766186E-2,6.9107994E-2,-7.987759E-3,-6.8733566E-3,1.4611942E-2,6.756786E-3,-3.0278806E-2,2.511163E-2,4.1800056E-2,-3.251197E-2,2.0548819E-2],"split_indices":[15,1,10,18,15,18,11,15,15,15,15,1,4,0,0,15,13,4,15,15,7,7,0,15,0,7,1,0,0,0,0,0,0,0,0,0,0,0,0,0,0,0,0,0,0,0,0,0,0],"split_type":[0,0,0,0,0,0,0,0,0,0,0,0,0,0,0,0,0,0,0,0,0,0,0,0,0,0,0,0,0,0,0,0,0,0,0,0,0,0,0,0,0,0,0,0,0,0,0,0,0],"sum_hessian":[1.7679443E4,1.7398578E4,2.8086578E2,1.6837354E4,5.612246E2,2.6363412E2,1.7231665E1,3.897906E3,1.2939447E4,1.7684929E2,3.8437534E2,4.0683334E1,2.2295078E2,7.1328807E0,1.0098784E1,6.6880457E2,3.2291013E3,4.072293E2,1.2532218E4,1.1924547E2,5.760381E1,3.6433533E2,2.0040014E1,2.9790726E1,1.0892608E1,1.9207602E2,3.0874754E1,5.0750723E0,5.023712E0,6.1875385E2,5.005076E1,7.891285E1,3.1501885E3,5.927963E1,3.4794968E2,1.9289682E2,1.2339321E4,1.1329527E2,5.950196E0,4.6981503E1,1.0622308E1,1.6869252E2,1.9564279E2,1.4502382E1,1.5288344E1,1.0201305E2,9.006298E1,6.463496E0,2.4411259E1],"tree_param":{"num_deleted":"0","num_feature":"21","num_nodes":"49","size_leaf_vector":"1"}},{"base_weights":[8.525705E-3,8.6524256E-4,4.7386265E-1,-5.5384085E-2,4.357435E-2,6.133625E-1,1.4919221E-1,-3.007472E-2,-2.5556165E-1,1.0392504E-1,-4.5169342E-2,1.0890369E-1,6.906229E-1,6.777895E-1,-1.1062668E-1,-2.4861492E-1,-8.755803E-3,6.647693E-2,-2.8245565E-1,-3.3627693E-2,1.7155813E-1,3.135591E-1,-6.561767E-2,-1.5175352E-2,3.5774595E-1,8.4244937E-1,4.5715833E-1,1.7341737E-1,5.445812E-2,-3.8632455E-1,2.1508458E-1,-0E0,-2.0877598E-2,-2.3953032E-3,3.4622438E-3,-1.5117926E-2,4.998765E-2,1.4515673E-2,-4.0255184E-3,6.6629336E-3,2.270393E-2,2.6924452E-2,-1.0001848E-2,-1.4104369E-2,-2.0798286E-3,-0E0,2.835392E-2,2.4440885E-2,5.2969553E-2,2.9307539E-2,-9.255344E-3,2.7813856E-2,-1.3090297E-2,-4.5133806E-3,-4.152665E-2,-1.0532517E-2,2.2267725E-2],"categories":[],"categories_nodes":[],"categories_segments":[],"categories_sizes":[],"default_left":[0,0,0,0,0,0,0,0,0,0,0,0,0,0,0,0,0,0,0,0,0,0,0,0,0,0,0,0,0,0,0,0,0,0,0,0,0,0,0,0,0,0,0,0,0,0,0,0,0,0,0,0,0,0,0,0,0],"id":19,"left_children":[1,3,5,7,9,11,13,15,17,19,21,23,25,27,29,31,33,-1,35,37,39,41,43,-1,45,47,49,51,-1,53,55,-1,-1,-1,-1,-1,-1,-1,-1,-1,-1,-1,-1,-1,-1,-1,-1,-1,-1,-1,-1,-1,-1,-1,-1,-1,-1],"loss_changes":[6.2461277E1,4.157703E1,1.2289574E1,3.7664165E1,5.275975E1,7.1196594E0,1.2658564E1,3.0765371E1,3.584267E1,5.462637E1,2.9131424E1,3.2584217E0,4.5851974E0,5.2670946E0,5.7083225E0,2.4819473E1,1.8460848E1,0E0,2.127066E1,2.9281288E1,4.2145462E1,2.5083992E1,1.9422436E1,0E0,1.752862E0,5.7843018E0,6.4182987E0,3.190081E0,0E0,3.9209309E0,3.0802197E0,0E0,0E0,0E0,0E0,0E0,0E0,0E0,0E0,0E0,0E0,0E0,0E0,0E0,0E0,0E0,0E0,0E0,0E0,0E0,0E0,0E0,0E0,0E0,0E0,0E0,0E0],"parents":[2147483647,0,0,1,1,2,2,3,3,4,4,5,5,6,6,7,7,8,8,9,9,10,10,11,11,12,12,13,13,14,14,15,15,16,16,18,18,19,19,20,20,21,21,22,22,24,24,25,25,26,26,27,27,29,29,30,30],"right_children":[2,4,6,8,10,12,14,16,18,20,22,24,26,28,30,32,34,-1,36,38,40,42,44,-1,46,48,50,52,-1,54,56,-1,-1,-1,-1,-1,-1,-1,-1,-1,-1,-1,-1,-1,-1,-1,-1,-1,-1,-1,-1,-1,-1,-1,-1,-1,-1],"split_conditions":[2.7693078E-2,3.12547E-1,3.6550853E-2,3.1746466E-2,1.9493023E-1,8.2E3,-1.02419E-2,2E3,-4.5260083E-2,-8.81552E-2,-1.8253526E-2,6.11872E-1,3.26078E-2,3.28E4,3.52695E8,1.4736958E-2,3.987135E-3,6.647693E-2,1.84462E-1,-2.6238857E-2,6.30859E-1,4.8382906E-3,2.9259296E-2,-1.5175352E-2,-5.372004E-3,-6.98391E-2,-4.1807484E-2,-1.9700229E0,5.445812E-2,1.779676E-1,3.949E5,-0E0,-2.0877598E-2,-2.3953032E-3,3.4622438E-3,-1.5117926E-2,4.998765E-2,1.4515673E-2,-4.0255184E-3,6.6629336E-3,2.270393E-2,2.6924452E-2,-1.0001848E-2,-1.4104369E-2,-2.0798286E-3,-0E0,2.835392E-2,2.4440885E-2,5.2969553E-2,2.9307539E-2,-9.255344E-3,2.7813856E-2,-1.3090297E-2,-4.5133806E-3,-4.152665E-2,-1.0532517E-2,2.2267725E-2],"split_indices":[15,1,15,13,11,17,4,18,15,0,15,2,3,18,16,14,15,0,0,15,1,7,13,0,7,4,11,10,0,12,18,0,0,0,0,0,0,0,0,0,0,0,0,0,0,0,0,0,0,0,0,0,0,0,0,0,0],"split_type":[0,0,0,0,0,0,0,0,0,0,0,0,0,0,0,0,0,0,0,0,0,0,0,0,0,0,0,0,0,0,0,0,0,0,0,0,0,0,0,0,0,0,0,0,0,0,0,0,0,0,0,0,0,0,0,0,0],"sum_hessian":[1.7587006E4,1.7305203E4,2.8180322E2,7.4633804E3,9.841822E3,1.9479013E2,8.7013084E1,6.629927E3,8.334538E2,5.861182E3,3.9806404E3,2.7370419E1,1.6741971E2,2.8248661E1,5.8764423E1,5.852947E2,6.044632E3,1.1978709E1,8.2147504E2,1.92985E3,3.9313323E3,2.1180417E2,3.7688362E3,9.378539E0,1.799188E1,9.698799E1,7.0431725E1,1.4513114E1,1.3735547E1,3.245546E1,2.6308968E1,2.3673587E2,3.485588E2,4.0293794E3,2.0152524E3,8.1080774E2,1.0667305E1,2.4132663E2,1.6885233E3,3.4661606E3,4.6517154E2,1.4790541E2,6.389875E1,3.7221982E2,3.3966162E3,6.5846605E0,1.1407219E1,4.022665E1,5.676134E1,5.944586E1,1.0985862E1,8.036271E0,6.4768424E0,2.1594877E1,1.086058E1,8.532562E0,1.7776403E1],"tree_param":{"num_deleted":"0","num_feature":"21","num_nodes":"57","size_leaf_vector":"1"}},{"base_weights":[-5.1307376E-3,-1.269164E-2,4.6036005E-1,1.3798267E-2,-1.3248615E-1,5.053055E-1,-3.9027625E-1,4.4598705E-3,2.4868403E-1,-8.356549E-2,-2.2377016E-1,-2.441766E-2,5.3478956E-1,1.2274887E-2,-4.3672096E-2,-1.1331063E-1,2.5933329E-2,4.3831328E-1,7.774496E-2,-1.5735473E-1,1.2393851E-2,-1.5927187E-1,-4.401735E-1,5.626753E-1,-9.466647E-3,-1.4868191E-2,-2.3544957E-3,1.8377744E-3,-1.217161E-2,7.106747E-3,3.38046E-2,8.200236E-3,-2.5123853E-2,-9.112279E-3,1.0147339E-2,2.5043456E-2,-7.2316587E-4,-1.4329806E-2,-2.0682584E-3,6.3898126E-3,-2.4857897E-2,3.2729086E-2,1.2958206E-2],"categories":[],"categories_nodes":[],"categories_segments":[],"categories_sizes":[],"default_left":[0,0,0,0,0,0,0,0,0,0,0,0,0,0,0,0,0,0,0,0,0,0,0,0,0,0,0,0,0,0,0,0,0,0,0,0,0,0,0,0,0,0,0],"id":20,"left_children":[1,3,5,7,9,11,13,15,17,19,21,-1,23,-1,-1,25,27,29,31,33,35,37,39,41,-1,-1,-1,-1,-1,-1,-1,-1,-1,-1,-1,-1,-1,-1,-1,-1,-1,-1,-1],"loss_changes":[6.1828E1,5.511626E1,1.118523E1,3.1030277E1,1.3854305E1,8.3995285E0,5.2459283E0,3.4523624E1,1.7213287E1,1.4623931E1,1.4811165E1,0E0,5.6861496E0,0E0,0E0,2.5447704E1,3.3625065E1,1.7336159E1,1.442929E1,1.0507238E1,1.1959906E1,1.2523209E1,8.337597E0,6.2683945E0,0E0,0E0,0E0,0E0,0E0,0E0,0E0,0E0,0E0,0E0,0E0,0E0,0E0,0E0,0E0,0E0,0E0,0E0,0E0],"parents":[2147483647,0,0,1,1,2,2,3,3,4,4,5,5,6,6,7,7,8,8,9,9,10,10,12,12,15,15,16,16,17,17,18,18,19,19,20,20,21,21,22,22,23,23],"right_children":[2,4,6,8,10,12,14,16,18,20,22,-1,24,-1,-1,26,28,30,32,34,36,38,40,42,-1,-1,-1,-1,-1,-1,-1,-1,-1,-1,-1,-1,-1,-1,-1,-1,-1,-1,-1],"split_conditions":[2.7693078E-2,1.0563322E0,1.0360672E0,7.71991E-1,5.668E5,2.11205E-1,1.8159637E0,2.93E4,1.1198E6,2.56179E-1,3.58041E-1,-2.441766E-2,2.7865632E0,1.2274887E-2,-4.3672096E-2,-5.485489E-3,1.6278524E-2,8.25E6,-2.4709935E-1,1.9495596E0,-3.490678E-1,-7.508322E8,-1.8253526E-2,3.11688E-2,-9.466647E-3,-1.4868191E-2,-2.3544957E-3,1.8377744E-3,-1.217161E-2,7.106747E-3,3.38046E-2,8.200236E-3,-2.5123853E-2,-9.112279E-3,1.0147339E-2,2.5043456E-2,-7.2316587E-4,-1.4329806E-2,-2.0682584E-3,6.3898126E-3,-2.4857897E-2,3.2729086E-2,1.2958206E-2],"split_indices":[15,9,11,1,17,2,10,18,17,1,1,0,9,0,0,15,15,20,9,10,12,16,15,5,0,0,0,0,0,0,0,0,0,0,0,0,0,0,0,0,0,0,0],"split_type":[0,0,0,0,0,0,0,0,0,0,0,0,0,0,0,0,0,0,0,0,0,0,0,0,0,0,0,0,0,0,0,0,0,0,0,0,0,0,0,0,0,0,0],"sum_hessian":[1.762539E4,1.734665E4,2.7873965E2,1.4203465E4,3.1431863E3,2.6608038E2,1.2659285E1,1.3664374E4,5.3909033E2,2.052516E3,1.0906703E3,6.282E0,2.5979837E2,5.4443216E0,7.2149625E0,2.102337E3,1.1562037E4,2.5270343E2,2.863869E2,1.1625151E3,8.9000085E2,8.4469446E2,2.459758E2,2.5125888E2,8.5395E0,5.5241864E2,1.5499182E3,1.1118902E4,4.43135E2,1.1489187E2,1.3781157E2,2.5132033E2,3.5066566E1,1.0896168E3,7.289834E1,4.5514072E1,8.4448676E2,4.027133E2,4.4198117E2,2.1401829E1,2.2457396E2,1.8981894E2,6.1439938E1],"tree_param":{"num_deleted":"0","num_feature":"21","num_nodes":"43","size_leaf_vector":"1"}},{"base_weights":[5.279383E-4,-3.24911E-2,7.489891E-2,-1.0435937E-2,-1.7256951E-1,1.0109776E-1,-1.9140136E-1,9.492785E-2,-5.21811E-2,-2.6438054E-1,-4.882263E-2,1.1216516E-1,-4.9174246E-1,2.220891E-1,-2.665643E-1,-2.8586406E-1,1.326978E-1,-6.7373805E-2,2.1383104E-1,4.804551E-2,-3.4568706E-1,-1.3824955E-2,-5.884719E-1,-3.653188E-2,1.5515421E-1,3.117977E-1,-7.46418E-1,3.6642435E-1,-3.893954E-2,-5.7207924E-1,-1.2690936E-1,-2.6442984E-2,2.9453114E-3,2.8406016E-3,1.1082823E-2,-5.8313417E-3,1.1842824E-3,1.3731067E-2,-6.261287E-3,2.4450859E-2,-2.298618E-3,-2.8104527E-2,-1.2903176E-2,1.7079927E-3,-2.0422658E-2,9.726932E-3,-3.720357E-2,2.8807754E-2,-5.227541E-3,1.0960078E-2,-8.4915216E-4,3.11081E-2,-9.716513E-3,-4.5710127E-3,-4.9647138E-2,-0E0,3.138682E-2,-4.2765107E-2,-4.728792E-3,-2.2832237E-2,-7.6841965E-4],"categories":[],"categories_nodes":[],"categories_segments":[],"categories_sizes":[],"default_left":[0,0,0,0,0,0,0,0,0,0,0,0,0,0,0,0,0,0,0,0,0,0,0,0,0,0,0,0,0,0,0,0,0,0,0,0,0,0,0,0,0,0,0,0,0,0,0,0,0,0,0,0,0,0,0,0,0,0,0,0,0],"id":21,"left_children":[1,3,5,7,9,11,13,15,17,19,21,23,25,27,29,31,33,35,37,39,41,43,45,47,49,51,53,55,-1,57,59,-1,-1,-1,-1,-1,-1,-1,-1,-1,-1,-1,-1,-1,-1,-1,-1,-1,-1,-1,-1,-1,-1,-1,-1,-1,-1,-1,-1,-1,-1],"loss_changes":[4.3339016E1,3.7632126E1,3.7866158E1,4.641694E1,1.8654037E1,3.236695E1,1.5220173E1,4.3041763E1,3.0529032E1,2.4289185E1,1.310952E1,3.1118443E1,1.9135504E1,1.1155766E1,1.710524E1,2.287479E1,1.8232632E1,3.2162308E1,8.540871E0,8.411545E0,1.3607735E1,1.2912684E1,5.7276087E0,4.5238255E1,4.1680702E1,4.0119777E0,1.0503754E1,6.5687914E0,0E0,1.6635067E1,1.029767E1,0E0,0E0,0E0,0E0,0E0,0E0,0E0,0E0,0E0,0E0,0E0,0E0,0E0,0E0,0E0,0E0,0E0,0E0,0E0,0E0,0E0,0E0,0E0,0E0,0E0,0E0,0E0,0E0,0E0,0E0],"parents":[2147483647,0,0,1,1,2,2,3,3,4,4,5,5,6,6,7,7,8,8,9,9,10,10,11,11,12,12,13,13,14,14,15,15,16,16,17,17,18,18,19,19,20,20,21,21,22,22,23,23,24,24,25,25,26,26,27,27,29,29,30,30],"right_children":[2,4,6,8,10,12,14,16,18,20,22,24,26,28,30,32,34,36,38,40,42,44,46,48,50,52,54,56,-1,58,60,-1,-1,-1,-1,-1,-1,-1,-1,-1,-1,-1,-1,-1,-1,-1,-1,-1,-1,-1,-1,-1,-1,-1,-1,-1,-1,-1,-1,-1,-1],"split_conditions":[4.50606E-1,4.4444446E-2,7.559344E-3,-2.15392E-2,3.80762E-2,4.13878E-1,4.92416E-1,2E2,1.09756E-1,-1.0909E-1,1.6867293E-2,-1.32801E-1,5.0016593E-2,7.3556E6,5.86E5,-4.16654E-2,1.0855043E-3,3.987135E-3,3.9558098E-2,-1.81642E-1,-6.64493E-2,1.3449861E0,5.3985E-2,-2.49395E-1,-3.3504394E-1,4.6340756E0,-1.2428671E0,2.06574E-1,-3.893954E-2,6.87341E-1,2.15578E-1,-2.6442984E-2,2.9453114E-3,2.8406016E-3,1.1082823E-2,-5.8313417E-3,1.1842824E-3,1.3731067E-2,-6.261287E-3,2.4450859E-2,-2.298618E-3,-2.8104527E-2,-1.2903176E-2,1.7079927E-3,-2.0422658E-2,9.726932E-3,-3.720357E-2,2.8807754E-2,-5.227541E-3,1.0960078E-2,-8.4915216E-4,3.11081E-2,-9.716513E-3,-4.5710127E-3,-4.9647138E-2,-0E0,3.138682E-2,-4.2765107E-2,-4.728792E-3,-2.2832237E-2,-7.6841965E-4],"split_indices":[1,14,7,5,0,6,1,18,5,5,15,0,13,18,18,6,15,15,14,5,0,9,0,5,9,10,9,0,0,1,0,0,0,0,0,0,0,0,0,0,0,0,0,0,0,0,0,0,0,0,0,0,0,0,0,0,0,0,0,0,0],"split_type":[0,0,0,0,0,0,0,0,0,0,0,0,0,0,0,0,0,0,0,0,0,0,0,0,0,0,0,0,0,0,0,0,0,0,0,0,0,0,0,0,0,0,0,0,0,0,0,0,0,0,0,0,0,0,0,0,0,0,0,0,0],"sum_hessian":[1.7636021E4,1.2209625E4,5.4263955E3,1.0553681E4,1.6559447E3,4.9431978E3,4.8319766E2,2.9907E3,7.5629805E3,9.470157E2,7.08929E2,4.855027E3,8.817076E1,7.269918E1,4.1049847E2,2.674931E2,2.7232068E3,7.157565E3,4.0541574E2,1.9445956E2,7.525561E2,6.6854956E2,4.0379433E1,1.0862861E3,3.7687407E3,2.0639168E1,6.753159E1,6.5081276E1,7.617909E0,1.2571221E2,2.8478625E2,1.5712971E2,1.1036337E2,1.4743862E3,1.2488206E3,4.648288E3,2.5092769E3,3.453516E2,6.0064148E1,3.3631824E1,1.6082774E2,2.1212817E2,5.404279E2,5.965695E2,7.198E1,6.078286E0,3.4301147E1,1.063187E2,9.7996747E2,2.7484714E3,1.0202693E3,1.3121977E1,7.5171914E0,1.9771105E1,4.7760487E1,2.7554653E1,3.7526623E1,7.7258286E1,4.845393E1,6.928794E1,2.1549832E2],"tree_param":{"num_deleted":"0","num_feature":"21","num_nodes":"61","size_leaf_vector":"1"}},{"base_weights":[-5.204583E-3,-1.8203972E-2,1.930219E-1,-6.164891E-2,3.8297717E-2,4.3283972E-1,1.06600136E-1,-5.2638274E-2,-6.680051E-1,1.0596571E0,2.8244672E-2,3.3513728E-1,8.035697E-1,2.6372907E-1,-2.5210569E-2,1.6534977E-2,-1.1076775E-1,-8.168013E-1,-1.9899277E-1,-0E0,1.1630288E0,-2.1605921E-1,4.5913998E-2,2.0395309E-1,5.746967E-1,-0E0,9.9832255E-1,-1.0605197E-1,4.251316E-1,6.22743E-2,-4.4024953E-1,-1.0895668E-2,4.0664314E-3,-3.0487388E-2,-3.7907106E-3,-7.722127E-3,-4.8277814E-2,1.0662564E-2,-3.8897604E-2,6.4795285E-2,1.076637E-3,-1.614025E-2,6.298916E-3,5.101229E-3,-2.2776413E-3,2.1082E-2,-3.5628085E-3,-6.140299E-3,3.6799576E-2,2.0561093E-2,-2.0031482E-2,1.1567842E-2,5.3581562E-2,-1.2967588E-2,1.8979384E-2,1.3638951E-2,4.1919004E-2,-3.80687E-2,5.1615937E-3,-4.95379E-2,-0E0],"categories":[],"categories_nodes":[],"categories_segments":[],"categories_sizes":[],"default_left":[0,0,0,0,0,0,0,0,0,0,0,0,0,0,0,0,0,0,0,0,0,0,0,0,0,0,0,0,0,0,0,0,0,0,0,0,0,0,0,0,0,0,0,0,0,0,0,0,0,0,0,0,0,0,0,0,0,0,0,0,0],"id":22,"left_children":[1,3,5,7,9,11,13,15,17,19,21,23,25,27,29,31,33,35,37,-1,39,41,43,45,47,49,51,53,55,57,59,-1,-1,-1,-1,-1,-1,-1,-1,-1,-1,-1,-1,-1,-1,-1,-1,-1,-1,-1,-1,-1,-1,-1,-1,-1,-1,-1,-1,-1,-1],"loss_changes":[4.5260254E1,4.056058E1,2.2035648E1,5.0616657E1,7.307575E1,9.182102E0,1.667242E1,3.7081192E1,8.645821E0,7.1644287E0,3.0619518E1,6.5834045E0,9.024654E0,2.2106613E1,1.6015972E1,6.381353E1,8.6914566E1,9.158043E0,9.246004E0,0E0,8.827553E0,1.762777E1,3.4077354E1,9.37958E0,9.341267E0,2.4579568E0,1.4292488E0,8.47015E0,1.5122166E1,1.1956231E1,1.891432E1,0E0,0E0,0E0,0E0,0E0,0E0,0E0,0E0,0E0,0E0,0E0,0E0,0E0,0E0,0E0,0E0,0E0,0E0,0E0,0E0,0E0,0E0,0E0,0E0,0E0,0E0,0E0,0E0,0E0,0E0],"parents":[2147483647,0,0,1,1,2,2,3,3,4,4,5,5,6,6,7,7,8,8,9,9,10,10,11,11,12,12,13,13,14,14,15,15,16,16,17,17,18,18,20,20,21,21,22,22,23,23,24,24,25,25,26,26,27,27,28,28,29,29,30,30],"right_children":[2,4,6,8,10,12,14,16,18,20,22,24,26,28,30,32,34,36,38,-1,40,42,44,46,48,50,52,54,56,58,60,-1,-1,-1,-1,-1,-1,-1,-1,-1,-1,-1,-1,-1,-1,-1,-1,-1,-1,-1,-1,-1,-1,-1,-1,-1,-1,-1,-1,-1,-1],"split_conditions":[7.03319E-1,2.255101E-3,-1.1802902E0,2.1718917E-3,2.3144877E-3,7.6933E8,1.0026E6,-4.426431E-3,6.30064E-2,-2.28724E-2,-4.21931E-2,-4.3530084E-4,6.1942857E-2,9.75E6,-2.5929144E-1,7.56E4,-3.9339503E-3,-3.90404E-2,2.042269E-3,-0E0,1.39386E0,8.22703E9,7.008369E-2,-8.4082745E-3,5.41E4,5.8377475E-2,-8.0387E-2,-4.5954E-1,8.19098E-1,-1.6637279E-2,-2.83019E-2,-1.0895668E-2,4.0664314E-3,-3.0487388E-2,-3.7907106E-3,-7.722127E-3,-4.8277814E-2,1.0662564E-2,-3.8897604E-2,6.4795285E-2,1.076637E-3,-1.614025E-2,6.298916E-3,5.101229E-3,-2.2776413E-3,2.1082E-2,-3.5628085E-3,-6.140299E-3,3.6799576E-2,2.0561093E-2,-2.0031482E-2,1.1567842E-2,5.3581562E-2,-1.2967588E-2,1.8979384E-2,1.3638951E-2,4.1919004E-2,-3.80687E-2,5.1615937E-3,-4.95379E-2,-0E0],"split_indices":[1,15,9,15,15,19,18,15,4,3,3,7,13,20,9,18,15,0,7,0,2,19,12,7,18,13,3,9,1,7,5,0,0,0,0,0,0,0,0,0,0,0,0,0,0,0,0,0,0,0,0,0,0,0,0,0,0,0,0,0,0],"split_type":[0,0,0,0,0,0,0,0,0,0,0,0,0,0,0,0,0,0,0,0,0,0,0,0,0,0,0,0,0,0,0,0,0,0,0,0,0,0,0,0,0,0,0,0,0,0,0,0,0,0,0,0,0,0,0,0,0,0,0,0,0],"sum_hessian":[1.7593559E4,1.6514877E4,1.0786816E3,9.341066E3,7.1738096E3,2.820894E2,7.965922E2,9.207242E3,1.3382422E2,6.740216E1,7.1064077E3,2.2733423E2,5.475516E1,3.642129E2,4.323793E2,4.2009736E3,5.0062686E3,9.965811E1,3.4166107E1,6.492225E0,6.090993E1,4.7588315E2,6.6305244E3,1.5063533E2,7.669889E1,1.0928709E1,4.382645E1,1.0993484E2,2.5427806E2,3.5751495E2,7.486434E1,9.069255E2,3.294048E3,3.2464197E2,4.681627E3,1.9640932E1,8.001717E1,2.0189804E1,1.3976303E1,5.3924267E1,6.985664E0,3.6389133E2,1.1199183E2,4.1127695E3,2.5177546E3,8.4527695E1,6.610764E1,1.3912605E1,6.2786285E1,5.191008E0,5.737701E0,5.1437845E0,3.8682667E1,8.504921E1,2.4885632E1,1.8909454E2,6.518352E1,1.4691216E1,3.4282373E2,3.2445896E1,4.2418446E1],"tree_param":{"num_deleted":"0","num_feature":"21","num_nodes":"61","size_leaf_vector":"1"}},{"base_weights":[-1.9012619E-3,5.527571E-2,-4.1647244E-2,-8.6403675E-2,1.0762744E-1,3.760431E-2,-6.842153E-2,3.8773334E-1,-1.08992994E-1,1.6519748E-1,2.084033E-2,-2.3875849E-1,8.588699E-2,-5.9358245E-1,-4.733625E-2,6.3560486E-1,-3.3611763E-2,-3.450068E-1,-6.555956E-2,1.2749226E-1,4.118224E-1,5.9447058E-2,-2.7969444E-1,-7.1634215E-1,-1.5332644E-1,-2.6635414E-2,1.6390634E-1,-6.585861E-1,-3.67502E-2,7.860417E-1,-5.651653E-2,-4.2412006E-3,3.822062E-2,-4.391582E-2,8.131999E-3,-2.309031E-2,1.5488875E-3,3.7408464E-2,-4.0611844E-3,5.0696456E-3,2.4455687E-2,-2.4318725E-3,2.5196357E-2,-7.431585E-3,4.736751E-3,2.0034205E-2,-1.8679218E-2,-2.0426048E-2,-5.3743817E-2,2.9507846E-2,-1.0125567E-2,7.611466E-3,-1.2060682E-2,1.1906992E-2,-9.3852676E-4,-2.2971887E-2,-4.4888612E-2,-2.2976043E-2,1.04681235E-2,1.5647115E-2,5.066322E-2,-7.301014E-3,9.9617246E-5],"categories":[],"categories_nodes":[],"categories_segments":[],"categories_sizes":[],"default_left":[0,0,0,0,0,0,0,0,0,0,0,0,0,0,0,0,0,0,0,0,0,0,0,0,0,0,0,0,0,0,0,0,0,0,0,0,0,0,0,0,0,0,0,0,0,0,0,0,0,0,0,0,0,0,0,0,0,0,0,0,0,0,0],"id":23,"left_children":[1,3,5,7,9,11,13,15,17,19,21,23,25,27,29,31,33,35,37,39,41,43,45,47,49,51,53,55,57,59,61,-1,-1,-1,-1,-1,-1,-1,-1,-1,-1,-1,-1,-1,-1,-1,-1,-1,-1,-1,-1,-1,-1,-1,-1,-1,-1,-1,-1,-1,-1,-1,-1],"loss_changes":[4.0007713E1,5.354709E1,2.2071981E1,2.0780478E1,2.6241196E1,3.4936623E1,8.569937E1,9.5238285E0,1.881031E1,2.9064339E1,2.4384724E1,1.5208097E1,1.9690516E1,1.0425354E1,5.6923542E1,5.6836796E0,6.231688E0,1.28364105E1,1.9859554E1,2.5566376E1,1.7968842E1,1.3742282E1,1.5545332E1,4.732746E0,1.2230423E1,3.519306E1,1.8049152E1,1.1204689E1,3.873347E0,7.410309E0,3.8811142E1,0E0,0E0,0E0,0E0,0E0,0E0,0E0,0E0,0E0,0E0,0E0,0E0,0E0,0E0,0E0,0E0,0E0,0E0,0E0,0E0,0E0,0E0,0E0,0E0,0E0,0E0,0E0,0E0,0E0,0E0,0E0,0E0],"parents":[2147483647,0,0,1,1,2,2,3,3,4,4,5,5,6,6,7,7,8,8,9,9,10,10,11,11,12,12,13,13,14,14,15,15,16,16,17,17,18,18,19,19,20,20,21,21,22,22,23,23,24,24,25,25,26,26,27,27,28,28,29,29,30,30],"right_children":[2,4,6,8,10,12,14,16,18,20,22,24,26,28,30,32,34,36,38,40,42,44,46,48,50,52,54,56,58,60,62,-1,-1,-1,-1,-1,-1,-1,-1,-1,-1,-1,-1,-1,-1,-1,-1,-1,-1,-1,-1,-1,-1,-1,-1,-1,-1,-1,-1,-1,-1,-1,-1],"split_conditions":[-7.188733E-1,2.728E5,-4.426431E-3,-1.5313718E0,4.28571E-2,9.6E3,-3.6932384E-3,1.62E4,-9.205633E-3,1.1521896E-2,5.9489746E-2,2.66842E-1,-1.2474436E-2,3.39032E-2,-3.5115501E-3,-5.6110966E-1,6.6391945E-2,5.8377475E-2,-8.017205E-3,8.01392E-2,-3.64899E-2,2.5132602E-2,7.67122E-2,3.8845677E-2,-3.1172307E0,-1.8253526E-2,3.8691103E-2,1.0692E6,-4.15392E-3,-2.6827952E-1,2.255101E-3,-4.2412006E-3,3.822062E-2,-4.391582E-2,8.131999E-3,-2.309031E-2,1.5488875E-3,3.7408464E-2,-4.0611844E-3,5.0696456E-3,2.4455687E-2,-2.4318725E-3,2.5196357E-2,-7.431585E-3,4.736751E-3,2.0034205E-2,-1.8679218E-2,-2.0426048E-2,-5.3743817E-2,2.9507846E-2,-1.0125567E-2,7.611466E-3,-1.2060682E-2,1.1906992E-2,-9.3852676E-4,-2.2971887E-2,-4.4888612E-2,-2.2976043E-2,1.04681235E-2,1.5647115E-2,5.066322E-2,-7.301014E-3,9.9617246E-5],"split_indices":[9,18,15,11,6,18,15,17,15,15,13,2,15,3,15,8,13,13,15,5,3,13,6,13,11,15,14,18,15,8,15,0,0,0,0,0,0,0,0,0,0,0,0,0,0,0,0,0,0,0,0,0,0,0,0,0,0,0,0,0,0,0,0],"split_type":[0,0,0,0,0,0,0,0,0,0,0,0,0,0,0,0,0,0,0,0,0,0,0,0,0,0,0,0,0,0,0,0,0,0,0,0,0,0,0,0,0,0,0,0,0,0,0,0,0,0,0,0,0,0,0,0,0,0,0,0,0,0,0],"sum_hessian":[1.7603701E4,7.213413E3,1.0390287E4,1.9433303E3,5.270083E3,2.6188977E3,7.7713896E3,8.589884E1,1.8574315E3,3.163809E3,2.106274E3,3.867802E2,2.2321174E3,2.9696664E2,7.474423E3,5.4189537E1,3.1709305E1,2.84746E2,1.5726855E3,2.7486443E3,4.1516476E2,1.8693988E3,2.3687508E2,5.5560806E1,3.3121942E2,9.1187946E2,1.3202379E3,2.647919E2,3.2174747E1,7.900177E1,7.395421E3,7.7339935E0,4.6455544E1,5.1480317E0,2.6561274E1,2.1792198E2,6.682403E1,2.7332916E1,1.5453527E3,2.5672979E3,1.8134644E2,6.845457E1,3.467102E2,2.680752E2,1.6013236E3,2.728588E1,2.095892E2,3.294722E1,2.2613586E1,1.855638E1,3.1266306E2,4.9637228E2,4.1550717E2,9.4027356E2,3.7996442E2,1.4881741E2,1.1597449E2,1.1947968E1,2.0226778E1,2.7889063E1,5.111271E1,2.9255798E3,4.4698413E3],"tree_param":{"num_deleted":"0","num_feature":"21","num_nodes":"63","size_leaf_vector":"1"}},{"base_weights":[-2.4267397E-4,-6.103108E-3,3.8154364E-1,-6.395576E-2,2.5974607E-2,4.3893942E-1,-4.3196547E-1,-4.653394E-2,-4.125735E-1,7.372599E-2,-4.312422E-2,7.264814E-1,3.203912E-1,-3.9349347E-2,1.2480741E-2,-3.3104947E-1,-3.147775E-2,4.840168E-2,-4.618691E-1,1.4164637E-1,-6.0911593E-3,-7.6790184E-2,1.6745235E-1,8.778922E-1,-2.729848E-2,1.8991408E-1,6.304908E-1,-4.3004885E-2,-1.3256614E-2,7.9947E-3,-2.9694305E-3,-2.6895022E-2,1.983085E-2,6.3028344E-4,1.2813455E-2,-3.8656306E-3,7.497812E-3,3.2847181E-3,-6.759318E-3,1.2435137E-2,-1.2997924E-2,-0E0,4.8168402E-2,1.6320271E-2,-2.0862842E-2,-6.5121166E-3,1.775446E-2,4.1500244E-2,1.5452106E-3],"categories":[],"categories_nodes":[],"categories_segments":[],"categories_sizes":[],"default_left":[0,0,0,0,0,0,0,0,0,0,0,0,0,0,0,0,0,0,0,0,0,0,0,0,0,0,0,0,0,0,0,0,0,0,0,0,0,0,0,0,0,0,0,0,0,0,0,0,0],"id":24,"left_children":[1,3,5,7,9,11,13,15,17,19,21,23,25,-1,-1,27,29,-1,31,33,35,37,39,41,43,45,47,-1,-1,-1,-1,-1,-1,-1,-1,-1,-1,-1,-1,-1,-1,-1,-1,-1,-1,-1,-1,-1,-1],"loss_changes":[3.931128E1,3.229069E1,1.2784023E1,3.7438877E1,3.69163E1,7.5213814E0,5.0020847E0,2.514249E1,2.0641258E1,3.594298E1,3.2352966E1,8.470718E0,6.6975136E0,0E0,0E0,9.285629E0,3.0003223E1,0E0,1.9128681E1,5.2788994E1,3.378124E1,3.2838932E1,2.1932745E1,4.6362495E0,2.1258595E0,7.1751313E0,5.712513E0,0E0,0E0,0E0,0E0,0E0,0E0,0E0,0E0,0E0,0E0,0E0,0E0,0E0,0E0,0E0,0E0,0E0,0E0,0E0,0E0,0E0,0E0],"parents":[2147483647,0,0,1,1,2,2,3,3,4,4,5,5,6,6,7,7,8,8,9,9,10,10,11,11,12,12,15,15,16,16,18,18,19,19,20,20,21,21,22,22,23,23,24,24,25,25,26,26],"right_children":[2,4,6,8,10,12,14,16,18,20,22,24,26,-1,-1,28,30,-1,32,34,36,38,40,42,44,46,48,-1,-1,-1,-1,-1,-1,-1,-1,-1,-1,-1,-1,-1,-1,-1,-1,-1,-1,-1,-1,-1,-1],"split_conditions":[2.7693078E-2,2.8163E-1,2.8741434E0,3.486551E-2,1.7998989E-1,-1.31579E-2,3.446E6,-1.4015308E-2,-4.5260083E-2,3.6842104E-2,1.5942E-1,6.3601077E-1,6.6391945E-2,-3.9349347E-2,1.2480741E-2,-1.00701E-1,-6.2856833E-3,4.840168E-2,1.8222414E-1,1.0855043E-3,6.20123E-1,-1.61901E-2,4.73415E-1,-1.09999E-1,-2.23486E-1,-6.50181E-2,8.643457E-2,-4.3004885E-2,-1.3256614E-2,7.9947E-3,-2.9694305E-3,-2.6895022E-2,1.983085E-2,6.3028344E-4,1.2813455E-2,-3.8656306E-3,7.497812E-3,3.2847181E-3,-6.759318E-3,1.2435137E-2,-1.2997924E-2,-0E0,4.8168402E-2,1.6320271E-2,-2.0862842E-2,-6.5121166E-3,1.775446E-2,4.1500244E-2,1.5452106E-3],"split_indices":[15,1,10,13,11,3,17,15,15,14,5,8,13,0,0,6,15,0,12,15,1,3,6,3,5,0,14,0,0,0,0,0,0,0,0,0,0,0,0,0,0,0,0,0,0,0,0,0,0],"split_type":[0,0,0,0,0,0,0,0,0,0,0,0,0,0,0,0,0,0,0,0,0,0,0,0,0,0,0,0,0,0,0,0,0,0,0,0,0,0,0,0,0,0,0,0,0,0,0,0,0],"sum_hessian":[1.7649629E4,1.738603E4,2.6359854E2,6.2063613E3,1.1179669E4,2.4766075E2,1.59378E1,5.9144917E3,2.918696E2,6.6152446E3,4.564424E3,6.807324E1,1.7958751E2,1.0758305E1,5.179497E0,2.9347806E2,5.6210137E3,8.427434E0,2.8344217E2,3.5765208E3,3.0387239E3,3.9384143E3,6.2600946E2,5.696481E1,1.1108436E1,1.2980722E2,4.9780285E1,2.9004868E1,2.6447318E2,7.119733E2,4.9090405E3,2.6160272E2,2.183943E1,1.6855424E3,1.8909784E3,2.0893423E3,9.493816E2,1.1423384E3,2.796076E3,5.2770026E2,9.8309235E1,5.0037065E0,5.19611E1,5.3235636E0,5.7848725E0,4.329162E1,8.65156E1,3.614908E1,1.3631205E1],"tree_param":{"num_deleted":"0","num_feature":"21","num_nodes":"49","size_leaf_vector":"1"}},{"base_weights":[8.74013E-4,4.2124502E-2,-5.428447E-2,-6.707026E-2,8.146829E-2,6.513818E-2,-8.781237E-2,-1.2888457E-1,1.18710056E-1,6.8163115E-1,7.554442E-2,-3.2366517E-1,9.453355E-2,-1.0446341E-1,1.0481407E-1,-4.787647E-1,-9.501084E-2,-7.46729E-1,1.7457992E-1,7.851302E-1,-1.7256882E-3,-2.4208088E-1,8.5439496E-2,-1.038719E0,-1.7393935E-1,2.598351E-1,2.0549092E-2,-8.776813E-2,-2.9861584E-1,5.0333947E-1,2.8058298E-2,-1.0159895E-2,-4.2099867E-2,-1.6592702E-2,-1.5088634E-3,-4.1985657E-2,-1.3916596E-4,1.7381182E-2,5.932435E-4,4.242126E-2,-0E0,-1.7701946E-2,1.9298334E-2,8.538326E-3,2.3708565E-3,-6.091216E-2,-1.786197E-2,1.1700893E-2,-2.2993261E-2,-2.8694401E-5,1.8068954E-2,-5.453609E-3,5.161285E-3,-1.698764E-3,-7.1029286E-3,-4.2302903E-2,-1.234684E-2,3.511869E-2,-0E0,-2.7033215E-2,4.946863E-3],"categories":[],"categories_nodes":[],"categories_segments":[],"categories_sizes":[],"default_left":[0,0,0,0,0,0,0,0,0,0,0,0,0,0,0,0,0,0,0,0,0,0,0,0,0,0,0,0,0,0,0,0,0,0,0,0,0,0,0,0,0,0,0,0,0,0,0,0,0,0,0,0,0,0,0,0,0,0,0,0,0],"id":25,"left_children":[1,3,5,7,9,11,13,15,17,19,21,23,25,27,29,31,33,35,37,39,-1,41,43,45,47,49,51,53,55,57,59,-1,-1,-1,-1,-1,-1,-1,-1,-1,-1,-1,-1,-1,-1,-1,-1,-1,-1,-1,-1,-1,-1,-1,-1,-1,-1,-1,-1,-1,-1],"loss_changes":[4.0118206E1,4.338528E1,3.0213455E1,3.07146E1,2.59164E1,1.8812912E1,1.8918007E1,2.341446E1,3.217611E1,5.7289124E0,2.3080795E1,1.1375228E1,1.8651733E1,1.7342567E1,1.4002055E1,1.669209E1,2.7962164E1,2.3564758E0,1.748767E1,2.9248772E0,0E0,1.5812388E1,2.3027145E1,6.639137E-1,1.1795261E1,1.2690983E1,1.1447274E1,1.4509232E1,1.1100208E1,7.6649323E0,1.5810768E1,0E0,0E0,0E0,0E0,0E0,0E0,0E0,0E0,0E0,0E0,0E0,0E0,0E0,0E0,0E0,0E0,0E0,0E0,0E0,0E0,0E0,0E0,0E0,0E0,0E0,0E0,0E0,0E0,0E0,0E0],"parents":[2147483647,0,0,1,1,2,2,3,3,4,4,5,5,6,6,7,7,8,8,9,9,10,10,11,11,12,12,13,13,14,14,15,15,16,16,17,17,18,18,19,19,21,21,22,22,23,23,24,24,25,25,26,26,27,27,28,28,29,29,30,30],"right_children":[2,4,6,8,10,12,14,16,18,20,22,24,26,28,30,32,34,36,38,40,-1,42,44,46,48,50,52,54,56,58,60,-1,-1,-1,-1,-1,-1,-1,-1,-1,-1,-1,-1,-1,-1,-1,-1,-1,-1,-1,-1,-1,-1,-1,-1,-1,-1,-1,-1,-1,-1],"split_conditions":[-3.861334E-1,3.115E5,-4.60424E-2,5.55307E-1,-2.49395E-1,-1.64006E-1,1.12321E-1,-1.377535E0,-1.1395237E0,8.9856887E-1,-1.5918577E0,5.27895E-1,6.44308E-1,4.2148E6,5.9987015E-1,-1.4774153E-1,-5.40852E-2,2.42225E-1,5E3,-5.367516E-1,-1.7256882E-3,8.6804E-1,-2.48143E-2,-2.8846574E-3,-3.4569063E0,2.62E4,2.12162E9,8.43932E-3,1.62553E-1,1.03061E-1,5.662434E-5,-1.0159895E-2,-4.2099867E-2,-1.6592702E-2,-1.5088634E-3,-4.1985657E-2,-1.3916596E-4,1.7381182E-2,5.932435E-4,4.242126E-2,-0E0,-1.7701946E-2,1.9298334E-2,8.538326E-3,2.3708565E-3,-6.091216E-2,-1.786197E-2,1.1700893E-2,-2.2993261E-2,-2.8694401E-5,1.8068954E-2,-5.453609E-3,5.161285E-3,-1.698764E-3,-7.1029286E-3,-4.2302903E-2,-1.234684E-2,3.511869E-2,-0E0,-2.7033215E-2,4.946863E-3],"split_indices":[9,18,6,1,5,5,5,9,8,8,11,2,2,18,11,11,5,6,18,9,0,1,6,7,11,18,20,5,1,4,7,0,0,0,0,0,0,0,0,0,0,0,0,0,0,0,0,0,0,0,0,0,0,0,0,0,0,0,0,0,0],"split_type":[0,0,0,0,0,0,0,0,0,0,0,0,0,0,0,0,0,0,0,0,0,0,0,0,0,0,0,0,0,0,0,0,0,0,0,0,0,0,0,0,0,0,0,0,0,0,0,0,0,0,0,0,0,0,0,0,0,0,0,0,0],"sum_hessian":[1.7630602E4,1.0092456E4,7.538146E3,2.6694753E3,7.4229805E3,1.6487357E3,5.8894106E3,2.0054949E3,6.639804E2,6.949735E1,7.353483E3,1.1328741E2,1.5354484E3,5.4240547E3,4.653557E2,1.7340234E2,1.8320925E3,3.822254E1,6.257579E2,6.1163395E1,8.333962E0,2.1921973E2,7.134263E3,1.698012E1,9.630729E1,4.7109985E2,1.0643484E3,4.9996143E3,4.2444037E2,7.230576E1,3.9304996E2,1.0115577E2,7.224658E1,3.9030865E2,1.4417839E3,3.314969E1,5.072855E0,3.0066348E2,3.250944E2,5.6153908E1,5.009485E0,1.8746944E2,3.1750298E1,2.1929258E3,4.9413374E3,1.1612122E1,5.367997E0,3.911403E1,5.719326E1,1.313411E2,3.3975876E2,4.1189258E2,6.524559E2,2.5175752E3,2.4820393E3,3.312504E1,3.9131534E2,5.1697113E1,2.0608652E1,4.1306023E1,3.5174393E2],"tree_param":{"num_deleted":"0","num_feature":"21","num_nodes":"61","size_leaf_vector":"1"}},{"base_weights":[-2.297764E-5,-4.193053E-2,5.2434172E-2,2.0144267E-2,-9.750229E-2,1.6150011E-1,1.6780315E-2,-2.4631347E-1,4.5338497E-2,-6.8374354E-1,-9.042751E-2,3.5781175E-2,2.902072E-1,5.8743432E-2,-7.124072E-2,-4.4726288E-1,-5.7370946E-2,-1.3827064E-2,1.3754402E-1,3.3207234E-2,-8.4414876E-1,-9.659899E-2,4.3413708E-1,6.355094E-1,-1.6112586E-2,6.196311E-1,1.2839319E-1,3.256711E-1,1.7245645E-2,2.741148E-1,-1.0863627E-1,-3.700003E-2,-8.3154915E-3,-2.0585157E-2,4.601563E-3,4.466828E-3,-5.6502665E-3,3.665371E-2,5.180535E-3,-4.6709962E-2,-0E0,9.95086E-3,-5.3540883E-3,-2.9034609E-2,2.8909614E-2,4.0377278E-2,7.366379E-4,-8.723336E-3,5.0497465E-3,3.3609904E-2,-1.4087471E-2,-2.8115517E-2,8.669957E-3,9.546093E-3,4.198007E-2,-2.4260215E-4,1.6740741E-2,1.753736E-2,-3.7575155E-2,-6.6892885E-2,-4.665611E-3],"categories":[],"categories_nodes":[],"categories_segments":[],"categories_sizes":[],"default_left":[0,0,0,0,0,0,0,0,0,0,0,0,0,0,0,0,0,0,0,0,0,0,0,0,0,0,0,0,0,0,0,0,0,0,0,0,0,0,0,0,0,0,0,0,0,0,0,0,0,0,0,0,0,0,0,0,0,0,0,0,0],"id":26,"left_children":[1,3,5,7,9,11,13,15,17,19,21,23,25,27,29,31,33,35,37,-1,39,41,43,45,47,49,51,53,55,57,59,-1,-1,-1,-1,-1,-1,-1,-1,-1,-1,-1,-1,-1,-1,-1,-1,-1,-1,-1,-1,-1,-1,-1,-1,-1,-1,-1,-1,-1,-1],"loss_changes":[3.865278E1,3.3782417E1,3.0253183E1,3.0919847E1,2.0912502E1,3.0867477E1,2.1747444E1,1.4787649E1,2.3098312E1,1.4279818E1,1.6447735E1,3.0674807E1,4.9893044E1,4.403177E1,2.44845E1,1.5012936E1,1.1269714E1,2.6330109E1,3.2848534E1,0E0,4.00515E0,1.5646145E1,9.267079E0,7.944824E0,1.673514E1,1.5265907E1,1.9830734E1,3.6236263E1,2.443676E1,1.4840682E1,3.1339287E1,0E0,0E0,0E0,0E0,0E0,0E0,0E0,0E0,0E0,0E0,0E0,0E0,0E0,0E0,0E0,0E0,0E0,0E0,0E0,0E0,0E0,0E0,0E0,0E0,0E0,0E0,0E0,0E0,0E0,0E0],"parents":[2147483647,0,0,1,1,2,2,3,3,4,4,5,5,6,6,7,7,8,8,9,9,10,10,11,11,12,12,13,13,14,14,15,15,16,16,17,17,18,18,20,20,21,21,22,22,23,23,24,24,25,25,26,26,27,27,28,28,29,29,30,30],"right_children":[2,4,6,8,10,12,14,16,18,20,22,24,26,28,30,32,34,36,38,-1,40,42,44,46,48,50,52,54,56,58,60,-1,-1,-1,-1,-1,-1,-1,-1,-1,-1,-1,-1,-1,-1,-1,-1,-1,-1,-1,-1,-1,-1,-1,-1,-1,-1,-1,-1,-1,-1],"split_conditions":[3.71698E-1,-1.12851E-3,-1.0585377E0,6E2,1.25257E-1,-1.7951561E-4,5.224632E-2,-4.246934E-1,2.255101E-3,-1.28318E-2,2.06574E-1,-3.05555E-1,9.712223E-4,-2.3636179E-1,-2.4042618E-2,-3.95964E-2,2.1185365E-2,-4.426431E-3,2.461149E-3,3.3207234E-2,5.66038E-2,1.2957639E-2,5.057148E-3,8.41201E-1,-1.28353E-1,3.74494E-1,3.1004788E-2,5.58907E-1,1.21109E-1,5.690358E-3,-2.2741556E-2,-3.700003E-2,-8.3154915E-3,-2.0585157E-2,4.601563E-3,4.466828E-3,-5.6502665E-3,3.665371E-2,5.180535E-3,-4.6709962E-2,-0E0,9.95086E-3,-5.3540883E-3,-2.9034609E-2,2.8909614E-2,4.0377278E-2,7.366379E-4,-8.723336E-3,5.0497465E-3,3.3609904E-2,-1.4087471E-2,-2.8115517E-2,8.669957E-3,9.546093E-3,4.198007E-2,-2.4260215E-4,1.6740741E-2,1.753736E-2,-3.7575155E-2,-6.6892885E-2,-4.665611E-3],"split_indices":[1,5,9,18,2,7,13,9,15,4,0,6,7,12,15,5,13,15,15,0,5,13,7,1,0,6,13,1,4,7,15,0,0,0,0,0,0,0,0,0,0,0,0,0,0,0,0,0,0,0,0,0,