{"learner":{"attributes":{"scikit_learn":"{\"_estimator_type\": \"classifier\"}"},"feature_names":["price_vs_sma50","volatility_20","volume_ratio_20","return_3d","return_5d","return_10d","return_20d","sma_50_LogReturn","volume_LogReturn","PCA_Trend","PCA_Oscillators","PCA_MACD","PCA_ShortReturns","atr_14","high_low","market_return","foreign_net"],"feature_types":["float","float","float","float","float","float","float","float","float","float","float","float","float","float","float","float","float"],"gradient_booster":{"model":{"cats":{"enc":[],"feature_segments":[],"sorted_idx":[]},"gbtree_model_param":{"num_parallel_tree":"1","num_trees":"300"},"iteration_indptr":[0,1,2,3,4,5,6,7,8,9,10,11,12,13,14,15,16,17,18,19,20,21,22,23,24,25,26,27,28,29,30,31,32,33,34,35,36,37,38,39,40,41,42,43,44,45,46,47,48,49,50,51,52,53,54,55,56,57,58,59,60,61,62,63,64,65,66,67,68,69,70,71,72,73,74,75,76,77,78,79,80,81,82,83,84,85,86,87,88,89,90,91,92,93,94,95,96,97,98,99,100,101,102,103,104,105,106,107,108,109,110,111,112,113,114,115,116,117,118,119,120,121,122,123,124,125,126,127,128,129,130,131,132,133,134,135,136,137,138,139,140,141,142,143,144,145,146,147,148,149,150,151,152,153,154,155,156,157,158,159,160,161,162,163,164,165,166,167,168,169,170,171,172,173,174,175,176,177,178,179,180,181,182,183,184,185,186,187,188,189,190,191,192,193,194,195,196,197,198,199,200,201,202,203,204,205,206,207,208,209,210,211,212,213,214,215,216,217,218,219,220,221,222,223,224,225,226,227,228,229,230,231,232,233,234,235,236,237,238,239,240,241,242,243,244,245,246,247,248,249,250,251,252,253,254,255,256,257,258,259,260,261,262,263,264,265,266,267,268,269,270,271,272,273,274,275,276,277,278,279,280,281,282,283,284,285,286,287,288,289,290,291,292,293,294,295,296,297,298,299,300],"tree_info":[0,0,0,0,0,0,0,0,0,0,0,0,0,0,0,0,0,0,0,0,0,0,0,0,0,0,0,0,0,0,0,0,0,0,0,0,0,0,0,0,0,0,0,0,0,0,0,0,0,0,0,0,0,0,0,0,0,0,0,0,0,0,0,0,0,0,0,0,0,0,0,0,0,0,0,0,0,0,0,0,0,0,0,0,0,0,0,0,0,0,0,0,0,0,0,0,0,0,0,0,0,0,0,0,0,0,0,0,0,0,0,0,0,0,0,0,0,0,0,0,0,0,0,0,0,0,0,0,0,0,0,0,0,0,0,0,0,0,0,0,0,0,0,0,0,0,0,0,0,0,0,0,0,0,0,0,0,0,0,0,0,0,0,0,0,0,0,0,0,0,0,0,0,0,0,0,0,0,0,0,0,0,0,0,0,0,0,0,0,0,0,0,0,0,0,0,0,0,0,0,0,0,0,0,0,0,0,0,0,0,0,0,0,0,0,0,0,0,0,0,0,0,0,0,0,0,0,0,0,0,0,0,0,0,0,0,0,0,0,0,0,0,0,0,0,0,0,0,0,0,0,0,0,0,0,0,0,0,0,0,0,0,0,0,0,0,0,0,0,0,0,0,0,0,0,0,0,0,0,0,0,0,0,0,0,0,0,0,0,0,0,0,0,0,0,0,0,0,0,0],"trees":[{"base_weights":[3.8665198E-4,-1.4402839E-2,8.5212725E-1,2.6288908E-2,-1.9821495E-1,9.3250805E-1,-3.7834108E-1,1.1094228E-2,4.0155014E-1,3.7989303E-2,-2.3406528E-1,-2.3689916E-2,9.737243E-1,1.6866054E-2,-3.7172206E-2,-5.234897E-2,7.238258E-2,4.8481384E-1,-1.7136604E-1,3.4470484E-1,-4.560425E-2,4.6529073E-1,-2.4481292E-1,1.120132E0,5.52616E-1,-6.2911212E-3,2.292824E-3,6.97815E-3,-4.820815E-4,2.1873914E-2,7.27558E-2,-3.409114E-2,1.117705E-2,2.7786482E-2,-0E0,-5.2229497E-3,1.541895E-2,3.525422E-2,-4.4396147E-3,-9.483549E-3,-1.6942104E-2,6.0725905E-2,2.791076E-2,4.3009695E-2,7.1061337E-3],"categories":[],"categories_nodes":[],"categories_segments":[],"categories_sizes":[],"default_left":[0,0,0,0,0,0,0,0,0,0,0,0,0,0,0,0,0,0,0,0,0,0,0,0,0,0,0,0,0,0,0,0,0,0,0,0,0,0,0,0,0,0,0,0,0],"id":0,"left_children":[1,3,5,7,9,11,13,15,17,19,21,-1,23,-1,-1,25,27,29,31,33,35,37,39,41,43,-1,-1,-1,-1,-1,-1,-1,-1,-1,-1,-1,-1,-1,-1,-1,-1,-1,-1,-1,-1],"loss_changes":[2.2278543E2,1.2987405E2,3.0838745E1,8.078401E1,2.6767395E1,1.76521E1,5.8132257E0,5.311662E1,2.6629814E1,1.0811761E1,2.0672745E1,0E0,1.5016937E1,0E0,0E0,4.8447224E1,3.8369526E1,1.9954475E1,1.4784442E1,6.696043E0,6.760665E0,5.930793E0,1.3582336E1,8.517441E0,8.893509E0,0E0,0E0,0E0,0E0,0E0,0E0,0E0,0E0,0E0,0E0,0E0,0E0,0E0,0E0,0E0,0E0,0E0,0E0,0E0,0E0],"parents":[2147483647,0,0,1,1,2,2,3,3,4,4,5,5,6,6,7,7,8,8,9,9,10,10,12,12,15,15,16,16,17,17,18,18,19,19,20,20,21,21,22,22,23,23,24,24],"right_children":[2,4,6,8,10,12,14,16,18,20,22,-1,24,-1,-1,26,28,30,32,34,36,38,40,42,44,-1,-1,-1,-1,-1,-1,-1,-1,-1,-1,-1,-1,-1,-1,-1,-1,-1,-1,-1,-1],"split_conditions":[2.7693078E-2,1.0563322E0,2.7335262E0,7.71991E-1,-2.78088E-2,2.11205E-1,-2.491241E-2,3.56092E-1,-2.5929144E-1,-1.7798377E-2,-1.3001E-1,-2.3689916E-2,3.6550853E-2,1.6866054E-2,-3.7172206E-2,2.255101E-3,-6.951613E-1,2.0259121E-2,-1.00336E-2,-4.33213E-2,-3.0459E-2,-5.27781E-2,2.245852E0,9.283645E-1,2.90791E-2,-6.2911212E-3,2.292824E-3,6.97815E-3,-4.820815E-4,2.1873914E-2,7.27558E-2,-3.409114E-2,1.117705E-2,2.7786482E-2,-0E0,-5.2229497E-3,1.541895E-2,3.525422E-2,-4.4396147E-3,-9.483549E-3,-1.6942104E-2,6.0725905E-2,2.791076E-2,4.3009695E-2,7.1061337E-3],"split_indices":[15,9,10,1,3,2,11,1,9,15,6,0,15,0,0,15,9,15,3,3,3,5,9,9,4,0,0,0,0,0,0,0,0,0,0,0,0,0,0,0,0,0,0,0,0],"split_type":[0,0,0,0,0,0,0,0,0,0,0,0,0,0,0,0,0,0,0,0,0,0,0,0,0,0,0,0,0,0,0,0,0,0,0,0,0,0,0,0,0,0,0,0,0],"sum_hessian":[1.7648662E4,1.7348799E4,2.9986273E2,1.4203474E4,3.1453264E3,2.8231128E2,1.7551443E1,1.3654001E4,5.494718E2,4.1262567E2,2.7327007E3,7.095325E0,2.7521594E2,5.5179877E0,1.2033455E1,6.705193E3,6.9488086E3,4.8077896E2,6.8692825E1,8.831622E1,3.2430945E2,3.9375916E1,2.693325E3,2.0087132E2,7.4344635E1,3.838161E3,2.8670317E3,3.8226392E3,3.1261697E3,4.6167355E2,1.9105406E1,2.98813E1,3.8811523E1,5.442988E1,3.388634E1,2.804954E2,4.3814045E1,2.7731667E1,1.1644248E1,1.7048774E3,9.884474E2,1.6923245E2,3.1638863E1,4.0551098E1,3.3793537E1],"tree_param":{"num_deleted":"0","num_feature":"17","num_nodes":"45","size_leaf_vector":"1"}},{"base_weights":[4.8619164E-3,-8.878919E-3,8.0958676E-1,9.186073E-2,-8.15418E-2,9.902245E-1,3.495683E-1,-7.1925566E-2,1.6704279E-1,-3.614478E-2,-2.1080533E-1,-2.1878907E-2,1.0323546E0,8.081718E-1,-2.4200386E-1,-1.9631809E-1,9.423791E-2,1.3801154E-1,5.655021E-1,6.0927305E-2,-7.566065E-2,9.688984E-2,-2.4393238E-1,1.0619967E0,-0E0,1.4099693E-1,1.134783E0,3.000651E-1,-5.498877E-1,-3.5626575E-2,-8.018959E-3,1.4963736E-2,-4.8195016E-5,-3.8822505E-3,8.981244E-3,3.1875536E-2,5.917835E-3,5.5748773E-5,1.2250308E-2,4.3046367E-3,-6.2008663E-3,1.0287922E-2,-1.1866555E-2,-1.7148297E-2,-7.6158307E-3,3.7818708E-2,6.012925E-2,-1.6010905E-2,2.7528388E-2,3.1559889E-3,6.530743E-2,3.3237662E-2,-8.211831E-3,-1.1472864E-2,-4.524386E-2],"categories":[],"categories_nodes":[],"categories_segments":[],"categories_sizes":[],"default_left":[0,0,0,0,0,0,0,0,0,0,0,0,0,0,0,0,0,0,0,0,0,0,0,0,0,0,0,0,0,0,0,0,0,0,0,0,0,0,0,0,0,0,0,0,0,0,0,0,0,0,0,0,0,0,0],"id":1,"left_children":[1,3,5,7,9,11,13,15,17,19,21,-1,23,25,27,29,31,33,35,37,39,41,43,45,-1,47,49,51,53,-1,-1,-1,-1,-1,-1,-1,-1,-1,-1,-1,-1,-1,-1,-1,-1,-1,-1,-1,-1,-1,-1,-1,-1,-1,-1],"loss_changes":[1.9618207E2,1.2744042E2,2.3389175E1,8.987523E1,5.9232826E1,1.3953781E1,2.4509377E1,4.7498528E1,5.7344772E1,2.8759315E1,2.6892082E1,0E0,6.832382E0,1.003051E1,7.035412E0,2.3714687E1,1.9310928E1,4.19468E1,1.0348389E1,2.3716274E1,4.1729652E1,9.36933E0,2.1179855E1,5.860718E0,0E0,4.124871E0,5.2231407E0,3.0065143E0,2.0251975E0,0E0,0E0,0E0,0E0,0E0,0E0,0E0,0E0,0E0,0E0,0E0,0E0,0E0,0E0,0E0,0E0,0E0,0E0,0E0,0E0,0E0,0E0,0E0,0E0,0E0,0E0],"parents":[2147483647,0,0,1,1,2,2,3,3,4,4,5,5,6,6,7,7,8,8,9,9,10,10,12,12,13,13,14,14,15,15,16,16,17,17,18,18,19,19,20,20,21,21,22,22,23,23,25,25,26,26,27,27,28,28],"right_children":[2,4,6,8,10,12,14,16,18,20,22,-1,24,26,28,30,32,34,36,38,40,42,44,46,-1,48,50,52,54,-1,-1,-1,-1,-1,-1,-1,-1,-1,-1,-1,-1,-1,-1,-1,-1,-1,-1,-1,-1,-1,-1,-1,-1,-1,-1],"split_conditions":[2.7693078E-2,-7.0128393E-1,3.6550853E-2,3.02551E-1,1.3449861E0,2.43686E-1,4.70588E-2,2.255101E-3,7.84602E-1,-5.501263E-2,-2.185344E-3,-2.1878907E-2,3.006992E0,5.224632E-2,-1.1461401E0,-1.3603557E0,1.5996428E-2,-4.310161E-3,3.44918E-1,5.29664E-1,-4.9192845E-3,-1.0618281E0,2.2389E-1,2.9311841E-2,-0E0,-1.2412254E-1,-7.904532E-3,6.18997E-2,7.9671E-2,-3.5626575E-2,-8.018959E-3,1.4963736E-2,-4.8195016E-5,-3.8822505E-3,8.981244E-3,3.1875536E-2,5.917835E-3,5.5748773E-5,1.2250308E-2,4.3046367E-3,-6.2008663E-3,1.0287922E-2,-1.1866555E-2,-1.7148297E-2,-7.6158307E-3,3.7818708E-2,6.012925E-2,-1.6010905E-2,2.7528388E-2,3.1559889E-3,6.530743E-2,3.3237662E-2,-8.211831E-3,-1.1472864E-2,-4.524386E-2],"split_indices":[15,9,15,1,9,2,4,15,1,12,7,0,9,13,9,9,14,7,6,1,15,11,1,15,0,12,7,6,6,0,0,0,0,0,0,0,0,0,0,0,0,0,0,0,0,0,0,0,0,0,0,0,0,0,0],"split_type":[0,0,0,0,0,0,0,0,0,0,0,0,0,0,0,0,0,0,0,0,0,0,0,0,0,0,0,0,0,0,0,0,0,0,0,0,0,0,0,0,0,0,0,0,0,0,0,0,0,0,0,0,0,0,0],"sum_hessian":[1.7702336E4,1.7406473E4,2.9586237E2,7.290932E3,1.0115541E4,2.1000615E2,8.585622E1,2.2917422E3,4.9991904E3,7.49111E3,2.6244312E3,5.1408405E0,2.0486531E2,4.842709E1,3.742913E1,1.3121172E3,9.7962494E2,4.6633706E3,3.358198E2,2.1632573E3,5.3278525E3,2.5324677E2,2.3711843E3,1.9953653E2,5.328782E0,1.7359917E1,3.1067171E1,1.2988324E1,2.4440805E1,8.204776E1,1.2300693E3,3.1093243E2,6.686925E2,7.520752E2,3.9112952E3,2.8754385E2,4.8275925E1,1.6363048E3,5.269525E2,1.2234624E3,4.10439E3,1.9273146E2,6.05153E1,1.1342037E3,1.2369806E3,6.800916E1,1.3152737E2,7.7962008E0,9.563717E0,5.0624847E0,2.6004686E1,7.3940578E0,5.5942664E0,1.5316577E1,9.1242285E0],"tree_param":{"num_deleted":"0","num_feature":"17","num_nodes":"55","size_leaf_vector":"1"}},{"base_weights":[-7.5571315E-4,-4.6764314E-2,1.8491594E-1,-7.4337847E-3,-1.8956497E-1,3.8642395E-1,1.0199854E-1,-1.5831564E-2,4.2443544E-1,1.9745393E-1,-2.1603715E-1,5.1333153E-1,1.150018E-1,1.4088391E-1,-1.9657686E-1,-3.0052248E-1,-5.1689753E-3,4.9327344E-1,-3.6314655E-2,3.9728498E-1,-0E0,2.9796375E-2,-2.3527397E-1,2.6099625E-1,8.403384E-1,2.1086624E-1,-3.81525E-1,-3.4606922E-1,1.6273585E-1,-3.438262E-1,6.0772743E-2,-3.5294485E-3,-2.2443987E-2,3.350842E-3,-3.1171637E-3,-2.120964E-2,2.7362466E-2,4.0425123E-3,3.1706166E-2,-7.0342245E-3,3.7052717E-2,-1.257024E-2,6.444938E-3,-1.6802348E-2,-9.702265E-3,5.030973E-2,5.2577956E-3,4.4987496E-2,7.78652E-3,5.211161E-3,4.1673344E-2,-3.373931E-2,-1.6315829E-4,-2.9028563E-2,2.1281517E-4,8.845849E-3,-2.950543E-2,9.661534E-3,-2.2595258E-2,9.097906E-3,-1.8247953E-2],"categories":[],"categories_nodes":[],"categories_segments":[],"categories_sizes":[],"default_left":[0,0,0,0,0,0,0,0,0,0,0,0,0,0,0,0,0,0,0,0,0,0,0,0,0,0,0,0,0,0,0,0,0,0,0,0,0,0,0,0,0,0,0,0,0,0,0,0,0,0,0,0,0,0,0,0,0,0,0,0,0],"id":2,"left_children":[1,3,5,7,9,11,13,15,17,19,21,23,25,27,29,31,33,35,-1,37,39,41,43,45,47,49,51,53,55,57,59,-1,-1,-1,-1,-1,-1,-1,-1,-1,-1,-1,-1,-1,-1,-1,-1,-1,-1,-1,-1,-1,-1,-1,-1,-1,-1,-1,-1,-1,-1],"loss_changes":[1.5105496E2,7.953859E1,5.8340767E1,4.014783E1,3.1437355E1,3.4739273E1,2.895945E1,3.2972374E1,1.7321377E1,7.7887783E0,1.3668152E1,5.6270508E1,1.5742718E1,2.3510014E1,1.1040003E1,1.3057819E1,4.343717E1,1.0468517E1,0E0,6.8610134E0,1.0532957E1,5.7958493E0,1.06549225E1,4.5156982E1,1.14136505E1,1.7816462E1,5.5505304E0,8.053268E0,2.2582085E1,1.0970594E1,5.4446607E0,0E0,0E0,0E0,0E0,0E0,0E0,0E0,0E0,0E0,0E0,0E0,0E0,0E0,0E0,0E0,0E0,0E0,0E0,0E0,0E0,0E0,0E0,0E0,0E0,0E0,0E0,0E0,0E0,0E0,0E0],"parents":[2147483647,0,0,1,1,2,2,3,3,4,4,5,5,6,6,7,7,8,8,9,9,10,10,11,11,12,12,13,13,14,14,15,15,16,16,17,17,19,19,20,20,21,21,22,22,23,23,24,24,25,25,26,26,27,27,28,28,29,29,30,30],"right_children":[2,4,6,8,10,12,14,16,18,20,22,24,26,28,30,32,34,36,-1,38,40,42,44,46,48,50,52,54,56,58,60,-1,-1,-1,-1,-1,-1,-1,-1,-1,-1,-1,-1,-1,-1,-1,-1,-1,-1,-1,-1,-1,-1,-1,-1,-1,-1,-1,-1,-1,-1],"split_conditions":[5.29664E-1,1.0563322E0,-1.0703115E0,1.21109E-1,-2.6709677E-3,7.67122E-2,7.559344E-3,-1.42211E-1,2.42647E-1,-4.2995E8,-3.56345E-2,-8.81552E-2,4.73415E-1,-9.2102575E-1,1.5425E-1,-5.866504E-3,-1.12851E-3,1.3821275E0,-3.6314655E-2,2.59388E-1,-6.885271E-1,1.4429727E0,-2.84407E9,-1.3554507E-2,4.8382906E-3,6.576941E-1,3.74058E-1,1.28637E-3,4.13878E-1,-6.0968024E-1,2.4440297E-1,-3.5294485E-3,-2.2443987E-2,3.350842E-3,-3.1171637E-3,-2.120964E-2,2.7362466E-2,4.0425123E-3,3.1706166E-2,-7.0342245E-3,3.7052717E-2,-1.257024E-2,6.444938E-3,-1.6802348E-2,-9.702265E-3,5.030973E-2,5.2577956E-3,4.4987496E-2,7.78652E-3,5.211161E-3,4.1673344E-2,-3.373931E-2,-1.6315829E-4,-2.9028563E-2,2.1281517E-4,8.845849E-3,-2.950543E-2,9.661534E-3,-2.2595258E-2,9.097906E-3,-1.8247953E-2],"split_indices":[1,9,9,4,7,6,7,0,4,16,3,0,6,8,5,7,5,10,0,1,11,9,16,7,7,11,0,4,6,10,9,0,0,0,0,0,0,0,0,0,0,0,0,0,0,0,0,0,0,0,0,0,0,0,0,0,0,0,0,0,0],"split_type":[0,0,0,0,0,0,0,0,0,0,0,0,0,0,0,0,0,0,0,0,0,0,0,0,0,0,0,0,0,0,0,0,0,0,0,0,0,0,0,0,0,0,0,0,0,0,0,0,0,0,0,0,0,0,0,0,0,0,0,0,0],"sum_hessian":[1.7686834E4,1.4177822E4,3.5090112E3,1.1120571E4,3.0572512E3,1.01907605E3,2.489935E3,1.09114795E4,2.0909135E2,1.936926E2,2.8635586E3,6.9192926E2,3.2714682E2,2.2054377E3,2.8449725E2,3.902608E2,1.0521219E4,1.9877742E2,1.031393E1,9.568693E1,9.800567E1,2.0584961E2,2.657709E3,3.9344907E2,2.984802E2,2.7601434E2,5.113247E1,9.246105E1,2.1129768E3,1.8176595E2,1.0273133E2,1.5553093E2,2.3472986E2,4.646128E3,5.8750913E3,9.767698E0,1.8900972E2,4.3012596E1,5.267433E1,8.3922295E1,1.4083377E1,5.152616E1,1.5432344E2,7.639641E2,1.8937449E3,6.56071E1,3.2784195E2,2.7339557E2,2.5084616E1,2.383296E2,3.7684746E1,2.7174665E1,2.3957802E1,5.5453907E1,3.700714E1,2.0760647E3,3.6912125E1,2.9412056E1,1.5235388E2,8.177389E1,2.0957447E1],"tree_param":{"num_deleted":"0","num_feature":"17","num_nodes":"61","size_leaf_vector":"1"}},{"base_weights":[2.2192602E-3,-1.1197027E-2,7.687683E-1,-8.058212E-2,7.785209E-2,8.398104E-1,-3.43213E-1,-1.430481E-1,2.9164227E-3,1.6338031E-1,-1.42320115E-2,-3.1448577E-2,8.8207775E-1,1.7928882E-3,-4.0204335E-2,-1.04012616E-1,-3.6164126E-1,5.7811767E-1,-1.4799738E-2,-4.8750333E-2,2.1681716E-1,2.6151085E-1,-4.064764E-2,9.23535E-1,-8.185708E-2,-6.1757187E-3,3.797133E-2,-3.553941E-2,-9.103949E-3,5.7051133E-2,1.8187283E-2,-3.055342E-4,-5.976469E-2,2.9454408E-2,-6.8667727E-3,1.5505152E-2,4.4786157E-3,5.8393157E-3,4.322933E-2,3.8484551E-3,-5.4187677E-3,5.2066427E-2,2.9370228E-2,6.3517103E-3,-1.6321119E-2],"categories":[],"categories_nodes":[],"categories_segments":[],"categories_sizes":[],"default_left":[0,0,0,0,0,0,0,0,0,0,0,0,0,0,0,0,0,0,0,0,0,0,0,0,0,0,0,0,0,0,0,0,0,0,0,0,0,0,0,0,0,0,0,0,0],"id":3,"left_children":[1,3,5,7,9,11,13,15,17,19,21,-1,23,-1,-1,25,27,29,31,33,35,37,39,41,43,-1,-1,-1,-1,-1,-1,-1,-1,-1,-1,-1,-1,-1,-1,-1,-1,-1,-1,-1,-1],"loss_changes":[1.821037E2,1.073127E2,2.488652E1,5.100236E1,5.996009E1,1.9072235E1,3.8114789E0,4.7385605E1,4.2868122E1,4.4822685E1,2.6572037E1,0E0,1.1778519E1,0E0,0E0,7.98065E1,5.2217384E1,1.3587437E1,4.0965042E1,4.4772655E1,3.7175278E1,2.7115385E1,2.666781E1,8.63382E0,8.418238E-1,0E0,0E0,0E0,0E0,0E0,0E0,0E0,0E0,0E0,0E0,0E0,0E0,0E0,0E0,0E0,0E0,0E0,0E0,0E0,0E0],"parents":[2147483647,0,0,1,1,2,2,3,3,4,4,5,5,6,6,7,7,8,8,9,9,10,10,12,12,15,15,16,16,17,17,18,18,19,19,20,20,21,21,22,22,23,23,24,24],"right_children":[2,4,6,8,10,12,14,16,18,20,22,-1,24,-1,-1,26,28,30,32,34,36,38,40,42,44,-1,-1,-1,-1,-1,-1,-1,-1,-1,-1,-1,-1,-1,-1,-1,-1,-1,-1,-1,-1],"split_conditions":[2.7693078E-2,3.71698E-1,2.8741434E0,2.255101E-3,-7.0128393E-1,2.11205E-1,-4.072568E-4,6.524786E-4,2.393344E-3,-1.28353E-1,-1.8253526E-2,-3.1448577E-2,2.678969E0,1.7928882E-3,-4.0204335E-2,5.714648E-4,1.0855043E-3,-1.06651E-2,2.506041E-2,-1.3554507E-2,1.5168346E-1,-2.1088084E-2,-2.8022978E-2,3.6550853E-2,3.3582717E-2,-6.1757187E-3,3.797133E-2,-3.553941E-2,-9.103949E-3,5.7051133E-2,1.8187283E-2,-3.055342E-4,-5.976469E-2,2.9454408E-2,-6.8667727E-3,1.5505152E-2,4.4786157E-3,5.8393157E-3,4.322933E-2,3.8484551E-3,-5.4187677E-3,5.2066427E-2,2.9370228E-2,6.3517103E-3,-1.6321119E-2],"split_indices":[15,1,10,15,9,2,7,15,15,0,15,0,9,0,0,15,15,4,15,7,11,15,12,15,13,0,0,0,0,0,0,0,0,0,0,0,0,0,0,0,0,0,0,0,0],"split_type":[0,0,0,0,0,0,0,0,0,0,0,0,0,0,0,0,0,0,0,0,0,0,0,0,0,0,0,0,0,0,0,0,0,0,0,0,0,0,0,0,0,0,0,0,0],"sum_hessian":[1.7666555E4,1.7363965E4,3.025889E2,9.762808E3,7.6011577E3,2.853008E2,1.7288074E1,5.587393E3,4.1754146E3,3.9428752E3,3.6582825E3,6.873043E0,2.7842776E2,9.90262E0,7.3854547E0,4.7452456E3,8.421477E2,1.2371287E2,4.0517017E3,7.9152826E2,3.151347E3,3.166075E2,3.341675E3,2.675245E2,1.0903262E1,4.642678E3,1.02567154E2,2.8305826E2,5.590895E2,3.1092234E1,9.2620636E1,4.024513E3,2.718862E1,9.4458145E1,6.970701E2,1.8143818E3,1.336965E3,2.5792722E2,5.8680305E1,1.218302E3,2.123373E3,1.9389313E2,7.3631386E1,5.2962546E0,5.6070075E0],"tree_param":{"num_deleted":"0","num_feature":"17","num_nodes":"45","size_leaf_vector":"1"}},{"base_weights":[-6.2942225E-3,9.088071E-2,-7.720345E-2,6.514191E-2,5.0982004E-1,5.370184E-2,-1.1566914E-1,-1.0658703E-1,1.11496024E-1,6.373597E-1,1.6968143E-1,1.8465887E-1,-4.868002E-3,-7.435274E-2,-2.3337044E-1,-4.342372E-1,-4.4012375E-2,-9.8823026E-2,1.4632013E-1,4.2330736E-1,8.5787874E-1,5.8269393E-1,-1.7800015E-1,-2.0538984E-1,2.4863778E-1,3.744513E-1,-4.59931E-2,-9.4293006E-2,1.3217054E-1,-3.5899377E-1,-1.2940104E-1,-1.3140048E-2,-3.9227344E-2,1.1654793E-2,-5.3579286E-3,3.6340293E-2,-8.418989E-3,-2.978511E-3,8.781987E-3,3.2770745E-2,-0E0,4.7554668E-2,5.592157E-3,1.3999427E-2,4.982015E-2,2.4621507E-2,-2.9100223E-2,-2.0386294E-2,9.593911E-3,1.4902236E-2,-1.19134635E-2,1.2582778E-2,3.6598366E-2,-4.5286105E-3,1.3897523E-2,-1.0474751E-3,-7.979805E-3,1.5948772E-2,-1.5041389E-3,2.7604194E-3,-1.9542715E-2,-1.7625438E-3,-1.44610945E-2],"categories":[],"categories_nodes":[],"categories_segments":[],"categories_sizes":[],"default_left":[0,0,0,0,0,0,0,0,0,0,0,0,0,0,0,0,0,0,0,0,0,0,0,0,0,0,0,0,0,0,0,0,0,0,0,0,0,0,0,0,0,0,0,0,0,0,0,0,0,0,0,0,0,0,0,0,0,0,0,0,0,0,0],"id":4,"left_children":[1,3,5,7,9,11,13,15,17,19,21,23,25,27,29,31,33,35,37,39,41,43,45,47,49,51,53,55,57,59,61,-1,-1,-1,-1,-1,-1,-1,-1,-1,-1,-1,-1,-1,-1,-1,-1,-1,-1,-1,-1,-1,-1,-1,-1,-1,-1,-1,-1,-1,-1,-1,-1],"loss_changes":[1.2200025E2,8.016057E1,5.160287E1,5.6051308E1,1.8067703E1,1.7916248E1,3.831459E1,3.0367477E1,4.066774E1,1.3336937E1,1.7823853E1,1.811239E1,2.4908192E1,2.4164959E1,2.6478233E1,1.3367638E1,2.200876E1,4.5155968E1,2.8815956E1,1.606388E1,9.710342E0,5.8860874E0,1.8688875E1,8.428865E0,1.5117664E1,5.989485E0,2.091102E1,2.5543083E1,1.5778399E1,1.2436676E1,1.6800604E1,0E0,0E0,0E0,0E0,0E0,0E0,0E0,0E0,0E0,0E0,0E0,0E0,0E0,0E0,0E0,0E0,0E0,0E0,0E0,0E0,0E0,0E0,0E0,0E0,0E0,0E0,0E0,0E0,0E0,0E0,0E0,0E0],"parents":[2147483647,0,0,1,1,2,2,3,3,4,4,5,5,6,6,7,7,8,8,9,9,10,10,11,11,12,12,13,13,14,14,15,15,16,16,17,17,18,18,19,19,20,20,21,21,22,22,23,23,24,24,25,25,26,26,27,27,28,28,29,29,30,30],"right_children":[2,4,6,8,10,12,14,16,18,20,22,24,26,28,30,32,34,36,38,40,42,44,46,48,50,52,54,56,58,60,62,-1,-1,-1,-1,-1,-1,-1,-1,-1,-1,-1,-1,-1,-1,-1,-1,-1,-1,-1,-1,-1,-1,-1,-1,-1,-1,-1,-1,-1,-1,-1,-1],"split_conditions":[-7.0128393E-1,7.71991E-1,-4.72222E-2,2.49182E-1,1.33858E-1,2.2574762E-2,1.4139869E0,-4.38147E-2,-1.23968E-1,-1.28353E-1,7.1416736E-2,-2.6227868E0,-3.4569063E0,1.27659E-1,2.15348E-1,2.9378934E-2,-2.15392E-2,-2.49395E-1,-6.244907E-1,-9.509435E-3,2.5247552E0,1.84462E-1,-2.51573E-2,-5.280923E-2,2.5612633E0,7.48496E-1,1.71873E-2,1.02747E-2,1.76471E-1,-3.19994E-2,5.74119E-2,-1.3140048E-2,-3.9227344E-2,1.1654793E-2,-5.3579286E-3,3.6340293E-2,-8.418989E-3,-2.978511E-3,8.781987E-3,3.2770745E-2,-0E0,4.7554668E-2,5.592157E-3,1.3999427E-2,4.982015E-2,2.4621507E-2,-2.9100223E-2,-2.0386294E-2,9.593911E-3,1.4902236E-2,-1.19134635E-2,1.2582778E-2,3.6598366E-2,-4.5286105E-3,1.3897523E-2,-1.0474751E-3,-7.979805E-3,1.5948772E-2,-1.5041389E-3,2.7604194E-3,-1.9542715E-2,-1.7625438E-3,-1.44610945E-2],"split_indices":[9,1,6,1,6,14,9,0,0,0,13,10,11,5,1,14,5,5,8,7,10,0,4,12,9,1,5,5,6,5,0,0,0,0,0,0,0,0,0,0,0,0,0,0,0,0,0,0,0,0,0,0,0,0,0,0,0,0,0,0,0,0,0],"split_type":[0,0,0,0,0,0,0,0,0,0,0,0,0,0,0,0,0,0,0,0,0,0,0,0,0,0,0,0,0,0,0,0,0,0,0,0,0,0,0,0,0,0,0,0,0,0,0,0,0,0,0,0,0,0,0,0,0,0,0,0,0,0,0],"sum_hessian":[1.7702273E4,7.4648003E3,1.0237474E4,7.0360254E3,4.2877493E2,2.3218914E3,7.9155825E3,1.4926803E3,5.543345E3,3.0950436E2,1.19270546E2,7.18846E2,1.6030454E3,5.8644946E3,2.0510876E3,2.3617314E2,1.2565071E3,7.849049E2,4.7584404E3,1.6116861E2,1.4833577E2,5.4553005E1,6.4717545E1,9.957138E1,6.192746E2,1.5402452E2,1.4490209E3,5.3513213E3,5.1317346E2,9.244209E2,1.1266669E3,1.6187949E2,7.429366E1,2.307207E2,1.0257864E3,5.8960888E1,7.2594403E2,5.907703E2,4.16767E3,1.03459076E2,5.7709522E1,1.3077583E2,1.755994E1,3.4137318E1,2.0415686E1,2.3704853E1,4.101269E1,6.677008E1,3.2801304E1,5.6386163E2,5.541294E1,1.182244E2,3.5800117E1,1.2763604E3,1.726605E2,2.5253438E3,2.8259775E3,2.3907375E2,2.740997E2,6.4802216E1,8.596187E2,7.1250256E2,4.1416428E2],"tree_param":{"num_deleted":"0","num_feature":"17","num_nodes":"63","size_leaf_vector":"1"}},{"base_weights":[1.4129131E-3,-1.8472277E-2,3.012268E-1,1.1364188E-2,-1.885098E-1,3.874994E-1,1.1366129E-2,-4.2419493E-1,1.7763784E-2,4.8634514E-2,-2.3344103E-1,6.113312E-1,2.713593E-1,-1.977039E-1,2.9224223E-1,-1.1992317E-1,-7.021958E-1,-2.4579544E-2,7.499242E-2,4.634173E-1,-1.279289E-2,2.6077137E-3,-2.5437137E-1,4.229342E-1,9.0151787E-1,1.494216E-1,4.9183968E-1,9.160854E-4,-6.4713657E-1,8.721713E-1,1.7311428E-1,3.941395E-3,-2.2066487E-2,-1.6058622E-2,-4.4862267E-2,5.6246114E-3,-2.9465423E-3,-8.063232E-3,5.648557E-3,3.4164924E-2,-2.0319378E-2,2.544955E-2,-4.392441E-3,1.1173169E-2,-8.634979E-3,-1.6269963E-2,-9.330719E-3,5.494597E-2,1.6487041E-2,-4.9894755E-3,4.7841452E-2,-3.5853546E-2,9.057001E-3,-4.1552735E-3,3.1197166E-2,-2.1005366E-2,1.0749724E-2,3.7493785E-3,-5.0105155E-2,5.453821E-2,1.2351917E-2,1.7362487E-2,-1.396509E-2],"categories":[],"categories_nodes":[],"categories_segments":[],"categories_sizes":[],"default_left":[0,0,0,0,0,0,0,0,0,0,0,0,0,0,0,0,0,0,0,0,0,0,0,0,0,0,0,0,0,0,0,0,0,0,0,0,0,0,0,0,0,0,0,0,0,0,0,0,0,0,0,0,0,0,0,0,0,0,0,0,0,0,0],"id":5,"left_children":[1,3,5,7,9,11,13,15,17,19,21,23,25,27,29,31,33,35,37,39,41,43,45,47,49,51,53,55,57,59,61,-1,-1,-1,-1,-1,-1,-1,-1,-1,-1,-1,-1,-1,-1,-1,-1,-1,-1,-1,-1,-1,-1,-1,-1,-1,-1,-1,-1,-1,-1,-1,-1],"loss_changes":[1.0546127E2,8.4134384E1,2.7308495E1,3.9091812E1,2.6491348E1,2.1234543E1,1.5182704E1,1.6591991E1,3.3690163E1,1.02807455E1,1.041967E1,1.4218567E1,1.4653614E1,1.3428915E1,6.842003E0,6.6510825E0,6.6037483E0,3.756229E1,5.306536E1,1.0629665E1,1.3360273E1,6.673322E0,8.8413315E0,9.794117E0,6.7021637E0,1.0064238E1,1.5409466E1,9.364908E0,1.2345512E1,1.2109509E0,7.7336283E0,0E0,0E0,0E0,0E0,0E0,0E0,0E0,0E0,0E0,0E0,0E0,0E0,0E0,0E0,0E0,0E0,0E0,0E0,0E0,0E0,0E0,0E0,0E0,0E0,0E0,0E0,0E0,0E0,0E0,0E0,0E0,0E0],"parents":[2147483647,0,0,1,1,2,2,3,3,4,4,5,5,6,6,7,7,8,8,9,9,10,10,11,11,12,12,13,13,14,14,15,15,16,16,17,17,18,18,19,19,20,20,21,21,22,22,23,23,24,24,25,25,26,26,27,27,28,28,29,29,30,30],"right_children":[2,4,6,8,10,12,14,16,18,20,22,24,26,28,30,32,34,36,38,40,42,44,46,48,50,52,54,56,58,60,62,-1,-1,-1,-1,-1,-1,-1,-1,-1,-1,-1,-1,-1,-1,-1,-1,-1,-1,-1,-1,-1,-1,-1,-1,-1,-1,-1,-1,-1,-1,-1,-1],"split_conditions":[7.03319E-1,1.4139869E0,1.76471E-1,1.25257E-1,-4.05405E-2,-1.1053525E0,1.66028E-1,-3.28734E-3,3.83551E-1,1.79317E-1,-2.60974E-2,-8.81552E-2,2.52597E-2,4.80016E-2,-4.33213E-2,-7.69176E-3,-3.25041E-3,1.4901269E-2,-1.32801E-1,2.7865632E0,-1.15784E-1,2.79994E-1,2.15348E-1,-3.82851E-1,4.6266306E-2,-1.0136515E0,-1.53896E-1,6.576941E-1,5.0268177E-2,1.26944E0,9.091003E-2,3.941395E-3,-2.2066487E-2,-1.6058622E-2,-4.4862267E-2,5.6246114E-3,-2.9465423E-3,-8.063232E-3,5.648557E-3,3.4164924E-2,-2.0319378E-2,2.544955E-2,-4.392441E-3,1.1173169E-2,-8.634979E-3,-1.6269963E-2,-9.330719E-3,5.494597E-2,1.6487041E-2,-4.9894755E-3,4.7841452E-2,-3.5853546E-2,9.057001E-3,-4.1552735E-3,3.1197166E-2,-2.1005366E-2,1.0749724E-2,3.7493785E-3,-5.0105155E-2,5.453821E-2,1.2351917E-2,1.7362487E-2,-1.396509E-2],"split_indices":[1,9,6,2,5,9,5,4,1,1,3,0,5,4,3,6,5,14,0,9,0,1,1,6,13,8,0,11,14,2,14,0,0,0,0,0,0,0,0,0,0,0,0,0,0,0,0,0,0,0,0,0,0,0,0,0,0,0,0,0,0,0,0],"split_type":[0,0,0,0,0,0,0,0,0,0,0,0,0,0,0,0,0,0,0,0,0,0,0,0,0,0,0,0,0,0,0,0,0,0,0,0,0,0,0,0,0,0,0,0,0,0,0,0,0,0,0,0,0,0,0,0,0,0,0,0,0,0,0],"sum_hessian":[1.7661756E4,1.6563396E4,1.0983599E3,1.4089958E4,2.4734375E3,8.4458386E2,2.5377608E2,2.010017E2,1.3888956E4,3.9218988E2,2.0812476E3,2.841401E2,5.604437E2,1.4480363E2,1.0897244E2,9.819198E1,1.02809715E2,7.9782627E3,5.9106934E3,4.9951107E1,3.4223877E2,1.6770978E2,1.9135378E3,1.763117E2,1.0782839E2,3.6448618E2,1.9595758E2,1.010358E2,4.3767834E1,1.5700548E1,9.32719E1,6.064451E1,3.754747E1,3.746996E1,6.533976E1,1.5949279E3,6.383335E3,8.1584564E2,5.0948477E3,4.0672935E1,9.278173E0,4.0746574E1,3.014922E2,7.5232765E1,9.247702E1,9.269046E2,9.866332E2,1.8096754E1,1.5821495E2,5.0871315E0,1.0274126E2,1.0788356E1,3.536978E2,3.604377E1,1.599138E2,3.2620792E1,6.841501E1,1.44798155E1,2.928802E1,9.936482E0,5.7640653E0,6.848286E1,2.478904E1],"tree_param":{"num_deleted":"0","num_feature":"17","num_nodes":"63","size_leaf_vector":"1"}},{"base_weights":[-9.06804E-4,-1.2979371E-2,7.050212E-1,6.816809E-2,-7.145498E-2,7.76462E-1,-2.9590392E-1,-4.3956572E-1,7.668357E-2,4.7563717E-2,-1.05908684E-1,8.092272E-1,-1.3005487E-2,-6.6117746E-1,1.3742799E-2,4.0272854E-2,-5.3471154E-1,5.984321E-2,3.1825042E-1,1.3972764E-1,-3.116983E-2,-1.2373979E-1,1.3311614E-1,6.124259E-1,1.0616636E0,-7.065683E-3,-4.719626E-2,-4.792546E-2,-1.5919521E-2,3.3502504E-2,2.6439484E-3,3.481344E-2,1.0371648E-2,-2.2869038E-4,1.4646086E-2,1.796123E-2,-4.2947493E-3,1.1483023E-3,-7.80002E-3,2.9729238E-2,3.723424E-3,-1.7655618E-2,3.5237215E-2,6.149596E-2,2.1143196E-2],"categories":[],"categories_nodes":[],"categories_segments":[],"categories_sizes":[],"default_left":[0,0,0,0,0,0,0,0,0,0,0,0,0,0,0,0,0,0,0,0,0,0,0,0,0,0,0,0,0,0,0,0,0,0,0,0,0,0,0,0,0,0,0,0,0],"id":6,"left_children":[1,3,5,7,9,11,13,15,17,19,21,23,-1,25,-1,-1,27,29,31,33,35,37,39,41,43,-1,-1,-1,-1,-1,-1,-1,-1,-1,-1,-1,-1,-1,-1,-1,-1,-1,-1,-1,-1],"loss_changes":[1.500987E2,8.23713E1,2.1874619E1,3.1303822E1,4.142313E1,1.0117447E1,4.8742075E0,1.4845144E1,2.8857166E1,1.6489542E1,3.3401726E1,1.1269516E1,0E0,1.2116251E0,0E0,0E0,9.046768E0,2.7988659E1,1.8676945E1,2.327446E1,2.5979515E1,3.457466E1,1.4261973E1,1.4711136E1,1.0427536E1,0E0,0E0,0E0,0E0,0E0,0E0,0E0,0E0,0E0,0E0,0E0,0E0,0E0,0E0,0E0,0E0,0E0,0E0,0E0,0E0],"parents":[2147483647,0,0,1,1,2,2,3,3,4,4,5,5,6,6,7,7,8,8,9,9,10,10,11,11,13,13,16,16,17,17,18,18,19,19,20,20,21,21,22,22,23,23,24,24],"right_children":[2,4,6,8,10,12,14,16,18,20,22,24,-1,26,-1,-1,28,30,32,34,36,38,40,42,44,-1,-1,-1,-1,-1,-1,-1,-1,-1,-1,-1,-1,-1,-1,-1,-1,-1,-1,-1,-1],"split_conditions":[2.7693078E-2,-7.0128393E-1,2.7335262E0,1.25257E-1,-4.72222E-2,2.8895483E0,-4.137728E-2,-1.0909E-1,1.5942E-1,2.8986596E-2,1.27659E-1,-6.343951E-5,-1.3005487E-2,-1.0641512E0,1.3742799E-2,4.0272854E-2,-1.377535E0,-2.49395E-1,1.01451E-1,1.0855043E-3,-2.6238857E-2,-6.2856833E-3,3.021526E-1,4.60526E-1,3.11688E-2,-7.065683E-3,-4.719626E-2,-4.792546E-2,-1.5919521E-2,3.3502504E-2,2.6439484E-3,3.481344E-2,1.0371648E-2,-2.2869038E-4,1.4646086E-2,1.796123E-2,-4.2947493E-3,1.1483023E-3,-7.80002E-3,2.9729238E-2,3.723424E-3,-1.7655618E-2,3.5237215E-2,6.149596E-2,2.1143196E-2],"split_indices":[15,9,10,2,6,9,8,5,5,14,5,7,0,9,0,0,9,5,6,15,15,15,11,2,5,0,0,0,0,0,0,0,0,0,0,0,0,0,0,0,0,0,0,0,0],"split_type":[0,0,0,0,0,0,0,0,0,0,0,0,0,0,0,0,0,0,0,0,0,0,0,0,0,0,0,0,0,0,0,0,0,0,0,0,0,0,0,0,0,0,0,0,0],"sum_hessian":[1.7648785E4,1.7354662E4,2.9412265E2,7.264595E3,1.0090067E4,2.7541315E2,1.8709505E1,1.1719039E2,7.147405E3,2.2617354E3,7.8283315E3,2.678671E2,7.546049E0,1.1749367E1,6.960138E0,6.8868604E0,1.1030353E2,6.6858774E3,4.6152768E2,1.0442078E3,1.2175276E3,7.287728E3,5.406036E2,1.5548367E2,1.1238342E2,5.8187923E0,5.9305744E0,3.4175858E1,7.612767E1,7.248538E1,6.613392E3,1.01208664E2,3.6031903E2,5.370289E2,5.0717886E2,1.4719728E2,1.0703303E3,1.3110006E3,5.9767275E3,5.7935627E1,4.8266794E2,1.2603231E1,1.4288045E2,8.686921E1,2.5514215E1],"tree_param":{"num_deleted":"0","num_feature":"17","num_nodes":"45","size_leaf_vector":"1"}},{"base_weights":[-4.1634524E-3,-1.5980246E-2,6.8770665E-1,-9.647301E-2,4.0641118E-2,7.642707E-1,-4.9354178E-1,-1.4846765E-1,8.940008E-3,1.294033E-1,-3.4873012E-2,-2.2316901E-2,8.008941E-1,-4.5842156E-2,3.2662235E-3,-1.3116306E-1,-5.679213E-1,8.4708303E-1,-1.3932989E-2,-6.5272614E-2,1.676271E-1,-5.5685896E-1,-2.4330547E-2,8.3674073E-1,-8.991827E-3,-3.373373E-2,-5.9755384E-3,-3.2981448E-2,1.0621165E-2,4.9565613E-2,6.6693546E-3,9.2230225E-4,-2.067814E-2,3.326676E-4,-4.0621616E-2,1.4696646E-2,4.128571E-3,7.4121254E-3,-3.319977E-2,1.0324593E-2,-2.2160686E-3,3.246846E-2,5.4282397E-2],"categories":[],"categories_nodes":[],"categories_segments":[],"categories_sizes":[],"default_left":[0,0,0,0,0,0,0,0,0,0,0,0,0,0,0,0,0,0,0,0,0,0,0,0,0,0,0,0,0,0,0,0,0,0,0,0,0,0,0,0,0,0,0],"id":7,"left_children":[1,3,5,7,9,11,13,15,17,19,21,-1,23,-1,-1,25,27,29,31,33,35,37,39,41,-1,-1,-1,-1,-1,-1,-1,-1,-1,-1,-1,-1,-1,-1,-1,-1,-1,-1,-1],"loss_changes":[1.4412665E2,7.921543E1,2.7661514E1,3.9416924E1,6.840213E1,1.3269928E1,5.0016146E0,3.441887E1,4.5872906E1,3.4977165E1,2.9992882E1,0E0,1.0195175E1,0E0,0E0,2.8724411E1,1.4018749E1,5.71677E0,3.0081589E1,4.1746544E1,4.1913452E1,8.614136E0,2.4863726E1,1.0004501E1,0E0,0E0,0E0,0E0,0E0,0E0,0E0,0E0,0E0,0E0,0E0,0E0,0E0,0E0,0E0,0E0,0E0,0E0,0E0],"parents":[2147483647,0,0,1,1,2,2,3,3,4,4,5,5,6,6,7,7,8,8,9,9,10,10,12,12,15,15,16,16,17,17,18,18,19,19,20,20,21,21,22,22,23,23],"right_children":[2,4,6,8,10,12,14,16,18,20,22,-1,24,-1,-1,26,28,30,32,34,36,38,40,42,-1,-1,-1,-1,-1,-1,-1,-1,-1,-1,-1,-1,-1,-1,-1,-1,-1,-1,-1],"split_conditions":[2.7693078E-2,3.04111E-1,2.8741434E0,3.987135E-3,-7.3989487E-1,2.43686E-1,5.7804E8,3.4281937E-3,4.13078E-3,-1.32801E-1,2.2789147E-2,-2.2316901E-2,2.8895483E0,-4.5842156E-2,3.2662235E-3,-1.3603557E0,2.2803075E0,2.6504902E-2,1.6867293E-2,-7.42496E-2,8.69605E-3,-3.90404E-2,-1.8253526E-2,-1.7951561E-4,-8.991827E-3,-3.373373E-2,-5.9755384E-3,-3.2981448E-2,1.0621165E-2,4.9565613E-2,6.6693546E-3,9.2230225E-4,-2.067814E-2,3.326676E-4,-4.0621616E-2,1.4696646E-2,4.128571E-3,7.4121254E-3,-3.319977E-2,1.0324593E-2,-2.2160686E-3,3.246846E-2,5.4282397E-2],"split_indices":[15,1,10,15,9,2,16,15,15,0,13,0,9,0,0,9,10,13,15,6,6,0,15,7,0,0,0,0,0,0,0,0,0,0,0,0,0,0,0,0,0,0,0],"split_type":[0,0,0,0,0,0,0,0,0,0,0,0,0,0,0,0,0,0,0,0,0,0,0,0,0,0,0,0,0,0,0,0,0,0,0,0,0,0,0,0,0,0,0],"sum_hessian":[1.7665084E4,1.737107E4,2.940127E2,7.17646E3,1.0194611E4,2.7717642E2,1.6836256E1,4.8085728E3,2.3678872E3,4.6886216E3,5.5059897E3,7.0810413E0,2.700954E2,9.360176E0,7.47608E0,4.621721E3,1.8685187E2,6.1569416E1,2.3063176E3,7.671236E2,3.9214978E3,1.0601138E2,5.399978E3,2.6134637E2,8.749002E0,9.371585E1,4.5280054E3,1.6805219E2,1.8799683E1,4.998875E1,1.1580665E1,2.1340667E3,1.7225102E2,7.0095825E2,6.616535E1,1.5737395E3,2.3477583E3,1.3266392E1,9.2744995E1,4.2691928E2,4.973059E3,1.5436818E2,1.0697821E2],"tree_param":{"num_deleted":"0","num_feature":"17","num_nodes":"43","size_leaf_vector":"1"}},{"base_weights":[1.877871E-3,-9.205054E-3,6.5091616E-1,2.1047987E-2,-1.4659218E-1,7.275522E-1,-3.0171546E-1,8.910286E-3,3.2665038E-1,1.1092084E-1,-1.724507E-1,7.648076E-1,-1.5603405E-2,-4.7167312E-2,3.4983498E-1,-4.5665093E-2,8.093198E-2,6.9093984E-1,2.1729939E-1,4.0843633E-1,5.1710713E-3,4.522807E-1,-1.8442959E-1,-2.247024E-2,7.949631E-1,4.069284E-2,-8.232118E-3,1.963401E-3,-5.75483E-3,3.645612E-2,3.0452176E-3,-1.7460434E-2,3.730231E-2,1.5754795E-2,-1.2542687E-2,8.2723E-4,2.8230805E-2,1.1423573E-2,-8.401233E-3,2.8773261E-2,-1.6048057E-2,-2.8942933E-2,-8.680406E-3,4.5614287E-2,2.2759365E-2],"categories":[],"categories_nodes":[],"categories_segments":[],"categories_sizes":[],"default_left":[0,0,0,0,0,0,0,0,0,0,0,0,0,0,0,0,0,0,0,0,0,0,0,0,0,0,0,0,0,0,0,0,0,0,0,0,0,0,0,0,0,0,0,0,0],"id":8,"left_children":[1,3,5,7,9,11,13,15,17,19,21,23,-1,-1,25,27,29,31,33,35,37,39,41,-1,43,-1,-1,-1,-1,-1,-1,-1,-1,-1,-1,-1,-1,-1,-1,-1,-1,-1,-1,-1,-1],"loss_changes":[1.27616394E2,7.238582E1,2.2398125E1,5.2713306E1,2.0998833E1,1.1423126E1,1.0616488E1,5.394066E1,2.0877125E1,8.795746E0,2.1427422E1,1.0708649E1,0E0,0E0,3.5855017E0,4.6049213E1,7.634118E1,7.792404E0,1.9493834E1,4.208009E0,8.401483E0,5.6002054E0,1.1405083E1,0E0,8.96405E0,0E0,0E0,0E0,0E0,0E0,0E0,0E0,0E0,0E0,0E0,0E0,0E0,0E0,0E0,0E0,0E0,0E0,0E0,0E0,0E0],"parents":[2147483647,0,0,1,1,2,2,3,3,4,4,5,5,6,6,7,7,8,8,9,9,10,10,11,11,14,14,15,15,16,16,17,17,18,18,19,19,20,20,21,21,22,22,24,24],"right_children":[2,4,6,8,10,12,14,16,18,20,22,24,-1,-1,26,28,30,32,34,36,38,40,42,-1,44,-1,-1,-1,-1,-1,-1,-1,-1,-1,-1,-1,-1,-1,-1,-1,-1,-1,-1,-1,-1],"split_conditions":[2.7693078E-2,1.0563322E0,2.6412218E0,7.71991E-1,-3.56345E-2,2.8895483E0,5.7804E8,2.255101E-3,-4.97305E8,-1.7798377E-2,-1.23057E-1,1.72918E-1,-1.5603405E-2,-4.7167312E-2,4.290954E-1,-4.426431E-3,2.393344E-3,-8.1380093E-1,9.0619844E-1,2.8978951E-2,3.2052048E-2,5.729782E-2,-4.84681E-2,-2.247024E-2,3.6550853E-2,4.069284E-2,-8.232118E-3,1.963401E-3,-5.75483E-3,3.645612E-2,3.0452176E-3,-1.7460434E-2,3.730231E-2,1.5754795E-2,-1.2542687E-2,8.2723E-4,2.8230805E-2,1.1423573E-2,-8.401233E-3,2.8773261E-2,-1.6048057E-2,-2.8942933E-2,-8.680406E-3,4.5614287E-2,2.2759365E-2],"split_indices":[15,9,10,1,3,9,16,15,16,15,6,2,0,0,11,15,15,8,11,13,13,13,4,0,15,0,0,0,0,0,0,0,0,0,0,0,0,0,0,0,0,0,0,0,0],"split_type":[0,0,0,0,0,0,0,0,0,0,0,0,0,0,0,0,0,0,0,0,0,0,0,0,0,0,0,0,0,0,0,0,0,0,0,0,0,0,0,0,0,0,0,0,0],"sum_hessian":[1.7692879E4,1.7397012E4,2.9586865E2,1.425588E4,3.1411313E3,2.7476236E2,2.1106306E1,1.3714857E4,5.410226E2,2.8427295E2,2.8568584E3,2.662314E2,8.530928E0,1.0569464E1,1.0536842E1,7.798916E3,5.915941E3,1.2139628E2,4.1962634E2,7.180491E1,2.1246803E2,5.157978E1,2.8052786E3,5.376113E0,2.6085532E2,5.439154E0,5.0976877E0,3.5050183E3,4.293898E3,1.7444017E2,5.741501E3,5.1143427E0,1.1628194E2,3.4853897E2,7.108737E1,2.200429E1,4.980062E1,9.37916E1,1.1867644E2,4.5490852E1,6.088929E0,7.087258E1,2.734406E3,1.9030322E2,7.0552086E1],"tree_param":{"num_deleted":"0","num_feature":"17","num_nodes":"45","size_leaf_vector":"1"}},{"base_weights":[-7.119667E-4,-1.1558281E-2,6.4430845E-1,-3.069912E-2,1.9681986E-1,8.141242E-1,2.3954582E-1,-7.740345E-2,3.0968698E-2,1.6987333E-1,1.0557578E0,-2.5365511E-2,8.5590595E-1,6.9772017E-1,-1.8959731E-1,-4.399047E-2,-2.743569E-1,6.1071724E-1,1.363728E-2,6.0578E-1,1.3073562E-1,3.9179748E-1,6.9368295E-2,8.937857E-1,-6.780109E-3,1.3096686E-2,1.0064644E0,7.203934E-2,-5.227021E-1,-2.9856113E-3,4.030438E-2,-2.9519582E-2,-5.8713024E-3,4.906202E-2,2.0961037E-2,2.1151032E-3,-1.52732255E-2,3.487067E-2,-5.1005254E-3,-5.3303715E-2,7.7880844E-3,4.3265272E-2,-8.7987736E-4,3.666717E-2,5.8808476E-2,-1.9215737E-2,2.0332696E-2,2.4440961E-2,6.803146E-2,-2.1365086E-2,3.2548398E-2,-4.1394595E-2,6.2269396E-3],"categories":[],"categories_nodes":[],"categories_segments":[],"categories_sizes":[],"default_left":[0,0,0,0,0,0,0,0,0,0,0,0,0,0,0,0,0,0,0,0,0,0,0,0,0,0,0,0,0,0,0,0,0,0,0,0,0,0,0,0,0,0,0,0,0,0,0,0,0,0,0,0,0],"id":9,"left_children":[1,3,5,7,9,11,13,15,17,19,21,-1,23,25,27,29,31,33,35,37,39,41,-1,43,-1,45,47,49,51,-1,-1,-1,-1,-1,-1,-1,-1,-1,-1,-1,-1,-1,-1,-1,-1,-1,-1,-1,-1,-1,-1,-1,-1],"loss_changes":[1.2342746E2,6.931229E1,1.9136147E1,4.592656E1,3.285656E1,1.2295715E1,1.8200565E1,5.9527245E1,6.864667E1,2.3699726E1,7.6028404E0,0E0,8.083527E0,8.866575E0,4.4355426E0,1.03459526E2,6.465054E1,1.2552765E1,6.0889233E1,7.923889E0,3.901292E1,3.90127E0,0E0,6.0243225E0,0E0,2.8818107E0,3.268549E0,8.615012E0,4.8946004E0,0E0,0E0,0E0,0E0,0E0,0E0,0E0,0E0,0E0,0E0,0E0,0E0,0E0,0E0,0E0,0E0,0E0,0E0,0E0,0E0,0E0,0E0,0E0,0E0],"parents":[2147483647,0,0,1,1,2,2,3,3,4,4,5,5,6,6,7,7,8,8,9,9,10,10,12,12,13,13,14,14,15,15,16,16,17,17,18,18,19,19,20,20,21,21,23,23,25,25,26,26,27,27,28,28],"right_children":[2,4,6,8,10,12,14,16,18,20,22,-1,24,26,28,30,32,34,36,38,40,42,-1,44,-1,46,48,50,52,-1,-1,-1,-1,-1,-1,-1,-1,-1,-1,-1,-1,-1,-1,-1,-1,-1,-1,-1,-1,-1,-1,-1,-1],"split_conditions":[2.7693078E-2,6.53334E-1,3.6550853E-2,2.255101E-3,2.0259121E-2,2.11205E-1,2.90791E-2,6.524786E-4,2.393344E-3,-2.4042618E-2,2.80934E-2,-2.5365511E-2,3.006992E0,5.224632E-2,9.3644895E-2,5.714648E-4,1.0855043E-3,2.3144877E-3,1.6867293E-2,4.0447335E-3,-2.1762531E-2,-1.37446E-1,6.9368295E-2,0E0,-6.780109E-3,-1.6097651E-1,-5.87858E-2,-3.3190072E-1,1.2862E0,-2.9856113E-3,4.030438E-2,-2.9519582E-2,-5.8713024E-3,4.906202E-2,2.0961037E-2,2.1151032E-3,-1.52732255E-2,3.487067E-2,-5.1005254E-3,-5.3303715E-2,7.7880844E-3,4.3265272E-2,-8.7987736E-4,3.666717E-2,5.8808476E-2,-1.9215737E-2,2.0332696E-2,2.4440961E-2,6.803146E-2,-2.1365086E-2,3.2548398E-2,-4.1394595E-2,6.2269396E-3],"split_indices":[15,1,15,15,15,2,4,15,15,15,5,0,9,13,12,15,15,15,15,7,15,0,0,7,0,12,0,11,2,0,0,0,0,0,0,0,0,0,0,0,0,0,0,0,0,0,0,0,0,0,0,0,0],"split_type":[0,0,0,0,0,0,0,0,0,0,0,0,0,0,0,0,0,0,0,0,0,0,0,0,0,0,0,0,0,0,0,0,0,0,0,0,0,0,0,0,0,0,0,0,0,0,0,0,0,0,0,0,0],"sum_hessian":[1.7683432E4,1.7393688E4,2.897435E2,1.5934142E4,1.459546E3,2.0181514E2,8.7928375E1,9.071447E3,6.862694E3,1.4180371E3,4.1508884E1,5.1357455E0,1.966794E2,4.2483894E1,4.5444477E1,7.7599624E3,1.3114854E3,1.9637811E2,6.6663154E3,1.1339032E2,1.3046469E3,1.578143E1,2.5727455E1,1.9011751E2,6.5618873E0,1.4355548E1,2.8128347E1,2.5489904E1,1.995457E1,7.621455E3,1.3850719E2,4.3226318E2,8.792221E2,6.321173E1,1.3316638E2,6.1198716E3,5.464437E2,1.0104445E2,1.234587E1,2.4608942E1,1.280038E3,6.851283E0,8.930147E0,1.2695175E2,6.3165752E1,6.5340323E0,7.821515E0,1.3934274E1,1.4194074E1,1.3503199E1,1.1986707E1,1.3706102E1,6.2484694E0],"tree_param":{"num_deleted":"0","num_feature":"17","num_nodes":"53","size_leaf_vector":"1"}},{"base_weights":[-2.7623603E-3,-1.3064105E-2,6.1234534E-1,-6.628269E-2,5.5286516E-2,7.791111E-1,2.0849888E-1,-6.315901E-2,-1.0813636E0,9.827552E-2,-5.504461E-2,-5.1388852E-2,8.36969E-1,5.8640075E-1,-3.0663916E-1,-1.05131626E-1,2.1270875E-2,4.604572E-3,-6.841927E-2,-8.538697E-2,1.5281549E-1,2.7843058E-1,-1.0908545E-1,-4.2760823E-2,3.5571802E-2,5.5704314E-1,9.6066636E-1,8.929039E-2,8.05863E-1,-5.79979E-1,1.6251868E-1,-4.5216777E-3,-2.2963662E-2,3.6643874E-2,1.0066751E-4,4.9654767E-3,-1.6071854E-2,-1.2857358E-3,1.04024215E-2,-7.930804E-4,2.060706E-2,-7.7411938E-3,5.750571E-3,3.905994E-2,1.4951595E-3,5.6376863E-2,3.254753E-2,-1.6825607E-2,3.1706385E-2,4.949319E-2,-5.2983253E-3,-8.645632E-3,-4.9290802E-2,-9.150966E-3,2.5691513E-2],"categories":[],"categories_nodes":[],"categories_segments":[],"categories_sizes":[],"default_left":[0,0,0,0,0,0,0,0,0,0,0,0,0,0,0,0,0,0,0,0,0,0,0,0,0,0,0,0,0,0,0,0,0,0,0,0,0,0,0,0,0,0,0,0,0,0,0,0,0,0,0,0,0,0,0],"id":10,"left_children":[1,3,5,7,9,11,13,15,17,19,21,23,25,27,29,31,33,-1,-1,35,37,39,41,-1,-1,43,45,47,49,51,53,-1,-1,-1,-1,-1,-1,-1,-1,-1,-1,-1,-1,-1,-1,-1,-1,-1,-1,-1,-1,-1,-1,-1,-1],"loss_changes":[1.11523636E2,6.3147755E1,1.8704185E1,3.0249153E1,3.605596E1,1.0259819E1,1.7694302E1,3.4548923E1,1.0771324E1,5.4847263E1,3.8317715E1,1.0228172E1,4.783615E0,5.1030445E0,5.2870455E0,3.3515022E1,4.3901814E1,0E0,0E0,5.47374E1,4.171398E1,1.18577385E1,1.8849659E1,0E0,0E0,7.172306E0,4.2813797E0,4.967955E0,6.5681953E0,3.2435293E0,2.1653674E0,0E0,0E0,0E0,0E0,0E0,0E0,0E0,0E0,0E0,0E0,0E0,0E0,0E0,0E0,0E0,0E0,0E0,0E0,0E0,0E0,0E0,0E0,0E0,0E0],"parents":[2147483647,0,0,1,1,2,2,3,3,4,4,5,5,6,6,7,7,8,8,9,9,10,10,11,11,12,12,13,13,14,14,15,15,16,16,19,19,20,20,21,21,22,22,25,25,26,26,27,27,28,28,29,29,30,30],"right_children":[2,4,6,8,10,12,14,16,18,20,22,24,26,28,30,32,34,-1,-1,36,38,40,42,-1,-1,44,46,48,50,52,54,-1,-1,-1,-1,-1,-1,-1,-1,-1,-1,-1,-1,-1,-1,-1,-1,-1,-1,-1,-1,-1,-1,-1,-1],"split_conditions":[2.7693078E-2,3.71698E-1,3.6550853E-2,2.506041E-2,5.425485E-1,4.07264E-1,5.54662E-2,3.987135E-3,-8.545242E-4,-5.76923E-2,-4.01351E-2,4.40403E-1,2.9311841E-2,-1.1459728E-3,1.27376E9,3.4281937E-3,4.13078E-3,4.604572E-3,-6.841927E-2,-2.7157634E-3,-8.81552E-2,6.18997E-2,1.11434E-1,-4.2760823E-2,3.5571802E-2,3.414055E9,3.7671512E-1,6.87341E-1,2.5175283E-5,6.18997E-2,2.984E-2,-4.5216777E-3,-2.2963662E-2,3.6643874E-2,1.0066751E-4,4.9654767E-3,-1.6071854E-2,-1.2857358E-3,1.04024215E-2,-7.930804E-4,2.060706E-2,-7.7411938E-3,5.750571E-3,3.905994E-2,1.4951595E-3,5.6376863E-2,3.254753E-2,-1.6825607E-2,3.1706385E-2,4.949319E-2,-5.2983253E-3,-8.645632E-3,-4.9290802E-2,-9.150966E-3,2.5691513E-2],"split_indices":[15,1,15,15,11,2,4,15,7,4,3,1,15,7,16,15,15,0,0,15,0,6,4,0,0,16,8,1,7,6,0,0,0,0,0,0,0,0,0,0,0,0,0,0,0,0,0,0,0,0,0,0,0,0,0],"split_type":[0,0,0,0,0,0,0,0,0,0,0,0,0,0,0,0,0,0,0,0,0,0,0,0,0,0,0,0,0,0,0,0,0,0,0,0,0,0,0,0,0,0,0,0,0,0,0,0,0,0,0,0,0,0,0],"sum_hessian":[1.764245E4,1.7354568E4,2.8788168E2,9.761515E3,7.593053E3,2.0155452E2,8.632718E1,9.734178E3,2.7337685E1,5.4674766E3,2.1255764E3,1.2578792E1,1.8897572E2,5.019696E1,3.613022E1,6.5055205E3,3.2286567E3,5.297155E0,2.204053E1,1.2495015E3,4.217975E3,2.9397275E2,1.8316038E3,6.3259926E0,6.252799E0,6.2526814E1,1.2644891E2,1.6933168E1,3.326379E1,2.3204292E1,1.2925925E1,6.250045E3,2.5547548E2,8.24349E1,3.146222E3,7.0046533E2,5.490361E2,9.947257E2,3.2232495E3,9.1221306E1,2.0275143E2,1.5235042E3,3.0809955E2,4.2529552E1,1.9997263E1,7.769328E1,4.875563E1,9.419016E0,7.514152E0,2.7992327E1,5.271465E0,1.3623587E1,9.580705E0,6.282004E0,6.643922E0],"tree_param":{"num_deleted":"0","num_feature":"17","num_nodes":"55","size_leaf_vector":"1"}},{"base_weights":[-1.2756095E-3,-1.1261909E-2,5.94523E-1,3.5471916E-2,-8.473593E-2,6.6727436E-1,-1.7199284E-1,2.052757E-2,3.6260858E-1,2.7043793E-1,-9.7198084E-2,-3.2038655E-2,6.9994694E-1,4.3576512E-2,-6.0803634E-1,-1.5749638E-1,3.8874324E-2,6.210316E-1,2.3218004E-1,-2.0179224E-1,3.7690884E-1,-5.6885384E-2,-1.6712627E-1,7.3527426E-1,-1.0630915E-2,-0E0,-4.693298E-2,-3.7554156E-3,-3.892872E-2,-1.2000646E-3,5.8017815E-3,1.4235707E-2,6.560658E-2,3.479187E-3,2.3144985E-2,2.5220696E-2,-1.9151619E-2,2.9143749E-2,1.2316203E-2,-2.0392274E-3,-1.638409E-2,9.6076494E-4,-1.0513525E-2,4.1712057E-2,2.3439685E-2],"categories":[],"categories_nodes":[],"categories_segments":[],"categories_sizes":[],"default_left":[0,0,0,0,0,0,0,0,0,0,0,0,0,0,0,0,0,0,0,0,0,0,0,0,0,0,0,0,0,0,0,0,0,0,0,0,0,0,0,0,0,0,0,0,0],"id":11,"left_children":[1,3,5,7,9,11,13,15,17,19,21,-1,23,-1,25,27,29,31,33,35,37,39,41,43,-1,-1,-1,-1,-1,-1,-1,-1,-1,-1,-1,-1,-1,-1,-1,-1,-1,-1,-1,-1,-1],"loss_changes":[1.04472755E2,5.949684E1,1.6617836E1,5.1530315E1,2.9788437E1,1.2267212E1,1.2797029E1,3.301917E1,1.481448E1,1.1681255E1,1.8226582E1,0E0,8.96302E0,0E0,4.3286386E0,4.7745598E1,4.4599476E1,3.3797615E1,1.1324104E1,5.7406163E0,4.334711E0,1.78324E1,1.9203758E1,5.1989594E0,0E0,0E0,0E0,0E0,0E0,0E0,0E0,0E0,0E0,0E0,0E0,0E0,0E0,0E0,0E0,0E0,0E0,0E0,0E0,0E0,0E0],"parents":[2147483647,0,0,1,1,2,2,3,3,4,4,5,5,6,6,7,7,8,8,9,9,10,10,12,12,14,14,15,15,16,16,17,17,18,18,19,19,20,20,21,21,22,22,23,23],"right_children":[2,4,6,8,10,12,14,16,18,20,22,-1,24,-1,26,28,30,32,34,36,38,40,42,44,-1,-1,-1,-1,-1,-1,-1,-1,-1,-1,-1,-1,-1,-1,-1,-1,-1,-1,-1,-1,-1],"split_conditions":[2.7693078E-2,-2.824577E-1,1.2343E-1,7.71991E-1,-2.6238857E-2,1.72918E-1,4.6155E-2,-1.28353E-1,-4.15392E-3,2.20505E-1,1.4139869E0,-3.2038655E-2,2.7865632E0,4.3576512E-2,3.6550853E-2,-8.74139E-2,3.77532E-1,-9.452962E-3,7.5358157E-3,5.76115E-1,-5.94401E-2,2.845743E10,-1.90496E-2,3.6550853E-2,-1.0630915E-2,-0E0,-4.693298E-2,-3.7554156E-3,-3.892872E-2,-1.2000646E-3,5.8017815E-3,1.4235707E-2,6.560658E-2,3.479187E-3,2.3144985E-2,2.5220696E-2,-1.9151619E-2,2.9143749E-2,1.2316203E-2,-2.0392274E-3,-1.638409E-2,9.6076494E-4,-1.0513525E-2,4.1712057E-2,2.3439685E-2],"split_indices":[15,9,6,1,15,2,4,0,15,1,9,0,9,0,15,6,1,15,15,9,3,16,3,15,0,0,0,0,0,0,0,0,0,0,0,0,0,0,0,0,0,0,0,0,0],"split_type":[0,0,0,0,0,0,0,0,0,0,0,0,0,0,0,0,0,0,0,0,0,0,0,0,0,0,0,0,0,0,0,0,0,0,0,0,0,0,0,0,0,0,0,0,0],"sum_hessian":[1.7603732E4,1.7316291E4,2.8744043E2,1.058062E4,6.7356714E3,2.6335608E2,2.4084337E1,1.0121884E4,4.5873672E2,2.2556285E2,6.5101084E3,5.137776E0,2.582183E2,6.1712966E0,1.791304E1,9.417159E2,9.180168E3,1.5006026E2,3.0867645E2,4.03062E1,1.8525665E2,4.136339E3,2.3737693E3,2.4949625E2,8.722058E0,6.644521E0,1.1268519E1,8.341147E2,1.07601166E2,5.0555244E3,4.124643E3,1.03325356E2,4.67349E1,1.8386829E2,1.24808174E2,6.9398613E0,3.3366337E1,6.770779E1,1.1754887E2,3.90812E3,2.2821892E2,4.443079E2,1.9294615E3,1.7745471E2,7.2041534E1],"tree_param":{"num_deleted":"0","num_feature":"17","num_nodes":"45","size_leaf_vector":"1"}},{"base_weights":[3.9438787E-3,-5.247189E-3,5.512288E-1,-2.3432136E-2,1.9216633E-1,6.206138E-1,-4.242291E-1,-6.9779016E-2,3.8324114E-2,3.8315234E-1,9.2509635E-2,7.4171346E-1,2.838372E-1,1.967912E-3,-3.6337238E-2,-5.9880447E-2,-7.294956E-1,4.4858631E-1,1.3581075E-2,4.3146524E-1,-2.680905E-1,4.9210933E-1,4.5924064E-2,6.6443816E-2,8.099438E-1,4.6616416E-2,1.0388743E-1,7.395761E-4,-6.094541E-3,-4.5316137E-2,-5.4918933E-3,4.26528E-2,1.5881155E-2,-2.3353238E-2,1.3257171E-3,9.991983E-3,3.343174E-2,-4.034264E-2,9.386534E-4,3.254108E-2,-1.1151246E-2,2.3544446E-2,2.3699237E-4,-2.1101004E-2,4.228648E-2,4.1806217E-2,-0E0,-9.959242E-3,1.642499E-2],"categories":[],"categories_nodes":[],"categories_segments":[],"categories_sizes":[],"default_left":[0,0,0,0,0,0,0,0,0,0,0,0,0,0,0,0,0,0,0,0,0,0,0,0,0,0,0,0,0,0,0,0,0,0,0,0,0,0,0,0,0,0,0,0,0,0,0,0,0],"id":12,"left_children":[1,3,5,7,9,11,13,15,17,19,21,23,25,-1,-1,27,29,31,33,35,37,39,41,43,45,-1,47,-1,-1,-1,-1,-1,-1,-1,-1,-1,-1,-1,-1,-1,-1,-1,-1,-1,-1,-1,-1,-1,-1],"loss_changes":[8.908074E1,6.2258804E1,2.042183E1,4.553895E1,2.752607E1,1.0255829E1,3.2244751E0,5.887987E1,6.893424E1,1.6016182E1,1.7656406E1,8.644539E0,8.261709E0,0E0,0E0,4.154053E1,1.3915421E1,1.9341187E1,3.9777584E1,2.4903793E1,5.831659E0,1.1793507E1,1.4947385E1,8.978947E0,4.0454636E0,0E0,4.4874353E0,0E0,0E0,0E0,0E0,0E0,0E0,0E0,0E0,0E0,0E0,0E0,0E0,0E0,0E0,0E0,0E0,0E0,0E0,0E0,0E0,0E0,0E0],"parents":[2147483647,0,0,1,1,2,2,3,3,4,4,5,5,6,6,7,7,8,8,9,9,10,10,11,11,12,12,15,15,16,16,17,17,18,18,19,19,20,20,21,21,22,22,23,23,24,24,26,26],"right_children":[2,4,6,8,10,12,14,16,18,20,22,24,26,-1,-1,28,30,32,34,36,38,40,42,44,46,-1,48,-1,-1,-1,-1,-1,-1,-1,-1,-1,-1,-1,-1,-1,-1,-1,-1,-1,-1,-1,-1,-1,-1],"split_conditions":[2.7693078E-2,6.53334E-1,2.7335262E0,2.255101E-3,-1.0641512E0,3.6550853E-2,-1.0641512E0,2.1718917E-3,2.557018E-3,4.73415E-1,5.224632E-2,4.60526E-1,-7.41722E-2,1.967912E-3,-3.6337238E-2,-4.426431E-3,6.30064E-2,-2.65478E-2,-1.66576E-1,-8.81552E-2,7.71991E-1,5.997763E-3,-2.4042618E-2,-3.7754886E-4,3.006992E0,4.6616416E-2,-1.7951561E-4,7.395761E-4,-6.094541E-3,-4.5316137E-2,-5.4918933E-3,4.26528E-2,1.5881155E-2,-2.3353238E-2,1.3257171E-3,9.991983E-3,3.343174E-2,-4.034264E-2,9.386534E-4,3.254108E-2,-1.1151246E-2,2.3544446E-2,2.3699237E-4,-2.1101004E-2,4.228648E-2,4.1806217E-2,-0E0,-9.959242E-3,1.642499E-2],"split_indices":[15,1,10,15,9,15,9,15,15,6,13,2,4,0,0,15,4,6,0,0,1,7,15,7,9,0,7,0,0,0,0,0,0,0,0,0,0,0,0,0,0,0,0,0,0,0,0,0,0],"split_type":[0,0,0,0,0,0,0,0,0,0,0,0,0,0,0,0,0,0,0,0,0,0,0,0,0,0,0,0,0,0,0,0,0,0,0,0,0,0,0,0,0,0,0,0,0,0,0,0,0],"sum_hessian":[1.7652002E4,1.73615E4,2.905007E2,1.5901055E4,1.4604464E3,2.7236716E2,1.8133535E1,9.088298E3,6.812757E3,4.9709235E2,9.63354E2,1.974704E2,7.489676E1,7.194845E0,1.093869E1,8.956846E3,1.3145155E2,3.8441055E2,6.428346E3,4.6410507E2,3.2987255E1,9.7464775E1,8.658892E2,1.915644E1,1.7831396E2,1.38487835E1,6.1047974E1,4.0605962E3,4.8962495E3,1.00920494E2,3.0531067E1,9.039314E1,2.9401743E2,1.6558899E2,6.2627573E3,2.3772774E2,2.2637735E2,1.0807392E1,2.2179861E1,8.048212E1,1.6982653E1,7.358496E1,7.9230426E2,1.1944688E1,7.211754E0,1.7298546E2,5.3284936E0,2.5134298E1,3.5913673E1],"tree_param":{"num_deleted":"0","num_feature":"17","num_nodes":"49","size_leaf_vector":"1"}},{"base_weights":[4.5532514E-3,-4.1804113E-3,5.3733826E-1,5.7014618E-2,-6.1443824E-2,6.3564277E-1,5.354296E-2,-3.5107706E-2,1.07261695E-1,5.082927E-2,-9.303539E-2,-1.4979402E-2,6.6508424E-1,5.3012115E-1,-4.0846312E-1,-5.096905E-1,-7.651263E-3,-8.292012E-2,1.4450963E-1,4.5223796E-1,2.5452847E-2,-1.2780905E-1,-2.4877388E-2,7.6649976E-1,3.3615893E-1,-9.419424E-3,7.960908E-1,5.463861E-3,-5.72526E-1,-6.8206466E-3,-3.741585E-2,-2.8484974E-2,7.875316E-4,2.2526382E-2,-9.001548E-3,1.3317436E-2,3.200505E-3,1.0591916E-2,3.4339603E-2,5.5919476E-3,-8.0627045E-3,-2.730733E-4,-9.64984E-3,1.0990117E-2,-3.9750333E-3,2.284181E-2,4.7728192E-2,2.279518E-2,-2.0957397E-2,5.5358734E-2,1.6360318E-2,-3.8733486E-2,-0E0],"categories":[],"categories_nodes":[],"categories_segments":[],"categories_sizes":[],"default_left":[0,0,0,0,0,0,0,0,0,0,0,0,0,0,0,0,0,0,0,0,0,0,0,0,0,0,0,0,0,0,0,0,0,0,0,0,0,0,0,0,0,0,0,0,0,0,0,0,0,0,0,0,0],"id":13,"left_children":[1,3,5,7,9,11,13,15,17,19,21,-1,23,25,27,29,31,33,35,37,39,41,43,45,47,-1,49,-1,51,-1,-1,-1,-1,-1,-1,-1,-1,-1,-1,-1,-1,-1,-1,-1,-1,-1,-1,-1,-1,-1,-1,-1,-1],"loss_changes":[8.208344E1,6.0631084E1,1.3118172E1,3.873883E1,3.1747017E1,7.0632935E0,1.1742953E1,3.815172E1,3.840099E1,1.9717838E1,1.6466873E1,0E0,6.584671E0,5.6778173E0,2.6109767E0,1.3624805E1,3.699363E1,4.590569E1,4.422638E1,5.7630444E0,2.9819016E1,3.673249E1,3.1590933E1,8.473267E0,5.7166805E0,0E0,1.5147171E0,0E0,2.3221693E0,0E0,0E0,0E0,0E0,0E0,0E0,0E0,0E0,0E0,0E0,0E0,0E0,0E0,0E0,0E0,0E0,0E0,0E0,0E0,0E0,0E0,0E0,0E0,0E0],"parents":[2147483647,0,0,1,1,2,2,3,3,4,4,5,5,6,6,7,7,8,8,9,9,10,10,12,12,13,13,14,14,15,15,16,16,17,17,18,18,19,19,20,20,21,21,22,22,23,23,24,24,26,26,28,28],"right_children":[2,4,6,8,10,12,14,16,18,20,22,-1,24,26,28,30,32,34,36,38,40,42,44,46,48,-1,50,-1,52,-1,-1,-1,-1,-1,-1,-1,-1,-1,-1,-1,-1,-1,-1,-1,-1,-1,-1,-1,-1,-1,-1,-1,-1],"split_conditions":[2.7693078E-2,-5.827694E-1,-3.6916096E-2,3.17167E-1,-4.72222E-2,2.11205E-1,3.26078E-2,-1.3437483E0,-1.32801E-1,-3.1687036E-2,3.987135E-3,-1.4979402E-2,-2.2445035E-1,3.29121E-1,5.12821E-2,-9.4162E-3,-1.717863E-2,-3.05555E-1,7.98371E-3,-3.992545E-2,4.433715E-2,-4.426431E-3,5.4469677E-3,-1.28353E-1,6.484287E-2,-9.419424E-3,2.35824E-2,5.463861E-3,1.33398E-1,-6.8206466E-3,-3.741585E-2,-2.8484974E-2,7.875316E-4,2.2526382E-2,-9.001548E-3,1.3317436E-2,3.200505E-3,1.0591916E-2,3.4339603E-2,5.5919476E-3,-8.0627045E-3,-2.730733E-4,-9.64984E-3,1.0990117E-2,-3.9750333E-3,2.284181E-2,4.7728192E-2,2.279518E-2,-2.0957397E-2,5.5358734E-2,1.6360318E-2,-3.8733486E-2,-0E0],"split_indices":[15,9,11,1,6,2,3,9,0,15,15,0,9,1,4,4,15,6,6,15,13,15,15,0,13,0,4,0,0,0,0,0,0,0,0,0,0,0,0,0,0,0,0,0,0,0,0,0,0,0,0,0,0],"split_type":[0,0,0,0,0,0,0,0,0,0,0,0,0,0,0,0,0,0,0,0,0,0,0,0,0,0,0,0,0,0,0,0,0,0,0,0,0,0,0,0,0,0,0,0,0,0,0,0,0,0,0,0,0],"sum_hessian":[1.7580098E4,1.7297592E4,2.8250446E2,8.357527E3,8.940065E3,2.3341466E2,4.9089794E1,2.9463606E3,5.411167E3,1.9594261E3,6.9806387E3,6.045353E0,2.273693E2,2.4551395E1,2.4538399E1,1.5821893E2,2.7881416E3,8.836288E2,4.527538E3,1.1333456E2,1.8460916E3,4.616336E3,2.3643027E3,1.7059123E2,5.677807E1,6.2825985E0,1.8268797E1,5.3320537E0,1.9206345E1,6.3744152E1,9.447478E1,1.1043674E2,2.6777048E3,1.3417169E2,7.494571E2,1.7969531E3,2.730585E3,5.8902298E1,5.443226E1,1.2645061E3,5.815854E2,1.6080698E3,3.0082664E3,4.2871475E2,1.935588E3,6.805305E1,1.02538185E2,5.026409E1,6.5139747E0,8.704679E0,9.564118E0,1.3452607E1,5.7537374E0],"tree_param":{"num_deleted":"0","num_feature":"17","num_nodes":"53","size_leaf_vector":"1"}},{"base_weights":[-1.8634497E-3,-1.0204832E-2,4.940006E-1,1.6682282E-2,-1.32292E-1,5.9264344E-1,3.1112125E-2,-4.0737075E-1,2.3139106E-2,1.6597618E-1,-1.5330267E-1,4.1309354E-1,9.2089707E-1,7.7059776E-1,-2.725979E-1,2.0083956E-2,-6.5067893E-1,-2.4733335E-2,7.199767E-2,-3.479858E-1,2.3957488E-1,5.855989E-2,-1.7207924E-1,-3.2311502E-1,4.9094746E-1,1.043044E0,3.8772067E-1,6.311183E-3,4.9046833E-2,-7.495411E-1,3.9520983E-2,9.786557E-3,-3.647202E-2,-4.1939784E-3,-3.640787E-2,1.6227479E-3,-5.728623E-3,7.358145E-3,2.969982E-4,7.23167E-3,-3.0024946E-2,1.4570645E-2,-2.8564706E-2,2.8995976E-2,-7.2757143E-4,3.9102132E-3,-9.297838E-3,-4.3590125E-2,8.402993E-3,3.0270223E-2,1.513571E-3,2.2111716E-2,5.5568475E-2,-2.5048671E-2,4.0962603E-2,-1.2128524E-2,-6.332297E-2,1.2271212E-2,-2.1856274E-2],"categories":[],"categories_nodes":[],"categories_segments":[],"categories_sizes":[],"default_left":[0,0,0,0,0,0,0,0,0,0,0,0,0,0,0,0,0,0,0,0,0,0,0,0,0,0,0,0,0,0,0,0,0,0,0,0,0,0,0,0,0,0,0,0,0,0,0,0,0,0,0,0,0,0,0,0,0,0,0],"id":14,"left_children":[1,3,5,7,9,11,13,15,17,19,21,23,25,27,29,31,33,35,37,39,41,43,45,47,49,51,53,-1,-1,55,57,-1,-1,-1,-1,-1,-1,-1,-1,-1,-1,-1,-1,-1,-1,-1,-1,-1,-1,-1,-1,-1,-1,-1,-1,-1,-1,-1,-1],"loss_changes":[7.291505E1,5.7162476E1,1.2966606E1,3.8854485E1,1.9741486E1,1.2681168E1,1.2848306E1,2.2465797E1,3.2873936E1,7.9135056E0,1.1767715E1,9.534943E0,3.8181534E0,1.4744177E0,6.2852554E0,1.0334689E1,5.460453E0,3.647255E1,3.4458424E1,3.6105895E0,7.8613043E0,9.393476E0,9.468727E0,4.9116983E0,7.3186264E0,9.001007E-1,8.357071E0,0E0,0E0,2.911646E0,2.58257E0,0E0,0E0,0E0,0E0,0E0,0E0,0E0,0E0,0E0,0E0,0E0,0E0,0E0,0E0,0E0,0E0,0E0,0E0,0E0,0E0,0E0,0E0,0E0,0E0,0E0,0E0,0E0,0E0],"parents":[2147483647,0,0,1,1,2,2,3,3,4,4,5,5,6,6,7,7,8,8,9,9,10,10,11,11,12,12,13,13,14,14,15,15,16,16,17,17,18,18,19,19,20,20,21,21,22,22,23,23,24,24,25,25,26,26,29,29,30,30],"right_children":[2,4,6,8,10,12,14,16,18,20,22,24,26,28,30,32,34,36,38,40,42,44,46,48,50,52,54,-1,-1,56,58,-1,-1,-1,-1,-1,-1,-1,-1,-1,-1,-1,-1,-1,-1,-1,-1,-1,-1,-1,-1,-1,-1,-1,-1,-1,-1,-1,-1],"split_conditions":[2.7693078E-2,1.0563322E0,-5.2502E-2,1.25257E-1,-2.6709677E-3,-9.2454946E-5,3.84701E-3,-8.16341E-3,3.71698E-1,-6.62979E-2,-3.56345E-2,4.60526E-1,8.022366E-5,4.22751E-1,-6.943637E-2,2.1635238E-3,-2.3354497E0,2.6119404E-2,3.9884016E-2,-1.03586E-1,5.36757E-2,-9.09091E-2,9.75797E-2,-6.99301E-3,3.6550853E-2,-6.129629E-1,1.36782E-2,6.311183E-3,4.9046833E-2,1.0042E0,5.410898E-1,9.786557E-3,-3.647202E-2,-4.1939784E-3,-3.640787E-2,1.6227479E-3,-5.728623E-3,7.358145E-3,2.969982E-4,7.23167E-3,-3.0024946E-2,1.4570645E-2,-2.8564706E-2,2.8995976E-2,-7.2757143E-4,3.9102132E-3,-9.297838E-3,-4.3590125E-2,8.402993E-3,3.0270223E-2,1.513571E-3,2.2111716E-2,5.5568475E-2,-2.5048671E-2,4.0962603E-2,-1.2128524E-2,-6.332297E-2,1.2271212E-2,-2.1856274E-2],"split_indices":[15,9,11,2,7,7,3,3,1,3,3,2,7,1,8,7,8,14,14,3,3,4,1,3,15,8,4,0,0,2,12,0,0,0,0,0,0,0,0,0,0,0,0,0,0,0,0,0,0,0,0,0,0,0,0,0,0,0,0],"split_type":[0,0,0,0,0,0,0,0,0,0,0,0,0,0,0,0,0,0,0,0,0,0,0,0,0,0,0,0,0,0,0,0,0,0,0,0,0,0,0,0,0,0,0,0,0,0,0,0,0,0,0,0,0,0,0,0,0,0,0],"sum_hessian":[1.7682594E4,1.7392979E4,2.8961597E2,1.4251925E4,3.1410535E3,2.3738728E2,5.2228695E1,2.1072766E2,1.4041197E4,2.0422803E2,2.9368254E3,1.57356E2,8.003128E1,1.478975E1,3.7438946E1,7.635815E1,1.343695E2,7.0875E3,6.953697E3,2.379693E1,1.8043109E2,2.3657712E2,2.7002483E3,1.3832182E1,1.4352382E2,6.2795044E1,1.7236237E1,5.012191E0,9.777559E0,1.433418E1,2.3104765E1,6.3598885E1,1.2759265E1,1.7435724E1,1.16933784E2,4.328101E3,2.7593987E3,3.247936E3,3.7057607E3,7.682926E0,1.6114006E1,1.7137323E2,9.057858E0,2.8231571E1,2.0834555E2,1.3947598E2,2.5607722E3,6.282336E0,7.5498457E0,1.1358856E2,2.9935265E1,8.685281E0,5.4109764E1,5.149948E0,1.2086288E1,9.208593E0,5.1255865E0,1.7544874E1,5.5598907E0],"tree_param":{"num_deleted":"0","num_feature":"17","num_nodes":"59","size_leaf_vector":"1"}},{"base_weights":[5.409402E-3,-2.3651777E-3,4.7004312E-1,2.3673316E-2,-1.2028029E-1,6.376169E-1,6.295521E-2,1.05192E-2,2.6047358E-1,2.085521E-2,-1.5680717E-1,3.5492828E-1,7.791151E-1,6.1522675E-1,-2.1013418E-1,2.8697667E-1,9.4802695E-4,3.3531043E-1,-2.5822246E-1,4.7637917E-2,-5.4266596E-1,4.8863438E-1,-1.650258E-1,5.004657E-1,-1.89651E-2,2.985585E-1,8.851372E-1,-0E0,4.9639575E-2,-3.5008565E-2,-7.048484E-1,4.7795936E-2,5.935527E-3,-2.1099688E-2,5.087783E-4,4.301673E-2,1.4443194E-2,-1.7923892E-2,3.2456838E-2,-2.1355702E-3,6.6968906E-3,9.230933E-3,-3.8232323E-2,3.604266E-2,-0E0,-1.39697585E-2,-6.5496224E-3,-8.62491E-3,2.959758E-2,-3.2919183E-2,3.0291354E-2,2.6178727E-2,4.9952235E-2,-3.207263E-2,2.947404E-2,2.5658691E-2,-1.063091E-2,-4.703313E-2,-5.469687E-3],"categories":[],"categories_nodes":[],"categories_segments":[],"categories_sizes":[],"default_left":[0,0,0,0,0,0,0,0,0,0,0,0,0,0,0,0,0,0,0,0,0,0,0,0,0,0,0,0,0,0,0,0,0,0,0,0,0,0,0,0,0,0,0,0,0,0,0,0,0,0,0,0,0,0,0,0,0,0,0],"id":15,"left_children":[1,3,5,7,9,11,13,15,17,19,21,23,25,27,29,31,33,35,37,39,41,43,45,47,-1,49,51,53,-1,55,57,-1,-1,-1,-1,-1,-1,-1,-1,-1,-1,-1,-1,-1,-1,-1,-1,-1,-1,-1,-1,-1,-1,-1,-1,-1,-1,-1,-1],"loss_changes":[6.403702E1,5.3392567E1,1.9470955E1,4.4178207E1,1.6293484E1,7.1029663E0,1.3757514E1,3.553299E1,2.9196262E1,9.550749E0,1.32734375E1,8.286541E0,5.71447E0,7.2489367E0,4.7682037E0,4.9823967E1,5.067849E1,1.4882645E1,8.910599E0,4.884799E0,5.1919174E0,3.4877276E0,9.347954E0,4.274866E0,0E0,9.039032E0,2.6417923E0,5.7966557E0,0E0,4.651061E0,1.3477888E0,0E0,0E0,0E0,0E0,0E0,0E0,0E0,0E0,0E0,0E0,0E0,0E0,0E0,0E0,0E0,0E0,0E0,0E0,0E0,0E0,0E0,0E0,0E0,0E0,0E0,0E0,0E0,0E0],"parents":[2147483647,0,0,1,1,2,2,3,3,4,4,5,5,6,6,7,7,8,8,9,9,10,10,11,11,12,12,13,13,14,14,15,15,16,16,17,17,18,18,19,19,20,20,21,21,22,22,23,23,25,25,26,26,27,27,29,29,30,30],"right_children":[2,4,6,8,10,12,14,16,18,20,22,24,26,28,30,32,34,36,38,40,42,44,46,48,-1,50,52,54,-1,56,58,-1,-1,-1,-1,-1,-1,-1,-1,-1,-1,-1,-1,-1,-1,-1,-1,-1,-1,-1,-1,-1,-1,-1,-1,-1,-1,-1,-1],"split_conditions":[2.7693078E-2,1.0563322E0,3.6550853E-2,1.5942E-1,-1.90496E-2,2.9311841E-2,-1.51076E-2,-2.8628623E-2,4.73415E-1,3.4384396E10,-1.33781E-1,3.49848E-2,4.085915E-2,-2.7606326E-1,1.07384E-1,-1.81642E-1,-2.1088084E-2,-1.94557E-2,8.01478E-2,2.7700411E-2,2.3472648E-2,-5.27781E-2,-5.19372E9,4.60526E-1,-1.89651E-2,7.17699E-1,-1.42211E-1,3.52695E8,4.9639575E-2,-1.217622E0,1.53034E-1,4.7795936E-2,5.935527E-3,-2.1099688E-2,5.087783E-4,4.301673E-2,1.4443194E-2,-1.7923892E-2,3.2456838E-2,-2.1355702E-3,6.6968906E-3,9.230933E-3,-3.8232323E-2,3.604266E-2,-0E0,-1.39697585E-2,-6.5496224E-3,-8.62491E-3,2.959758E-2,-3.2919183E-2,3.0291354E-2,2.6178727E-2,4.9952235E-2,-3.207263E-2,2.947404E-2,2.5658691E-2,-1.063091E-2,-4.703313E-2,-5.469687E-3],"split_indices":[15,9,15,5,3,15,4,15,6,16,6,5,13,12,6,5,15,3,13,13,13,5,16,2,0,2,0,16,0,9,0,0,0,0,0,0,0,0,0,0,0,0,0,0,0,0,0,0,0,0,0,0,0,0,0,0,0,0,0],"split_type":[0,0,0,0,0,0,0,0,0,0,0,0,0,0,0,0,0,0,0,0,0,0,0,0,0,0,0,0,0,0,0,0,0,0,0,0,0,0,0,0,0,0,0,0,0,0,0,0,0,0,0,0,0,0,0,0,0,0,0],"sum_hessian":[1.7659984E4,1.7370248E4,2.8973755E2,1.4226133E4,3.1441143E3,2.0357648E2,8.6161064E1,1.3481447E4,7.4468616E2,6.437831E2,2.5003313E3,7.142742E1,1.3214906E2,2.8285078E1,5.7875988E1,4.474323E2,1.3034015E4,6.5225116E2,9.243499E1,6.171689E2,2.6614237E1,2.9202396E1,2.471129E3,6.0711147E1,1.0716272E1,2.611735E1,1.06031715E2,1.1300402E1,1.6984676E1,4.5072742E1,1.2803244E1,8.7448265E1,3.5998404E2,2.752309E2,1.2758784E4,4.92887E1,6.0296246E2,8.482361E1,7.611383E0,2.991736E2,3.1799527E2,5.775589E0,2.0838648E1,1.9049086E1,1.0153312E1,5.600306E2,1.9110983E3,6.3996224E0,5.4311523E1,5.396894E0,2.0720457E1,2.9134886E1,7.689683E1,5.502378E0,5.798024E0,9.416231E0,3.5656513E1,7.739175E0,5.064069E0],"tree_param":{"num_deleted":"0","num_feature":"17","num_nodes":"59","size_leaf_vector":"1"}},{"base_weights":[-1.6260947E-3,-9.491839E-3,4.7428277E-1,1.5634416E-2,-1.2332843E-1,5.2294195E-1,-5.031081E-1,-1.5639473E-1,2.8205592E-2,1.8929215E-1,-1.4604872E-1,6.462978E-1,2.0305483E-1,3.0112544E-3,-4.5513205E-2,-2.421975E-1,5.885016E-2,1.8893499E-2,2.857344E-1,2.4258271E-1,-3.812666E-1,-2.1434672E-1,-8.7865114E-2,4.7884816E-1,9.296064E-1,7.111272E-1,2.594509E-2,-5.0597317E-3,-1.8048568E-2,-3.9725588E-4,3.475758E-2,1.4213512E-3,-1.2089038E-2,2.0827366E-2,1.9553164E-3,6.976073E-3,3.7901673E-2,9.59188E-3,-3.5196893E-2,-7.308021E-3,-1.8373882E-2,1.0788244E-2,-5.520785E-3,5.0575484E-2,1.8346313E-2,9.385607E-3,5.2116197E-2,-1.961551E-3,5.331989E-2,5.97716E-3,-3.3633724E-2],"categories":[],"categories_nodes":[],"categories_segments":[],"categories_sizes":[],"default_left":[0,0,0,0,0,0,0,0,0,0,0,0,0,0,0,0,0,0,0,0,0,0,0,0,0,0,0,0,0,0,0,0,0,0,0,0,0,0,0,0,0,0,0,0,0,0,0,0,0,0,0],"id":16,"left_children":[1,3,5,7,9,11,13,15,17,19,21,23,25,-1,-1,27,29,31,33,35,37,39,41,43,45,47,49,-1,-1,-1,-1,-1,-1,-1,-1,-1,-1,-1,-1,-1,-1,-1,-1,-1,-1,-1,-1,-1,-1,-1,-1],"loss_changes":[6.5693085E1,4.9613644E1,1.4105164E1,3.0634346E1,2.2311687E1,1.0095161E1,3.760096E0,1.7923866E1,3.1561827E1,6.558132E0,1.1441059E1,7.663742E0,6.801402E0,0E0,0E0,1.1273315E1,1.2029963E1,3.1645775E1,1.4568722E1,9.741743E0,3.8688304E0,1.3637154E1,1.0865764E1,6.1930313E0,4.7858353E0,5.901289E0,3.9510384E0,0E0,0E0,0E0,0E0,0E0,0E0,0E0,0E0,0E0,0E0,0E0,0E0,0E0,0E0,0E0,0E0,0E0,0E0,0E0,0E0,0E0,0E0,0E0,0E0],"parents":[2147483647,0,0,1,1,2,2,3,3,4,4,5,5,6,6,7,7,8,8,9,9,10,10,11,11,12,12,15,15,16,16,17,17,18,18,19,19,20,20,21,21,22,22,23,23,24,24,25,25,26,26],"right_children":[2,4,6,8,10,12,14,16,18,20,22,24,26,-1,-1,28,30,32,34,36,38,40,42,44,46,48,50,-1,-1,-1,-1,-1,-1,-1,-1,-1,-1,-1,-1,-1,-1,-1,-1,-1,-1,-1,-1,-1,-1,-1,-1],"split_conditions":[2.7693078E-2,1.0563322E0,3.1849484E0,-8.3230215E-1,-2.6709677E-3,3.6550853E-2,-4.622702E-3,3.54E7,7.84602E-1,3.69229E-2,2.2389E-1,-2.0892857E-4,-1.725127E0,3.0112544E-3,-4.5513205E-2,-1.95389E7,1.6756E-1,1.6867293E-2,7.81661E-2,1.40561E-2,-2.5169453E-1,1.89025E-1,-1.8253526E-2,-1.1022253E-2,2.9311841E-2,-6.9014543E-1,8.017267E-1,-5.0597317E-3,-1.8048568E-2,-3.9725588E-4,3.475758E-2,1.4213512E-3,-1.2089038E-2,2.0827366E-2,1.9553164E-3,6.976073E-3,3.7901673E-2,9.59188E-3,-3.5196893E-2,-7.308021E-3,-1.8373882E-2,1.0788244E-2,-5.520785E-3,5.0575484E-2,1.8346313E-2,9.385607E-3,5.2116197E-2,-1.961551E-3,5.331989E-2,5.97716E-3,-3.3633724E-2],"split_indices":[15,9,10,8,7,15,7,16,1,3,1,7,10,0,0,16,6,15,6,5,12,1,15,7,15,12,11,0,0,0,0,0,0,0,0,0,0,0,0,0,0,0,0,0,0,0,0,0,0,0,0],"split_type":[0,0,0,0,0,0,0,0,0,0,0,0,0,0,0,0,0,0,0,0,0,0,0,0,0,0,0,0,0,0,0,0,0,0,0,0,0,0,0,0,0,0,0,0,0,0,0,0,0,0,0],"sum_hessian":[1.7606824E4,1.7323514E4,2.833095E2,1.4189017E4,3.134497E3,2.71247E2,1.2062486E1,9.6199725E2,1.322702E4,2.098866E2,2.9246104E3,1.9315729E2,7.808972E1,5.260415E0,6.802071E0,6.8929645E2,2.7270078E2,1.2769375E4,4.5764505E2,1.9381056E2,1.6076035E1,1.3389462E3,1.5856643E3,1.2589328E2,6.7264015E1,1.7896578E1,6.0193146E1,3.1877505E2,3.7052142E2,2.4787003E2,2.4830738E1,1.2322412E4,4.4696216E2,2.9681006E2,1.6083499E2,1.6444264E2,2.9367926E1,5.524757E0,1.0551278E1,9.3138995E2,4.0755618E2,1.06907745E2,1.4787566E3,1.8292498E1,1.0760078E2,1.0159811E1,5.7104202E1,5.8701496E0,1.2026427E1,5.517456E1,5.0185847E0],"tree_param":{"num_deleted":"0","num_feature":"17","num_nodes":"51","size_leaf_vector":"1"}},{"base_weights":[2.1641944E-3,-4.9066786E-3,4.409479E-1,5.876931E-2,-4.8694365E-2,5.9736025E-1,1.9674294E-1,3.2785434E-2,1.8663765E-1,2.762734E-2,-7.478599E-2,4.01454E-1,8.7746555E-1,4.1179425E-1,-1.4453286E-1,-5.3508203E-3,1.6377828E-1,2.5961816E-1,6.6746175E-2,-6.095902E-1,4.7660045E-2,-8.2621115E-1,-5.3107478E-2,5.517647E-1,-1.2042409E-1,1.0382075E0,9.923678E-2,5.37328E-1,-0E0,1.1310476E-1,-4.714391E-1,9.369459E-4,-3.197087E-2,1.3038716E-2,-3.1962525E-3,2.049461E-2,5.4381536E-3,-7.867046E-3,9.500053E-3,-3.651555E-2,1.3866402E-2,3.9784075E-3,-1.35507425E-2,2.4913313E-2,-4.325954E-2,3.1104933E-3,-4.182958E-3,3.1284504E-2,-1.6353928E-2,-2.4797058E-2,7.3365495E-3,5.805248E-2,2.4639059E-2,-2.1895736E-2,3.29821E-2,-6.9157123E-3,3.323234E-2,2.1478321E-2,-2.5562653E-2,-1.6928645E-2,2.899587E-2,-6.061604E-4,-4.5140848E-2],"categories":[],"categories_nodes":[],"categories_segments":[],"categories_sizes":[],"default_left":[0,0,0,0,0,0,0,0,0,0,0,0,0,0,0,0,0,0,0,0,0,0,0,0,0,0,0,0,0,0,0,0,0,0,0,0,0,0,0,0,0,0,0,0,0,0,0,0,0,0,0,0,0,0,0,0,0,0,0,0,0,0,0],"id":17,"left_children":[1,3,5,7,9,11,13,15,17,19,21,23,25,27,29,31,33,35,37,39,41,43,45,47,49,51,53,55,57,59,61,-1,-1,-1,-1,-1,-1,-1,-1,-1,-1,-1,-1,-1,-1,-1,-1,-1,-1,-1,-1,-1,-1,-1,-1,-1,-1,-1,-1,-1,-1,-1,-1],"loss_changes":[5.4781418E1,4.8256527E1,1.0064003E1,2.329599E1,2.0460552E1,7.900509E0,8.587101E0,2.937284E1,1.0185425E1,3.31031E1,1.2412313E2,8.496515E0,7.556053E0,3.591919E0,4.0319996E0,6.9686516E1,2.939993E1,1.6299572E1,1.2624238E1,9.085453E0,2.5711193E1,1.2082947E1,2.6234274E1,5.8694935E0,2.7403555E0,1.6771507E0,4.9464116E0,5.108473E0,4.5758038E0,5.9179764E0,3.6511502E0,0E0,0E0,0E0,0E0,0E0,0E0,0E0,0E0,0E0,0E0,0E0,0E0,0E0,0E0,0E0,0E0,0E0,0E0,0E0,0E0,0E0,0E0,0E0,0E0,0E0,0E0,0E0,0E0,0E0,0E0,0E0,0E0],"parents":[2147483647,0,0,1,1,2,2,3,3,4,4,5,5,6,6,7,7,8,8,9,9,10,10,11,11,12,12,13,13,14,14,15,15,16,16,17,17,18,18,19,19,20,20,21,21,22,22,23,23,24,24,25,25,26,26,27,27,28,28,29,29,30,30],"right_children":[2,4,6,8,10,12,14,16,18,20,22,24,26,28,30,32,34,36,38,40,42,44,46,48,50,52,54,56,58,60,62,-1,-1,-1,-1,-1,-1,-1,-1,-1,-1,-1,-1,-1,-1,-1,-1,-1,-1,-1,-1,-1,-1,-1,-1,-1,-1,-1,-1,-1,-1,-1,-1],"split_conditions":[2.7693078E-2,-7.188733E-1,-1.9195782E-1,5.78293E-2,-4.426431E-3,-2.0892857E-4,-4.4251075E-1,6.7088166E-3,5.4469677E-3,2.89247E-1,-3.9339503E-3,-9.472469E-1,5.662434E-5,1.49011E-1,1.4290307E0,5.8730803E-3,5.601403E-2,7.85349E-2,8.929374E-3,-5.7347813E-3,4.633842E-3,-4.9702693E-3,-9.8424315E-2,9.526633E-1,-2.2991577E-1,-3.3190072E-1,-8.374259E-1,-1.28353E-1,-3.6916096E-2,4.9022844E-1,7.6295227E-1,9.369459E-4,-3.197087E-2,1.3038716E-2,-3.1962525E-3,2.049461E-2,5.4381536E-3,-7.867046E-3,9.500053E-3,-3.651555E-2,1.3866402E-2,3.9784075E-3,-1.35507425E-2,2.4913313E-2,-4.325954E-2,3.1104933E-3,-4.182958E-3,3.1284504E-2,-1.6353928E-2,-2.4797058E-2,7.3365495E-3,5.805248E-2,2.4639059E-2,-2.1895736E-2,3.29821E-2,-6.9157123E-3,3.323234E-2,2.1478321E-2,-2.5562653E-2,-1.6928645E-2,2.899587E-2,-6.061604E-4,-4.5140848E-2],"split_indices":[15,9,10,4,15,7,9,15,15,2,15,11,7,4,10,15,12,0,15,15,7,7,12,8,12,11,11,0,11,10,11,0,0,0,0,0,0,0,0,0,0,0,0,0,0,0,0,0,0,0,0,0,0,0,0,0,0,0,0,0,0,0,0],"split_type":[0,0,0,0,0,0,0,0,0,0,0,0,0,0,0,0,0,0,0,0,0,0,0,0,0,0,0,0,0,0,0,0,0,0,0,0,0,0,0,0,0,0,0,0,0,0,0,0,0,0,0,0,0,0,0,0,0,0,0,0,0,0,0],"sum_hessian":[1.7583043E4,1.7305016E4,2.7802722E2,7.046257E3,1.025876E4,1.6646638E2,1.11560844E2,5.861563E3,1.1846938E3,2.6086902E3,7.6500693E3,1.0186986E2,6.459652E1,6.908162E1,4.247922E1,4.5383916E3,1.3231714E3,7.3237823E2,4.5231558E2,7.6957E1,2.5317334E3,2.117867E2,7.438282E3,7.974526E1,2.2124596E1,5.2452015E1,1.2144505E1,5.2189087E1,1.6892532E1,2.3632658E1,1.8846561E1,4.373388E3,1.6500336E2,9.2924225E2,3.939291E2,3.6351483E2,3.688634E2,1.5886917E2,2.934464E2,6.854417E1,8.412831E0,2.3040994E3,2.2763396E2,5.0143023E0,2.067724E2,1.5540564E3,5.884226E3,7.461402E1,5.1312423E0,9.263083E0,1.2861511E1,4.021957E1,1.2232447E1,5.9685526E0,6.1759524E0,7.6250987E0,4.456399E1,9.516618E0,7.375914E0,1.1745909E1,1.188675E1,1.0684919E1,8.161642E0],"tree_param":{"num_deleted":"0","num_feature":"17","num_nodes":"63","size_leaf_vector":"1"}},{"base_weights":[-1.3763367E-3,-8.411699E-3,4.3278375E-1,-1.9064233E-2,2.1244863E-1,4.801776E-1,-2.3773488E-1,5.4493543E-2,-4.5634832E-2,2.7702284E-1,-2.1335918E-1,3.3774891E-1,6.647355E-1,-2.8100843E-2,7.4862833E-3,1.9379353E-2,3.0999294E-1,-6.367411E-1,-3.8242847E-2,7.2742534E-1,2.2680928E-1,2.2696285E-1,-3.243587E-1,4.3711722E-1,-7.653946E-2,8.716254E-1,3.1564432E-1,1.719665E-3,-3.7987906E-2,-3.9612036E-4,3.0480986E-2,-3.6761016E-2,6.671424E-2,-1.6507596E-3,-4.40348E-2,4.004726E-2,-0E0,-3.7067033E-2,1.2034731E-2,-1.4373439E-2,2.9919747E-2,7.680943E-3,-2.2016993E-2,1.7633153E-2,5.5288594E-2,-2.789849E-2,1.5696928E-2,4.9616214E-2,1.5152739E-2,-4.824206E-3,2.758473E-2],"categories":[],"categories_nodes":[],"categories_segments":[],"categories_sizes":[],"default_left":[0,0,0,0,0,0,0,0,0,0,0,0,0,0,0,0,0,0,0,0,0,0,0,0,0,0,0,0,0,0,0,0,0,0,0,0,0,0,0,0,0,0,0,0,0,0,0,0,0,0,0],"id":18,"left_children":[1,3,5,7,9,11,13,15,17,19,21,23,25,-1,-1,27,29,31,33,35,37,39,41,43,45,47,49,-1,-1,-1,-1,-1,-1,-1,-1,-1,-1,-1,-1,-1,-1,-1,-1,-1,-1,-1,-1,-1,-1,-1,-1],"loss_changes":[5.3806675E1,4.085795E1,9.275364E0,3.245868E1,2.2114159E1,5.9812546E0,2.7848027E0,3.9324287E1,5.2948303E1,1.49227295E1,5.3424335E0,6.6045933E0,6.892021E0,0E0,0E0,4.5015907E1,5.080898E1,3.0738327E1,5.2590996E1,3.6090927E0,8.570999E0,4.601872E0,5.0366583E0,5.5963E0,6.2253923E0,3.405487E0,4.7544246E0,0E0,0E0,0E0,0E0,0E0,0E0,0E0,0E0,0E0,0E0,0E0,0E0,0E0,0E0,0E0,0E0,0E0,0E0,0E0,0E0,0E0,0E0,0E0,0E0],"parents":[2147483647,0,0,1,1,2,2,3,3,4,4,5,5,6,6,7,7,8,8,9,9,10,10,11,11,12,12,15,15,16,16,17,17,18,18,19,19,20,20,21,21,22,22,23,23,24,24,25,25,26,26],"right_children":[2,4,6,8,10,12,14,16,18,20,22,24,26,-1,-1,28,30,32,34,36,38,40,42,44,46,48,50,-1,-1,-1,-1,-1,-1,-1,-1,-1,-1,-1,-1,-1,-1,-1,-1,-1,-1,-1,-1,-1,-1,-1,-1],"split_conditions":[2.7693078E-2,1.5942E-1,2.8741434E0,-4.60424E-2,4.73415E-1,-6.343951E-5,5.7804E8,1.1712214E-2,-6.4005284E-3,-1.24074E-2,-4.9052995E9,3.6550853E-2,-1.88842E-3,-2.8100843E-2,7.4862833E-3,1.1270482E-2,-2.45102E-2,1.33329E-1,2.394834E-2,2.8741434E0,2.5132602E-2,1.015442E0,4.42735E-2,1.07143E-1,6.270035E-2,1.6751695E-4,3.704121E-2,1.719665E-3,-3.7987906E-2,-3.9612036E-4,3.0480986E-2,-3.6761016E-2,6.671424E-2,-1.6507596E-3,-4.40348E-2,4.004726E-2,-0E0,-3.7067033E-2,1.2034731E-2,-1.4373439E-2,2.9919747E-2,7.680943E-3,-2.2016993E-2,1.7633153E-2,5.5288594E-2,-2.789849E-2,1.5696928E-2,4.9616214E-2,1.5152739E-2,-4.824206E-3,2.758473E-2],"split_indices":[15,5,10,6,6,7,16,15,7,3,16,15,5,0,0,15,4,4,15,10,13,12,4,5,13,7,14,0,0,0,0,0,0,0,0,0,0,0,0,0,0,0,0,0,0,0,0,0,0,0,0],"split_type":[0,0,0,0,0,0,0,0,0,0,0,0,0,0,0,0,0,0,0,0,0,0,0,0,0,0,0,0,0,0,0,0,0,0,0,0,0,0,0,0,0,0,0,0,0,0,0,0,0,0,0],"sum_hessian":[1.768078E4,1.7401902E4,2.7887683E2,1.6605096E4,7.968056E2,2.6169318E2,1.718367E1,4.4008657E3,1.220423E4,6.935075E2,1.0329808E2,1.5242873E2,1.0926444E2,9.566495E0,7.617174E0,3.872731E3,5.281345E2,1.4779454E2,1.2056436E4,6.5856964E1,6.276505E2,1.9469784E1,8.382829E1,1.23825485E2,2.860324E1,6.582631E1,4.3438137E1,3.8020198E3,7.071131E1,2.5638196E2,2.7175256E2,1.4219753E2,5.5970287E0,1.1984739E4,7.169674E1,5.959724E1,6.2597184E0,6.883901E0,6.2076666E2,7.788589E0,1.1681193E1,1.5400442E1,6.842786E1,1.13315796E2,1.0509693E1,1.2999018E1,1.560422E1,5.2344406E1,1.3481903E1,1.5478318E1,2.7959818E1],"tree_param":{"num_deleted":"0","num_feature":"17","num_nodes":"51","size_leaf_vector":"1"}},{"base_weights":[8.41063E-3,7.305625E-2,-3.214308E-2,7.0531934E-1,6.46545E-2,5.528868E-2,-5.9242655E-2,8.3928204E-1,-1.7531408E-2,-1.4589844E-2,1.2728937E-1,-7.3605135E-2,1.3480088E-1,-6.880985E-2,2.5613877E-1,-0E0,9.168408E-1,2.8050454E-2,-1.4258751E-1,2.432601E-1,7.925446E-2,2.7777225E-1,-1.18256554E-1,1.8308439E-3,2.2537144E-1,1.3752048E-1,-8.492777E-2,5.5850804E-1,-1.3004678E-1,4.8906263E-2,5.489165E-3,-2.1440564E-3,5.606023E-3,-2.0633241E-2,-1.4941174E-3,6.624357E-3,2.6194295E-2,-3.333586E-2,4.513104E-3,-5.5072255E-2,1.864923E-2,1.3624191E-3,-1.0815545E-2,-3.2164764E-2,1.4664314E-3,2.0320974E-2,5.899441E-3,3.7573613E-3,3.0769337E-2,-3.0362296E-3,-8.526144E-3,3.2436762E-2,-2.972591E-2,4.512055E-2,-1.2522938E-2],"categories":[],"categories_nodes":[],"categories_segments":[],"categories_sizes":[],"default_left":[0,0,0,0,0,0,0,0,0,0,0,0,0,0,0,0,0,0,0,0,0,0,0,0,0,0,0,0,0,0,0,0,0,0,0,0,0,0,0,0,0,0,0,0,0,0,0,0,0,0,0,0,0,0,0],"id":19,"left_children":[1,3,5,7,9,11,13,15,-1,17,19,21,23,25,27,-1,29,31,33,35,37,39,41,43,45,47,49,51,53,-1,-1,-1,-1,-1,-1,-1,-1,-1,-1,-1,-1,-1,-1,-1,-1,-1,-1,-1,-1,-1,-1,-1,-1,-1,-1],"loss_changes":[4.6142155E1,3.5575035E1,2.5612892E1,1.3283684E1,3.331814E1,2.6221432E1,2.4848997E1,5.3860435E0,0E0,1.6200617E1,2.0669102E1,1.525435E1,1.8943262E1,2.6651535E1,2.8609207E1,0E0,2.8373184E0,1.3260737E1,2.234032E1,3.3516037E1,2.163356E1,1.4778561E1,1.2463372E1,1.1179913E1,1.7898232E1,1.6827438E1,1.52720375E1,1.5029419E1,1.3444986E1,0E0,0E0,0E0,0E0,0E0,0E0,0E0,0E0,0E0,0E0,0E0,0E0,0E0,0E0,0E0,0E0,0E0,0E0,0E0,0E0,0E0,0E0,0E0,0E0,0E0,0E0],"parents":[2147483647,0,0,1,1,2,2,3,3,4,4,5,5,6,6,7,7,9,9,10,10,11,11,12,12,13,13,14,14,16,16,17,17,18,18,19,19,20,20,21,21,22,22,23,23,24,24,25,25,26,26,27,27,28,28],"right_children":[2,4,6,8,10,12,14,16,-1,18,20,22,24,26,28,-1,30,32,34,36,38,40,42,44,46,48,50,52,54,-1,-1,-1,-1,-1,-1,-1,-1,-1,-1,-1,-1,-1,-1,-1,-1,-1,-1,-1,-1,-1,-1,-1,-1,-1,-1],"split_conditions":[-7.605826E-1,-2.49395E-1,-4.60424E-2,-8.399601E-1,-1.7951561E-4,-4.0541E-2,1.21109E-1,1.6129032E-2,-1.7531408E-2,2.285335E-2,-3.41218E-3,-3.4569063E0,-1.7441958E-3,-4.01351E-2,4.512154E-2,-0E0,9.2564476E-1,-4.1067648E-1,8.08717E-1,1.55151E-2,1.25257E-1,5.1150895E-3,3.7610855E-2,2.66842E-1,6.55535E-1,1.4622287E-1,3.6842104E-2,1.0596814E-2,-7.0128393E-1,4.8906263E-2,5.489165E-3,-2.1440564E-3,5.606023E-3,-2.0633241E-2,-1.4941174E-3,6.624357E-3,2.6194295E-2,-3.333586E-2,4.513104E-3,-5.5072255E-2,1.864923E-2,1.3624191E-3,-1.0815545E-2,-3.2164764E-2,1.4664314E-3,2.0320974E-2,5.899441E-3,3.7573613E-3,3.0769337E-2,-3.0362296E-3,-8.526144E-3,3.2436762E-2,-2.972591E-2,4.512055E-2,-1.2522938E-2],"split_indices":[9,5,6,9,7,4,4,14,0,12,6,11,7,3,13,0,8,11,2,4,2,14,14,2,2,12,14,7,9,0,0,0,0,0,0,0,0,0,0,0,0,0,0,0,0,0,0,0,0,0,0,0,0,0,0],"split_type":[0,0,0,0,0,0,0,0,0,0,0,0,0,0,0,0,0,0,0,0,0,0,0,0,0,0,0,0,0,0,0,0,0,0,0,0,0,0,0,0,0,0,0,0,0,0,0,0,0,0,0,0,0,0,0],"sum_hessian":[1.7589035E4,6.784602E3,1.0804433E4,8.601799E1,6.698584E3,2.551609E3,8.252824E3,7.711827E1,8.89972E0,2.9543516E3,3.7442327E3,9.711612E2,1.5804476E3,8.012899E3,2.3992482E2,6.4122195E0,7.070605E1,2.2143372E3,7.400143E2,1.0912029E3,2.6530298E3,1.0705657E2,8.641047E2,6.434036E2,9.37044E2,5.7725085E2,7.435648E3,1.347908E2,1.0513402E2,6.4746056E1,5.959996E0,1.1983214E3,1.0160158E3,2.1501378E2,5.250005E2,7.85761E2,3.0544183E2,3.6186077E1,2.6168438E3,5.209228E0,1.0184734E2,3.4640775E2,5.176969E2,2.372883E1,6.196748E2,3.4505402E2,5.9199E2,5.135773E2,6.3673588E1,5.803804E3,1.6318438E3,1.2622198E2,8.568819E0,9.190453E0,9.5943565E1],"tree_param":{"num_deleted":"0","num_feature":"17","num_nodes":"55","size_leaf_vector":"1"}},{"base_weights":[-5.0893934E-3,2.1277854E-2,-1.2498672E-1,-3.750997E-1,2.7734293E-2,-2.137146E-2,-1.6096237E-1,2.866929E-1,-4.733866E-1,1.898034E-2,2.9287884E-1,-1.045129E-1,3.447173E-2,4.6135385E-2,-1.8569581E-1,5.426596E-1,-8.204416E-2,-5.9617275E-1,-3.6228165E-2,5.0772077E-1,1.4484185E-2,4.029707E-1,2.6922317E-3,4.258949E-2,-2.6360768E-1,5.4348834E-2,-3.975388E-2,2.1246882E-1,-1.8403676E-1,-3.43094E-1,-1.4426541E-1,-0E0,4.331182E-2,-2.7838383E-2,1.4463543E-2,-1.3046617E-3,-3.4125645E-2,2.8439764E-2,-8.149433E-3,3.2613214E-2,-1.9092217E-2,2.0216547E-3,-2.893132E-3,-1.5433222E-2,2.2569185E-2,-4.245523E-2,4.136779E-3,-6.7153363E-3,1.731383E-2,-2.1302147E-2,-6.505628E-4,-2.3401661E-4,1.16524305E-2,3.536677E-2,6.266066E-3,-2.0451427E-2,1.255586E-2,-1.8911088E-2,1.6591957E-2,-9.169781E-3,8.9701824E-4],"categories":[],"categories_nodes":[],"categories_segments":[],"categories_sizes":[],"default_left":[0,0,0,0,0,0,0,0,0,0,0,0,0,0,0,0,0,0,0,0,0,0,0,0,0,0,0,0,0,0,0,0,0,0,0,0,0,0,0,0,0,0,0,0,0,0,0,0,0,0,0,0,0,0,0,0,0,0,0,0,0],"id":20,"left_children":[1,3,5,7,9,11,13,15,17,19,21,23,25,27,29,31,33,35,37,39,41,43,45,47,49,51,-1,53,55,57,59,-1,-1,-1,-1,-1,-1,-1,-1,-1,-1,-1,-1,-1,-1,-1,-1,-1,-1,-1,-1,-1,-1,-1,-1,-1,-1,-1,-1,-1,-1],"loss_changes":[5.579729E1,3.6831184E1,1.1763962E1,1.5358963E1,3.284536E1,3.8772836E0,1.2166077E1,3.1883001E0,1.0489895E1,2.9988293E1,1.425462E1,7.995944E0,7.8291445E0,9.703302E0,1.3411224E1,3.040019E0,2.8164277E0,7.3268013E0,3.6134799E0,1.6637932E1,2.5621185E1,1.1611198E1,8.467238E0,9.581797E0,6.4174805E0,5.2110376E0,0E0,5.7853994E0,1.0576138E1,1.0599953E1,1.0724735E1,0E0,0E0,0E0,0E0,0E0,0E0,0E0,0E0,0E0,0E0,0E0,0E0,0E0,0E0,0E0,0E0,0E0,0E0,0E0,0E0,0E0,0E0,0E0,0E0,0E0,0E0,0E0,0E0,0E0,0E0],"parents":[2147483647,0,0,1,1,2,2,3,3,4,4,5,5,6,6,7,7,8,8,9,9,10,10,11,11,12,12,13,13,14,14,15,15,16,16,17,17,18,18,19,19,20,20,21,21,22,22,23,23,24,24,25,25,27,27,28,28,29,29,30,30],"right_children":[2,4,6,8,10,12,14,16,18,20,22,24,26,28,30,32,34,36,38,40,42,44,46,48,50,52,-1,54,56,58,60,-1,-1,-1,-1,-1,-1,-1,-1,-1,-1,-1,-1,-1,-1,-1,-1,-1,-1,-1,-1,-1,-1,-1,-1,-1,-1,-1,-1,-1,-1],"split_conditions":[1.0563322E0,-1.3776063E0,-1.42857E-2,1.7949844E-2,1.00349E-1,2.431465E-2,-1.431921E0,4.20945E-3,1.2E6,-2.49395E-1,9.0619844E-1,2.0776215E0,6.349423E10,2.4039004E0,-5.19372E9,-6.99301E-3,1.1342568E0,-3.56345E-2,2.2917384E-2,-2.824577E-1,4.4775784E-2,-1.4332635E0,2.2143772E0,-8.3327E-3,-1.37389E9,2.678969E0,-3.975388E-2,1.8495161E-2,2.7149934E-2,2.34496E0,5.66038E-2,-0E0,4.331182E-2,-2.7838383E-2,1.4463543E-2,-1.3046617E-3,-3.4125645E-2,2.8439764E-2,-8.149433E-3,3.2613214E-2,-1.9092217E-2,2.0216547E-3,-2.893132E-3,-1.5433222E-2,2.2569185E-2,-4.245523E-2,4.136779E-3,-6.7153363E-3,1.731383E-2,-2.1302147E-2,-6.505628E-4,-2.3401661E-4,1.16524305E-2,3.536677E-2,6.266066E-3,-2.0451427E-2,1.255586E-2,-1.8911088E-2,1.6591957E-2,-9.169781E-3,8.9701824E-4],"split_indices":[9,8,3,13,3,13,11,4,16,5,11,9,16,9,16,3,10,3,13,9,14,9,10,6,16,9,0,13,14,2,5,0,0,0,0,0,0,0,0,0,0,0,0,0,0,0,0,0,0,0,0,0,0,0,0,0,0,0,0,0,0],"split_type":[0,0,0,0,0,0,0,0,0,0,0,0,0,0,0,0,0,0,0,0,0,0,0,0,0,0,0,0,0,0,0,0,0,0,0,0,0,0,0,0,0,0,0,0,0,0,0,0,0,0,0,0,0,0,0,0,0,0,0,0,0],"sum_hessian":[1.7629676E4,1.4449487E4,3.1801875E3,2.2851828E2,1.422097E4,8.2400775E2,2.3561797E3,2.8396421E1,2.0012186E2,1.3770359E4,4.5061017E2,3.3397855E2,4.900292E2,2.4903308E2,2.1071467E3,1.7004808E1,1.1391613E1,1.547777E2,4.5344166E1,1.22471054E2,1.3647889E4,3.2486252E2,1.2574766E2,1.7265756E2,1.6132098E2,4.8097607E2,9.053119E0,1.4591444E2,1.0311865E2,4.335222E2,1.6736244E3,7.495023E0,9.509785E0,5.152214E0,6.239399E0,2.1462479E1,1.333152E2,5.9632072E0,3.938096E1,1.06295006E2,1.6176048E1,1.0050743E4,3.5971448E3,1.935017E1,3.0551236E2,8.614289E0,1.1713337E2,1.0876914E2,6.3888416E1,9.5817276E1,6.550371E1,3.6090833E2,1.2006775E2,1.8858139E1,1.270563E2,6.8810165E1,3.430848E1,4.136151E2,1.9907076E1,1.3506239E3,3.2300058E2],"tree_param":{"num_deleted":"0","num_feature":"17","num_nodes":"61","size_leaf_vector":"1"}},{"base_weights":[4.831301E-4,-5.870876E-3,3.9852643E-1,2.3287353E-1,-1.4977522E-2,4.5476684E-1,-4.3744063E-1,7.970334E-1,1.2686716E-1,-5.122673E-1,-6.463765E-3,7.666919E-1,3.5740307E-1,3.979031E-3,-4.091559E-2,9.030147E-1,-2.7930543E-2,-4.1236502E-1,1.9214651E-1,-1.0825363E0,-1.660718E-1,8.150261E-1,-1.0145839E-2,6.4604604E-3,8.280791E-1,7.422455E-2,5.0708073E-1,6.8307887E-3,5.066481E-2,-3.2320637E-2,1.8983593E-2,1.4348082E-3,1.9816356E-2,-1.961392E-2,-6.0753025E-2,-1.974684E-2,1.0661296E-2,5.172453E-2,6.149353E-4,-1.1980402E-3,5.92344E-3,5.2590758E-2,3.0137101E-2,-2.2970734E-2,1.6692074E-2,4.128824E-2,1.8625049E-2],"categories":[],"categories_nodes":[],"categories_segments":[],"categories_sizes":[],"default_left":[0,0,0,0,0,0,0,0,0,0,0,0,0,0,0,0,0,0,0,0,0,0,0,0,0,0,0,0,0,0,0,0,0,0,0,0,0,0,0,0,0,0,0,0,0,0,0],"id":21,"left_children":[1,3,5,7,9,11,13,15,17,19,21,23,25,-1,-1,27,-1,29,31,33,35,37,39,-1,41,43,45,-1,-1,-1,-1,-1,-1,-1,-1,-1,-1,-1,-1,-1,-1,-1,-1,-1,-1,-1,-1],"loss_changes":[4.482731E1,3.7659164E1,1.3500393E1,3.7386513E1,7.058203E1,6.8617477E0,4.046996E0,1.547897E1,1.901219E1,5.4423965E1,4.9387672E1,1.6347809E0,8.323715E0,0E0,0E0,7.042938E0,0E0,1.1373126E1,1.5875721E1,7.8579865E0,1.567152E1,1.22842865E1,2.9070324E1,0E0,5.851326E-1,1.055011E1,4.4737206E0,0E0,0E0,0E0,0E0,0E0,0E0,0E0,0E0,0E0,0E0,0E0,0E0,0E0,0E0,0E0,0E0,0E0,0E0,0E0,0E0],"parents":[2147483647,0,0,1,1,2,2,3,3,4,4,5,5,6,6,7,7,8,8,9,9,10,10,11,11,12,12,15,15,17,17,18,18,19,19,20,20,21,21,22,22,24,24,25,25,26,26],"right_children":[2,4,6,8,10,12,14,16,18,20,22,24,26,-1,-1,28,-1,30,32,34,36,38,40,-1,42,44,46,-1,-1,-1,-1,-1,-1,-1,-1,-1,-1,-1,-1,-1,-1,-1,-1,-1,-1,-1,-1],"split_conditions":[2.7693078E-2,-2.6238857E-2,2.8741434E0,-1.81642E-1,-2.1088084E-2,-1.33665E-1,1.0990475E-1,-2.8628623E-2,2.1701E-1,-6.1669856E-2,-1.981075E-2,-4.9180903E0,-2.2991577E-1,3.979031E-3,-4.091559E-2,6.44308E-1,-2.7930543E-2,1.69978E0,-3.44297E-2,-2.4042618E-2,4.3812294E-2,1.59363E-2,1.12321E-1,6.4604604E-3,-3.181784E0,-1.78571E-2,-1.044004E0,6.8307887E-3,5.066481E-2,-3.2320637E-2,1.8983593E-2,1.4348082E-3,1.9816356E-2,-1.961392E-2,-6.0753025E-2,-1.974684E-2,1.0661296E-2,5.172453E-2,6.149353E-4,-1.1980402E-3,5.92344E-3,5.2590758E-2,3.0137101E-2,-2.2970734E-2,1.6692074E-2,4.128824E-2,1.8625049E-2],"split_indices":[15,15,10,5,15,5,11,15,1,12,15,11,12,0,0,2,0,2,15,15,12,6,5,0,10,4,10,0,0,0,0,0,0,0,0,0,0,0,0,0,0,0,0,0,0,0,0],"split_type":[0,0,0,0,0,0,0,0,0,0,0,0,0,0,0,0,0,0,0,0,0,0,0,0,0,0,0,0,0,0,0,0,0,0,0,0,0,0,0,0,0,0,0,0,0,0,0],"sum_hessian":[1.7642645E4,1.7366143E4,2.7650314E2,6.34251E2,1.673189E4,2.6048865E2,1.6014492E1,9.751698E1,5.36734E2,2.7865314E2,1.6453238E4,5.7474087E1,2.0301457E2,6.9073305E0,9.1071615E0,9.140754E1,6.1094413E0,5.5984837E1,4.8074915E2,1.0310904E2,1.7554411E2,7.084505E1,1.6382393E4,6.3092756E0,5.116481E1,7.239021E1,1.3062436E2,1.2632134E1,7.8775406E1,4.3985947E1,1.199889E1,2.696329E2,2.1111624E2,1.8490963E1,8.461807E1,1.1025372E2,6.529038E1,5.4692013E1,1.6153032E1,1.4798362E4,1.5840308E3,2.087939E1,3.028542E1,2.2557817E1,4.9832394E1,3.46311E1,9.599326E1],"tree_param":{"num_deleted":"0","num_feature":"17","num_nodes":"47","size_leaf_vector":"1"}},{"base_weights":[-5.15976E-3,5.5118896E-2,-4.349624E-2,6.9107294E-1,4.684536E-2,-5.5963315E-2,1.071021E-1,8.480131E-1,-9.4892964E-2,-2.4876136E-2,1.1761861E-1,-3.232458E-2,-1.5553983E-1,3.9084876E-1,3.804484E-2,-8.188682E-3,9.5589817E-1,-2.3217572E-2,8.253443E-3,-6.416614E-3,-8.751338E-1,2.1184753E-1,2.4832139E-2,-6.931336E-2,4.3529738E-2,4.9674714E-1,-1.7101537E-1,-2.9952458E-1,4.928879E-1,1.4141956E-1,-1.3499169E-1,5.59069E-2,2.9594366E-2,-1.109873E-2,7.1674923E-4,-4.992574E-2,2.0417113E-2,3.053927E-4,1.5942644E-2,-4.7643348E-3,6.2930784E-3,1.2164759E-3,-6.9400505E-3,4.4854884E-3,-9.322467E-3,-1.2798574E-3,3.9317574E-2,-1.2511398E-2,-4.623068E-3,-3.2976843E-2,1.1902092E-2,3.209714E-2,7.17572E-3,9.341216E-3,-3.402413E-2,1.1569477E-2,-1.0970799E-2],"categories":[],"categories_nodes":[],"categories_segments":[],"categories_sizes":[],"default_left":[0,0,0,0,0,0,0,0,0,0,0,0,0,0,0,0,0,0,0,0,0,0,0,0,0,0,0,0,0,0,0,0,0,0,0,0,0,0,0,0,0,0,0,0,0,0,0,0,0,0,0,0,0,0,0,0,0],"id":22,"left_children":[1,3,5,7,9,11,13,15,17,19,21,23,25,27,29,-1,31,-1,-1,33,35,37,39,41,43,45,47,49,51,53,55,-1,-1,-1,-1,-1,-1,-1,-1,-1,-1,-1,-1,-1,-1,-1,-1,-1,-1,-1,-1,-1,-1,-1,-1,-1,-1],"loss_changes":[4.0676174E1,3.5549088E1,2.0199373E1,1.125729E1,3.4334595E1,2.3310013E1,1.5837448E1,8.696434E0,1.8140486E0,5.2168255E1,2.9626434E1,2.2592108E1,1.9224434E1,1.1593542E1,1.1913381E1,0E0,1.769989E0,0E0,0E0,1.47998705E1,1.2298401E1,3.6941795E1,2.0908693E1,3.5288723E1,2.7958937E1,7.058997E0,1.1367794E1,4.6061096E0,6.7095985E0,1.5616486E1,7.7489414E0,0E0,0E0,0E0,0E0,0E0,0E0,0E0,0E0,0E0,0E0,0E0,0E0,0E0,0E0,0E0,0E0,0E0,0E0,0E0,0E0,0E0,0E0,0E0,0E0,0E0,0E0],"parents":[2147483647,0,0,1,1,2,2,3,3,4,4,5,5,6,6,7,7,8,8,9,9,10,10,11,11,12,12,13,13,14,14,16,16,19,19,20,20,21,21,22,22,23,23,24,24,25,25,26,26,27,27,28,28,29,29,30,30],"right_children":[2,4,6,8,10,12,14,16,18,20,22,24,26,28,30,-1,32,-1,-1,34,36,38,40,42,44,46,48,50,52,54,56,-1,-1,-1,-1,-1,-1,-1,-1,-1,-1,-1,-1,-1,-1,-1,-1,-1,-1,-1,-1,-1,-1,-1,-1,-1,-1],"split_conditions":[-7.537556E-1,-2.49395E-1,1.12321E-1,-8.938449E-1,1.0855043E-3,1.3141772E0,4.4114247E-1,-1.4556072E0,7.076547E-2,9.4269146E-4,1.12359E-2,3.987135E-3,1.2957639E-2,-1.6529064E0,4.3845106E-2,-8.188682E-3,-2.7157634E-3,-2.3217572E-2,8.253443E-3,-1.3603557E0,2.383817E0,-4.8207042E-1,1.50362E-2,-4.426431E-3,4.4775784E-2,1.8684622E0,5.90398E-2,4.8889086E-2,2.4888594E0,1.5635721E-2,1.60009E-2,5.59069E-2,2.9594366E-2,-1.109873E-2,7.1674923E-4,-4.992574E-2,2.0417113E-2,3.053927E-4,1.5942644E-2,-4.7643348E-3,6.2930784E-3,1.2164759E-3,-6.9400505E-3,4.4854884E-3,-9.322467E-3,-1.2798574E-3,3.9317574E-2,-1.2511398E-2,-4.623068E-3,-3.2976843E-2,1.1902092E-2,3.209714E-2,7.17572E-3,9.341216E-3,-3.402413E-2,1.1569477E-2,-1.0970799E-2],"split_indices":[9,5,5,9,15,10,11,9,14,15,6,15,13,11,13,0,15,0,0,9,10,11,3,15,14,10,5,14,10,15,4,0,0,0,0,0,0,0,0,0,0,0,0,0,0,0,0,0,0,0,0,0,0,0,0,0,0],"split_type":[0,0,0,0,0,0,0,0,0,0,0,0,0,0,0,0,0,0,0,0,0,0,0,0,0,0,0,0,0,0,0,0,0,0,0,0,0,0,0,0,0,0,0,0,0,0,0,0,0,0,0,0,0,0,0,0,0],"sum_hessian":[1.7600535E4,6.83677E3,1.0763766E4,8.49058E1,6.751864E3,9.945055E3,8.1871075E2,7.117249E1,1.373331E1,3.3506018E3,3.401262E3,8.0433037E3,1.9017509E3,1.570117E2,6.6169904E2,6.31138E0,6.4861115E1,5.81703E0,7.91628E0,3.2819521E3,6.864969E1,1.6835673E3,1.7176948E3,5.4113403E3,2.6319636E3,4.188327E1,1.8598676E3,1.9089012E1,1.3792268E2,4.1626865E2,2.454304E2,4.104868E1,2.3812433E1,2.8861844E2,2.9933337E3,6.3389633E1,5.260056E0,5.783526E2,1.1052147E3,7.825031E2,9.3519165E2,2.3025217E3,3.1088184E3,2.1946665E3,4.3729724E2,1.4973351E1,2.6909918E1,9.2070624E2,9.391613E2,1.1717825E1,7.3711863E0,9.449984E1,4.342285E1,3.965174E2,1.9751272E1,4.4201675E1,2.0122873E2],"tree_param":{"num_deleted":"0","num_feature":"17","num_nodes":"57","size_leaf_vector":"1"}},{"base_weights":[-1.9270972E-3,-1.0790525E-2,2.4270152E-1,-2.298989E-3,-5.338018E-1,3.9703077E-1,-5.121479E-2,-1.4298884E-2,2.4535836E-1,-7.2673225E-1,-0E0,2.971484E-1,7.5112265E-1,3.7148976E-1,-4.8021668E-1,2.238202E-1,-2.4121419E-2,4.2892897E-1,3.4411687E-2,-9.105668E-1,-1.5035602E-1,-7.540158E-1,3.967865E-1,3.6340857E-1,-4.5998413E-2,8.776457E-1,3.272196E-2,1.1597338E-2,6.9622076E-1,-1.0006473E0,3.0119209E-2,3.2659452E-2,4.332445E-3,-3.4663998E-2,-8.789257E-4,3.8732223E-2,1.3447249E-2,2.2291942E-2,-5.230248E-3,-3.7064075E-2,-5.8944006E-2,3.56591E-2,-1.7861422E-2,-4.9548738E-2,-0E0,3.8801324E-2,-1.9428952E-2,-2.1470733E-2,1.968173E-2,-2.3958964E-2,2.5647396E-2,-0E0,4.8952572E-2,-2.3281006E-2,2.4511678E-2,-3.553258E-2,9.815769E-3,3.922722E-2,4.912054E-3,-7.5913735E-2,-2.1029009E-2,2.3177294E-2,-1.6702525E-2],"categories":[],"categories_nodes":[],"categories_segments":[],"categories_sizes":[],"default_left":[0,0,0,0,0,0,0,0,0,0,0,0,0,0,0,0,0,0,0,0,0,0,0,0,0,0,0,0,0,0,0,0,0,0,0,0,0,0,0,0,0,0,0,0,0,0,0,0,0,0,0,0,0,0,0,0,0,0,0,0,0,0,0],"id":23,"left_children":[1,3,5,7,9,11,13,15,17,19,21,23,25,27,29,31,33,35,37,39,41,43,45,47,49,51,53,55,57,59,61,-1,-1,-1,-1,-1,-1,-1,-1,-1,-1,-1,-1,-1,-1,-1,-1,-1,-1,-1,-1,-1,-1,-1,-1,-1,-1,-1,-1,-1,-1,-1,-1],"loss_changes":[3.8079746E1,7.5236206E1,2.8063389E1,4.9619247E1,2.7699875E1,1.3315468E1,3.8863644E1,3.724822E1,2.9613422E1,2.0226654E1,2.2881666E1,7.455879E0,7.346199E0,1.2175405E1,2.8883953E1,3.66567E1,6.67596E1,2.1797203E1,2.099237E1,4.0796204E0,9.451379E0,5.023758E0,1.5602743E1,6.7714996E0,1.3127691E1,6.653061E0,4.029316E0,7.183585E0,2.3444958E0,1.3778286E1,9.10746E0,0E0,0E0,0E0,0E0,0E0,0E0,0E0,0E0,0E0,0E0,0E0,0E0,0E0,0E0,0E0,0E0,0E0,0E0,0E0,0E0,0E0,0E0,0E0,0E0,0E0,0E0,0E0,0E0,0E0,0E0,0E0,0E0],"parents":[2147483647,0,0,1,1,2,2,3,3,4,4,5,5,6,6,7,7,8,8,9,9,10,10,11,11,12,12,13,13,14,14,15,15,16,16,17,17,18,18,19,19,20,20,21,21,22,22,23,23,24,24,25,25,26,26,27,27,28,28,29,29,30,30],"right_children":[2,4,6,8,10,12,14,16,18,20,22,24,26,28,30,32,34,36,38,40,42,44,46,48,50,52,54,56,58,60,62,-1,-1,-1,-1,-1,-1,-1,-1,-1,-1,-1,-1,-1,-1,-1,-1,-1,-1,-1,-1,-1,-1,-1,-1,-1,-1,-1,-1,-1,-1,-1,-1],"split_conditions":[2.0259121E-2,1.6867293E-2,-9.5656954E-2,1.271645E-2,1.8694185E-2,3.4581754E-1,2.394834E-2,-2.6238857E-2,1.435321E-2,4.7985777E-2,-1.28353E-1,-1.3390807E-2,-1.7452116E-1,3.405652E-2,2.7693078E-2,-1.12441E-1,-2.2741556E-2,7.17699E-1,-1.9812007E-1,1.7824015E-2,-1.224735E9,-4.33213E-2,4.09756E-3,2.43686E-1,2.7693078E-2,-1.4798837E0,9.341E7,-3.16831E9,1.3088655E0,-6.25011E-3,3.19991E-2,3.2659452E-2,4.332445E-3,-3.4663998E-2,-8.789257E-4,3.8732223E-2,1.3447249E-2,2.2291942E-2,-5.230248E-3,-3.7064075E-2,-5.8944006E-2,3.56591E-2,-1.7861422E-2,-4.9548738E-2,-0E0,3.8801324E-2,-1.9428952E-2,-2.1470733E-2,1.968173E-2,-2.3958964E-2,2.5647396E-2,-0E0,4.8952572E-2,-2.3281006E-2,2.4511678E-2,-3.553258E-2,9.815769E-3,3.922722E-2,4.912054E-3,-7.5913735E-2,-2.1029009E-2,2.3177294E-2,-1.6702525E-2],"split_indices":[15,15,11,15,15,10,15,15,15,13,0,12,11,13,15,4,15,2,12,15,16,3,3,2,15,11,16,16,11,3,3,0,0,0,0,0,0,0,0,0,0,0,0,0,0,0,0,0,0,0,0,0,0,0,0,0,0,0,0,0,0,0,0],"split_type":[0,0,0,0,0,0,0,0,0,0,0,0,0,0,0,0,0,0,0,0,0,0,0,0,0,0,0,0,0,0,0,0,0,0,0,0,0,0,0,0,0,0,0,0,0,0,0,0,0,0,0,0,0,0,0,0,0,0,0,0,0,0,0],"sum_hessian":[1.7611512E4,1.6999537E4,6.119746E2,1.6730863E4,2.6867508E2,4.0192944E2,2.1004515E2,1.5961379E4,7.6948315E2,1.9648387E2,7.2191216E1,3.174683E2,8.446114E1,1.05347084E2,1.04698074E2,6.285883E2,1.5332791E4,4.0906686E2,3.6041626E2,1.4743312E2,4.9050747E1,2.448054E1,4.771067E1,2.6721017E2,5.0258114E1,7.0844795E1,1.3616344E1,5.168114E1,5.3665947E1,5.1370083E1,5.3327988E1,1.4949026E2,4.7909802E2,1.4569676E2,1.5187095E4,1.2599346E2,2.8307343E2,9.081802E1,2.6959824E2,9.615537E1,5.127775E1,8.06665E0,4.0984097E1,1.8446404E1,6.0341372E0,3.2619625E1,1.5091045E1,8.235626E0,2.5897455E2,2.897927E1,2.1278845E1,7.3675814E0,6.347722E1,5.977294E0,7.63905E0,8.814623E0,4.2866516E1,4.5487198E1,8.178749E0,2.498116E1,2.6388922E1,2.4726398E1,2.860159E1],"tree_param":{"num_deleted":"0","num_feature":"17","num_nodes":"63","size_leaf_vector":"1"}},{"base_weights":[-9.85371E-5,-4.1620824E-1,5.473002E-3,-5.5720836E-2,-6.1999327E-1,-7.0806732E-3,1.9734283E-1,-5.084412E-1,1.4624691E-1,-5.1342756E-1,-6.148974E-2,-4.696494E-2,4.4580247E-2,2.6187098E-1,-7.970021E-2,-3.6946293E-2,-5.2735157E-4,3.1728572E-1,-3.4454662E-1,7.853225E-2,-5.9265393E-1,4.014118E-2,-1.1740589E-1,4.5043024E-1,2.0529857E-2,2.1436153E-1,6.39092E-1,-1.7916195E-1,4.551612E-1,2.0857956E-2,-9.638307E-3,-3.479093E-2,-0E0,-1.6091924E-2,2.2996925E-2,-4.8946876E-2,-2.2270929E-2,-2.2045285E-3,8.478334E-3,-2.7883762E-2,-3.6198818E-3,5.004185E-2,1.6476406E-2,-1.1642026E-2,1.9770055E-3,2.0876994E-2,5.777111E-3,4.1423E-2,5.3445604E-3,1.7131595E-2,-1.5801642E-2,4.727732E-2,1.6212035E-3],"categories":[],"categories_nodes":[],"categories_segments":[],"categories_sizes":[],"default_left":[0,0,0,0,0,0,0,0,0,0,0,0,0,0,0,0,0,0,0,0,0,0,0,0,0,0,0,0,0,0,0,0,0,0,0,0,0,0,0,0,0,0,0,0,0,0,0,0,0,0,0,0,0],"id":24,"left_children":[1,3,5,7,9,11,13,15,17,19,-1,21,23,25,27,-1,-1,29,31,33,35,37,39,41,43,45,47,49,51,-1,-1,-1,-1,-1,-1,-1,-1,-1,-1,-1,-1,-1,-1,-1,-1,-1,-1,-1,-1,-1,-1,-1,-1],"loss_changes":[4.115338E1,1.6823795E1,4.2075977E1,8.357043E0,7.532688E0,3.370854E1,1.9310707E1,2.856583E0,5.367441E0,6.4828033E0,0E0,5.672548E1,6.926289E1,1.4927456E1,1.0810051E1,0E0,0E0,2.6876898E0,1.9054619E0,2.8780398E0,5.030674E0,4.508362E1,1.0087828E2,2.510543E1,3.2322464E1,1.5271179E1,8.965469E0,1.25705385E1,5.9932265E0,0E0,0E0,0E0,0E0,0E0,0E0,0E0,0E0,0E0,0E0,0E0,0E0,0E0,0E0,0E0,0E0,0E0,0E0,0E0,0E0,0E0,0E0,0E0,0E0],"parents":[2147483647,0,0,1,1,2,2,3,3,4,4,5,5,6,6,7,7,8,8,9,9,11,11,12,12,13,13,14,14,17,17,18,18,19,19,20,20,21,21,22,22,23,23,24,24,25,25,26,26,27,27,28,28],"right_children":[2,4,6,8,10,12,14,16,18,20,-1,22,24,26,28,-1,-1,30,32,34,36,38,40,42,44,46,48,50,52,-1,-1,-1,-1,-1,-1,-1,-1,-1,-1,-1,-1,-1,-1,-1,-1,-1,-1,-1,-1,-1,-1,-1,-1],"split_conditions":[1.25257E-1,-6.61157E-3,7.03319E-1,-1.7823162E0,3.4622364E-2,2.255101E-3,2.42225E-1,1.931637E-2,-1.2858737E-1,-3.486055E-3,-6.148974E-2,-4.426431E-3,2.557018E-3,1.13249E-1,3.81129E-1,-3.6946293E-2,-5.2735157E-4,3.2697576E-3,3.0656E-2,1.16968E-3,-7.663494E-4,-8.954639E-3,-3.6932384E-3,2.3144877E-3,-4.21931E-2,-4.15392E-3,2.2803075E0,-4.23729E-2,5.84794E-1,2.0857956E-2,-9.638307E-3,-3.479093E-2,-0E0,-1.6091924E-2,2.2996925E-2,-4.8946876E-2,-2.2270929E-2,-2.2045285E-3,8.478334E-3,-2.7883762E-2,-3.6198818E-3,5.004185E-2,1.6476406E-2,-1.1642026E-2,1.9770055E-3,2.0876994E-2,5.777111E-3,4.1423E-2,5.3445604E-3,1.7131595E-2,-1.5801642E-2,4.727732E-2,1.6212035E-3],"split_indices":[2,3,1,8,14,15,6,14,10,7,0,15,15,3,5,0,0,8,0,3,7,15,15,15,3,15,10,4,6,0,0,0,0,0,0,0,0,0,0,0,0,0,0,0,0,0,0,0,0,0,0,0,0],"split_type":[0,0,0,0,0,0,0,0,0,0,0,0,0,0,0,0,0,0,0,0,0,0,0,0,0,0,0,0,0,0,0,0,0,0,0,0,0,0,0,0,0,0,0,0,0,0,0,0,0,0,0,0,0],"sum_hessian":[1.765844E4,2.325534E2,1.7425887E4,8.579175E1,1.4676166E2,1.6355122E4,1.070764E3,2.6293768E1,5.949798E1,1.2876347E2,1.7998186E1,9.235111E3,7.1200103E3,8.700326E2,2.007314E2,1.6625212E1,9.668556E0,4.5401585E1,1.4096392E1,1.445628E1,1.1430719E2,4.1263267E3,5.108785E3,3.9517587E2,6.7248345E3,7.7667554E2,9.335706E1,1.711665E2,2.956489E1,3.909159E1,6.3099933E0,5.8822594E0,8.214132E0,6.565621E0,7.890659E0,2.7490417E1,8.681677E1,2.4980315E3,1.628295E3,4.706835E2,4.6381016E3,6.780446E1,3.273714E2,4.6594043E2,6.258894E3,2.5037645E2,5.262991E2,6.7342415E1,2.6014645E1,3.41846E1,1.3698192E2,1.1994623E1,1.7570267E1],"tree_param":{"num_deleted":"0","num_feature":"17","num_nodes":"53","size_leaf_vector":"1"}},{"base_weights":[8.8159053E-4,4.243821E-2,-5.471517E-2,6.287481E-1,3.60466E-2,5.956102E-2,-8.6832896E-2,-7.832292E-3,7.087135E-1,-1.700678E-1,5.0584868E-2,-3.497638E-1,9.049496E-2,-1.0260973E-1,9.568119E-2,7.904813E-1,-0E0,-3.1554088E-1,-7.943263E-2,-1.0048737E-1,6.654927E-2,-1.0648583E0,-1.9953865E-1,2.4578078E-1,2.0955682E-2,-4.9733177E-2,-1.5517324E-1,4.239313E-1,2.3202932E-2,3.638974E-3,4.3963023E-2,-1.7529715E-2,1.5644617E-2,-1.4335831E-2,-2.1173384E-4,-2.3710073E-3,-4.0224127E-2,-6.508844E-2,3.436166E-3,-1.4069656E-2,-6.385746E-2,5.6782984E-3,-2.350765E-2,1.5038716E-3,1.7772451E-2,2.9372318E-2,5.1020895E-4,-8.468035E-4,-9.547002E-3,3.2034197E-3,-8.840008E-3,2.6658937E-2,-3.140436E-2,7.7474015E-3,-6.2602544E-3],"categories":[],"categories_nodes":[],"categories_segments":[],"categories_sizes":[],"default_left":[0,0,0,0,0,0,0,0,0,0,0,0,0,0,0,0,0,0,0,0,0,0,0,0,0,0,0,0,0,0,0,0,0,0,0,0,0,0,0,0,0,0,0,0,0,0,0,0,0,0,0,0,0,0,0],"id":25,"left_children":[1,3,5,7,9,11,13,-1,15,17,19,21,23,25,27,29,-1,31,33,35,37,39,41,43,45,47,49,51,53,-1,-1,-1,-1,-1,-1,-1,-1,-1,-1,-1,-1,-1,-1,-1,-1,-1,-1,-1,-1,-1,-1,-1,-1,-1,-1],"loss_changes":[4.0759777E1,3.748017E1,2.7705809E1,7.279438E0,2.9911842E1,2.0857147E1,1.6988155E1,0E0,6.053829E0,8.412603E0,2.252597E1,1.1337798E1,1.6475992E1,1.4964115E1,1.0873798E1,5.080612E0,0E0,5.7310066E0,6.2347794E0,3.2770035E1,2.4707916E1,1.66078E0,8.621736E0,1.099E1,6.190591E0,1.2453184E1,1.2954926E1,1.0178943E1,7.6032524E0,0E0,0E0,0E0,0E0,0E0,0E0,0E0,0E0,0E0,0E0,0E0,0E0,0E0,0E0,0E0,0E0,0E0,0E0,0E0,0E0,0E0,0E0,0E0,0E0,0E0,0E0],"parents":[2147483647,0,0,1,1,2,2,3,3,4,4,5,5,6,6,8,8,9,9,10,10,11,11,12,12,13,13,14,14,15,15,17,17,18,18,19,19,20,20,21,21,22,22,23,23,24,24,25,25,26,26,27,27,28,28],"right_children":[2,4,6,8,10,12,14,-1,16,18,20,22,24,26,28,30,-1,32,34,36,38,40,42,44,46,48,50,52,54,-1,-1,-1,-1,-1,-1,-1,-1,-1,-1,-1,-1,-1,-1,-1,-1,-1,-1,-1,-1,-1,-1,-1,-1,-1,-1],"split_conditions":[-3.861334E-1,-2.49395E-1,-4.60424E-2,1.6129032E-2,-8.3230215E-1,-1.64006E-1,1.12321E-1,-7.832292E-3,8.9856887E-1,-6.428879E-4,-1.37446E-1,5.27895E-1,6.44308E-1,8.43932E-3,7.5269E-2,7.1416736E-2,-0E0,1.39619E-1,3.47283E-1,-5.76439E-2,-1.6637279E-2,6.557377E-2,-4.310161E-3,-7.34624E-2,8.062702E-3,2.245852E0,-2.33508E-2,2.25896E-1,2.7213547E-1,3.638974E-3,4.3963023E-2,-1.7529715E-2,1.5644617E-2,-1.4335831E-2,-2.1173384E-4,-2.3710073E-3,-4.0224127E-2,-6.508844E-2,3.436166E-3,-1.4069656E-2,-6.385746E-2,5.6782984E-3,-2.350765E-2,1.5038716E-3,1.7772451E-2,2.9372318E-2,5.1020895E-4,-8.468035E-4,-9.547002E-3,3.2034197E-3,-8.840008E-3,2.6658937E-2,-3.140436E-2,7.7474015E-3,-6.2602544E-3],"split_indices":[9,5,6,14,8,5,5,0,8,7,0,2,2,5,6,13,0,6,2,6,7,13,7,0,14,9,3,5,9,0,0,0,0,0,0,0,0,0,0,0,0,0,0,0,0,0,0,0,0,0,0,0,0,0,0],"split_type":[0,0,0,0,0,0,0,0,0,0,0,0,0,0,0,0,0,0,0,0,0,0,0,0,0,0,0,0,0,0,0,0,0,0,0,0,0,0,0,0,0,0,0,0,0,0,0,0,0,0,0,0,0,0,0],"sum_hessian":[1.7640412E4,1.0100278E4,7.540135E3,1.0597625E2,9.994302E3,1.6504585E3,5.8896763E3,9.03794E0,9.693831E1,6.5482446E2,9.339478E3,1.1338223E2,1.5370763E3,5.424397E3,4.652792E2,8.721675E1,9.721561E0,2.4734549E2,4.0747894E2,8.886081E2,8.450869E3,1.69921E1,9.639014E1,4.716319E2,1.0654443E3,2.7108289E3,2.7135684E3,8.115153E1,3.841277E2,1.0621629E1,7.659512E1,2.3586882E2,1.1476669E1,1.0520512E2,3.0227383E2,8.289655E2,5.964255E1,1.1144476E1,8.439725E3,5.1163487E0,1.18757515E1,4.4368355E1,5.2021782E1,1.6136177E2,3.1027014E2,1.6980291E1,1.0484641E3,2.2045698E3,5.0625894E2,2.4121535E2,2.472353E3,7.484125E1,6.3102813E0,2.0522543E2,1.7890224E2],"tree_param":{"num_deleted":"0","num_feature":"17","num_nodes":"55","size_leaf_vector":"1"}},{"base_weights":[-2.7898047E-4,-4.2376537E-2,5.24173E-2,-4.2197883E-1,-3.456161E-2,1.6142188E-1,1.6788853E-2,1.3492872E-1,-5.4965425E-1,-2.3637308E-2,-2.9118228E-1,3.9474234E-2,2.8643942E-1,7.107225E-2,-6.8859376E-2,5.125835E-1,-5.194316E-1,1.613884E-2,-5.966101E-1,7.045611E-1,-2.6878884E-2,6.267148E-1,-3.21996E-1,5.75367E-1,-1.1452813E-2,6.0863185E-1,1.284183E-1,2.706243E-1,2.7744336E-2,5.6650597E-1,-8.622986E-2,4.0351573E-2,-1.2476335E-2,-4.294629E-2,-0E0,-3.6008034E-2,-1.0003474E-2,-0E0,4.194009E-2,-3.3422026E-3,1.2457742E-3,3.1402868E-3,4.948173E-2,-2.424216E-2,-5.574436E-3,5.044005E-2,1.8681908E-2,-3.0933244E-3,1.9568669E-2,1.605667E-2,3.594286E-2,-4.2481583E-2,7.830779E-3,-2.4801588E-3,2.4165181E-2,7.331317E-4,2.5063077E-2,3.8336087E-2,-8.990058E-3,5.9526097E-3,-6.390657E-3],"categories":[],"categories_nodes":[],"categories_segments":[],"categories_sizes":[],"default_left":[0,0,0,0,0,0,0,0,0,0,0,0,0,0,0,0,0,0,0,0,0,0,0,0,0,0,0,0,0,0,0,0,0,0,0,0,0,0,0,0,0,0,0,0,0,0,0,0,0,0,0,0,0,0,0,0,0,0,0,0,0],"id":26,"left_children":[1,3,5,7,9,11,13,15,17,19,21,23,25,27,29,31,33,-1,35,37,39,41,43,45,47,49,51,53,55,57,59,-1,-1,-1,-1,-1,-1,-1,-1,-1,-1,-1,-1,-1,-1,-1,-1,-1,-1,-1,-1,-1,-1,-1,-1,-1,-1,-1,-1,-1,-1],"loss_changes":[3.902953E1,2.877608E1,3.0233057E1,1.4288494E1,2.6721767E1,2.9085339E1,2.7400038E1,9.776532E0,7.098324E0,2.1428288E1,1.1272079E1,2.6938576E1,4.7623886E1,3.1051146E1,2.505135E1,6.3404737E0,2.9069133E0,0E0,6.7759438E0,3.7384567E0,1.8999989E1,1.970572E0,1.2580688E1,6.040798E0,1.8011383E1,8.8300705E0,1.7516861E1,4.3972603E1,1.8128107E1,9.57132E0,1.902382E1,0E0,0E0,0E0,0E0,0E0,0E0,0E0,0E0,0E0,0E0,0E0,0E0,0E0,0E0,0E0,0E0,0E0,0E0,0E0,0E0,0E0,0E0,0E0,0E0,0E0,0E0,0E0,0E0,0E0,0E0],"parents":[2147483647,0,0,1,1,2,2,3,3,4,4,5,5,6,6,7,7,8,8,9,9,10,10,11,11,12,12,13,13,14,14,15,15,16,16,18,18,19,19,20,20,21,21,22,22,23,23,24,24,25,25,26,26,27,27,28,28,29,29,30,30],"right_children":[2,4,6,8,10,12,14,16,18,20,22,24,26,28,30,32,34,-1,36,38,40,42,44,46,48,50,52,54,56,58,60,-1,-1,-1,-1,-1,-1,-1,-1,-1,-1,-1,-1,-1,-1,-1,-1,-1,-1,-1,-1,-1,-1,-1,-1,-1,-1,-1,-1,-1,-1],"split_conditions":[3.71698E-1,-1.377535E0,-1.0585377E0,-1.95389E7,6E-2,-1.7951561E-4,4.71311E-2,-1.4138832E0,-5.866504E-3,-8.40918E-2,-1.40354E-1,-1.5313718E0,9.712223E-4,-2.441237E-1,-1.86667E-1,1.27773E0,1.91506E-3,1.613884E-2,4.4028798E-1,2.6119404E-2,2.255101E-3,2.2175E7,3.2876287E-2,-7.085E7,1.76023E9,4.73095E-1,8.717194E-3,-1.431921E0,1.00349E-1,5.999899E-1,-1.8253526E-2,4.0351573E-2,-1.2476335E-2,-4.294629E-2,-0E0,-3.6008034E-2,-1.0003474E-2,-0E0,4.194009E-2,-3.3422026E-3,1.2457742E-3,3.1402868E-3,4.948173E-2,-2.424216E-2,-5.574436E-3,5.044005E-2,1.8681908E-2,-3.0933244E-3,1.9568669E-2,1.605667E-2,3.594286E-2,-4.2481583E-2,7.830779E-3,-2.4801588E-3,2.4165181E-2,7.331317E-4,2.5063077E-2,3.8336087E-2,-8.990058E-3,5.9526097E-3,-6.390657E-3],"split_indices":[1,9,9,16,14,7,14,9,7,3,4,11,7,12,4,2,3,0,8,14,15,16,12,16,16,1,14,11,3,8,15,0,0,0,0,0,0,0,0,0,0,0,0,0,0,0,0,0,0,0,0,0,0,0,0,0,0,0,0,0,0],"split_type":[0,0,0,0,0,0,0,0,0,0,0,0,0,0,0,0,0,0,0,0,0,0,0,0,0,0,0,0,0,0,0,0,0,0,0,0,0,0,0,0,0,0,0,0,0,0,0,0,0,0,0,0,0,0,0,0,0,0,0,0,0],"sum_hessian":[1.7591934E4,9.78492E3,7.807013E3,1.9395131E2,9.590968E3,1.9179585E3,5.8890547E3,3.5420547E1,1.5853076E2,9.203316E3,3.8765128E2,9.742565E2,9.437021E2,3.608307E3,2.2807478E3,2.3218027E1,1.2202521E1,6.9527936E0,1.5157796E2,3.8185795E1,9.165131E3,1.0807495E1,3.7684378E2,8.361532E1,8.906412E2,3.0762073E2,6.3608136E2,6.397638E2,2.9685432E3,5.824627E1,2.2225015E3,1.713569E1,6.0823374E0,7.1343293E0,5.0681915E0,1.1336393E2,3.821403E1,6.519892E0,3.1665903E1,5.1784487E3,3.9866821E3,5.690052E0,5.117443E0,2.0966586E2,1.671779E2,2.3227863E1,6.038746E1,7.941832E2,9.6457924E1,8.868043E1,2.189403E2,1.5694858E1,6.203865E2,2.5499892E2,3.8476486E2,2.891771E3,7.677214E1,4.6410686E1,1.1835583E1,3.717166E2,1.8507849E3],"tree_param":{"num_deleted":"0","num_feature":"17","num_nodes":"61","size_leaf_vector":"1"}},{"base_weights":[-1.9001797E-3,-7.421111E-3,3.5376847E-1,1.20879775E-2,-9.682274E-2,6.62824E-1,2.0107755E-1,4.4897974E-2,-4.183741E-2,1.3741699E-1,-1.18165635E-1,-8.343625E-2,7.781611E-1,3.578187E-1,-7.581939E-2,-1.9831782E-2,1.2244607E-1,2.3016168E-1,-6.69827E-2,3.5000944E-1,-7.266255E-2,-3.1511766E-1,-9.870095E-2,-2.5405725E-2,1.6369274E-2,8.8886446E-1,1.4698152E-1,-1.292266E-1,5.59364E-1,-3.514581E-1,1.6187492E-1,-6.32097E-4,-4.4403266E-2,3.161445E-2,4.46371E-3,1.4925298E-2,-2.8260473E-2,-2.6754597E-2,-2.500888E-3,2.58926E-2,-1.0670035E-2,-3.8198765E-2,1.1794802E-3,-8.561546E-3,-3.0261591E-2,7.7286446E-3,-5.726574E-3,1.1636384E-2,4.6699833E-2,-7.579879E-3,2.8330034E-2,-2.1377407E-2,1.1868729E-2,-2.5682875E-3,3.961959E-2,-3.5400707E-2,-2.105058E-3,2.1713113E-2,-1.3172167E-2],"categories":[],"categories_nodes":[],"categories_segments":[],"categories_sizes":[],"default_left":[0,0,0,0,0,0,0,0,0,0,0,0,0,0,0,0,0,0,0,0,0,0,0,0,0,0,0,0,0,0,0,0,0,0,0,0,0,0,0,0,0,0,0,0,0,0,0,0,0,0,0,0,0,0,0,0,0,0,0],"id":27,"left_children":[1,3,5,7,9,11,13,15,17,19,21,23,25,27,29,31,33,35,37,39,41,43,45,-1,-1,47,49,51,53,55,57,-1,-1,-1,-1,-1,-1,-1,-1,-1,-1,-1,-1,-1,-1,